Configuration weight     
0.104306                 
0.321378                 
0.315099                 
0.977274                 
0.977274                 
1.82177                  
1.82473                  
1.39523                  
0.709374                 
0.502401                 
0.984781                 
0.980276                 
1.31903                  
2.13125                  
3.04887                  
2.58453                  
2.58421                  
2.58453                  
2.58557                  
3.5067                   
3.50798                  
2.57781                  
1.74255                  
1.73947                  
1.06157                  
0.823182                 
0.826755                 
0.823182                 
1.10283                  
1.10065                  
1.09998                  
1.10065                  
1.09998                  
1.50042                  
1.09019                  
1.09086                  
0.716464                 
0.714793                 
0.155431                 
0.157641                 
0.747494                 
0.133164                 
-0.115259                
-0.117792                
0.0578485                
0.060169                 
0.603527                 
1.3947                   
1.84167                  
2.30526                  
2.30356                  
2.77405                  
3.2536                   
3.25552                  
2.33377                  
1.91663                  
1.24867                  
1.91042                  
1.90547                  
1.24813                  
1.90712                  
1.90428                  
2.77301                  
2.31776                  
2.31701                  
1.48525                  
1.13622                  
1.13836                  
1.13622                  
0.838768                 
1.50797                  
1.13484                  
1.13484                  
1.13418                  
1.13484                  
0.682305                 
0.684986                 
0.682305                 
0.684986                 
0.690206                 
1.07662                  
1.39926                  
1.08702                  
1.39003                  
2.14616                  
2.15187                  
2.16138                  
2.57789                  
2.59428                  
2.62111                  
1.94998                  
1.91235                  
1.6136                   
1.65723                  
1.92076                  
2.53907                  
1.93132                  
2.53347                  
1.93596                  
1.72167                  
1.93506                  
1.72173                  
1.9685                   
2.58652                  
3.41882                  
2.57986                  
1.92954                  
2.59313                  
2.24311                  
2.20128                  
1.6222                   
1.90294                  
1.96507                  
1.66855                  
1.54315                  
1.66429                  
1.54315                  
1.46614                  
1.54315                  
1.64139                  
2.18103                  
2.95509                  
2.92588                  
2.90801                  
3.81766                  
4.3013                   
3.35507                  
3.34388                  
2.44596                  
2.44596                  
2.43533                  
2.43533                  
1.62172                  
1.04891                  
1.07012                  
1.04891                  
1.64237                  
1.65816                  
1.03863                  
1.01708                  
0.807224                 
0.738409                 
1.12481                  
1.4448                   
1.43855                  
1.4448                   
1.81867                  
2.67233                  
2.67967                  
1.84837                  
1.51792                  
1.50098                  
1.24355                  
1.23455                  
1.24355                  
1.23455                  
1.75291                  
1.74883                  
1.74658                  
1.74558                  
1.74658                  
2.51061                  
2.9535                   
3.41829                  
3.41926                  
3.89547                  
3.41943                  
3.42041                  
4.37933                  
3.4154                   
2.50156                  
2.50002                  
2.05866                  
2.06                     
1.62658                  
1.21805                  
0.538372                 
0.173789                 
0.167028                 
0.188471                 
0.626185                 
0.631561                 
0.396059                 
0.608794                 
0.377411                 
0.543102                 
0.759712                 
0.522791                 
0.67912                  
0.886442                 
1.48678                  
1.48499                  
1.48444                  
1.25732                  
1.25732                  
1.2586                   
1.25732                  
1.25732                  
1.39744                  
1.39744                  
1.8238                   
1.8238                   
1.82476                  
1.63102                  
1.6334                   
1.63102                  
1.6334                   
1.63773                  
1.47778                  
1.72747                  
1.73451                  
2.26515                  
3.02768                  
3.45969                  
3.90567                  
4.8295                   
4.83364                  
5.30615                  
5.30615                  
5.30194                  
4.86887                  
4.8756                   
5.72785                  
6.66198                  
5.73928                  
6.65787                  
6.18731                  
5.74307                  
6.65102                  
6.18994                  
6.18994                  
5.76824                  
5.10821                  
5.7411                   
6.57107                  
6.14173                  
6.14929                  
6.5536                   
7.4465                   
6.57247                  
6.99185                  
6.98689                  
6.99185                  
7.42617                  
7.42104                  
7.86908                  
8.33559                  
7.87613                  
7.08098                  
6.5861                   
6.58243                  
6.58021                  
6.61393                  
7.119                    
6.80836                  
6.80682                  
6.43754                  
6.82422                  
6.8233                   
7.57152                  
6.79811                  
6.27804                  
6.27925                  
6.27804                  
6.8929                   
6.89379                  
6.17941                  
6.17814                  
6.17738                  
6.17738                  
5.52543                  
5.19516                  
5.19443                  
5.19516                  
5.17065                  
5.55922                  
5.86978                  
5.41271                  
5.56122                  
5.56018                  
5.55957                  
5.55924                  
5.55957                  
5.55924                  
5.7198                   
5.71966                  
5.71966                  
5.7198                   
5.71966                  
5.99164                  
6.59653                  
7.40268                  
7.40268                  
8.29734                  
8.76917                  
8.76918                  
9.73169                  
8.77212                  
8.31411                  
8.31411                  
8.77304                  
9.24864                  
9.73419                  
9.7342                   
8.77189                  
7.86465                  
7.86463                  
7.43265                  
7.02898                  
7.02895                  
7.02898                  
6.32059                  
7.05531                  
7.05531                  
6.63459                  
7.51243                  
7.05362                  
6.61702                  
6.21642                  
6.21674                  
6.21732                  
6.61838                  
6.61777                  
7.05477                  
7.05515                  
7.51567                  
7.05742                  
7.51307                  
7.51307                  
7.51372                  
7.5148                   
8.43824                  
8.43937                  
8.43824                  
8.92126                  
8.9224                   
8.43445                  
8.43445                  
8.43632                  
7.46991                  
6.99353                  
6.52781                  
5.63665                  
5.21824                  
5.23023                  
4.82089                  
4.44537                  
4.43464                  
4.83193                  
4.84324                  
4.06744                  
3.74192                  
4.45574                  
3.71156                  
3.69605                  
3.71156                  
3.12703                  
3.16096                  
2.85252                  
2.91638                  
3.32659                  
3.32659                  
2.99396                  
2.94638                  
3.29309                  
2.70516                  
2.56991                  
2.99926                  
2.70425                  
2.66153                  
2.70425                  
2.47601                  
2.42805                  
2.66343                  
3.28                     
3.26074                  
2.91641                  
2.45225                  
2.42958                  
2.41575                  
2.3906                   
2.82301                  
2.83429                  
2.82301                  
2.38219                  
2.82942                  
2.82261                  
3.58914                  
3.17672                  
3.17672                  
3.18407                  
3.17672                  
4.02552                  
4.03033                  
3.59225                  
3.58454                  
3.57987                  
4.49589                  
4.02473                  
3.13336                  
3.57017                  
3.57486                  
2.70355                  
2.32071                  
1.71924                  
2.3418                   
1.68731                  
1.98704                  
1.97666                  
1.97042                  
2.37652                  
2.3726                   
1.5706                   
1.56724                  
1.56551                  
1.56499                  
1.56551                  
1.14401                  
1.14401                  
0.73108                  
0.736181                 
0.344588                 
-0.253167                
-0.24208                 
-0.497276                
-0.212948                
-0.223874                
0.0923944                
-0.484196                
-0.675782                
-0.413147                
-0.404116                
-0.612542                
-0.321745                
-0.330411                
-0.0176737               
-0.0200863               
-0.0176737               
-0.0200863               
0.824615                 
-0.044358                
-0.434121                
-0.432683                
-1.08038                 
-1.07392                 
-0.746517                
-0.75437                 
-0.344738                
0.105998                 
-0.341913                
-0.350667                
-0.783858                
-0.338133                
-0.338133                
0.128814                 
-0.75877                 
-1.48087                 
-1.13717                 
-1.0993                  
-1.63799                 
-1.55786                 
-1.63799                 
-1.75388                 
-1.66908                 
-1.75388                 
-1.40496                 
-1.06691                 
-1.59582                 
-1.6589                  
-1.59582                 
-1.75829                 
-1.81114                 
-1.75829                 
-1.81114                 
-1.84318                 
-1.86177                 
-1.54483                 
-1.52896                 
-1.82872                 
-1.84717                 
-1.55268                 
-1.75998                 
-1.76575                 
-1.75998                 
-1.76851                 
-1.75548                 
-1.28757                 
-1.26901                 
-1.54917                 
-1.85815                 
-1.89095                 
-1.91                    
-1.78371                 
-1.89903                 
-1.88009                 
-1.786                   
-1.80406                 
-1.81339                 
-1.80406                 
-1.90153                 
-1.90773                 
-1.68601                 
-1.05556                 
-0.643922                
-0.195122                
-1.06611                 
-1.06611                 
-0.635336                
-1.06575                 
-1.46376                 
-1.46617                 
-1.46376                 
-0.636814                
-1.06962                 
-1.06043                 
-1.79964                 
-1.81296                 
-2.27415                 
-2.08882                 
-2.07813                 
-2.34949                 
-2.27469                 
-2.0878                  
-2.07711                 
-2.05642                 
-2.25563                 
-2.2785                  
-2.11169                 
-2.26024                 
-2.27196                 
-2.15601                 
-2.15942                 
-1.64235                 
-1.93966                 
-1.29191                 
-1.91947                 
-1.91324                 
-1.89924                 
-2.08783                 
-2.0602                  
-1.89929                 
-1.85653                 
-1.78701                 
-1.67669                 
-1.52996                 
-1.60895                 
-1.89991                 
-1.95669                 
-1.99117                 
-1.95669                 
-1.71952                 
-1.75012                 
-1.14828                 
-1.4924                  
-1.47185                 
-1.72058                 
-1.18797                 
-0.410405                
0.491985                 
0.96452                  
0.96452                  
0.0555929                
0.065097                 
0.065097                 
0.492533                 
0.926637                 
0.93713                  
0.180171                 
0.913911                 
0.931537                 
0.960458                 
1.80174                  
1.83271                  
1.02066                  
1.3867                   
1.02366                  
0.739641                 
0.849465                 
0.739641                 
0.849465                 
0.580329                 
0.740843                 
1.27691                  
0.719881                 
0.481631                 
0.744408                 
0.922441                 
0.863976                 
1.2058                   
0.863976                 
0.702047                 
1.0702                   
0.702047                 
0.825913                 
1.24613                  
0.842228                 
0.600182                 
0.842228                 
0.600182                 
0.438148                 
0.600182                 
0.667143                 
0.546515                 
0.746023                 
1.41984                  
1.84518                  
1.49471                  
1.4336                   
2.20078                  
2.17505                  
2.15935                  
2.17505                  
1.49028                  
1.52642                  
1.21691                  
1.2849                   
1.39248                  
1.653                    
1.55887                  
1.49972                  
2.12857                  
1.50036                  
1.5595                   
2.17678                  
2.13352                  
2.52885                  
2.98182                  
2.96444                  
2.95387                  
2.07868                  
1.36178                  
0.941365                 
0.946902                 
0.972112                 
1.16423                  
0.856062                 
0.95548                  
0.972746                 
1.00108                  
0.972746                 
0.861273                 
0.843013                 
0.832013                 
0.965391                 
0.975683                 
1.54038                  
0.964643                 
0.954294                 
1.5546                   
0.935703                 
0.685215                 
0.678249                 
0.767662                 
1.27795                  
1.28183                  
0.745481                 
1.29561                  
1.30232                  
0.708707                 
0.723842                 
0.47138                  
0.4542                   
0.615092                 
0.488303                 
0.478211                 
0.472406                 
0.905666                 
0.903265                 
0.390664                 
0.389711                 
0.390664                 
0.393766                 
0.118982                 
0.115423                 
0.489079                 
0.488172                 
0.489079                 
0.488172                 
0.127203                 
0.509421                 
0.107772                 
0.521275                 
0.974815                 
0.974815                 
0.974815                 
0.502116                 
0.0441637                
-0.786613                
-1.4006                  
-0.773282                
-0.769767                
-1.44306                 
-1.66639                 
-1.80503                 
-1.78696                 
-1.61257                 
-1.80763                 
-1.77615                 
-1.72421                 
-1.5125                  
-1.43716                 
-1.60491                 
-1.45202                 
-1.33223                 
-1.05303                 
-0.848673                
-1.05303                 
-0.848673                
-0.845264                
-0.836589                
-0.482564                
-0.86325                 
-0.771988                
-0.519949                
-0.113675                
0.417028                 
1.06881                  
1.06881                  
0.912769                 
1.71974                  
0.912769                 
0.835653                 
1.23888                  
1.27626                  
0.943698                 
1.74046                  
0.943698                 
0.704443                 
1.41843                  
1.2593                   
0.941771                 
1.25746                  
1.16917                  
1.5938                   
2.51433                  
2.04727                  
2.07332                  
1.18793                  
0.366278                 
1.18793                  
1.15666                  
2.05329                  
2.52348                  
3.47221                  
4.44246                  
4.93028                  
4.44269                  
3.47258                  
3.95061                  
3.96448                  
4.93871                  
5.42638                  
4.93852                  
4.93133                  
5.42541                  
4.93082                  
3.95162                  
4.43947                  
4.93257                  
4.94388                  
5.44262                  
5.42953                  
5.92179                  
5.92785                  
6.42035                  
7.41681                  
8.41671                  
7.91591                  
8.41668                  
7.41677                  
7.41677                  
7.41618                  
8.41632                  
8.91761                  
8.91715                  
8.41632                  
8.41795                  
8.91764                  
8.91724                  
7.916                    
7.91647                  
7.91954                  
8.91939                  
8.91761                  
9.41929                  
10.4223                  
10.4219                  
11.4259                  
11.9282                  
11.9282                  
12.4305                  
12.4304                  
11.4259                  
10.9239                  
11.4259                  
10.9239                  
10.9244                  
10.4222                  
10.4222                  
9.9202                   
10.4222                  
11.4261                  
11.4259                  
12.4304                  
13.4352                  
13.4352                  
12.9329                  
12.9328                  
12.4304                  
12.9328                  
12.9331                  
13.9379                  
13.9382                  
13.4362                  
12.4321                  
12.4312                  
12.4307                  
12.4312                  
11.9296                  
11.9287                  
11.9287                  
12.4307                  
11.4263                  
11.4271                  
11.4263                  
10.9247                  
10.9247                  
11.4264                  
10.4226                  
10.4236                  
10.9247                  
10.9247                  
10.9244                  
9.92104                  
10.9244                  
10.4226                  
9.41973                  
9.42048                  
9.9223                   
9.92129                  
9.42011                  
9.42044                  
8.9193                   
8.9193                   
8.4196                   
7.92176                  
8.41967                  
7.91974                  
8.91951                  
9.42051                  
8.91942                  
8.91992                  
8.92241                  
8.42577                  
9.42419                  
9.42914                  
8.92737                  
9.42448                  
9.42889                  
8.4335                   
8.42676                  
7.93267                  
7.4438                   
7.43443                  
7.43374                  
8.427                    
9.42494                  
8.427                    
8.92451                  
7.92798                  
7.43428                  
6.9465                   
5.97061                  
5.5078                   
5.47587                  
6.44872                  
5.47587                  
5.95376                  
4.98569                  
4.04039                  
4.03457                  
4.04035                  
3.13037                  
3.12117                  
4.03451                  
3.12117                  
2.67948                  
3.12208                  
3.12208                  
3.56766                  
3.12086                  
3.12707                  
2.26821                  
1.91871                  
1.20372                  
1.07348                  
0.718509                 
1.42828                  
1.07075                  
1.18404                  
0.574936                 
0.463572                 
0.26709                  
0.428964                 
0.795132                 
0.889952                 
0.445968                 
0.859533                 
1.17323                  
1.67607                  
1.41086                  
0.877252                 
0.989948                 
0.818086                 
0.442451                 
0.306983                 
0.220372                 
0.166147                 
0.1327                   
0.40123                  
0.430506                 
0.235501                 
0.203203                 
0.534735                 
1.23585                  
0.501697                 
0.484776                 
-0.0415913               
-0.0547547               
-0.0623356               
-0.348191                
-0.352687                
-0.354069                
-0.352687                
0.16237                  
-0.17146                 
-0.17146                 
-0.165589                
-0.691692                
-0.452893                
-0.701473                
-0.864415                
-0.771669                
-0.820029                
-0.385746                
-0.845659                
-0.880529                
-0.817765                
-0.806714                
-0.787571                
-0.806714                
-0.951866                
-0.52804                 
-0.972626                
-0.945615                
-0.736277                
-0.767814                
-1.06397                 
-1.02745                 
-0.968093                
-0.650197                
-0.700717                
-0.650197                
-0.845318                
-0.917429                
-1.09812                 
-1.01933                 
-0.827176                
-0.254663                
-0.839692                
-0.243215                
0.179265                 
-0.548654                
-1.02724                 
-0.868543                
-0.395831                
-0.205958                
0.0730981                
-0.343503                
-0.530879                
-0.467593                
-0.161091                
0.272402                 
0.686584                 
0.702399                 
1.27881                  
1.60382                  
1.12518                  
1.14873                  
1.58173                  
2.16671                  
2.05822                  
1.61579                  
2.21559                  
2.92858                  
2.68473                  
3.40781                  
3.16527                  
2.93315                  
2.81034                  
2.04448                  
2.00942                  
2.043                    
2.80933                  
2.38753                  
3.20554                  
2.38753                  
2.38753                  
2.48386                  
2.38357                  
1.99371                  
2.38766                  
3.20562                  
2.38766                  
2.3477                   
3.17917                  
4.07144                  
5.0051                   
5.00819                  
5.00886                  
4.07744                  
4.55757                  
4.14106                  
4.55504                  
5.00049                  
5.9629                   
6.44252                  
6.93074                  
6.93074                  
7.42421                  
7.43096                  
7.42392                  
7.9207                   
7.9208                   
8.41977                  
9.42055                  
9.42118                  
9.4236                   
8.42479                  
8.42113                  
8.92197                  
8.42114                  
8.92052                  
8.42079                  
7.92287                  
7.42368                  
7.42368                  
7.92178                  
8.92075                  
8.92108                  
8.42261                  
8.92371                  
8.92934                  
9.42539                  
8.92388                  
8.9218                   
8.9218                   
8.42306                  
8.42243                  
7.92352                  
7.42646                  
6.4362                   
6.92939                  
5.94267                  
5.94791                  
4.97618                  
4.96811                  
4.97603                  
5.94781                  
5.94305                  
6.43685                  
6.43554                  
6.93199                  
6.92963                  
6.93465                  
6.92961                  
5.94304                  
5.45427                  
6.43547                  
5.45427                  
5.94612                  
5.9437                   
5.9437                   
5.94609                  
6.93147                  
6.93001                  
6.43828                  
5.94389                  
5.94673                  
6.93187                  
5.94673                  
5.46639                  
6.44289                  
6.43612                  
5.45534                  
5.9468                   
5.9621                   
5.94648                  
6.44274                  
6.46192                  
6.94147                  
6.93015                  
6.43207                  
6.44296                  
5.4665                   
5.00592                  
4.9669                   
4.94489                  
4.93466                  
5.42607                  
4.93297                  
5.4276                   
4.44472                  
3.96332                  
3.98566                  
4.95175                  
3.98566                  
4.02391                  
4.09256                  
3.21206                  
3.11123                  
3.11123                  
2.24382                  
2.38698                  
1.65706                  
1.98882                  
1.65805                  
1.91314                  
2.72172                  
2.64628                  
3.11554                  
2.72237                  
3.1154                   
2.72182                  
3.59793                  
2.72182                  
3.20286                  
3.59771                  
3.55326                  
2.65218                  
2.25347                  
3.11749                  
3.09251                  
2.65611                  
2.25822                  
1.91607                  
2.12041                  
2.38406                  
3.20324                  
3.20324                  
3.13703                  
2.28349                  
1.50623                  
0.82876                  
0.2696                   
0.0203404                
-0.356948                
-0.484137                
-0.350341                
-0.267579                
-0.523467                
-0.120982                
-0.260764                
-0.350276                
0.342266                 
1.19634                  
1.67114                  
1.67114                  
1.64507                  
0.77584                  
1.18226                  
0.782201                 
0.449688                 
1.17664                  
1.1507                   
1.13491                  
1.12541                  
0.7674                   
0.307298                 
0.296248                 
0.341623                 
0.335408                 
0.233281                 
0.579636                 
0.57681                  
0.283226                 
0.556208                 
0.305622                 
0.537452                 
0.540334                 
0.537452                 
0.540334                 
0.376364                 
0.382454                 
0.521359                 
0.395265                 
0.389214                 
0.492003                 
0.48905                  
0.409322                 
0.408378                 
0.467145                 
0.961927                 
0.67135                  
0.673057                 
0.43942                  
0.437501                 
0.43942                  
0.437501                 
0.602093                 
0.602093                 
0.472951                 
0.474837                 
0.572791                 
1.09272                  
0.585797                 
0.532409                 
0.53654                  
0.532409                 
0.973856                 
0.977169                 
0.504325                 
0.500126                 
0.504325                 
1.02696                  
1.02696                  
1.03282                  
1.83638                  
1.84305                  
1.40983                  
0.687643                 
1.4157                   
1.40936                  
2.31514                  
2.31514                  
1.38654                  
0.94937                  
0.955454                 
0.192817                 
0.207944                 
0.192817                 
-0.369335                
-0.529756                
-0.513078                
-0.347284                
-0.592377                
-0.370956                
-0.112716                
-0.517892                
-0.501313                
-0.517892                
-0.166554                
-0.174571                
0.501899                 
-0.163752                
0.134344                 
0.143482                 
-0.311234                
-0.291793                
0.135081                 
0.480879                 
1.29095                  
1.30977                  
1.29095                  
1.30977                  
1.76475                  
1.34137                  
1.3106                   
2.21311                  
2.23276                  
1.32998                  
0.53111                  
-0.0712637               
-0.215728                
-0.303123                
-0.160453                
0.0551635                
0.367378                 
0.497485                 
0.20644                  
0.00734116               
-0.123464                
-0.206911                
0.465109                 
0.427985                 
-0.336457                
0.0600003                
0.0600003                
0.475004                 
-0.370353                
-0.404288                
-0.42486                 
-1.17794                 
-1.68229                 
-1.807                   
-1.51063                 
-1.53159                 
-1.69973                 
-1.32886                 
-1.3146                  
-1.28996                 
-0.701375                
-0.332769                
-0.344371                
-0.350792                
-0.344371                
-0.645027                
-0.655217                
-0.874426                
-0.880277                
-0.751393                
-0.233732                
-0.235034                
-0.670815                
-0.264706                
-0.636364                
-0.291842                
0.0124193                
0.0124193                
0.357316                 
-0.205346                
-0.204063                
0.28767                  
-0.161559                
-0.162815                
0.222418                 
0.538868                 
0.243983                 
0.245008                 
0.816181                 
1.60612                  
1.6056                   
2.03681                  
1.62003                  
1.62055                  
2.00701                  
2.42069                  
3.30828                  
3.77403                  
3.32307                  
3.76082                  
4.6769                   
5.63571                  
4.69196                  
3.8602                   
4.25276                  
4.25188                  
3.87681                  
4.24286                  
5.08545                  
5.08487                  
5.08545                  
4.3018                   
3.81254                  
3.81445                  
3.79516                  
3.79841                  
3.79516                  
3.78333                  
3.80657                  
3.80465                  
4.30021                  
5.08828                  
4.66364                  
4.66311                  
4.66364                  
4.26556                  
4.26643                  
4.26556                  
3.90504                  
3.90428                  
4.27319                  
5.13985                  
4.68806                  
3.8905                   
3.57845                  
4.26548                  
4.26636                  
4.26548                  
3.56833                  
3.88912                  
3.56739                  
4.26617                  
3.88734                  
4.26038                  
5.11796                  
5.11825                  
5.11825                  
4.31426                  
4.01274                  
4.01347                  
4.28001                  
4.28087                  
4.06758                  
4.06977                  
4.06758                  
4.20059                  
4.46603                  
4.17901                  
3.87135                  
4.00752                  
4.01129                  
4.51373                  
4.87212                  
5.26957                  
5.69207                  
4.95169                  
4.94667                  
4.94362                  
4.9418                   
5.20782                  
4.96989                  
4.96928                  
5.40485                  
5.04559                  
5.23197                  
5.87694                  
5.48818                  
5.48784                  
5.48768                  
4.70152                  
4.08347                  
3.72711                  
3.71006                  
3.71006                  
3.71044                  
3.77706                  
3.7767                   
3.7767                   
3.9371                   
4.41774                  
4.41774                  
4.69903                  
4.69892                  
4.69903                  
4.69892                  
4.70379                  
4.93071                  
4.50389                  
4.45625                  
4.45651                  
4.67087                  
4.36469                  
4.75105                  
4.26515                  
4.12134                  
4.12203                  
4.25818                  
4.23114                  
4.44538                  
4.19134                  
4.82514                  
4.82562                  
4.05585                  
3.72685                  
4.08415                  
4.08542                  
3.67506                  
2.96207                  
2.95914                  
2.40666                  
2.41052                  
2.41699                  
1.95203                  
1.81343                  
1.80875                  
2.17521                  
2.46515                  
3.16561                  
4.00193                  
4.91497                  
4.46322                  
4.06284                  
4.86767                  
4.86451                  
4.86767                  
5.7336                   
6.67516                  
7.1598                   
7.65023                  
6.68481                  
5.78505                  
5.78836                  
5.38133                  
5.38653                  
5.38133                  
6.23484                  
5.36997                  
5.7913                   
4.9784                   
4.39672                  
4.39271                  
4.3903                   
4.39271                  
4.3903                   
4.39271                  
4.71381                  
5.10698                  
5.54178                  
4.70533                  
4.35669                  
4.7036                   
5.54008                  
5.54113                  
5.10454                  
5.10622                  
5.10454                  
6.00053                  
5.097                    
5.096                    
4.67623                  
4.67529                  
4.28528                  
3.94973                  
3.95205                  
3.69186                  
4.28452                  
4.67756                  
5.10834                  
4.6864                   
5.10145                  
5.10426                  
5.53429                  
5.97977                  
6.91429                  
7.88534                  
7.8865                   
7.40078                  
6.46293                  
6.46795                  
6.02902                  
5.62373                  
4.96635                  
4.96635                  
5.61221                  
6.00955                  
6.00144                  
5.99651                  
5.6156                   
5.61096                  
5.97773                  
5.34307                  
5.95618                  
6.7826                   
7.71135                  
8.19516                  
8.19439                  
8.19392                  
7.23418                  
6.76895                  
5.9008                   
5.19333                  
5.19237                  
5.19182                  
4.67453                  
4.67524                  
4.67648                  
4.40392                  
4.54952                  
4.5482                   
5.01398                  
5.01503                  
5.01679                  
5.01503                  
4.83352                  
4.89721                  
4.76516                  
5.05223                  
5.32178                  
4.96806                  
5.25183                  
5.08937                  
5.43169                  
6.06538                  
6.06512                  
6.83767                  
6.83767                  
6.48416                  
6.48444                  
6.3103                   
6.31007                  
6.52794                  
6.52785                  
6.48226                  
6.48231                  
6.48245                  
6.19986                  
6.36956                  
5.99345                  
5.99372                  
5.99421                  
5.5577                   
5.55709                  
5.12064                  
4.86915                  
4.81529                  
4.96161                  
5.30103                  
5.81583                  
5.81637                  
5.81728                  
6.20034                  
6.19959                  
6.20034                  
6.58632                  
7.22229                  
8.01779                  
8.90635                  
8.46765                  
8.0947                   
8.4367                   
8.43638                  
8.4367                   
8.43638                  
9.05054                  
8.50822                  
8.99803                  
8.57284                  
8.6739                   
8.67373                  
8.67364                  
8.67373                  
9.00113                  
9.00124                  
8.31491                  
7.90796                  
7.89053                  
7.98826                  
8.24409                  
7.95969                  
7.74979                  
7.75024                  
7.98709                  
8.31665                  
8.31631                  
7.72638                  
8.32547                  
8.32527                  
8.73271                  
8.73258                  
9.18119                  
9.65193                  
10.1355                  
10.6268                  
9.64983                  
9.1716                   
9.1716                   
9.65257                  
8.7055                   
8.70572                  
8.25446                  
7.83068                  
7.4506                   
6.91901                  
6.92014                  
6.92202                  
7.4394                   
7.44179                  
7.44575                  
7.45226                  
8.2464                   
7.44145                  
7.11139                  
6.72381                  
6.71651                  
6.71209                  
6.71651                  
6.71209                  
6.73773                  
6.72518                  
6.72477                  
7.17168                  
7.91917                  
8.8183                   
8.81736                  
8.8168                   
8.3457                   
8.34537                  
7.88141                  
7.43407                  
7.43389                  
7.4338                   
6.99552                  
6.99568                  
6.99598                  
6.562                    
5.80364                  
6.16948                  
5.48129                  
5.48192                  
5.81906                  
6.22067                  
6.22023                  
7.13499                  
6.20391                  
5.35565                  
4.67368                  
5.39465                  
4.61379                  
4.61325                  
3.93897                  
3.51184                  
3.51142                  
3.29022                  
3.42646                  
3.42689                  
3.42786                  
3.42689                  
3.42646                  
3.42478                  
3.42478                  
3.42521                  
3.42618                  
3.42795                  
3.28755                  
3.55513                  
3.14019                  
3.14367                  
3.43607                  
3.08409                  
3.08051                  
2.36688                  
1.80375                  
1.43728                  
1.30434                  
1.41981                  
1.77072                  
2.00541                  
2.01334                  
2.35961                  
2.35294                  
2.35961                  
2.60662                  
3.1154                   
3.81391                  
4.63607                  
4.63962                  
4.63607                  
5.4703                   
5.46889                  
5.4703                   
5.90159                  
6.82085                  
6.35791                  
7.28675                  
6.37171                  
5.60659                  
5.60581                  
5.60536                  
5.60581                  
5.16523                  
5.1662                   
5.60763                  
6.36044                  
7.26722                  
6.35129                  
5.92775                  
5.92862                  
6.36187                  
6.82391                  
6.36162                  
5.51928                  
5.517                    
6.36937                  
5.92005                  
6.37091                  
5.49594                  
5.92098                  
5.11212                  
4.55334                  
4.40814                  
4.73281                  
4.51893                  
4.51816                  
4.99938                  
5.76098                  
5.76098                  
5.76139                  
5.76211                  
5.76332                  
5.76211                  
5.14265                  
5.1443                   
5.14705                  
5.73994                  
5.74333                  
5.74891                  
5.75811                  
6.57967                  
6.15112                  
6.1414                   
5.39503                  
5.74137                  
6.14366                  
6.14954                  
6.14366                  
5.73777                  
6.57898                  
5.73761                  
5.38495                  
5.11028                  
4.90131                  
4.8982                   
4.89632                  
4.89521                  
4.89458                  
4.89425                  
4.89415                  
4.89425                  
4.89458                  
4.89425                  
5.0662                   
5.0662                   
5.0662                   
4.80934                  
5.07834                  
4.79424                  
4.79424                  
5.10685                  
5.79448                  
5.79448                  
6.68884                  
5.77295                  
5.77295                  
4.93524                  
5.78783                  
5.78783                  
5.78796                  
4.87884                  
4.08111                  
4.08181                  
3.44848                  
3.13657                  
3.13545                  
3.13495                  
3.13545                  
3.13657                  
2.94546                  
2.94771                  
2.95153                  
2.95791                  
2.96846                  
2.86454                  
3.05105                  
2.84887                  
2.8632                   
3.44989                  
3.43922                  
3.87261                  
2.9803                   
2.15857                  
1.44113                  
1.10525                  
0.551209                 
0.216284                 
0.145014                 
0.178258                 
0.175545                 
0.142256                 
0.175545                 
0.0212473                
0.119318                 
0.458152                 
1.00147                  
1.03735                  
1.00147                  
1.50129                  
1.4842                   
1.50129                  
2.06005                  
2.81852                  
2.8097                   
3.65705                  
2.84893                  
2.55341                  
2.5456                   
2.54091                  
2.5456                   
2.47662                  
2.48471                  
2.44837                  
2.82904                  
3.51228                  
3.15105                  
3.14657                  
3.46991                  
4.2461                   
5.13898                  
5.14112                  
4.2984                   
4.29514                  
5.11858                  
5.11728                  
6.04573                  
5.11519                  
6.05013                  
6.05013                  
5.56861                  
5.09889                  
5.09889                  
5.56581                  
5.56501                  
5.10524                  
4.293                    
4.293                    
4.29415                  
4.2961                   
4.29936                  
4.2961                   
5.00333                  
5.00562                  
5.00941                  
4.34946                  
4.64477                  
4.65444                  
4.67032                  
4.23974                  
4.27192                  
4.23974                  
4.64387                  
4.24791                  
4.31828                  
4.34922                  
4.31828                  
4.52526                  
5.20109                  
4.52583                  
4.51256                  
4.5045                   
4.16281                  
4.15702                  
4.15352                  
4.15142                  
4.15019                  
4.14951                  
4.29753                  
4.5497                   
4.87864                  
4.87874                  
4.35551                  
4.35594                  
4.35551                  
4.83321                  
4.3715                   
4.82225                  
5.16983                  
4.57475                  
4.41005                  
4.40978                  
4.76187                  
4.38735                  
4.78189                  
4.36109                  
4.80475                  
5.57393                  
5.57393                  
5.13848                  
5.13848                  
5.13877                  
5.13877                  
4.72204                  
5.13431                  
5.13422                  
5.13431                  
5.1346                   
4.41477                  
4.41558                  
4.417                    
4.41937                  
4.42333                  
4.0257                   
4.4318                   
4.42786                  
4.4318                   
5.18751                  
5.63186                  
6.58397                  
6.09814                  
5.61762                  
5.145                    
5.14043                  
4.66415                  
4.66415                  
4.19513                  
4.20245                  
3.30382                  
3.29234                  
3.30382                  
2.44128                  
2.05777                  
1.71164                  
1.35714                  
1.4206                   
1.74148                  
1.06219                  
1.35855                  
1.42196                  
1.03689                  
0.703972                 
0.64919                  
0.278814                 
0.664258                 
0.718635                 
1.02194                  
1.39664                  
1.4345                   
2.31176                  
2.35137                  
1.47286                  
0.692987                 
0.0793851                
-0.0466426               
-0.126881                
-0.395681                
-0.809165                
-0.873605                
-0.726217                
-0.554899                
-0.68977                 
-0.68977                 
-0.775927                
-1.18616                 
-0.74181                 
-1.23098                 
-1.36506                 
-1.25022                 
-1.07361                 
-0.926814                
-0.469231                
-0.59826                 
-0.680483                
-1.07743                 
-0.708185                
-0.624839                
-0.494139                
-0.295161                
-0.494139                
0.057892                 
0.210657                 
0.63128                  
0.445972                 
1.06485                  
1.31126                  
1.66188                  
1.24542                  
1.81179                  
1.24542                  
1.65704                  
1.67294                  
1.39937                  
2.05754                  
1.81104                  
2.0596                   
2.01238                  
2.05159                  
1.66789                  
1.34957                  
1.39121                  
1.05198                  
0.787314                 
0.356784                 
0.0427748                
-0.174256                
-0.0087436               
0.48517                  
1.20467                  
1.65789                  
0.909697                 
1.07417                  
0.909697                 
1.62776                  
0.918007                 
1.62443                  
2.47683                  
2.07865                  
1.30137                  
1.18864                  
0.546182                 
1.19969                  
1.19969                  
2.03782                  
1.19548                  
1.19548                  
1.5722                   
1.52666                  
1.08611                  
1.05896                  
0.353498                 
0.392018                 
0.0289633                
0.103297                 
0.0289633                
-0.0173128               
0.352921                 
0.662159                 
0.646548                 
0.637226                 
0.631865                 
1.44273                  
1.01546                  
1.44602                  
1.89802                  
1.02934                  
1.02934                  
0.672874                 
0.670177                 
0.669349                 
0.670177                 
0.669349                 
0.670177                 
0.462682                 
0.461762                 
0.462682                 
0.576684                 
0.575816                 
0.576684                 
1.04939                  
1.3994                   
1.79279                  
1.79125                  
2.20137                  
1.47822                  
2.17316                  
1.51464                  
1.51717                  
1.51464                  
1.51352                  
1.51352                  
2.06419                  
1.75575                  
1.75527                  
1.50392                  
1.7672                   
1.76768                  
2.45903                  
2.89288                  
2.04252                  
1.36755                  
1.00572                  
1.00427                  
1.00427                  
1.00427                  
0.903144                 
1.2272                   
1.22849                  
1.0141                   
1.01266                  
1.36965                  
1.36965                  
0.900251                 
1.41775                  
0.835179                 
0.589851                 
0.589851                 
0.59163                  
0.606322                 
1.01146                  
1.01001                  
1.01001                  
0.817489                 
0.950793                 
0.950793                 
0.952278                 
0.955627                 
0.952278                 
1.27975                  
1.57068                  
2.30656                  
2.30889                  
3.16057                  
3.16322                  
3.61727                  
2.76617                  
2.77317                  
2.76617                  
3.58575                  
3.59039                  
2.78509                  
2.79658                  
3.60117                  
4.06005                  
3.17866                  
4.06453                  
3.16702                  
2.39394                  
3.18598                  
2.36159                  
1.99075                  
2.35622                  
2.34509                  
2.77994                  
2.33053                  
1.53222                  
1.20475                  
0.816043                 
1.21959                  
1.56421                  
1.55832                  
0.935346                 
1.56875                  
0.917899                 
0.619186                 
0.727668                 
1.25559                  
1.25035                  
2.06078                  
1.62961                  
0.89165                  
0.452048                 
0.907791                 
0.429603                 
0.375379                 
0.369268                 
0.366128                 
0.365163                 
0.514411                 
0.515307                 
1.11938                  
1.12154                  
1.53564                  
1.53453                  
0.707571                 
0.0792294                
0.373646                 
0.374607                 
0.761805                 
0.3656                   
0.764352                 
0.764352                 
0.37023                  
1.18235                  
0.389131                 
0.390085                 
0.393187                 
0.399226                 
0.757496                 
1.15485                  
1.58408                  
2.50451                  
2.98429                  
2.98718                  
2.51555                  
2.51276                  
2.97937                  
2.07992                  
1.68477                  
1.10012                  
1.34268                  
0.986828                 
1.31894                  
1.01335                  
1.29738                  
1.30409                  
1.57665                  
1.57219                  
1.56973                  
1.33379                  
1.33319                  
1.33379                  
1.79711                  
2.53976                  
2.97064                  
3.89052                  
4.85756                  
4.37089                  
4.37089                  
3.90276                  
4.36496                  
4.36483                  
4.36496                  
3.51944                  
3.17368                  
3.512                    
4.32521                  
4.32477                  
5.23816                  
5.71754                  
5.24077                  
6.20009                  
5.71559                  
4.79092                  
5.24452                  
5.71632                  
5.24651                  
4.38726                  
4.38684                  
4.38671                  
5.24359                  
4.79576                  
4.79576                  
4.79597                  
5.24909                  
5.72209                  
4.79227                  
3.9692                   
3.6297                   
3.97184                  
3.63143                  
3.96619                  
3.64351                  
4.32448                  
4.32491                  
4.32448                  
3.73118                  
3.73177                  
4.29386                  
4.29472                  
3.98362                  
3.77494                  
4.25094                  
3.98265                  
4.55901                  
5.35603                  
4.59171                  
5.33644                  
5.33607                  
4.95399                  
4.95367                  
4.66319                  
4.93643                  
5.65574                  
6.07411                  
6.97199                  
6.52215                  
6.1219                   
6.1219                   
6.8969                   
6.50116                  
7.3013                   
8.20798                  
7.75216                  
6.9756                   
6.97567                  
6.71732                  
6.71728                  
7.24247                  
8.01546                  
7.27247                  
7.99742                  
8.87935                  
9.35004                  
9.35007                  
9.82884                  
9.35248                  
9.82628                  
8.90752                  
8.9075                   
8.49532                  
8.90361                  
9.80376                  
10.7654                  
10.2796                  
10.2797                  
9.80338                  
9.80337                  
9.33851                  
8.48367                  
8.48367                  
7.80259                  
8.50087                  
8.934                    
9.39753                  
9.39755                  
8.92429                  
8.46307                  
8.46307                  
8.02246                  
7.27827                  
7.27837                  
7.27827                  
7.27824                  
6.86086                  
7.28128                  
7.28131                  
8.02911                  
7.27039                  
8.03921                  
7.25161                  
8.05459                  
7.22443                  
7.22453                  
6.84896                  
6.84888                  
7.24976                  
7.24979                  
7.24989                  
7.24979                  
7.24979                  
6.77831                  
6.31494                  
5.44477                  
4.72063                  
5.07376                  
4.39936                  
4.39936                  
3.9736                   
3.9736                   
3.9736                   
4.55035                  
4.96135                  
4.14244                  
3.5001                   
3.4999                   
3.22856                  
3.02155                  
3.02181                  
2.84282                  
2.84254                  
3.13125                  
2.77859                  
2.84074                  
2.84102                  
2.90634                  
2.90607                  
2.90634                  
2.63518                  
2.63619                  
2.63518                  
2.63487                  
2.53192                  
2.64077                  
2.58908                  
3.05057                  
3.42385                  
3.03401                  
3.03401                  
3.03401                  
3.03454                  
2.66447                  
2.66417                  
2.66447                  
3.46555                  
3.92183                  
3.46288                  
3.92268                  
4.39878                  
4.3992                   
3.46347                  
3.4628                   
2.60354                  
2.22688                  
3.03736                  
2.60187                  
2.60289                  
2.60187                  
2.60289                  
2.60187                  
2.14636                  
1.29487                  
0.592586                 
0.321961                 
0.322947                 
0.641803                 
1.04008                  
0.628461                 
1.04772                  
0.622393                 
0.23753                  
0.622286                 
1.50044                  
1.50044                  
1.50044                  
1.50157                  
0.597968                 
0.597968                 
1.51827                  
1.0454                   
0.5828                   
0.141283                 
0.140204                 
-0.627503                
-0.625919                
-1.1354                  
-0.60926                 
-0.604149                
-0.60926                 
-1.2208                  
-1.47677                 
-1.29042                 
-1.28324                 
-1.06369                 
-1.05452                 
-0.776474                
-0.787358                
-1.10384                 
-1.0911                  
-0.824695                
-1.15277                 
-1.06901                 
-0.600872                
-0.610839                
-0.615967                
-0.610839                
0.031193                 
0.0384281                
-0.532817                
-0.54245                 
-0.532817                
-0.516114                
-0.562349                
-0.540436                
-0.557344                
-0.12512                 
-0.535863                
-0.141038                
-0.518287                
-0.154142                
-0.504226                
-0.513721                
-0.504226                
-0.487759                
-0.180012                
-0.156459                
-0.117859                
0.14679                  
0.898854                 
0.880936                 
0.870143                 
0.119252                 
0.119252                 
0.859852                 
0.13443                  
0.12525                  
-0.254608                
-0.243514                
-0.121307                
0.417699                 
1.20754                  
0.791049                 
0.791049                 
0.797634                 
1.17906                  
1.17192                  
1.56291                  
1.19094                  
1.195                    
1.89817                  
1.54078                  
1.29184                  
1.28509                  
1.72808                  
1.73349                  
1.74257                  
1.54941                  
1.56595                  
1.54941                  
1.53941                  
1.53345                  
2.12653                  
1.45041                  
1.1867                   
0.989534                 
0.98504                  
0.989534                 
0.989534                 
0.997354                 
0.989534                 
0.98504                  
0.989534                 
0.537157                 
0.490522                 
0.500552                 
0.831634                 
1.48559                  
1.89011                  
1.50376                  
1.8636                   
1.52919                  
1.52576                  
2.13094                  
2.13348                  
2.1379                   
2.46554                  
2.47041                  
2.8102                   
2.80704                  
2.53563                  
2.40804                  
2.4051                   
2.40804                  
2.23731                  
2.45166                  
2.44878                  
2.91483                  
2.91358                  
2.91302                  
3.52441                  
4.33065                  
4.33092                  
4.33065                  
4.33065                  
3.96482                  
4.72192                  
5.6142                   
6.08606                  
6.08595                  
6.08595                  
6.08606                  
6.08606                  
6.08595                  
5.6326                   
6.553                    
7.03488                  
7.03495                  
6.08533                  
5.21255                  
4.82824                  
4.82791                  
4.23754                  
4.2374                   
4.00849                  
4.00864                  
4.28573                  
4.28559                  
4.97729                  
4.97729                  
4.97729                  
4.58915                  
4.58915                  
4.5894                   
4.95541                  
4.32283                  
4.3227                   
4.91833                  
4.91843                  
4.91833                  
4.91843                  
5.71931                  
4.92145                  
4.92135                  
4.60907                  
5.2947                   
4.61224                  
5.29485                  
4.91863                  
5.71334                  
5.71355                  
5.71334                  
6.16763                  
5.28489                  
5.28489                  
5.28507                  
4.53284                  
4.05837                  
4.05806                  
4.05806                  
4.61361                  
4.01876                  
3.78601                  
4.06178                  
4.06209                  
4.77921                  
4.77899                  
3.95518                  
3.29067                  
3.03875                  
3.03958                  
2.69017                  
2.68919                  
2.63081                  
2.63183                  
2.87486                  
2.87661                  
2.87486                  
3.31274                  
3.31202                  
3.3118                   
3.58009                  
4.27782                  
4.27782                  
4.2781                   
3.76362                  
3.95242                  
4.20948                  
4.20919                  
4.20919                  
4.05936                  
4.13466                  
4.13496                  
4.13466                  
4.13496                  
4.13466                  
4.4117                   
4.4117                   
4.4117                   
4.78611                  
4.786                    
4.35696                  
3.94255                  
3.94307                  
3.52266                  
2.77639                  
2.25224                  
2.25146                  
1.95267                  
1.95267                  
1.95357                  
1.79415                  
1.79318                  
1.79318                  
1.76081                  
1.7618                   
1.97338                  
1.97249                  
1.97338                  
2.11058                  
2.10975                  
2.11058                  
1.59091                  
1.41409                  
1.41222                  
1.15412                  
1.15347                  
1.15412                  
0.955335                 
1.09598                  
1.09531                  
1.09598                  
1.09816                  
1.1024                   
1.01372                  
1.26482                  
1.80013                  
1.79713                  
1.79559                  
1.79512                  
2.31361                  
2.31397                  
2.31361                  
2.96042                  
3.78583                  
4.23426                  
3.4125                   
2.88635                  
2.88692                  
2.88635                  
2.9373                   
2.9373                   
3.50403                  
3.50403                  
3.13457                  
3.13481                  
3.13481                  
2.51121                  
2.25558                  
2.2568                   
2.25558                  
2.25521                  
2.38122                  
2.28304                  
2.28341                  
2.32836                  
2.32799                  
2.32836                  
2.32953                  
2.74098                  
2.35171                  
2.35054                  
2.35018                  
2.69046                  
2.69046                  
3.3411                   
3.34132                  
4.16177                  
4.16224                  
4.16177                  
5.07315                  
5.07315                  
5.54927                  
5.54927                  
4.63607                  
4.2259                   
4.63167                  
4.63191                  
5.52073                  
4.63918                  
4.63918                  
5.50633                  
5.97237                  
6.93483                  
7.42626                  
6.45363                  
5.53156                  
5.98597                  
6.4601                   
5.98523                  
6.45982                  
6.45982                  
6.94197                  
6.46406                  
6.93797                  
6.93785                  
6.0342                   
6.03415                  
6.0342                   
5.29039                  
4.85487                  
4.8552                   
5.03154                  
5.65593                  
5.03213                  
4.80028                  
4.79979                  
4.79958                  
5.04152                  
4.79476                  
4.79476                  
4.79476                  
4.79476                  
4.79476                  
5.06804                  
5.06823                  
5.3645                   
6.14492                  
6.59288                  
7.06065                  
7.54032                  
7.54055                  
8.02722                  
7.54049                  
7.06437                  
7.53969                  
6.61041                  
7.06606                  
7.06595                  
6.61115                  
7.0652                   
7.06541                  
6.19581                  
6.19639                  
5.50774                  
5.50692                  
5.50774                  
6.22689                  
6.22632                  
6.67013                  
5.80261                  
5.80353                  
6.23768                  
5.79543                  
6.24211                  
6.24154                  
5.35673                  
4.95922                  
4.96004                  
5.36966                  
5.81717                  
5.81688                  
5.3625                   
4.93429                  
4.22463                  
4.22528                  
4.22647                  
4.22849                  
3.82246                  
3.97932                  
4.24191                  
3.83455                  
3.90642                  
4.42774                  
4.11478                  
3.77908                  
3.78235                  
3.89521                  
3.80169                  
3.79919                  
4.20038                  
4.20243                  
4.20038                  
4.19918                  
4.97153                  
4.1754                   
3.61268                  
3.86793                  
4.21419                  
4.61975                  
3.8604                   
4.62444                  
4.62371                  
4.20492                  
4.20612                  
4.20492                  
4.20426                  
4.20426                  
5.10513                  
5.10555                  
5.10632                  
4.16872                  
3.29972                  
2.90525                  
3.31801                  
2.89135                  
2.89644                  
2.89135                  
2.0858                   
1.7462                   
1.2664                   
1.4776                   
2.17974                  
2.61788                  
2.17789                  
2.18998                  
1.38081                  
2.20975                  
1.34648                  
0.611887                 
0.102987                 
-0.0703824               
0.140405                 
0.0148614                
0.417297                 
0.108708                 
-0.256826                
-0.288873                
-0.347469                
-0.0134414               
0.620703                 
0.608406                 
1.39811                  
1.83468                  
1.03342                  
1.02902                  
1.37843                  
1.04952                  
0.741851                 
0.741052                 
0.921431                 
1.46295                  
1.17512                  
0.989696                 
0.991153                 
0.994438                 
0.944927                 
1.07469                  
1.08041                  
1.37889                  
1.38532                  
1.79409                  
1.35783                  
1.80344                  
0.906041                 
0.1077                   
-0.509946                
-0.509946                
-0.747178                
-0.757904                
-0.995469                
-0.983394                
-0.995469                
-0.872819                
-0.95242                 
-0.913839                
-0.902247                
-0.750337                
-0.191978                
-0.197927                
-0.66006                 
-0.663388                
-0.585786                
-0.582585                
-0.585786                
-0.803511                
-0.799942                
-0.62782                 
-0.750211                
-0.753692                
-0.800322                
-0.802051                
-0.590594                
-0.589038                
-0.741752                
-0.736292                
-0.741752                
-0.667893                
-0.175924                
-0.171808                
-0.163801                
-0.171808                
-0.432659                
-0.435629                
-0.435629                
-0.208197                
-0.510638                
-0.241974                
0.381344                 
-0.21222                 
-0.21222                 
-0.302964                
-0.304312                
-0.385416                
-0.385416                
-0.0264619               
-0.435556                
-0.435556                
-0.483387                
-0.483387                
-0.483387                
-0.480346                
-0.248071                
-0.428155                
-0.0848642               
-0.481141                
-0.46288                 
-0.0363703               
-0.41061                 
-0.0781724               
-0.0725686               
0.200844                 
0.197428                 
0.200844                 
0.207492                 
0.836193                 
1.66302                  
2.11444                  
2.11256                  
2.11256                  
2.11256                  
2.54467                  
3.44884                  
3.91723                  
4.38834                  
4.86227                  
4.86227                  
4.86206                  
4.08397                  
4.82863                  
5.70925                  
6.65616                  
7.14235                  
7.14238                  
6.66163                  
7.62922                  
7.14051                  
6.19299                  
5.32666                  
4.94858                  
4.40125                  
4.95975                  
5.78143                  
5.7813                   
4.91878                  
5.34465                  
4.90885                  
4.15166                  
3.86189                  
3.86205                  
3.55077                  
3.70136                  
3.57228                  
3.57292                  
3.66195                  
3.66313                  
3.61444                  
3.61655                  
3.62673                  
4.0769                   
4.07522                  
3.8153                   
3.81385                  
3.81305                  
4.35816                  
3.83388                  
3.83352                  
3.78418                  
3.78418                  
4.23116                  
4.23116                  
5.0092                   
4.20833                  
3.63782                  
3.48146                  
3.91759                  
3.91775                  
3.91759                  
3.38843                  
3.38864                  
3.38843                  
3.16855                  
3.4298                   
3.12016                  
3.24169                  
3.0895                   
3.38985                  
3.38985                  
3.21128                  
3.21204                  
3.30128                  
3.53738                  
3.5383                   
3.27383                  
3.27309                  
3.0309                   
3.292                    
3.29273                  
3.292                    
3.60523                  
3.28607                  
3.28585                  
3.99082                  
3.99098                  
3.99082                  
3.99082                  
3.59399                  
3.59439                  
3.59528                  
3.59439                  
3.97965                  
3.97949                  
3.97965                  
3.97965                  
4.84013                  
3.99499                  
3.38565                  
3.98625                  
3.64961                  
4.36824                  
4.36824                  
4.36851                  
4.36824                  
5.24334                  
4.36412                  
4.36439                  
3.97125                  
4.36676                  
4.80148                  
4.80182                  
3.98138                  
4.80341                  
5.73971                  
4.79403                  
3.92025                  
3.52815                  
4.36746                  
3.91799                  
3.91853                  
3.47906                  
3.92598                  
3.92701                  
3.92882                  
2.99752                  
2.54894                  
2.54894                  
2.54426                  
2.07313                  
1.16596                  
0.735975                 
-0.0580035               
-0.678755                
-0.91395                 
-1.11989                 
-0.930718                
-0.716327                
-0.937189                
-0.815312                
-0.347866                
0.36002                  
1.20796                  
1.20501                  
1.2037                   
2.09525                  
2.56585                  
2.56585                  
2.1167                   
2.11753                  
1.42904                  
2.08731                  
2.92979                  
2.93103                  
2.13071                  
2.92181                  
3.37016                  
2.52137                  
2.51928                  
2.52137                  
1.91233                  
1.70478                  
1.91219                  
1.91713                  
1.70677                  
1.71598                  
1.93183                  
1.9455                   
1.72032                  
1.96486                  
1.95132                  
1.96486                  
1.95132                  
1.94314                  
2.56953                  
2.21415                  
2.21091                  
1.7608                   
1.75856                  
1.76938                  
1.77161                  
2.23904                  
1.9539                   
1.70588                  
1.70427                  
1.93684                  
1.9364                   
1.93684                  
1.93684                  
1.9364                   
1.93684                  
1.82219                  
1.90776                  
1.85218                  
1.87882                  
1.88139                  
2.36453                  
2.36568                  
2.74865                  
3.18101                  
2.7468                   
2.35016                  
2.35683                  
2.35016                  
2.34619                  
3.18725                  
2.74543                  
3.19147                  
3.18886                  
2.7409                   
3.18744                  
3.18668                  
3.18668                  
3.65028                  
3.65067                  
3.19679                  
3.64561                  
3.64561                  
3.64599                  
4.1037                   
3.22686                  
3.22663                  
3.22686                  
2.85603                  
2.55953                  
3.20629                  
4.05212                  
4.05212                  
4.50603                  
3.65698                  
3.65659                  
4.04416                  
4.46327                  
3.71513                  
4.43658                  
4.43658                  
4.43658                  
3.80392                  
3.80392                  
3.80392                  
4.33989                  
4.04931                  
3.88673                  
4.2388                   
4.88542                  
4.88542                  
4.37388                  
4.37415                  
4.37388                  
4.5033                   
4.4478                   
4.44792                  
4.44833                  
4.2552                   
4.25607                  
4.60716                  
4.95627                  
4.95581                  
4.54623                  
4.54699                  
3.75425                  
3.12168                  
3.12013                  
2.80839                  
2.52336                  
2.15055                  
2.6204                   
2.28154                  
1.7577                   
1.54493                  
1.69721                  
1.69619                  
1.69619                  
1.97536                  
2.55505                  
3.32788                  
3.32788                  
3.73692                  
3.03941                  
3.69155                  
4.52135                  
4.52175                  
3.76403                  
4.50188                  
5.38819                  
4.5146                   
4.93287                  
5.37828                  
4.54277                  
3.96082                  
4.52823                  
4.529                    
4.529                    
4.53033                  
5.28956                  
5.29109                  
4.90338                  
4.37348                  
4.3716                   
4.37348                  
4.3716                   
4.3705                   
4.42924                  
4.42865                  
4.65875                  
4.29201                  
4.29187                  
4.36791                  
4.57329                  
5.21914                  
5.21914                  
4.62043                  
4.8719                   
5.57853                  
5.57877                  
5.57853                  
6.43416                  
6.43431                  
6.43416                  
5.58174                  
6.44005                  
5.98873                  
6.91516                  
6.43811                  
5.5294                   
5.52947                  
5.0997                   
4.35936                  
4.35997                  
4.36107                  
4.74262                  
5.17499                  
5.17425                  
5.17425                  
5.17499                  
5.17499                  
5.64919                  
5.64875                  
4.71449                  
4.71414                  
4.2685                   
3.47942                  
3.85843                  
4.28573                  
4.28573                  
4.73894                  
4.73904                  
4.73904                  
5.67247                  
5.6724                   
6.15324                  
6.64085                  
6.64099                  
5.68078                  
5.21975                  
4.38159                  
3.75787                  
4.39411                  
4.39384                  
3.71208                  
3.35692                  
3.74181                  
3.74181                  
4.08612                  
4.08627                  
4.92186                  
4.08254                  
4.48655                  
3.73152                  
3.73152                  
4.08699                  
3.45273                  
3.20654                  
3.20677                  
3.4565                   
3.45717                  
3.4565                   
3.1907                   
3.46418                  
3.46398                  
3.46418                  
3.15326                  
3.15404                  
3.49305                  
4.19621                  
4.19575                  
4.63443                  
5.1008                   
5.1008                   
4.18588                  
4.18541                  
4.63546                  
4.63523                  
4.18154                  
5.10906                  
5.59524                  
5.59524                  
4.6272                   
3.71061                  
4.16405                  
4.6393                   
4.16115                  
3.69555                  
3.25082                  
3.25105                  
2.47822                  
3.25653                  
2.46616                  
1.93009                  
2.16437                  
2.87416                  
2.4827                   
2.15065                  
2.87002                  
2.87002                  
2.18143                  
2.85337                  
3.71146                  
3.26999                  
3.27143                  
3.27143                  
3.6945                   
2.93861                  
3.2755                   
3.65023                  
4.49218                  
4.49115                  
4.93377                  
4.93315                  
5.37918                  
6.31329                  
6.31319                  
7.27975                  
6.79279                  
6.79283                  
6.79283                  
6.3183                   
5.44128                  
5.44164                  
6.31384                  
5.86167                  
5.06533                  
5.06635                  
5.06533                  
4.5224                   
4.52374                  
4.5224                   
5.09574                  
4.50464                  
4.76793                  
4.33443                  
4.50477                  
5.12152                  
5.52341                  
5.52326                  
6.41964                  
6.89694                  
6.89698                  
5.95269                  
5.0881                   
5.5126                   
4.69044                  
5.08978                  
4.68379                  
4.32776                  
4.68306                  
5.5278                   
5.5278                   
5.52795                  
6.47145                  
6.47145                  
5.51696                  
4.63285                  
4.23868                  
4.63766                  
3.89335                  
3.45456                  
3.4536                   
3.45416                  
3.90327                  
3.90293                  
3.63638                  
3.63699                  
3.46709                  
3.79514                  
3.44701                  
3.44832                  
3.83293                  
4.56561                  
4.16125                  
3.51805                  
3.23505                  
3.3294                   
3.25461                  
3.33747                  
3.24584                  
3.34622                  
3.34863                  
3.22758                  
3.35964                  
3.92518                  
3.92337                  
3.32454                  
3.32314                  
3.32454                  
3.97438                  
3.60075                  
3.60236                  
3.60512                  
4.4322                   
4.43525                  
3.98317                  
3.54153                  
3.53676                  
2.72336                  
2.11018                  
1.83233                  
2.16438                  
2.15871                  
1.68846                  
1.90577                  
1.90293                  
1.45251                  
1.39452                  
1.74824                  
1.46022                  
1.71153                  
1.49602                  
1.36806                  
1.37078                  
1.37571                  
1.3841                   
1.39804                  
1.73373                  
1.48152                  
2.07835                  
2.92366                  
2.46806                  
2.0294                   
2.02474                  
2.0294                   
1.19694                  
0.536318                 
1.24004                  
0.825698                 
0.115636                 
0.131356                 
0.157369                 
-0.465257                
-0.832022                
-0.368892                
-0.723085                
-1.25693                 
-1.51452                 
-1.56123                 
-1.62659                 
-1.65578                 
-1.51889                 
-1.0728                  
-1.08543                 
-0.487174                
-0.124722                
0.255407                 
1.07804                  
1.51453                  
1.11033                  
1.111                    
1.84149                  
1.84299                  
1.26123                  
1.26515                  
1.26123                  
1.29518                  
1.29903                  
1.29518                  
1.05418                  
1.36104                  
0.975753                 
1.42736                  
1.11625                  
0.862654                 
0.623266                 
0.617868                 
0.759491                 
1.28323                  
1.64091                  
1.05437                  
0.938291                 
0.999448                 
0.933824                 
1.10777                  
1.10994                  
1.2978                   
1.87749                  
2.65779                  
3.08991                  
3.09148                  
3.97403                  
4.91867                  
4.44498                  
4.44498                  
4.44604                  
5.35925                  
4.4669                   
3.763                    
4.07464                  
3.57399                  
3.55267                  
3.55143                  
3.75189                  
3.75339                  
3.42672                  
3.55834                  
3.44981                  
3.45278                  
3.51752                  
4.00779                  
4.01156                  
3.73864                  
3.53251                  
3.71152                  
3.56139                  
3.68536                  
3.58868                  
3.65976                  
3.66932                  
3.64927                  
3.64507                  
4.07611                  
4.06831                  
3.67696                  
3.67122                  
3.67696                  
4.02673                  
4.33581                  
4.34112                  
4.34987                  
5.10895                  
5.11881                  
5.13499                  
5.55854                  
6.01                     
5.55213                  
5.12824                  
4.4735                   
5.10941                  
5.10343                  
4.76812                  
5.48247                  
5.47862                  
5.10972                  
4.62913                  
4.62927                  
4.59844                  
5.00495                  
5.00114                  
4.76889                  
4.77221                  
4.7777                   
4.96145                  
4.97206                  
5.5264                   
5.51837                  
6.28376                  
7.17996                  
7.17784                  
7.17656                  
7.17578                  
7.64807                  
7.17646                  
6.3025                   
7.17765                  
7.17688                  
6.28249                  
6.2837                   
6.2857                   
5.4651                   
4.83419                  
5.50742                  
5.94135                  
5.49044                  
5.05357                  
5.04879                  
4.61277                  
5.0605                   
4.60117                  
4.14897                  
4.60374                  
3.69783                  
3.69783                  
3.69783                  
3.27151                  
2.59045                  
2.58451                  
2.58098                  
2.28562                  
2.28328                  
2.56813                  
2.56709                  
2.56813                  
3.22231                  
3.22155                  
3.22231                  
2.85078                  
3.64315                  
2.84518                  
3.64964                  
3.64877                  
4.11093                  
3.19872                  
3.19948                  
2.37295                  
1.7388                   
1.43405                  
1.79021                  
2.52839                  
1.73359                  
1.73668                  
1.36018                  
1.76074                  
1.33733                  
1.33733                  
0.918275                 
0.545017                 
0.537544                 
0.537544                 
0.537544                 
0.912566                 
0.282906                 
0.276505                 
0.13869                  
0.46266                  
1.10604                  
0.767968                 
1.4592                   
2.30974                  
2.31093                  
3.22925                  
3.2285                   
2.768                    
2.33781                  
3.21295                  
3.21272                  
2.76873                  
2.36566                  
2.36602                  
2.36717                  
3.17234                  
2.3787                   
3.16733                  
2.38212                  
3.16773                  
2.37752                  
2.37976                  
3.1827                   
2.36416                  
2.36416                  
2.3619                   
3.19647                  
3.65934                  
3.66021                  
3.19365                  
2.74413                  
2.74661                  
2.75084                  
1.9468                   
2.33734                  
2.77166                  
2.33655                  
1.61784                  
1.60818                  
1.60242                  
2.32767                  
1.59547                  
1.93539                  
2.33524                  
1.60329                  
1.59998                  
1.60329                  
2.33109                  
3.22505                  
2.32355                  
1.91273                  
2.32439                  
2.77033                  
2.77168                  
2.77412                  
2.32851                  
2.77908                  
1.91791                  
1.91149                  
1.54302                  
1.02855                  
1.02085                  
1.01643                  
1.01416                  
0.929959                 
0.932328                 
1.02333                  
0.928656                 
1.06145                  
0.934406                 
0.937785                 
0.943905                 
1.34096                  
2.07747                  
1.31925                  
1.31925                  
1.68655                  
1.69585                  
1.68655                  
1.69585                  
1.0452                   
1.3471                   
1.33279                  
1.04594                  
1.69417                  
1.05341                  
0.793707                 
0.779094                 
1.034                    
1.31103                  
1.30594                  
2.05444                  
2.49058                  
1.66526                  
2.05421                  
2.48095                  
2.06538                  
2.47036                  
2.4725                   
