4.361160000000000010e+86
-3.897423557000000048e+98
-1.739345245000000110e+120
-3.176350179000000127e+126
-5.477511234000000011e+111
-6.751411563999999892e+120
-5.617327652000000270e+110
-3.225970667999999999e+115
-3.536146162000000176e+107
-5.162599698000000338e+108
-8.339752829000000356e+92
-9.052413713000000734e+130
-5.493437854000000274e+123
-1.212540691000000032e+117
-5.381292885999999486e+139
-3.322141717999999915e+97
-5.872648601999999640e+114
-3.480556860000000114e+109
-6.883940593000000375e+114
-1.867163622000000118e+105
-2.775213335000000193e+114
-1.917475296999999940e+108
-1.760901693000000087e+110
2.201122989999999921e+124
8.392742295000000072e+123
1.629750919000000012e+135
3.193881453000000158e+110
6.806407303000000391e+105
8.678360766000000536e+114
1.090468220999999975e+117
5.685754146999999629e+108
1.268982451000000068e+123
2.836008340999999924e+121
1.019444873999999952e+132
4.954808226000000111e+129
3.537822840999999926e+105
3.692906453000000262e+126
-5.885287761999999870e+137
-4.892172143999999564e+133
-6.502898515999999825e+122
3.104684561000000067e+121
3.453125647999999870e+116
4.624088740000000081e+115
1.284912794000000052e+115
3.135747398000000321e+110
1.503011922000000021e+125
3.350629982000000083e+109
2.929143750000000087e+122
1.019601995000000007e+142
-1.060257626999999968e+122
-1.091659404000000071e+107
-3.104570757000000076e+146
-1.132738110999999915e+158
1.797591036000000101e+148
6.094302657000000407e+139
7.400510776999999688e+135
3.718216265000000063e+133
1.379886947000000051e+128
2.641393322000000158e+141
8.306169517999999225e+137
1.023735149000000000e+146
1.127403423999999975e+154
2.032678626999999825e+134
1.868040394000000035e+144
4.721334479999999906e+135
5.529702615000000189e+145
2.988307280000000130e+137
2.939143306000000148e+146
4.116015156000000040e+142
1.335953159999999992e+149
3.315980112999999793e+147
1.237461612000000046e+126
-4.486393408999999980e+142
-2.900630110000000143e+165
-1.338689740999999973e+154
-3.333939140000000020e+153
1.688194859000000039e+149
2.450912424999999912e+142
4.008282948000000052e+134
9.949557777999999432e+160
1.979055147999999888e+155
-1.154440057999999974e+154
-6.856225042000000406e+143
-2.978510760999999956e+136
-9.613500036000000459e+148
-9.469677355999999894e+142
-7.775854676000000582e+147
-4.455766984999999514e+158
-1.492377657000000018e+154
-4.977174955000000127e+137
-7.644685390000000436e+141
-7.001802079999999807e+143
-1.619438380000000008e+154
-2.355878400000000027e+156
-1.765562912000000145e+144
-8.258509292999999802e+152
-3.218591041999999867e+152
-6.918744212000000067e+140
-1.728235852000000047e+139
-6.594144583999999453e+147
