4.979279999999999973e+01
3.657989999999999782e+03
2.279120000000000000e+05
6.520160000000000000e+05
2.688130000000000000e+10
1.361330000000000000e+12
1.090420000000000000e+12
1.269090000000000000e+12
1.838230000000000000e+12
1.766140000000000000e+14
2.336470000000000000e+16
1.488900000000000000e+19
1.377340000000000026e+22
4.923219999999999852e+24
1.563529999999999934e+22
5.922689999999999987e+22
5.661180000000000130e+27
6.071909999999999921e+26
4.258209999999999701e+29
2.734949999999999907e+27
1.477160000000000013e+30
9.351209999999999917e+31
2.161470000000000083e+32
9.046479999999999514e+32
6.549209999999999580e+31
1.054679999999999910e+31
4.611919999999999899e+33
1.528870000000000033e+35
8.905319999999999500e+39
7.971519999999999966e+44
1.407680000000000010e+44
2.706079999999999998e+44
1.833339999999999958e+45
5.054339999999999786e+48
1.500109999999999871e+52
2.386689999999999949e+56
1.290729999999999968e+58
4.550489999999999976e+61
4.388239999999999978e+64
2.283679999999999868e+66
1.637810000000000045e+69
9.215890000000000398e+71
1.774559999999999931e+77
3.660080000000000395e+75
2.718150000000000027e+75
3.001709999999999795e+77
1.367629999999999987e+79
7.411189999999999697e+80
2.537330000000000026e+82
5.595089999999999989e+86
1.987679999999999863e+88
8.958889999999999246e+90
3.090799999999999888e+96
2.834049999999999967e+97
3.355860000000000126e+96
1.108299999999999961e+99
5.260440000000000380e+99
9.203149999999999449e+98
1.375759999999999910e+100
1.182500000000000014e+104
3.962360000000000044e+104
5.479320000000000192e+105
1.039579999999999998e+108
1.226850000000000004e+108
5.181699999999999664e+109
1.826160000000000150e+113
7.277690000000000162e+115
1.490030000000000007e+116
1.242889999999999955e+119
5.103340000000000035e+119
5.750609999999999622e+123
4.469879999999999826e+124
1.337019999999999937e+127
1.243220000000000038e+128
4.679689999999999921e+129
8.915460000000000779e+131
2.427210000000000154e+137
8.140589999999999767e+133
1.348499999999999977e+137
1.010539999999999931e+144
8.710899999999999370e+144
1.156729999999999965e+148
8.365779999999999690e+149
6.175520000000000303e+150
2.755749999999999863e+151
1.377130000000000010e+153
1.910120000000000065e+156
9.639509999999999479e+157
3.344920000000000028e+161
5.999820000000000077e+169
9.222589999999999704e+168
1.449549999999999935e+171
1.392080000000000026e+172
3.157649999999999997e+171
3.061829999999999864e+170
3.784560000000000124e+173
2.108379999999999996e+174
1.628969999999999944e+174
7.805570000000000561e+175
2.306089999999999958e+179
3.378989999999999654e+181
3.848020000000000124e+182
3.148100000000000072e+186
6.912069999999999907e+183
4.623600000000000094e+187
6.590909999999999611e+191
2.226009999999999927e+192
1.352680000000000040e+192
4.601990000000000132e+196
1.293719999999999983e+197
1.343349999999999891e+201
2.832609999999999861e+202
1.877919999999999963e+206
2.647540000000000109e+213
8.003369999999999701e+213
1.424689999999999987e+218
4.540269999999999704e+219
2.262610000000000072e+221
1.651640000000000076e+222
4.880820000000000115e+224
1.228950000000000028e+224
1.452500000000000019e+229
8.728750000000000258e+227
6.271620000000000498e+228
5.901469999999999730e+231
7.588190000000000628e+231
8.945769999999999224e+236
1.476240000000000090e+233
1.402930000000000064e+236
9.234690000000000049e+236
6.041080000000000342e+238
3.228720000000000077e+239
1.334849999999999953e+241
2.240970000000000059e+241
1.472269999999999927e+240
4.043819999999999916e+239
2.821530000000000162e+240
4.226700000000000135e+242
1.109530000000000016e+244
1.769580000000000031e+250
5.885980000000000449e+248
5.485260000000000085e+247
1.373070000000000026e+248
7.600890000000000095e+248
3.958359999999999927e+251
4.229339999999999889e+251
1.068300000000000058e+253
1.418750000000000067e+250
1.737560000000000088e+249
3.843620000000000156e+250
1.750849999999999868e+247
2.807260000000000029e+249
2.486150000000000097e+249
3.089950000000000151e+249
1.908890000000000130e+249
3.786519999999999662e+249
3.229360000000000245e+247
3.783949999999999810e+250
2.701220000000000049e+245
3.295560000000000148e+248
1.556370000000000030e+249
6.021509999999999660e+248
7.439409999999999766e+248
1.058699999999999964e+248
8.172089999999999948e+248
9.769289999999999370e+248
1.075000000000000046e+252
3.331849999999999877e+254
9.559740000000000601e+250
3.061060000000000111e+249
6.889200000000000213e+249
1.340389999999999897e+251
2.517980000000000045e+253
7.256329999999999624e+253
8.525500000000000570e+258
2.040789999999999869e+256
1.086990000000000072e+256
3.642819999999999931e+262
2.621969999999999796e+261
1.562600000000000029e+260
1.358570000000000058e+262
1.023799999999999942e+261
6.098880000000000184e+261
9.553450000000000618e+262
2.198039999999999840e+265
8.605049999999999746e+263
9.539520000000000240e+263
2.776080000000000188e+264
5.749000000000000301e+262
3.874819999999999722e+263
3.076299999999999823e+260
4.577599999999999887e+265
1.186640000000000011e+263
1.813729999999999975e+265
3.625519999999999823e+266
6.956919999999999668e+264
6.707009999999999631e+266
1.685519999999999930e+263
1.211580000000000020e+261
4.244459999999999789e+261
1.457060000000000073e+261
9.492300000000000437e+259
1.879120000000000001e+260
2.693090000000000155e+261
3.616820000000000086e+262
6.993779999999999667e+263
6.432229999999999642e+259
7.481539999999999681e+259
7.331440000000000235e+259
5.559149999999999665e+258
1.581110000000000019e+259
1.321219999999999919e+259
1.856459999999999916e+262
1.024670000000000006e+264
3.061050000000000053e+264
5.378289999999999636e+263
1.662349999999999953e+263
4.754230000000000063e+265
3.124010000000000139e+265
3.969450000000000169e+267
2.281020000000000010e+266
2.707850000000000135e+267
2.577359999999999879e+268
8.333590000000000013e+269
1.958290000000000086e+270
1.248090000000000049e+271
1.671350000000000012e+271
4.884240000000000048e+273
1.245370000000000106e+273
2.778970000000000057e+277
3.319160000000000140e+277
3.794469999999999899e+276
5.613819999999999799e+274
1.421319999999999961e+271
4.366690000000000149e+270
1.497679999999999994e+271
2.533059999999999908e+272
1.282340000000000088e+268
1.020930000000000046e+267
6.778739999999999571e+266
1.650010000000000066e+267
6.987239999999999969e+268
7.437890000000000200e+264
6.429480000000000167e+267
1.641740000000000145e+269
2.065399999999999927e+270
3.232699999999999996e+274
1.085810000000000031e+275
2.374850000000000022e+274
3.393869999999999940e+275
1.089970000000000020e+276
2.980650000000000123e+276
1.064439999999999923e+277
7.125010000000000099e+277
1.505000000000000102e+278
1.775339999999999915e+276
6.482440000000000289e+277
1.077799999999999992e+282
6.579310000000000071e+277
4.293400000000000380e+277
1.886589999999999885e+279
1.044740000000000021e+281
2.098020000000000056e+281
3.801040000000000050e+280
2.918510000000000183e+279
1.579679999999999990e+282
3.302599999999999980e+283
1.122970000000000056e+282
7.945519999999999534e+284
3.458520000000000329e+284
1.154560000000000076e+286
1.186950000000000117e+282
2.159529999999999892e+283
8.035739999999999692e+281
2.548920000000000255e+282
3.153429999999999861e+281
1.029349999999999992e+281
3.095180000000000317e+284
2.002070000000000035e+285
6.884570000000000013e+284
5.841150000000000454e+282
1.250429999999999930e+283
4.403609999999999771e+281
6.242329999999999663e+283
3.457099999999999903e+283
7.454899999999999230e+280
3.341219999999999928e+276
3.978279999999999990e+276
9.568470000000000748e+279
1.084500000000000049e+279
1.017690000000000014e+279
1.541299999999999941e+282
1.868689999999999897e+279
2.041509999999999972e+280
6.180710000000000470e+282
2.984809999999999963e+284
1.976369999999999983e+284
1.284800000000000099e+283
7.048460000000000102e+286
4.855890000000000295e+287
5.067639999999999834e+286
3.763370000000000047e+285
8.252980000000000335e+284
8.451150000000000508e+280
6.555449999999999759e+280
7.693160000000000060e+280
4.608269999999999829e+283
9.823059999999999584e+285
9.192630000000000455e+285
2.483070000000000185e+286
1.129919999999999999e+288
1.925750000000000006e+284
4.692689999999999912e+283
1.627690000000000107e+284
2.635359999999999822e+283
1.341940000000000057e+282
2.531579999999999977e+283
4.636629999999999892e+285
8.749790000000000255e+287
1.692379999999999911e+288
5.365600000000000063e+289
1.536909999999999934e+294
2.529340000000000067e+294
3.255070000000000106e+291
1.212840000000000054e+290
1.019099999999999995e+290
1.527389999999999974e+291
2.580280000000000023e+290
6.685660000000000552e+290
4.070789999999999562e+292
6.492399999999999812e+292
3.131269999999999874e+295
1.996779999999999986e+290
1.945970000000000050e+291
2.064029999999999983e+293
4.494580000000000113e+293
1.683849999999999955e+292
3.195810000000000026e+288
3.098430000000000088e+289
2.419699999999999892e+288
2.220310000000000035e+287
4.097550000000000239e+287
2.363330000000000061e+285
5.848399999999999724e+282
5.020629999999999690e+284
2.171130000000000092e+285
1.454949999999999944e+288
1.073130000000000046e+286
2.906170000000000200e+283
4.592420000000000011e+283
6.537510000000000022e+283
1.167390000000000060e+283
5.945199999999999977e+283
1.033380000000000057e+285
1.424039999999999941e+284
4.341430000000000305e+284
-3.182280000000000067e+284
-1.157320000000000077e+287
-6.473350000000000430e+289
-3.129450000000000185e+290
-8.867190000000000668e+289
-3.043849999999999794e+288
-3.603010000000000216e+291
-6.356460000000000218e+290
-1.723419999999999939e+287
-5.970290000000000211e+290
-7.583959999999999512e+288
-8.501740000000000244e+288
-7.851279999999999776e+289
-4.575750000000000115e+288
-3.480079999999999817e+289
-5.949919999999999841e+287
-5.162679999999999607e+286
-2.314019999999999854e+284
-8.784980000000000066e+283
-1.076369999999999961e+286
-6.046849999999999388e+284
-2.532330000000000012e+282
-1.074289999999999996e+287
-5.102819999999999721e+286
-4.918770000000000368e+289
-2.877380000000000154e+287
-5.521779999999999777e+286
-3.688840000000000317e+287
-1.958169999999999906e+285
-1.903300000000000048e+278
-2.005459999999999946e+279
-1.449679999999999922e+281
-1.817920000000000176e+280
-1.230390000000000085e+283
-7.348269999999999984e+282
-3.452560000000000257e+287
-2.268880000000000058e+285
-8.736490000000000343e+286
-4.413839999999999987e+285
-4.904059999999999840e+286
-8.960809999999999579e+287
-2.858249999999999811e+283
-5.107259999999999678e+281
-5.196379999999999928e+283
-9.185860000000000664e+280
-2.293210000000000125e+282
-7.802720000000000358e+281
-1.592700000000000042e+280
-3.252090000000000022e+279
-9.861330000000000034e+278
-2.429190000000000034e+285
-2.254149999999999818e+286
-1.744319999999999978e+285
-3.213230000000000102e+284
-6.393100000000000180e+282
-1.709589999999999979e+281
-6.549109999999999885e+282
-2.378940000000000116e+279
-9.119619999999999430e+276
-3.539689999999999616e+274
-2.244689999999999984e+275
-4.252549999999999888e+274
-7.020000000000000244e+273
-4.500270000000000188e+269
-5.341110000000000087e+267
-7.761940000000000083e+269
-6.113770000000000192e+269
-2.531460000000000010e+273
-6.535650000000000322e+271
-2.718189999999999897e+272
-3.792609999999999740e+272
-2.276980000000000145e+273
-7.532269999999999993e+274
-7.389630000000000065e+277
-3.385460000000000151e+277
-8.385780000000000464e+275
-1.221950000000000075e+275
-1.101950000000000000e+274
-3.733699999999999941e+276
-1.892879999999999942e+273
-8.016230000000000352e+271
-1.799939999999999900e+269
-4.617790000000000307e+268
-8.026809999999999899e+267
-4.854530000000000188e+269
-4.908139999999999793e+270
-1.509079999999999877e+269
-2.687510000000000123e+275
-1.013250000000000059e+277
-3.608300000000000145e+275
-8.707429999999999951e+277
-8.008769999999999342e+277
-2.922240000000000239e+279
-7.601359999999999562e+276
-6.143699999999999769e+276
-1.105950000000000013e+276
-1.858889999999999804e+277
-4.044030000000000273e+278
-1.826369999999999918e+282
-4.164530000000000206e+282
-2.013590000000000040e+285
-1.781810000000000076e+285
-3.443270000000000119e+286
-4.204829999999999909e+287
-9.575769999999999768e+287
-3.131989999999999808e+286
-7.125339999999999899e+287
-8.629169999999999888e+287
-1.390170000000000042e+286
-1.863019999999999897e+286
-6.806300000000000241e+286
-2.725880000000000128e+288
-1.374710000000000074e+290
-6.060219999999999528e+288
-3.130060000000000159e+288
-8.298740000000000030e+286
-1.725129999999999952e+287
-3.880239999999999878e+289
-9.744099999999999517e+290
-2.182940000000000069e+293
-2.595609999999999880e+293
-5.636680000000000058e+293
-2.923210000000000008e+293
-5.987930000000000353e+292
-3.564910000000000104e+294
-8.607410000000000210e+293
-2.651840000000000021e+296
-4.005439999999999680e+292
-3.801870000000000210e+291
-1.244439999999999956e+290
-3.537369999999999821e+289
-4.799560000000000068e+289
-1.170250000000000046e+288
-8.423969999999999153e+289
-2.499080000000000013e+288
-2.957260000000000252e+288
-5.649379999999999496e+291
-1.405330000000000007e+293
-8.785799999999999729e+292
-5.606039999999999780e+292
-1.491889999999999936e+293
-1.613120000000000090e+294
-2.126910000000000070e+292
-4.726880000000000340e+293
-1.105989999999999956e+294
-3.790680000000000132e+294
-1.866259999999999868e+296
-6.071610000000000322e+295
-1.692810000000000068e+298
-6.227810000000000208e+298
-5.305249999999999880e+297
-1.865569999999999973e+300
-1.015850000000000006e+299
-2.773100000000000008e+296
-4.779460000000000172e+296
-6.167330000000000348e+296
-1.215550000000000026e+297
-3.432889999999999864e+296
-9.475250000000000456e+294
-2.023170000000000059e+294
-1.014960000000000041e+291
-1.383829999999999938e+291
-1.935619999999999904e+290
-2.799169999999999998e+291
-2.111539999999999865e+291
-4.592940000000000324e+289
-4.564150000000000172e+285
-4.510239999999999812e+285
-1.856629999999999889e+287
-5.158979999999999832e+287
-7.024189999999999677e+284
-1.281759999999999870e+285
-1.449700000000000120e+288
-2.841070000000000024e+289
-5.047539999999999912e+288
-1.687100000000000123e+288
-8.600540000000000327e+288
-6.802100000000000133e+290
-4.294149999999999938e+289
-4.312440000000000190e+291
-8.744950000000000609e+290
-1.636939999999999930e+291
-2.394120000000000004e+294
-2.864020000000000096e+294
-1.457990000000000032e+295
-3.731339999999999979e+294
-4.662260000000000219e+296
-9.514210000000000576e+295
-1.655390000000000027e+297
-1.187359999999999959e+298
-5.954410000000000051e+294
-5.534399999999999944e+294
-1.167220000000000064e+296
-2.396839999999999940e+296
-1.148460000000000050e+295
-4.520509999999999672e+298
-4.773900000000000137e+298
-1.132650000000000016e+299
-1.335879999999999968e+300
-2.879549999999999935e+302
-7.485830000000000030e+304
-1.550810000000000080e+305
-5.447799999999999676e+305
-2.733969999999999887e+303
-5.019579999999999768e+303
-2.477830000000000153e+301
-4.540159999999999625e+302
-8.019600000000000228e+298
-1.052130000000000105e+298
-2.107049999999999977e+297
-2.932220000000000108e+296
-2.772150000000000049e+295
-2.821709999999999943e+293
-1.488250000000000112e+295
-2.136309999999999795e+298
-1.192210000000000076e+298
-9.662769999999999911e+298
-1.156500000000000004e+296
-3.203899999999999934e+293
-1.966199999999999883e+296
-1.595169999999999872e+297
-5.898889999999999704e+296
-3.263580000000000128e+299
-9.380129999999999609e+298
-2.324609999999999852e+298
-9.159149999999999674e+300
-5.622690000000000008e+301
-3.231479999999999949e+296
-3.826510000000000073e+301
-6.360849999999999476e+300
-1.703700000000000184e+299
-9.172600000000000266e+297
-1.289000000000000086e+296
-1.579109999999999973e+300
-7.505450000000000001e+296
-6.035550000000000535e+297
-5.622089999999999714e+297
-8.591829999999999105e+295
-1.040430000000000050e+296
-6.328900000000000053e+292
-1.664560000000000045e+292
-1.780459999999999963e+292
-1.208020000000000042e+291
-1.304039999999999948e+289
-2.349989999999999913e+287
-1.830579999999999957e+288
-1.634160000000000012e+289
-1.250660000000000030e+290
-3.669809999999999874e+291
-1.359769999999999905e+289
-1.035610000000000051e+290
-1.259860000000000001e+294
-4.168170000000000330e+295
-1.252030000000000039e+296
-1.693309999999999996e+296
-2.389139999999999939e+298
-9.262840000000000513e+299
-7.528839999999999655e+300
-1.026410000000000034e+301
-1.556250000000000026e+300
-1.302139999999999937e+299
-1.524920000000000057e+298
-2.606930000000000128e+297
-1.378460000000000132e+294
-2.708129999999999934e+292
-3.670549999999999667e+293
-5.654339999999999742e+290
6.068890000000000409e+294
1.938469999999999896e+292
1.826370000000000115e+291
5.422010000000000346e+288
2.394570000000000034e+288
1.401689999999999914e+290
4.782970000000000427e+289
1.096570000000000045e+290
8.363280000000000334e+287
6.894630000000000033e+290
1.081300000000000016e+291
9.840290000000000649e+290
5.353470000000000448e+291
2.436399999999999742e+288
1.747099999999999999e+289
6.876149999999999784e+290
4.366000000000000178e+290
3.594330000000000061e+291
9.909350000000000798e+292
1.959049999999999950e+295
3.410680000000000189e+293
7.075480000000000239e+292
2.880790000000000127e+294
3.203970000000000212e+292
4.625189999999999941e+291
2.917140000000000028e+291
2.594049999999999800e+292
9.401210000000000473e+288
2.383769999999999871e+287
2.358970000000000019e+285
3.597570000000000177e+283
3.437389999999999705e+284
1.872359999999999960e+286
3.180980000000000152e+287
2.373890000000000153e+286
8.499749999999999874e+287
1.480240000000000093e+291
1.205050000000000066e+291
4.795589999999999686e+290
2.172489999999999993e+289
1.849510000000000088e+287
6.773479999999999857e+286
6.250379999999999731e+285
1.142620000000000067e+287
2.943700000000000239e+285
2.161869999999999793e+286
6.928549999999999761e+283
2.063299999999999991e+284
1.106989999999999985e+281
7.678909999999999762e+282
2.252940000000000110e+282
2.018599999999999886e+281
1.075430000000000031e+282
2.312370000000000226e+279
6.734400000000000331e+279
1.075510000000000014e+280
1.199249999999999966e+281
1.116049999999999992e+279
5.142579999999999628e+280
1.269380000000000112e+282
9.942580000000000720e+282
5.760719999999999537e+282
6.160829999999999888e+280
5.548600000000000357e+279
4.252089999999999813e+282
1.587869999999999928e+283
8.239889999999999417e+280
9.078630000000000446e+278
1.098759999999999992e+280
4.504300000000000173e+276
3.749910000000000116e+276
1.583669999999999966e+279
2.811679999999999870e+279
1.450080000000000071e+278
2.233459999999999959e+275
1.496839999999999966e+272
6.151029999999999428e+269
3.543400000000000057e+271
2.498129999999999808e+270
4.600359999999999970e+268
9.793169999999999251e+270
1.779170000000000054e+270
4.188540000000000188e+270
2.982319999999999877e+272
1.077129999999999983e+272
7.711439999999999591e+271
3.245329999999999971e+272
7.598729999999999599e+276
7.372490000000000474e+273
4.028940000000000152e+273
6.769889999999999970e+274
2.947150000000000050e+275
6.219080000000000327e+277
1.618139999999999910e+282
7.025020000000000198e+279
9.885059999999999646e+279
4.894320000000000304e+279
2.053100000000000037e+281
1.072380000000000012e+281
4.383119999999999836e+278
1.122980000000000008e+281
8.557320000000000460e+278
6.851100000000000536e+281
1.995250000000000031e+281
8.442909999999999362e+281
4.840890000000000092e+278
7.172019999999999990e+280
1.438359999999999931e+284
3.584979999999999886e+277
3.036140000000000220e+275
1.108759999999999888e+276
9.482439999999999559e+275
7.074959999999999987e+276
2.192419999999999980e+276
6.008920000000000391e+275
3.118580000000000197e+280
5.028570000000000219e+278
5.508890000000000277e+276
8.497099999999999934e+276
1.343930000000000002e+278
3.473770000000000025e+276
4.981700000000000230e+276
3.368149999999999935e+280
1.686860000000000086e+281
2.922230000000000191e+277
2.179189999999999933e+276
3.835749999999999906e+276
2.464029999999999950e+278
2.791490000000000064e+277
2.129429999999999810e+277
1.539449999999999884e+276
6.111139999999999944e+277
3.269070000000000127e+278
2.464660000000000003e+281
2.119430000000000095e+279
1.062209999999999959e+283
4.449640000000000117e+282
7.967359999999999545e+282
1.562549999999999849e+281
1.189150000000000063e+281
1.332340000000000047e+283
1.033200000000000020e+279
7.138369999999999750e+280
1.531940000000000047e+284
7.820849999999999523e+282
9.743299999999999417e+282
2.277950000000000033e+283
2.752400000000000164e+282
5.984969999999999405e+284
1.087789999999999905e+286
1.832330000000000079e+288
2.447310000000000154e+287
2.394010000000000253e+285
2.205810000000000148e+286
4.773019999999999974e+286
2.572989999999999954e+284
9.957850000000000679e+283
3.749260000000000209e+286
5.605970000000000180e+288
1.634139999999999978e+287
2.859290000000000084e+283
1.073869999999999982e+282
6.716170000000000435e+281
8.483969999999999666e+284
1.663840000000000108e+285
1.397980000000000033e+286
2.339139999999999981e+285
1.290530000000000038e+285
1.235260000000000093e+288
1.620999999999999992e+284
4.553939999999999789e+282
2.560700000000000130e+284
3.959009999999999922e+284
5.074279999999999611e+288
6.843259999999999712e+289
2.182539999999999921e+290
5.472300000000000338e+290
4.526880000000000229e+285
1.046040000000000040e+283
1.876920000000000151e+284
6.676500000000000478e+282
2.000600000000000021e+283
1.700740000000000081e+282
2.675669999999999923e+287
8.720340000000000268e+285
3.662719999999999772e+287
4.189820000000000195e+285
2.968219999999999972e+286
7.246499999999999625e+285
3.962350000000000189e+288
1.437790000000000024e+289
7.187540000000000079e+285
9.274969999999999627e+283
8.802199999999999484e+285
1.659409999999999980e+287
6.473869999999999748e+285
1.258390000000000043e+288
4.236420000000000236e+286
1.431129999999999972e+291
7.122299999999999726e+287
1.171179999999999995e+287
2.177860000000000024e+286
1.604309999999999937e+283
9.908909999999999029e+282
3.663839999999999804e+285
3.951770000000000000e+280
3.975779999999999873e+279
1.749870000000000042e+282
2.753059999999999996e+283
3.910339999999999832e+285
6.206740000000000261e+283
2.667240000000000152e+284
5.596149999999999785e+282
3.175740000000000088e+278
3.509180000000000200e+279
1.470449999999999986e+278
1.269919999999999913e+277
2.396430000000000014e+276
1.071849999999999977e+277
5.927470000000000178e+279
9.459329999999999325e+277
2.000960000000000121e+281
2.079260000000000034e+276
1.332670000000000087e+273
8.620000000000000168e+271
1.381549999999999955e+271
6.976140000000000244e+268
1.375900000000000137e+266
2.050999999999999878e+269
3.055029999999999862e+268
2.063990000000000071e+266
1.168649999999999974e+266
9.159160000000000318e+265
2.403099999999999932e+266
3.725549999999999867e+264
3.748709999999999904e+262
1.866440000000000056e+262
3.413459999999999925e+260
6.196549999999999855e+259
1.287499999999999942e+259
7.473299999999999740e+261
4.409220000000000349e+262
1.238839999999999921e+265
4.837220000000000163e+264
2.581270000000000208e+266
7.001839999999999762e+265
9.321620000000000230e+262
3.700959999999999986e+263
3.092459999999999787e+264
4.044190000000000281e+262
1.857839999999999919e+263
1.009359999999999932e+264
5.163169999999999654e+262
3.224590000000000003e+261
1.754720000000000098e+259
1.022660000000000021e+259
1.945850000000000135e+259
4.437710000000000237e+260
1.402409999999999979e+259
1.085860000000000005e+260
2.242020000000000180e+261
1.353799999999999932e+263
7.122940000000000245e+259
5.933390000000000166e+256
2.292529999999999861e+255
1.774019999999999982e+257
1.509490000000000020e+256
8.805230000000000632e+255
2.346539999999999926e+255
1.384849999999999898e+255
1.291719999999999972e+255
1.550150000000000117e+254
7.245379999999999595e+256
1.553809999999999937e+258
1.043160000000000009e+257
1.886590000000000127e+254
4.129339999999999961e+251
1.847129999999999942e+254
3.428359999999999773e+254
5.262999999999999710e+258
3.390570000000000132e+260
9.757929999999999701e+260
9.510319999999999345e+256
4.206809999999999766e+254
4.211690000000000043e+255
3.249060000000000235e+254
8.054000000000000266e+253
9.969910000000000115e+251
2.655550000000000124e+253
2.015639999999999948e+256
-3.280219999999999801e+259
-5.886249999999999813e+260
-1.293519999999999996e+264
-6.145279999999999954e+260
-4.456789999999999598e+258
-8.906969999999999457e+259
-2.302299999999999927e+263
-5.423069999999999962e+264
-4.767930000000000095e+266
-4.272880000000000258e+265
-7.833699999999999739e+265
-1.160850000000000039e+266
-2.003029999999999898e+268
-3.832360000000000102e+266
-5.647699999999999859e+264
-2.409250000000000081e+264
-1.119329999999999916e+265
-4.696690000000000044e+266
-1.618739999999999893e+266
-5.900980000000000322e+262
-2.748000000000000098e+265
-1.028879999999999991e+263
-5.082869999999999705e+261
-5.505300000000000230e+262
-4.146070000000000025e+263
-1.690129999999999901e+264
-1.130409999999999938e+262
-1.455980000000000121e+263
-1.269509999999999893e+264
-1.091599999999999974e+266
-1.004950000000000053e+264
-1.534630000000000070e+260
-4.343069999999999779e+257
-1.462740000000000091e+258
-1.564529999999999887e+259
-5.643939999999999886e+257
-5.079180000000000070e+254
-7.042879999999999941e+255
-4.108119999999999735e+258
-1.664810000000000087e+256
-1.115539999999999909e+252
-1.458970000000000055e+252
-5.290810000000000359e+255
-8.537540000000000332e+257
-1.145420000000000101e+258
-1.937399999999999859e+258
-1.462820000000000043e+260
-8.679170000000000201e+259
-8.331189999999999746e+260
-2.910790000000000032e+262
-8.326279999999999929e+256
-7.795089999999999694e+258
-2.515680000000000116e+261
-1.741029999999999970e+262
-7.310090000000000493e+260
-1.095520000000000081e+262
-2.064679999999999856e+259
-1.402110000000000055e+257
-1.755670000000000001e+257
-3.369590000000000061e+258
-1.859699999999999942e+257
-2.233579999999999917e+259
-2.784809999999999987e+260
-5.701519999999999644e+260
-1.228620000000000009e+262
-3.166130000000000140e+264
-4.195579999999999612e+267
-2.532490000000000094e+268
-2.085130000000000103e+269
-2.542850000000000057e+267
-7.758760000000000020e+266
-5.775859999999999639e+266
-6.693080000000000336e+264
-1.506949999999999925e+266
-4.007659999999999991e+267
-6.613379999999999985e+265
-8.483640000000000658e+267
-4.567189999999999926e+266
-4.648980000000000234e+266
-1.178459999999999953e+267
-8.390660000000000624e+267
-8.770120000000000403e+269
-2.142449999999999994e+271
-3.465740000000000155e+271
-3.583060000000000037e+271
-2.160220000000000060e+269
-7.719759999999999660e+267
-8.910580000000000541e+269
-7.315739999999999558e+267
-9.882189999999999547e+268
-4.441499999999999913e+266
-1.935419999999999871e+266
-4.306789999999999886e+265
-4.523580000000000097e+266
-7.269260000000000430e+267
-4.780039999999999880e+266
-2.331490000000000057e+267
-7.147969999999999672e+266
-1.632639999999999938e+266
-6.421290000000000178e+267
-1.384039999999999910e+268
-3.311180000000000284e+266
-6.277339999999999837e+267
-1.236349999999999992e+269
-1.485699999999999964e+271
-1.266589999999999961e+269
-9.201940000000000237e+266
-1.300080000000000038e+265
-1.220739999999999974e+263
-1.263930000000000014e+263
-5.282980000000000295e+259
-6.276530000000000013e+259
-8.185799999999999498e+260
-5.555730000000000038e+261
-9.849180000000000200e+261
-8.051140000000000484e+263
-1.697719999999999914e+261
-3.918139999999999824e+261
-3.126659999999999695e+259
-5.233720000000000239e+256
-1.808330000000000117e+256
-8.950210000000000331e+254
-2.894490000000000001e+254
-1.332700000000000032e+254
-5.373030000000000132e+254
-1.174369999999999990e+254
-1.714519999999999950e+254
-3.370690000000000133e+251
-3.087509999999999781e+251
-2.526809999999999925e+252
-1.664459999999999986e+250
-1.316820000000000031e+250
-3.496410000000000113e+248
-2.620310000000000190e+249
-2.438160000000000112e+244
-1.029229999999999998e+246
-2.454889999999999948e+245
-8.329389999999999667e+244
-3.743799999999999754e+244
-6.903709999999999970e+246
-3.171900000000000158e+249
-9.321770000000000100e+246
-2.112530000000000073e+246
-1.613609999999999957e+247
-1.086380000000000012e+249
-1.806500000000000105e+247
-4.527359999999999619e+245
-1.074840000000000030e+243
-1.240040000000000009e+243
-1.385549999999999962e+245
-5.281399999999999689e+243
-4.668179999999999726e+247
-2.353440000000000153e+248
-8.463239999999999860e+248
-1.002079999999999946e+247
-1.626610000000000012e+250
-2.019739999999999924e+250
-1.325309999999999884e+248
-7.117980000000000328e+250
-1.877870000000000036e+249
-7.083860000000000261e+254
-5.337180000000000504e+254
-3.599509999999999948e+255
-8.361859999999999563e+255
-1.464400000000000020e+256
-5.231380000000000257e+255
-1.216049999999999902e+255
-3.250929999999999932e+254
-5.132599999999999929e+252
-8.019229999999999429e+253
-4.420510000000000126e+254
-4.334530000000000036e+253
-1.011479999999999957e+254
-6.672319999999999743e+252
-7.371810000000000514e+257
-3.208329999999999913e+254
-2.674480000000000034e+251
-1.623899999999999978e+249
-8.796440000000000106e+247
-3.193630000000000191e+249
-7.170929999999999908e+249
-7.872099999999999314e+252
-1.881069999999999851e+253
-7.848319999999999391e+253
-6.332470000000000397e+251
-4.999920000000000365e+249
-2.592570000000000156e+251
-1.015499999999999966e+252
-2.019840000000000087e+250
-6.650789999999999961e+252
-4.516469999999999905e+251
-9.108610000000000153e+250
-5.797939999999999761e+253
-1.163539999999999956e+252
-2.099990000000000072e+252
-1.181889999999999939e+253
-1.502309999999999982e+254
-1.757100000000000073e+251
-2.196650000000000103e+252
-1.922499999999999999e+251
-2.866890000000000118e+251
-8.744770000000000460e+248
-5.058150000000000149e+248
-1.215119999999999958e+250
-9.113209999999999498e+248
-5.795989999999999526e+250
-2.636100000000000045e+252
-7.797180000000000113e+254
-4.149489999999999706e+253
-5.139659999999999844e+253
-4.443620000000000251e+256
-2.907349999999999829e+257
-1.747370000000000092e+257
-6.754319999999999686e+257
-5.613150000000000071e+256
-8.962580000000000403e+254
-1.822530000000000082e+252
-4.871210000000000268e+252
-8.202700000000000511e+257
-5.981549999999999733e+254
-1.254829999999999967e+253
-4.084749999999999787e+252
-3.285480000000000066e+251
-5.962639999999999791e+248
-1.426309999999999938e+253
-1.577529999999999901e+251
-1.532099999999999979e+251
-7.021540000000000124e+251
-4.595479999999999906e+256
-7.472079999999999903e+256
-5.421400000000000228e+256
-4.264700000000000178e+258
-1.477639999999999981e+260
-1.051050000000000096e+261
-6.110130000000000033e+259
-2.846870000000000104e+260
-7.849129999999999767e+263
-1.776420000000000011e+267
-5.576949999999999732e+264
-2.341740000000000058e+264
-8.652590000000000359e+262
-4.198919999999999950e+263
-9.240600000000000126e+260
-1.126479999999999889e+264
-8.676089999999999762e+262
-1.165860000000000043e+264
-2.550579999999999840e+264
-5.986020000000000018e+263
-1.403620000000000065e+263
-9.900060000000000179e+264
-1.109170000000000043e+265
-2.856499999999999995e+265
-1.300560000000000048e+267
-1.212089999999999926e+271
-4.592329999999999731e+272
-3.382919999999999986e+269
-9.166830000000000216e+268
-9.688720000000000681e+265
-7.524579999999999968e+266
-5.003280000000000197e+263
-4.363390000000000144e+262
-3.370240000000000096e+261
-5.677600000000000059e+263
-1.400349999999999994e+261
-1.152199999999999946e+262
-2.299849999999999946e+265
-1.322199999999999991e+264
-1.368430000000000098e+264
-5.307420000000000003e+263
-1.128900000000000038e+265
-5.678660000000000190e+265
-9.430409999999999793e+263
-4.843640000000000007e+266
-3.893190000000000078e+267
-1.019870000000000007e+269
-8.239330000000000490e+265
-1.305300000000000055e+265
-7.369059999999999571e+257
-1.355940000000000043e+261
-3.716290000000000133e+258
-2.617160000000000060e+257
-3.681660000000000093e+257
-1.110530000000000061e+259
-3.262510000000000036e+256
-2.107539999999999958e+257
-8.262250000000000496e+257
-4.673190000000000018e+259
