2.804559999999999942e+00
3.359269999999999978e+00
2.283829999999999927e+03
4.413499999999999801e+01
5.974360000000000070e+01
2.609519999999999982e+02
2.066960000000000000e+06
1.016800000000000000e+07
1.033380000000000000e+06
1.960140000000000000e+08
5.795580000000000000e+07
2.794100000000000000e+10
3.109440000000000000e+12
8.306710000000000000e+11
2.758710000000000000e+11
1.035210000000000000e+12
1.509300000000000000e+10
3.941390000000000000e+11
3.338680000000000000e+13
4.126390000000000000e+11
1.958280000000000000e+12
5.309520000000000000e+12
5.469900000000000000e+13
1.252230000000000000e+14
7.991110000000000000e+14
1.330420000000000000e+15
4.414660000000000000e+16
1.671390000000000000e+16
1.742310000000000000e+18
5.166550000000000000e+19
5.666140000000000236e+22
3.493820000000000026e+22
2.764339999999999995e+23
5.411119999999999887e+24
3.782099999999999985e+26
8.697000000000000126e+27
2.867399999999999968e+28
1.676350000000000075e+30
3.744379999999999868e+31
1.677840000000000135e+32
4.431280000000000293e+32
6.365230000000000103e+33
5.271009999999999699e+35
1.247450000000000050e+36
1.387120000000000083e+35
9.660690000000000304e+36
1.597500000000000010e+37
1.437769999999999955e+38
2.432250000000000000e+38
3.304070000000000046e+38
1.021969999999999956e+38
1.267510000000000111e+40
1.495369999999999889e+43
1.837230000000000114e+43
1.346339999999999996e+44
6.801219999999999606e+46
2.612280000000000143e+48
9.893090000000000444e+48
1.225530000000000098e+52
3.647780000000000249e+51
2.714030000000000030e+53
8.590530000000000080e+54
2.962890000000000141e+54
1.042260000000000053e+55
1.558889999999999915e+57
-1.569609999999999896e+57
-1.098750000000000040e+59
-4.523509999999999898e+58
3.528129999999999963e+63
3.603660000000000196e+62
9.614019999999999823e+63
2.084290000000000014e+65
-5.445870000000000036e+67
-5.981950000000000185e+68
-7.523200000000000043e+69
-7.843979999999999875e+71
9.517729999999999993e+72
1.007810000000000013e+73
7.925149999999999646e+74
6.585630000000000215e+76
9.063220000000000189e+78
1.589020000000000097e+77
4.119629999999999767e+79
1.680740000000000090e+79
3.435309999999999949e+79
1.667740000000000078e+80
2.062190000000000065e+81
7.099820000000000511e+82
3.129259999999999675e+85
1.377390000000000072e+87
1.727179999999999882e+86
1.252350000000000040e+88
1.143300000000000025e+89
1.085690000000000072e+87
4.367350000000000104e+89
1.177679999999999937e+90
1.702499999999999889e+90
6.573749999999999561e+90
1.051640000000000015e+91
9.572579999999999568e+91
4.719980000000000377e+93
7.729540000000000381e+94
1.446039999999999924e+96
9.530250000000000128e+93
3.546390000000000153e+94
2.321470000000000213e+96
5.089039999999999819e+96
4.719740000000000220e+97
6.576219999999999780e+99
2.306680000000000127e+101
2.429149999999999913e+100
3.310040000000000148e+101
9.995509999999999477e+102
9.518099999999999775e+105
1.364270000000000121e+105
3.754519999999999776e+107
6.261299999999999704e+111
2.600009999999999984e+111
2.988210000000000093e+113
4.494740000000000128e+116
2.561010000000000129e+116
2.501260000000000068e+116
5.078279999999999872e+114
1.443130000000000004e+115
3.296900000000000192e+118
2.989949999999999941e+119
4.482029999999999809e+118
2.040790000000000110e+119
1.831110000000000135e+120
1.876449999999999889e+121
3.068670000000000148e+122
3.461220000000000250e+122
1.594719999999999855e+123
3.788270000000000087e+123
1.596589999999999916e+124
9.369210000000000515e+124
2.252369999999999897e+124
1.105349999999999906e+124
1.642590000000000120e+126
4.880680000000000316e+127
1.383650000000000000e+129
6.604759999999999561e+129
1.663100000000000011e+129
3.374339999999999882e+129
1.385829999999999934e+128
2.598229999999999914e+129
4.424509999999999900e+128
7.337469999999999820e+129
1.814430000000000068e+129
1.169779999999999942e+130
6.208450000000000031e+130
3.034999999999999845e+131
4.236810000000000021e+133
1.732949999999999917e+134
1.171979999999999970e+131
1.558880000000000045e+130
9.589010000000000476e+127
2.783080000000000181e+129
3.586320000000000100e+129
1.555530000000000065e+131
9.128100000000000097e+133
5.913259999999999777e+133
3.402219999999999809e+134
8.056369999999999822e+133
2.158729999999999978e+134
1.132380000000000058e+135
4.209090000000000036e+133
1.007600000000000089e+134
3.969260000000000310e+134
1.963459999999999931e+134
2.902050000000000194e+133
4.168660000000000169e+133
1.633410000000000010e+134
2.553130000000000070e+133
3.558900000000000067e+134
9.264979999999999532e+135
-2.874420000000000079e+133
-1.964750000000000093e+134
-4.938240000000000150e+131
1.836200000000000139e+134
-1.158860000000000071e+134
-3.287030000000000012e+134
-3.611839999999999800e+134
-1.099399999999999954e+133
-4.233389999999999875e+135
-4.765549999999999691e+135
-1.095689999999999917e+134
-2.372429999999999961e+136
-3.179100000000000072e+136
-6.529779999999999827e+137
-3.862879999999999874e+138
-1.252139999999999974e+138
-3.428199999999999912e+140
-4.719300000000000231e+141
-4.567049999999999908e+141
-4.478040000000000406e+143
-1.340600000000000046e+141
4.549109999999999689e+140
2.043409999999999962e+141
4.941250000000000116e+143
-2.232339999999999930e+146
-3.124889999999999870e+146
-4.375869999999999981e+146
-5.017499999999999757e+145
-4.772109999999999644e+146
-4.290220000000000105e+147
-4.567120000000000345e+147
-1.682920000000000142e+148
-3.981310000000000327e+147
-2.486799999999999999e+148
-1.300709999999999946e+150
-5.053889999999999565e+152
-2.416610000000000116e+152
-3.458970000000000208e+152
-8.497110000000000669e+153
-2.986769999999999751e+154
-3.286999999999999892e+154
-3.667070000000000127e+153
-2.967459999999999898e+153
-1.588849999999999857e+154
-4.375050000000000053e+155
-1.407920000000000098e+157
-1.465669999999999925e+157
-7.781420000000000176e+158
-3.878470000000000060e+159
-1.792730000000000060e+163
-3.351629999999999884e+163
-5.380300000000000248e+163
-2.015039999999999907e+161
-8.130759999999999773e+158
-9.823900000000000227e+159
-1.804179999999999987e+161
-4.608430000000000103e+161
-8.878350000000000141e+159
-6.800270000000000107e+159
-6.094660000000000395e+158
-1.318630000000000054e+158
-2.017650000000000007e+158
-1.881270000000000014e+157
-1.194100000000000028e+157
-2.543989999999999804e+155
-3.593730000000000199e+155
-2.054739999999999932e+157
-2.709239999999999955e+158
-2.870009999999999844e+158
-3.755609999999999903e+158
-4.073629999999999966e+158
-7.198160000000000278e+156
-1.068529999999999967e+156
-6.121609999999999557e+155
-7.768620000000000634e+156
-6.212440000000000231e+155
-2.372970000000000185e+156
-3.840630000000000108e+156
-1.716439999999999896e+158
-8.079089999999999327e+159
-8.315110000000000336e+160
-1.038099999999999945e+163
-3.262380000000000103e+160
-6.116240000000000401e+160
-7.492869999999999289e+159
-2.668719999999999951e+161
-9.375920000000000502e+158
-4.405540000000000269e+158
-9.381839999999999462e+160
-3.262620000000000006e+160
-3.116770000000000141e+160
-5.767190000000000152e+159
-1.009610000000000011e+159
-1.897990000000000003e+158
-7.888669999999999865e+160
-3.795159999999999786e+159
-6.902950000000000486e+158
-1.849079999999999934e+160
-8.171500000000000398e+161
-4.872459999999999795e+163
-5.030519999999999969e+163
-1.894289999999999875e+162
-7.734069999999999973e+164
-2.291690000000000041e+163
-6.174360000000000088e+162
-2.331899999999999977e+161
-9.664900000000000188e+160
-3.727069999999999863e+159
-5.887570000000000206e+158
-1.913680000000000149e+159
-1.477670000000000074e+159
-1.318449999999999981e+160
-3.392110000000000161e+162
-1.925360000000000114e+164
-1.248349999999999917e+164
-3.213340000000000095e+165
-2.239459999999999842e+163
-3.454609999999999810e+165
-2.741569999999999911e+164
-3.369830000000000066e+163
-1.850430000000000085e+165
-4.746619999999999648e+165
-1.582349999999999912e+167
-2.191389999999999900e+167
-5.671119999999999966e+166
-3.225150000000000118e+167
-1.669960000000000033e+169
-7.064650000000000460e+170
-1.846140000000000097e+171
-1.378949999999999961e+172
-1.758689999999999904e+172
-1.571630000000000043e+173
-7.481539999999999704e+174
-1.100719999999999941e+174
-1.625509999999999992e+174
-5.426429999999999906e+178
-2.092390000000000146e+178
-1.875799999999999975e+180
-1.136780000000000008e+179
-5.150590000000000164e+178
-3.211289999999999824e+179
-3.629669999999999940e+180
-6.294089999999999765e+180
-2.127480000000000113e+181
-2.021040000000000147e+182
-9.299160000000000306e+181
-7.075960000000000418e+182
-1.402240000000000010e+183
-1.448089999999999930e+183
-3.442010000000000176e+183
-2.291240000000000005e+183
-2.460629999999999781e+183
-2.961419999999999958e+183
1.599009999999999952e+183
-5.686799999999999655e+183
-1.124220000000000057e+184
-5.224479999999999775e+182
-2.889399999999999899e+182
-3.158479999999999915e+181
-7.986719999999999613e+181
-1.330920000000000045e+180
-6.772009999999999762e+179
-1.259899999999999967e+182
-2.084939999999999953e+180
-3.234469999999999982e+180
-1.008719999999999980e+181
-5.042439999999999654e+181
-6.542530000000000202e+182
-3.190230000000000115e+181
-1.712319999999999961e+182
-1.003340000000000088e+181
-1.320099999999999982e+183
-1.139699999999999949e+181
-2.323540000000000043e+181
-4.383530000000000099e+180
-1.523670000000000025e+180
-1.216999999999999956e+179
-1.099750000000000013e+181
-1.572009999999999926e+182
-4.615709999999999716e+182
-5.847320000000000204e+181
-1.759659999999999927e+182
-5.106220000000000204e+179
-5.934630000000000125e+180
-6.229050000000000099e+181
-6.927290000000000309e+183
-3.032420000000000120e+183
-1.216460000000000110e+180
-1.762890000000000106e+179
-1.930049999999999911e+179
-1.766080000000000105e+181
-2.092710000000000108e+182
-1.139220000000000064e+183
-1.916840000000000128e+185
-1.134079999999999980e+186
-3.004880000000000264e+188
-1.974870000000000023e+188
-1.076440000000000029e+186
-7.810499999999999720e+185
-3.021589999999999843e+183
-6.196909999999999838e+181
-2.075770000000000032e+180
-1.412980000000000109e+180
-7.103120000000000551e+179
-5.228769999999999733e+178
-4.804410000000000062e+176
-7.394170000000000281e+177
-2.644730000000000066e+179
-3.910630000000000198e+177
-4.024930000000000038e+177
-1.985530000000000047e+177
-1.278010000000000056e+179
-2.013389999999999931e+179
-9.113159999999999317e+178
-2.500089999999999926e+178
-3.188629999999999903e+178
-1.158179999999999928e+179
-3.886589999999999867e+177
-1.942040000000000056e+175
-1.278950000000000042e+174
-9.052329999999999345e+174
-1.828009999999999918e+174
-9.475359999999999581e+172
-4.539619999999999919e+174
-1.056190000000000025e+174
-1.546310000000000067e+175
-2.110280000000000099e+175
-1.475860000000000020e+177
-2.712040000000000028e+178
-4.141750000000000150e+177
-3.450079999999999944e+177
-1.745510000000000026e+175
-2.451790000000000194e+174
-8.056340000000000109e+175
-1.581419999999999895e+177
-7.519269999999999519e+176
-4.190729999999999657e+177
-4.260380000000000068e+179
-7.194089999999999589e+179
-1.472560000000000099e+179
-5.188799999999999511e+179
-5.476930000000000080e+179
-3.213130000000000084e+178
-5.818500000000000298e+177
-6.274789999999999756e+178
-1.930840000000000014e+179
-6.599429999999999597e+179
-2.103760000000000177e+177
-5.466480000000000512e+176
-2.329319999999999974e+176
-1.713090000000000009e+175
-2.093339999999999955e+177
-4.040300000000000200e+177
-1.332910000000000113e+179
4.425380000000000201e+179
1.284060000000000021e+179
-1.739990000000000085e+179
-6.833859999999999671e+179
-6.585550000000000062e+179
-2.563469999999999903e+179
-5.250369999999999570e+180
-6.447730000000000049e+180
-2.239000000000000141e+182
-9.261670000000000106e+182
-1.294450000000000021e+183
-1.204330000000000048e+184
-6.851690000000000376e+183
-1.259769999999999951e+183
-6.978559999999999539e+184
-7.023060000000000454e+183
-1.135040000000000056e+187
-4.561860000000000190e+187
-1.988839999999999921e+189
-1.886710000000000185e+190
-1.814980000000000121e+190
-8.540049999999999438e+191
-1.904230000000000087e+193
-3.580269999999999784e+197
-8.960920000000000519e+197
-1.070979999999999953e+198
-8.019330000000000335e+195
-6.838769999999999661e+195
-1.933290000000000068e+196
-1.620649999999999940e+196
-2.797220000000000203e+196
-2.206440000000000075e+194
-5.173100000000000265e+193
-1.510789999999999851e+194
-4.555370000000000150e+192
-1.516589999999999912e+194
-3.267659999999999804e+192
-5.184960000000000153e+191
-8.590280000000000016e+192
-7.346309999999999445e+191
-8.001309999999999370e+191
-7.138049999999999591e+190
-4.611320000000000144e+189
-2.703660000000000178e+189
-8.440360000000000544e+188
-3.645270000000000148e+187
-9.856020000000000731e+187
-1.927019999999999885e+186
-7.355630000000000391e+187
-1.367690000000000051e+187
-2.888789999999999934e+186
-1.479370000000000072e+184
-2.957599999999999937e+184
-6.640139999999999897e+185
-1.539110000000000114e+186
-3.315400000000000018e+184
-3.236579999999999727e+185
-5.300720000000000046e+185
-1.213479999999999949e+184
-3.231629999999999899e+181
-2.944679999999999954e+181
-1.732270000000000012e+178
-2.742249999999999985e+180
-1.752499999999999945e+183
-1.621540000000000009e+181
-7.101169999999999557e+180
-1.325260000000000072e+181
-1.800969999999999924e+182
-2.070909999999999992e+186
-2.320619999999999990e+184
-3.124030000000000057e+184
-3.590559999999999832e+186
-4.997760000000000373e+186
-3.244450000000000016e+186
-2.948490000000000208e+189
-1.294990000000000060e+188
-3.944460000000000378e+187
-1.745690000000000005e+186
-1.496769999999999909e+184
-2.665310000000000228e+183
-6.958169999999999922e+183
-6.529009999999999983e+186
-4.518969999999999792e+186
-2.748330000000000182e+187
-3.972540000000000036e+188
-1.915099999999999885e+190
-9.488000000000000081e+190
-2.460989999999999965e+190
-1.120259999999999934e+190
-6.276899999999999454e+188
-1.213629999999999925e+189
-3.123620000000000036e+190
-3.742620000000000074e+189
-1.504970000000000057e+188
-3.214810000000000072e+189
-1.830269999999999898e+191
-1.725869999999999945e+190
-3.041020000000000080e+193
-1.435850000000000005e+194
-5.007010000000000288e+195
-2.838250000000000167e+195
-1.033649999999999930e+196
-1.144719999999999971e+195
-5.735380000000000073e+194
-4.507300000000000367e+193
-3.551200000000000094e+193
-1.609359999999999981e+192
-1.686449999999999929e+195
-8.304640000000000183e+196
-6.088659999999999829e+196
-2.133849999999999886e+196
-1.656979999999999948e+197
-1.564150000000000119e+198
-1.125970000000000009e+200
4.698590000000000246e+201
6.532729999999999933e+202
1.567219999999999997e+201
4.586170000000000049e+201
-4.112600000000000022e+202
-1.765699999999999996e+201
-1.448089999999999966e+200
-2.001020000000000109e+198
5.192840000000000016e+197
1.191759999999999977e+199
-2.025250000000000145e+200
-4.839929999999999876e+202
1.051330000000000012e+205
1.900040000000000016e+204
8.535649999999999589e+201
4.018059999999999701e+202
8.275299999999999720e+203
4.415349999999999841e+203
2.035190000000000149e+205
2.517400000000000043e+206
1.151099999999999962e+206
9.130790000000000506e+207
8.416649999999999797e+207
1.522140000000000010e+207
8.188419999999999946e+206
1.869009999999999976e+205
4.308569999999999966e+203
3.680960000000000160e+202
1.395880000000000011e+201
1.641589999999999976e+200
1.830270000000000119e+198
2.941629999999999962e+200
1.231520000000000001e+201
2.881100000000000166e+201
8.632449999999999872e+201
1.052389999999999986e+202
1.686369999999999900e+204
3.986269999999999898e+206
1.316400000000000052e+207
1.748719999999999843e+206
5.058029999999999623e+208
3.835799999999999827e+209
4.451050000000000205e+209
6.959340000000000543e+210
5.353749999999999629e+210
2.228139999999999921e+212
1.404510000000000147e+213
6.255130000000000049e+213
1.383709999999999939e+215
1.046239999999999986e+214
2.343730000000000071e+213
3.147159999999999822e+214
1.703779999999999987e+215
6.933809999999999946e+216
8.521159999999999486e+216
4.232810000000000302e+216
9.803689999999999122e+217
1.293920000000000042e+220
1.628990000000000096e+220
6.237800000000000324e+220
4.026430000000000241e+219
4.574240000000000018e+219
7.100360000000000233e+217
1.153210000000000028e+216
1.415889999999999879e+217
6.764290000000000052e+218
2.521380000000000079e+215
8.769769999999999615e+215
2.673679999999999762e+217
7.979330000000000387e+215
8.504770000000000306e+218
5.130690000000000248e+219
9.596789999999999985e+218
5.842219999999999946e+217
5.708090000000000332e+217
4.155930000000000022e+218
5.926049999999999818e+217
1.219299999999999957e+218
9.658769999999999408e+216
1.202289999999999928e+218
3.327389999999999991e+218
1.526190000000000091e+220
2.101869999999999947e+219
3.023400000000000182e+219
3.034579999999999850e+220
4.403369999999999904e+220
8.228820000000000433e+220
1.324920000000000082e+220
3.496640000000000146e+219
5.050659999999999704e+219
6.656130000000000054e+217
1.205359999999999937e+217
5.761630000000000322e+218
3.429629999999999945e+219
3.215810000000000009e+219
2.539629999999999886e+216
1.347610000000000077e+218
6.392800000000000151e+218
1.130609999999999909e+218
4.656569999999999994e+219
3.096890000000000120e+216
1.359249999999999992e+216
2.064169999999999960e+215
1.500639999999999934e+212
4.882430000000000158e+209
2.391300000000000096e+209
2.348849999999999781e+208
5.920739999999999903e+208
5.612779999999999811e+209
3.717289999999999938e+209
3.064329999999999997e+210
4.098630000000000216e+211
1.034440000000000018e+210
4.876410000000000243e+209
4.434179999999999730e+210
3.054599999999999815e+211
2.479540000000000149e+208
1.814479999999999933e+208
-1.876930000000000038e+208
-1.420169999999999967e+206
1.981409999999999945e+205
2.002779999999999899e+206
-3.341850000000000138e+208
-1.176760000000000018e+209
8.939380000000000563e+210
3.255019999999999840e+211
6.052569999999999716e+212
2.142829999999999901e+213
3.339139999999999909e+214
8.079380000000000540e+213
5.479580000000000045e+213
8.036299999999999864e+214
8.052129999999999656e+215
1.816799999999999966e+215
1.295850000000000074e+215
6.527389999999999962e+216
-3.088929999999999930e+217
-7.722810000000000686e+215
-1.966640000000000078e+217
-1.866839999999999944e+216
-1.766600000000000021e+216
-1.440910000000000021e+215
-2.851860000000000119e+215
-2.955109999999999826e+215
-1.703000000000000069e+218
-3.343439999999999880e+220
-3.847620000000000088e+223
-4.619700000000000086e+222
-1.388099999999999988e+224
-1.454399999999999929e+225
-5.351889999999999785e+225
-1.666650000000000003e+223
-4.447959999999999950e+221
-9.786330000000000191e+220
-1.778549999999999876e+220
-3.337129999999999945e+219
-1.332379999999999992e+218
-1.992479999999999949e+217
-9.015800000000000375e+218
-1.199730000000000046e+218
-8.420659999999999767e+216
-4.419600000000000107e+217
-2.452620000000000005e+216
-5.374419999999999848e+214
-5.312750000000000351e+214
-4.643019999999999799e+213
-5.281999999999999901e+213
-2.804630000000000150e+212
-2.143490000000000149e+215
-3.489859999999999646e+215
-7.173670000000000059e+214
-5.880769999999999780e+216
-1.706490000000000075e+217
-2.461250000000000227e+211
-5.020469999999999664e+212
-1.026999999999999955e+213
-2.042880000000000145e+210
-1.445490000000000062e+212
-4.487459999999999861e+210
-4.536599999999999892e+213
-1.233539999999999901e+214
-5.592010000000000390e+213
-4.890310000000000235e+213
-7.864650000000000382e+212
-2.767149999999999859e+212
-3.070470000000000046e+214
-7.493760000000000026e+215
-2.234919999999999992e+215
-2.260840000000000203e+214
-2.654669999999999865e+213
-7.594730000000000111e+213
-2.104769999999999942e+213
-1.607240000000000005e+214
-2.764020000000000173e+215
-8.567640000000000307e+212
-2.946640000000000155e+213
-1.181309999999999948e+214
-2.243020000000000222e+211
-1.782280000000000085e+212
-3.745120000000000208e+211
-1.891170000000000078e+212
-2.318079999999999822e+212
-3.118509999999999816e+211
-2.332079999999999887e+212
-1.674250000000000056e+211
-2.744259999999999797e+210
-1.007000000000000012e+211
-4.231049999999999780e+209
-1.613359999999999996e+210
-1.943000000000000116e+210
-2.057669999999999893e+211
-8.485839999999999429e+210
-5.087180000000000015e+211
-6.015420000000000436e+211
-1.647439999999999920e+211
-5.127339999999999871e+210
-1.565300000000000045e+211
-3.270659999999999943e+210
-9.124769999999999541e+209
-1.070930000000000061e+209
-5.382889999999999964e+210
-2.323350000000000035e+210
-1.989350000000000094e+213
-3.113299999999999911e+215
7.450490000000000355e+213
-7.486059999999999695e+212
-4.111770000000000223e+211
-3.892760000000000215e+211
-7.171750000000000188e+211
-1.162639999999999954e+213
-2.754590000000000063e+215
-7.674490000000000442e+214
-4.164470000000000163e+214
-1.988889999999999884e+216
-1.605009999999999908e+217
-6.413219999999999737e+217
-1.472599999999999955e+220
-3.662730000000000021e+218
-7.404290000000000419e+219
-5.202079999999999787e+221
-5.807809999999999628e+221
3.374239999999999972e+222
-6.036570000000000058e+223
-8.417099999999999227e+221
2.731229999999999862e+222
2.255150000000000006e+224
3.218219999999999964e+223
1.640949999999999983e+223
6.451289999999999971e+224
9.729679999999999996e+224
7.793000000000000392e+224
3.372720000000000147e+224
-2.490440000000000155e+225
6.057789999999999880e+226
1.201980000000000061e+228
1.334630000000000024e+227
1.578799999999999869e+228
2.073239999999999815e+227
3.758709999999999905e+227
3.094509999999999987e+226
1.949360000000000024e+227
5.548620000000000158e+225
7.765750000000000053e+225
1.432860000000000057e+224
-6.909710000000000424e+222
-2.526099999999999945e+223
-9.914490000000000566e+222
-5.445550000000000124e+224
-2.737859999999999856e+226
-9.486039999999999005e+226
-1.183529999999999944e+227
-7.928559999999999805e+226
-1.870229999999999854e+228
-2.892640000000000131e+228
-7.877950000000000625e+228
-5.664110000000000154e+226
-8.964910000000000656e+225
-7.470029999999999613e+226
-1.451139999999999947e+225
-1.449080000000000020e+224
-2.609500000000000148e+228
-6.525349999999999393e+225
-6.615770000000000260e+226
-1.946199999999999974e+227
-2.724069999999999754e+229
-3.051009999999999804e+228
-6.502819999999999367e+225
-6.353279999999999735e+225
-9.671800000000000296e+223
-4.897740000000000093e+224
-8.714699999999999375e+224
-1.261650000000000096e+223
-5.799580000000000513e+223
-1.136390000000000067e+227
-7.207300000000000612e+228
-1.258590000000000041e+228
-3.910150000000000008e+227
-2.001800000000000140e+228
-6.506300000000000021e+227
-1.467099999999999907e+227
-1.861120000000000079e+227
-3.844439999999999861e+229
-6.718620000000000011e+230
-3.583710000000000082e+230
-1.944860000000000120e+231
-7.593459999999999919e+228
-1.172239999999999920e+227
-1.342159999999999985e+228
-2.318440000000000031e+227
-1.995699999999999985e+229
-1.882260000000000037e+227
-7.217470000000000436e+226
-1.715089999999999915e+226
-4.509689999999999840e+226
-7.319999999999999838e+227
-2.803390000000000141e+230
-5.169519999999999940e+229
-2.164269999999999918e+231
-3.831129999999999892e+230
-4.678929999999999835e+228
-1.709539999999999987e+226
-7.830679999999999539e+224
-1.424949999999999947e+224
-7.976379999999999898e+223
-3.543239999999999803e+224
-8.439099999999999556e+223
-3.364760000000000146e+222
-6.442699999999999988e+223
-2.666800000000000210e+223
-2.504240000000000112e+225
-7.796460000000000390e+224
-4.770690000000000122e+223
-6.353260000000000570e+222
-1.870100000000000055e+222
-1.083749999999999956e+225
-4.797550000000000248e+222
-1.128779999999999972e+221
-1.593359999999999899e+223
-2.703990000000000004e+223
-6.454120000000000305e+225
-1.037660000000000002e+224
-7.956719999999999667e+223
-5.335669999999999781e+225
-3.889469999999999853e+225
-5.954559999999999538e+226
-2.251970000000000070e+227
-4.064540000000000363e+227
-6.083079999999999670e+229
-6.817630000000000072e+230
-3.654620000000000083e+229
-2.039650000000000124e+230
-7.209310000000000378e+230
-8.175020000000000861e+230
-8.137770000000000354e+230
-6.491059999999999918e+229
-4.964089999999999583e+229
-1.953330000000000070e+229
-2.114879999999999943e+226
-1.575920000000000121e+226
-5.727330000000000151e+226
-3.357780000000000048e+230
-6.278219999999999544e+229
-4.647299999999999782e+230
-2.725139999999999848e+229
-3.930000000000000070e+229
1.156160000000000039e+231
6.311460000000000034e+230
6.537300000000000020e+230
-6.516610000000000141e+232
-4.397519999999999733e+231
1.837659999999999982e+230
1.914379999999999886e+232
-1.343740000000000108e+233
-1.654789999999999906e+233
-1.088910000000000082e+233
-3.322120000000000207e+234
-4.908660000000000078e+235
-1.034410000000000036e+235
-4.482960000000000153e+236
-1.836419999999999949e+236
-1.433569999999999970e+236
-3.294910000000000065e+237
-2.891729999999999989e+237
-3.310500000000000203e+238
-2.536530000000000135e+237
-1.165290000000000072e+236
-1.736749999999999826e+237
-2.471629999999999853e+237
-1.068370000000000062e+238
-9.593849999999999987e+237
-2.516929999999999996e+240
-1.625229999999999972e+239
-2.749640000000000080e+238
-3.470159999999999713e+238
-6.256180000000000441e+238
-8.859110000000000399e+239
-7.284910000000000324e+242
-4.806959999999999856e+240
-3.096239999999999707e+241
-3.273539999999999865e+242
-3.743010000000000235e+241
-1.547249999999999987e+242
-3.275310000000000002e+241
-3.444320000000000098e+243
-1.019630000000000034e+242
-1.647809999999999950e+241
-1.539620000000000045e+243
-1.655319999999999947e+243
-6.422520000000000243e+242
-4.895410000000000352e+242
-6.241150000000000021e+242
-3.299529999999999823e+244
-4.270980000000000043e+241
-1.832029999999999907e+240
-1.393459999999999907e+238
-7.702330000000000517e+237
-7.894400000000000479e+238
-2.005220000000000052e+236
-4.366429999999999887e+235
-1.396609999999999960e+237
-5.154740000000000166e+236
-6.286090000000000037e+235
-2.623649999999999732e+235
-6.521530000000000434e+236
-1.595639999999999970e+238
-1.716069999999999897e+238
-4.555959999999999856e+240
-3.299319999999999957e+240
-1.414100000000000045e+240
-7.718919999999999848e+236
-1.149550000000000036e+238
-2.304520000000000015e+238
-5.108669999999999585e+239
-8.298010000000000227e+240
-1.038060000000000062e+241
-8.582130000000000264e+239
-1.273499999999999921e+240
-2.448629999999999835e+239
-6.086610000000000167e+242
-5.582100000000000018e+242
-1.199240000000000017e+242
-1.007199999999999962e+244
-8.280869999999999876e+245
-1.363230000000000118e+248
-2.455160000000000116e+249
-4.275179999999999783e+250
-1.160270000000000033e+252
-2.335059999999999879e+252
-2.536190000000000200e+252
-9.813269999999999016e+251
-7.114610000000000279e+249
-2.102420000000000045e+251
-5.394690000000000354e+251
-1.389260000000000059e+252
-2.787910000000000141e+251
-8.384829999999999998e+251
-6.064669999999999628e+254
-3.336459999999999981e+251
-5.463959999999999821e+249
-2.297179999999999955e+248
-6.955490000000000007e+248
-9.205989999999999804e+247
-4.943399999999999993e+245
-1.850520000000000135e+247
-3.300070000000000122e+246
-2.377459999999999914e+246
-5.181150000000000040e+244
-3.628760000000000378e+243
-1.572950000000000016e+245
-6.126930000000000158e+246
-1.359949999999999970e+246
-2.188690000000000047e+246
1.972219999999999932e+245
1.480609999999999954e+246
2.048919999999999864e+246
1.627099999999999906e+246
4.706440000000000012e+252
1.079119999999999899e+255
1.649849999999999940e+254
1.428310000000000067e+254
5.124169999999999950e+253
7.403430000000000634e+253
1.173699999999999934e+254
3.988969999999999785e+254
-3.186879999999999835e+252
-1.769079999999999976e+251
-8.200980000000000385e+248
-3.179520000000000171e+249
-3.832380000000000002e+249
-3.916409999999999981e+250
-1.635530000000000093e+252
-1.892150000000000198e+252
-1.920819999999999843e+252
-3.489370000000000175e+252
-1.053929999999999923e+253
-4.385419999999999732e+255
-6.576569999999999720e+259
-2.000170000000000102e+258
-5.454429999999999927e+258
-5.950750000000000010e+260
-7.704319999999999388e+258
-9.985930000000000603e+260
-3.649340000000000123e+262
-5.625089999999999892e+264
-4.931960000000000024e+266
-1.065050000000000030e+263
-3.623429999999999991e+264
-1.163159999999999957e+264
-1.785979999999999839e+262
-5.128560000000000221e+262
-2.276269999999999841e+262
-1.960279999999999953e+263
-3.729489999999999927e+264
-3.901290000000000003e+264
-2.285979999999999903e+265
-7.407000000000000267e+264
-3.019959999999999980e+262
-7.148769999999999796e+264
-1.268370000000000016e+265
-3.919209999999999862e+263
-1.563360000000000014e+266
-6.352700000000000070e+264
-8.218799999999999584e+267
-3.360909999999999939e+266
-2.724259999999999914e+265
-1.081810000000000111e+267
-4.582440000000000202e+266
-9.146489999999999414e+262
-3.017699999999999852e+263
-8.474999999999999700e+263
-1.575560000000000087e+263
-3.251780000000000100e+260
-1.972479999999999832e+262
-6.969649999999999738e+260
-1.223289999999999993e+260
-2.706819999999999758e+260
-7.553939999999999755e+261
-8.688199999999999759e+261
-4.232949999999999823e+259
-2.395830000000000102e+259
-1.962579999999999999e+260
-7.794389999999999628e+257
-7.452030000000000304e+257
-1.020150000000000054e+257
-2.418889999999999760e+257
-3.777169999999999751e+256
-1.336310000000000016e+255
-4.679259999999999932e+255
-6.574549999999999671e+256
-3.766570000000000210e+256
-2.141660000000000006e+256
-2.880939999999999971e+256
-2.575480000000000259e+257
-6.390339999999999789e+256
-2.901839999999999913e+257
-6.095369999999999858e+258
-3.797850000000000252e+257
-1.121810000000000106e+258
-1.776080000000000116e+257
-3.536199999999999825e+258
-4.515219999999999733e+258
-2.164039999999999992e+257
-1.693100000000000020e+257
-7.986699999999999635e+257
-2.754959999999999830e+257
-2.078169999999999879e+257
-1.682030000000000017e+258
-1.376020000000000089e+258
-6.425129999999999922e+258
-4.780450000000000248e+260
-4.724850000000000205e+259
-1.884399999999999901e+260
-1.234309999999999917e+261
-9.938490000000000144e+259
-1.728670000000000134e+260
-2.906289999999999931e+259
-1.342730000000000059e+258
-8.405350000000000396e+258
-3.062389999999999915e+259
-3.834809999999999803e+261
-2.472470000000000014e+259
-1.380709999999999910e+258
-1.269339999999999997e+259
-1.289770000000000042e+258
-8.081579999999999640e+259
-3.254790000000000062e+259
-1.204100000000000060e+262
-8.982660000000000157e+260
-6.165299999999999516e+259
-1.108329999999999989e+259
-1.873880000000000018e+258
-3.346600000000000196e+259
-1.167070000000000067e+260
-7.814619999999999923e+259
-2.126039999999999883e+260
-8.156359999999999846e+261
-9.606819999999999812e+260
-4.761549999999999903e+260
-8.815849999999999482e+259
-3.156650000000000130e+261
5.146720000000000072e+262
9.727740000000000302e+263
3.283220000000000220e+264
1.406520000000000123e+266
5.051469999999999778e+265
1.416119999999999960e+265
2.795709999999999836e+266
6.829489999999999578e+267
2.437669999999999931e+269
3.983820000000000017e+269
2.914230000000000174e+271
3.983920000000000142e+273
3.043770000000000145e+273
9.462080000000000746e+274
6.262879999999999807e+274
9.567560000000000375e+274
-6.650890000000000213e+276
-2.254549999999999842e+277
-4.504370000000000102e+274
-2.133350000000000086e+276
-1.659370000000000148e+278
-1.547039999999999876e+278
-5.420460000000000150e+278
-2.398120000000000206e+279
-1.338020000000000007e+280
-2.464000000000000026e+279
-8.992919999999999525e+279
-3.009630000000000127e+277
-3.299200000000000242e+278
-9.576899999999999631e+277
-4.060190000000000188e+276
-8.795829999999999965e+276
-1.473769999999999920e+276
-2.329180000000000145e+277
-1.187839999999999930e+277
-6.958750000000000323e+276
-3.391060000000000040e+277
-6.364929999999999987e+274
-2.435639999999999916e+275
-3.066980000000000088e+274
-1.152699999999999975e+275
-8.358229999999999980e+273
-1.340550000000000043e+273
-1.939000000000000025e+275
-1.568600000000000117e+276
-7.889190000000000105e+274
-2.280529999999999983e+274
-8.883319999999999304e+274
-6.194879999999999529e+275
-6.371709999999999572e+275
-4.806129999999999700e+276
-5.172259999999999868e+278
-6.819620000000000002e+279
-7.463160000000000061e+279
-1.525060000000000033e+280
-1.488939999999999880e+278
-2.218819999999999996e+277
-7.360280000000000043e+278
-1.877379999999999990e+281
-6.097839999999999592e+279
-5.848870000000000241e+278
-4.177290000000000252e+279
-1.240439999999999967e+277
-8.493129999999999339e+277
-3.841670000000000063e+278
-1.864809999999999982e+280
-2.074249999999999914e+281
-7.034179999999999973e+279
-3.031940000000000069e+279
-8.605629999999999212e+280
-3.260119999999999755e+279
-1.090470000000000015e+281
-5.363690000000000060e+281
-2.733740000000000118e+282
-3.763160000000000061e+280
-2.601320000000000040e+280
-3.546330000000000078e+278
-9.507149999999999270e+277
-1.357969999999999939e+278
-6.329359999999999887e+278
-3.567490000000000386e+277
-1.084539999999999966e+277
-5.729399999999999983e+275
-1.986079999999999879e+276
-2.715169999999999849e+277
-8.738340000000000277e+276
-3.802070000000000044e+275
-9.847989999999999453e+274
-2.306670000000000026e+271
-1.007970000000000050e+272
-7.776900000000000573e+272
-1.591609999999999907e+272
-2.469379999999999892e+269
-1.137170000000000046e+267
-5.430780000000000220e+267
-3.042789999999999868e+266
-2.146169999999999974e+266
-3.149519999999999793e+267
-7.232849999999999465e+266
-1.479829999999999960e+268
-4.455879999999999939e+269
-1.924280000000000052e+270
-1.418010000000000070e+271
-6.597489999999999885e+268
2.002929999999999958e+269
7.808649999999999685e+266
1.133509999999999979e+267
2.665599999999999822e+266
4.012849999999999849e+264
4.627859999999999863e+265
7.550609999999999513e+266
6.869580000000000324e+266
3.875549999999999961e+267
1.858059999999999937e+267
1.411929999999999931e+267
1.310290000000000079e+267
-8.645599999999999851e+266
-9.349869999999999291e+267
-5.200049999999999905e+267
-6.549990000000000129e+268
-2.135150000000000129e+272
-2.297359999999999876e+272
-1.282170000000000029e+272
-5.930279999999999916e+271
2.704680000000000095e+273
1.070420000000000031e+274
4.532049999999999929e+274
4.604729999999999939e+275
2.038759999999999806e+277
9.759610000000000422e+278
6.687599999999999856e+280
1.559699999999999957e+281
-1.863979999999999958e+280
-6.311120000000000067e+280
-1.459289999999999974e+281
-3.346010000000000035e+282
-3.137759999999999802e+281
-3.546920000000000049e+282
-2.402849999999999971e+281
-4.479509999999999845e+281
-4.445800000000000154e+282
-1.081320000000000087e+283
-1.356040000000000070e+283
-2.501770000000000152e+283
-3.121029999999999893e+285
-2.793019999999999913e+284
-6.367760000000000392e+282
-5.674759999999999956e+284
-2.925020000000000114e+286
-1.568340000000000042e+286
-1.740820000000000143e+284
-2.660880000000000006e+285
-7.499530000000000466e+285
-1.084819999999999905e+283
-4.534769999999999938e+283
-1.629169999999999884e+282
-8.772740000000000003e+282
-7.794979999999999885e+282
-2.628020000000000041e+283
-8.131629999999999654e+282
-1.971629999999999968e+281
-2.584310000000000137e+283
-3.636560000000000152e+281
-1.001910000000000003e+279
-1.520640000000000108e+281
-2.391729999999999909e+279
-4.159140000000000165e+279
-3.941540000000000207e+279
-4.979440000000000136e+280
-1.405569999999999930e+279
-1.757449999999999852e+278
-4.982019999999999816e+275
-5.995489999999999758e+275
-1.877370000000000128e+275
-4.605129999999999882e+274
-3.045039999999999871e+275
-1.347009999999999999e+277
-3.573509999999999882e+277
-2.876930000000000098e+278
-9.745219999999999749e+278
-5.700269999999999749e+281
-7.098700000000000084e+282
-2.096840000000000048e+283
-2.475050000000000028e+284
-3.686770000000000168e+282
-6.864219999999999946e+283
-5.286830000000000252e+283
-4.623059999999999898e+285
-4.164319999999999882e+285
-4.954209999999999944e+284
-7.180770000000000345e+285
-1.028989999999999992e+286
-1.428089999999999960e+286
-1.087170000000000015e+288
-6.910580000000000015e+286
-1.924520000000000011e+288
-4.675760000000000221e+289
-1.904839999999999915e+288
-2.259820000000000146e+286
-3.564400000000000186e+286
-3.821740000000000014e+287
-2.727089999999999961e+287
-4.010189999999999968e+288
-7.458689999999999779e+289
-7.264109999999999792e+288
-5.510959999999999898e+288
-1.020579999999999990e+291
-3.897260000000000026e+293
-1.164470000000000069e+295
-7.184939999999999851e+295
-1.187820000000000058e+295
-1.050639999999999981e+294
-1.001779999999999933e+296
-1.512850000000000089e+294
-1.447510000000000033e+293
-3.192230000000000023e+294
-2.501490000000000057e+293
-1.243410000000000022e+295
-1.357799999999999951e+295
-3.680629999999999999e+295
-1.630370000000000042e+294
-6.736269999999999552e+293
-1.065400000000000094e+292
-4.046560000000000128e+290
-7.141529999999999799e+291
-3.298910000000000035e+291
-3.318760000000000242e+293
-8.114320000000000041e+291
-8.820109999999999243e+289
7.405899999999999594e+289
1.781030000000000044e+291
6.312610000000000371e+290
1.013679999999999927e+290
5.457479999999999936e+291
1.136410000000000026e+288
1.775720000000000076e+289
-1.516530000000000002e+292
-3.136489999999999847e+293
-2.841609999999999927e+293
-7.938310000000000247e+296
-1.892930000000000009e+295
-1.084399999999999965e+298
-1.845410000000000099e+297
-2.574200000000000162e+298
-3.982970000000000215e+301
-1.717849999999999996e+302
-1.651470000000000016e+301
-3.060909999999999773e+300
9.804429999999999717e+300
-6.052110000000000174e+298
-9.620200000000000036e+298
-9.421079999999999567e+299
-6.115699999999999729e+300
-5.864909999999999885e+301
-5.598799999999999656e+299
-2.519619999999999948e+300
8.664300000000000854e+298
2.326540000000000080e+300
1.537469999999999957e+300
3.489550000000000015e+299
2.553120000000000123e+298
8.339880000000000441e+298
1.322819999999999999e+299
4.894739999999999564e+298
2.127810000000000067e+301
2.864810000000000073e+302
8.897900000000000480e+304
4.777640000000000023e+305
1.338300000000000115e+307
6.977060000000000194e+307
inf
inf
inf
inf
inf
inf
inf
inf
inf
inf
inf
inf
inf
inf
inf
inf
inf
inf
inf
inf
inf
inf
inf
inf
inf
inf
inf
inf
inf
inf
inf
inf
inf
inf
inf
inf
inf
inf
inf
inf
inf
inf
inf
inf
inf
inf
inf
inf
inf
inf
inf
inf
inf
inf
inf
inf
inf
inf
inf
inf
inf
inf
inf
inf
inf
inf
inf
inf
inf
inf
inf
inf
inf
inf
inf
inf
inf
inf
inf
inf
inf
inf
inf
inf
inf
inf
inf
-inf
-inf
-inf
inf
inf
inf
inf
inf
inf
inf
inf
inf
inf
inf
inf
inf
inf
inf
inf
inf
inf
inf
inf
inf
inf
inf
inf
inf
inf
inf
inf
inf
inf
inf
inf
inf
inf
inf
inf
inf
inf
inf
inf
inf
inf
inf
inf
inf
inf
inf
inf
inf
inf
inf
inf
inf
inf
inf
inf
inf
inf
inf
inf
inf
inf
inf
inf
inf
inf
inf
inf
inf
inf
inf
inf
inf
inf
inf
inf
inf
inf
inf
inf
inf
inf
inf
inf
inf
inf
inf
inf
inf
inf
inf
inf
inf
inf
inf
inf
inf
inf
inf
inf
inf
inf
inf
inf
inf
inf
inf
inf
inf
inf
inf
inf
-inf
inf
inf
inf
inf
inf
inf
inf
inf
inf
inf
inf
inf
inf
inf
inf
inf
-inf
-inf
-inf
-inf
-inf
-inf
-inf
-inf
-inf
-inf
-inf
inf
inf
-inf
-inf
inf
inf
inf
inf
inf
inf
inf
inf
inf
inf
inf
inf
inf
inf
inf
inf
inf
inf
inf
inf
inf
inf
inf
inf
inf
inf
inf
inf
inf
inf
inf
inf
inf
inf
inf
inf
inf
inf
inf
inf
inf
inf
inf
inf
inf
inf
inf
inf
inf
inf
inf
inf
inf
inf
inf
inf
inf
inf
inf
inf
inf
inf
inf
inf
inf
inf
inf
inf
inf
inf
inf
inf
inf
inf
inf
inf
inf
inf
inf
inf
-inf
-inf
-inf
-inf
-inf
-inf
-inf
-inf
-inf
-inf
-inf
-inf
inf
inf
inf
inf
-inf
inf
-inf
inf
inf
inf
inf
inf
inf
-inf
-inf
inf
inf
inf
inf
inf
-inf
inf
inf
inf
inf
inf
inf
inf
inf
inf
inf
inf
inf
inf
inf
inf
-inf
-inf
-inf
-inf
-inf
-inf
-inf
-inf
-inf
-inf
-inf
-inf
-inf
-inf
-inf
-inf
-inf
-inf
-inf
-inf
-inf
-inf
-inf
-inf
-inf
-inf
-inf
-inf
-inf
-inf
-inf
-inf
-inf
-inf
-inf
-inf
-inf
-inf
-inf
-inf
-inf
-inf
-inf
-inf
-inf
-inf
-inf
-inf
-inf
-inf
-inf
-inf
-inf
-inf
-inf
-inf
-inf
-inf
-inf
-inf
-inf
-inf
-inf
-inf
-inf
-inf
-inf
-inf
-inf
-inf
-inf
-inf
-inf
-inf
-inf
-inf
inf
-inf
-inf
-inf
-inf
-inf
-inf
-inf
-inf
-inf
-inf
-inf
inf
inf
inf
inf
inf
inf
inf
inf
inf
inf
inf
-inf
-inf
-inf
-inf
-inf
-inf
-inf
-inf
-inf
-inf
-inf
-inf
-inf
-inf
-inf
-inf
-inf
-inf
-inf
-inf
-inf
-inf
-inf
-inf
-inf
-inf
-inf
-inf
-inf
-inf
-inf
-inf
-inf
-inf
-inf
-inf
-inf
-inf
-inf
-inf
-inf
-inf
-inf
-inf
-inf
-inf
-inf
-inf
-inf
-inf
-inf
-inf
-inf
-inf
-inf
-inf
-inf
-inf
-inf
-inf
-inf
-inf
-inf
-inf
-inf
-inf
-inf
-inf
-inf
-inf
-inf
-inf
-inf
-inf
-inf
-inf
-inf
-inf
-inf
-inf
-inf
-inf
-inf
-inf
-inf
-inf
-inf
-inf
-inf
-inf
-inf
-inf
-inf
-inf
-inf
-inf
-inf
-inf
-inf
-inf
-inf
-inf
-inf
-inf
-inf
inf
-inf
-inf
-inf
-inf
-inf
-inf
-inf
inf
inf
inf
inf
-inf
-inf
-inf
inf
inf
inf
inf
inf
inf
-inf
-inf
-inf
-inf
-inf
-inf
-inf
-inf
-inf
-inf
-inf
-inf
-inf
-inf
-inf
-inf
-inf
-inf
-inf
-inf
-inf
-inf
-inf
-inf
-inf
-inf
-inf
-inf
-inf
-inf
-inf
-inf
-inf
-inf
-inf
-inf
-inf
-inf
-inf
-inf
-inf
-inf
-inf
-inf
-inf
-inf
-inf
-inf
-inf
-inf
-inf
-inf
-inf
-inf
-inf
-inf
-inf
-inf
-inf
-inf
-inf
-inf
-inf
-inf
-inf
-inf
-inf
-inf
-inf
-inf
-inf
-inf
-inf
-inf
-inf
-inf
-inf
-inf
-inf
-inf
-inf
-inf
-inf
-inf
-inf
-inf
-inf
-inf
-inf
-inf
-inf
-inf
-inf
-inf
-inf
-inf
-inf
-inf
inf
inf
inf
inf
inf
inf
inf
-inf
-inf
inf
inf
inf
inf
-inf
-inf
-inf
-inf
inf
inf
inf
inf
-inf
-inf
-inf
-inf
inf
inf
inf
inf
inf
inf
inf
inf
inf
inf
inf
inf
inf
inf
inf
inf
inf
inf
inf
inf
inf
inf
inf
inf
inf
inf
inf
inf
inf
inf
inf
inf
inf
inf
inf
inf
inf
inf
inf
inf
inf
inf
inf
inf
inf
inf
inf
inf
inf
inf
inf
inf
inf
inf
inf
inf
inf
inf
inf
inf
inf
inf
inf
inf
inf
inf
inf
inf
inf
inf
inf
inf
inf
inf
inf
inf
inf
inf
inf
inf
inf
inf
inf
inf
-inf
-inf
-inf
-inf
-inf
-inf
-inf
-inf
-inf
-inf
-inf
-inf
-inf
-inf
inf
inf
inf
inf
inf
inf
inf
inf
-inf
-inf
inf
-inf
-inf
inf
inf
inf
inf
inf
inf
inf
-inf
-inf
-inf
-inf
-inf
-inf
-inf
-inf
-inf
-inf
-inf
-inf
-inf
-inf
-inf
-inf
-inf
-inf
-inf
-inf
-inf
-inf
-inf
-inf
-inf
-inf
-inf
-inf
-inf
-inf
-inf
-inf
-inf
-inf
-inf
-inf
-inf
-inf
-inf
-inf
-inf
-inf
-inf
-inf
-inf
-inf
-inf
-inf
-inf
-inf
-inf
-inf
-inf
-inf
-inf
-inf
-inf
-inf
-inf
-inf
-inf
-inf
-inf
-inf
-inf
-inf
-inf
-inf
-inf
-inf
-inf
-inf
-inf
-inf
-inf
-inf
-inf
-inf
-inf
-inf
-inf
-inf
-inf
-inf
-inf
-inf
-inf
-inf
-inf
-inf
inf
inf
inf
inf
inf
-inf
-inf
-inf
-inf
-inf
-inf
-inf
-inf
inf
inf
inf
-inf
-inf
inf
-inf
-inf
inf
inf
inf
inf
inf
inf
inf
inf
inf
inf
inf
inf
inf
inf
inf
inf
inf
inf
inf
inf
inf
inf
inf
inf
inf
inf
inf
inf
inf
inf
inf
inf
inf
inf
inf
inf
inf
inf
inf
inf
inf
inf
inf
inf
inf
inf
inf
inf
inf
inf
inf
inf
inf
inf
inf
inf
inf
inf
inf
inf
inf
inf
inf
inf
inf
inf
inf
inf
inf
inf
inf
inf
inf
inf
inf
inf
inf
inf
inf
inf
inf
inf
inf
inf
inf
inf
inf
inf
inf
inf
inf
inf
inf
inf
inf
inf
inf
inf
inf
inf
inf
inf
inf
-inf
inf
inf
inf
inf
inf
inf
inf
-inf
-inf
-inf
-inf
-inf
-inf
-inf
-inf
inf
inf
-inf
inf
-inf
-inf
-inf
-inf
-inf
-inf
-inf
-inf
inf
inf
inf
inf
inf
inf
inf
inf
inf
inf
inf
inf
inf
inf
inf
inf
inf
inf
inf
inf
inf
inf
inf
inf
inf
inf
inf
inf
inf
inf
inf
inf
inf
inf
inf
inf
inf
inf
inf
inf
inf
inf
inf
inf
inf
inf
inf
inf
inf
inf
inf
inf
inf
inf
inf
inf
inf
inf
inf
inf
inf
inf
inf
inf
inf
inf
inf
inf
inf
inf
inf
inf
inf
inf
inf
inf
inf
inf
inf
inf
inf
inf
inf
inf
inf
inf
inf
inf
inf
inf
inf
inf
inf
inf
inf
-inf
-inf
-inf
-inf
-inf
-inf
-inf
-inf
-inf
inf
inf
inf
inf
-inf
-inf
-inf
-inf
-inf
-inf
-inf
-inf
-inf
-inf
-inf
-inf
-inf
-inf
-inf
-inf
-inf
-inf
-inf
-inf
-inf
-inf
-inf
-inf
-inf
-inf
-inf
-inf
-inf
-inf
-inf
-inf
-inf
-inf
-inf
-inf
-inf
-inf
-inf
-inf
-inf
-inf
-inf
-inf
-inf
-inf
-inf
-inf
-inf
-inf
-inf
-inf
-inf
-inf
-inf
-inf
-inf
-inf
-inf
-inf
-inf
-inf
-inf
-inf
-inf
-inf
-inf
-inf
-inf
-inf
-inf
-inf
-inf
-inf
-inf
-inf
-inf
-inf
-inf
-inf
-inf
-inf
-inf
-inf
-inf
-inf
-inf
-inf
-inf
-inf
-inf
-inf
-inf
-inf
-inf
-inf
-inf
-inf
-inf
-inf
-inf
-inf
-inf
-inf
-inf
-inf
-inf
-inf
-inf
-inf
-inf
-inf
-inf
-inf
inf
-inf
-inf
-inf
-inf
-inf
-inf
-inf
-inf
-inf
inf
inf
inf
inf
-inf
inf
inf
inf
-inf
-inf
-inf
-inf
-inf
-inf
-inf
-inf
-inf
-inf
-inf
-inf
-inf
-inf
-inf
-inf
-inf
-inf
-inf
-inf
-inf
-inf
-inf
-inf
-inf
-inf
-inf
-inf
-inf
-inf
-inf
-inf
-inf
-inf
-inf
-inf
-inf
-inf
-inf
-inf
-inf
-inf
-inf
-inf
-inf
-inf
-inf
-inf
-inf
-inf
-inf
-inf
-inf
-inf
-inf
-inf
-inf
-inf
-inf
-inf
-inf
-inf
-inf
-inf
-inf
-inf
-inf
-inf
-inf
-inf
-inf
-inf
-inf
-inf
-inf
-inf
-inf
-inf
-inf
-inf
-inf
-inf
-inf
-inf
-inf
-inf
-inf
-inf
-inf
-inf
-inf
-inf
-inf
-inf
-inf
-inf
-inf
-inf
-inf
-inf
-inf
-inf
-inf
-inf
-inf
-inf
-inf
inf
inf
inf
inf
inf
inf
inf
-inf
-inf
inf
inf
inf
inf
inf
inf
inf
inf
inf
inf
inf
inf
inf
inf
inf
inf
inf
inf
inf
inf
inf
inf
inf
inf
inf
inf
inf
inf
inf
inf
inf
inf
inf
inf
inf
inf
inf
inf
inf
inf
inf
inf
inf
inf
inf
inf
inf
inf
inf
inf
inf
inf
inf
inf
inf
inf
inf
inf
inf
inf
inf
inf
inf
inf
inf
inf
inf
inf
inf
inf
inf
inf
inf
inf
inf
inf
inf
inf
inf
inf
inf
inf
inf
inf
inf
inf
inf
inf
inf
inf
inf
inf
inf
inf
inf
inf
inf
inf
inf
inf
-inf
inf
inf
inf
inf
-inf
-inf
-inf
-inf
-inf
-inf
-inf
-inf
-inf
-inf
-inf
inf
inf
inf
inf
inf
inf
inf
inf
inf
inf
inf
inf
inf
inf
inf
inf
inf
inf
inf
inf
inf
inf
inf
inf
inf
inf
inf
inf
inf
inf
inf
inf
inf
inf
inf
inf
inf
inf
inf
inf
inf
inf
inf
inf
inf
inf
inf
inf
inf
inf
inf
inf
inf
inf
inf
inf
inf
inf
inf
inf
inf
inf
inf
inf
inf
inf
inf
inf
inf
inf
inf
inf
inf
inf
inf
inf
inf
inf
inf
inf
inf
inf
inf
inf
inf
inf
inf
inf
inf
inf
inf
inf
-inf
-inf
-inf
inf
inf
inf
inf
inf
inf
inf
inf
inf
inf
inf
inf
inf
inf
inf
inf
inf
inf
inf
inf
inf
inf
inf
inf
inf
inf
inf
inf
inf
inf
inf
inf
inf
inf
inf
inf
inf
inf
inf
inf
inf
inf
inf
inf
inf
inf
inf
inf
inf
inf
inf
inf
inf
inf
inf
inf
inf
inf
inf
inf
inf
inf
inf
inf
inf
inf
inf
inf
inf
inf
inf
inf
inf
inf
inf
inf
inf
inf
inf
inf
inf
inf
inf
inf
inf
inf
inf
inf
inf
inf
inf
inf
inf
inf
inf
inf
inf
inf
inf
inf
inf
inf
inf
inf
inf
inf
inf
inf
inf
inf
inf
inf
inf
inf
inf
inf
inf
inf
inf
inf
inf
inf
inf
inf
inf
inf
inf
inf
inf
-inf
-inf
-inf
-inf
inf
inf
inf
inf
-inf
-inf
-inf
-inf
-inf
-inf
-inf
-inf
inf
inf
-inf
-inf
inf
inf
inf
inf
inf
inf
-inf
-inf
-inf
-inf
-inf
-inf
-inf
-inf
-inf
-inf
-inf
-inf
-inf
-inf
-inf
-inf
-inf
-inf
-inf
-inf
-inf
-inf
-inf
-inf
-inf
-inf
-inf
-inf
-inf
-inf
-inf
-inf
-inf
-inf
-inf
-inf
-inf
-inf
-inf
-inf
-inf
-inf
-inf
-inf
-inf
-inf
-inf
-inf
-inf
-inf
-inf
-inf
-inf
-inf
-inf
-inf
-inf
-inf
-inf
-inf
-inf
-inf
-inf
-inf
-inf
-inf
-inf
-inf
-inf
-inf
-inf
-inf
-inf
-inf
-inf
-inf
-inf
-inf
-inf
-inf
-inf
-inf
-inf
-inf
-inf
-inf
-inf
-inf
-inf
-inf
-inf
-inf
-inf
-inf
inf
inf
inf
inf
inf
inf
inf
inf
inf
-inf
-inf
-inf
-inf
-inf
-inf
-inf
-inf
-inf
-inf
-inf
-inf
-inf
-inf
-inf
-inf
-inf
-inf
-inf
-inf
-inf
-inf
-inf
-inf
-inf
-inf
-inf
-inf
-inf
-inf
-inf
-inf
-inf
-inf
-inf
-inf
-inf
-inf
-inf
-inf
-inf
-inf
-inf
-inf
-inf
-inf
-inf
-inf
-inf
-inf
-inf
-inf
-inf
-inf
-inf
-inf
-inf
-inf
-inf
-inf
-inf
-inf
-inf
-inf
-inf
-inf
-inf
-inf
-inf
-inf
-inf
-inf
-inf
-inf
-inf
-inf
-inf
-inf
-inf
-inf
-inf
-inf
-inf
-inf
-inf
-inf
-inf
-inf
-inf
-inf
-inf
-inf
-inf
-inf
-inf
-inf
-inf
-inf
-inf
-inf
-inf
-inf
-inf
inf
-inf
-inf
-inf
inf
inf
inf
inf
-inf
-inf
-inf
-inf
-inf
-inf
-inf
-inf
inf
inf
inf
inf
inf
inf
-inf
-inf
-inf
inf
inf
inf
inf
inf
inf
-inf
-inf
inf
inf
inf
-inf
inf
inf
inf
inf
inf
inf
inf
inf
inf
inf
inf
inf
inf
inf
inf
inf
inf
inf
inf
inf
inf
inf
inf
inf
inf
inf
inf
inf
inf
inf
inf
inf
inf
inf
inf
inf
inf
inf
inf
inf
inf
inf
inf
inf
inf
inf
inf
inf
inf
inf
inf
inf
inf
inf
inf
inf
inf
inf
inf
inf
inf
inf
inf
inf
inf
inf
inf
inf
inf
inf
inf
inf
inf
inf
inf
inf
inf
inf
inf
inf
inf
inf
inf
-inf
-inf
-inf
-inf
-inf
-inf
-inf
-inf
-inf
-inf
-inf
-inf
inf
-inf
inf
inf
inf
-inf
-inf
-inf
-inf
-inf
-inf
-inf
inf
inf
inf
-inf
-inf
-inf
-inf
-inf
-inf
-inf
inf
inf
inf
inf
inf
inf
inf
inf
inf
inf
inf
inf
inf
inf
inf
inf
inf
inf
inf
inf
inf
inf
inf
inf
inf
inf
inf
inf
inf
inf
inf
inf
inf
inf
inf
inf
inf
inf
inf
inf
inf
inf
inf
inf
inf
inf
inf
inf
inf
inf
inf
inf
inf
inf
inf
inf
inf
inf
inf
inf
inf
inf
inf
inf
inf
inf
inf
inf
inf
inf
inf
inf
inf
inf
inf
inf
-inf
-inf
-inf
-inf
-inf
-inf
-inf
-inf
-inf
-inf
-inf
-inf
-inf
-inf
-inf
-inf
-inf
-inf
inf
inf
inf
inf
inf
inf
inf
inf
inf
inf
inf
inf
inf
-inf
-inf
-inf
-inf
-inf
-inf
-inf
inf
inf
inf
inf
inf
inf
inf
inf
inf
inf
inf
inf
-inf
-inf
-inf
-inf
-inf
-inf
-inf
-inf
-inf
-inf
-inf
-inf
-inf
-inf
-inf
-inf
-inf
-inf
-inf
-inf
-inf
-inf
-inf
-inf
-inf
-inf
-inf
-inf
-inf
-inf
-inf
-inf
-inf
-inf
-inf
-inf
-inf
-inf
-inf
-inf
-inf
-inf
-inf
-inf
-inf
-inf
-inf
-inf
-inf
-inf
-inf
-inf
-inf
-inf
-inf
-inf
-inf
-inf
-inf
-inf
-inf
-inf
-inf
-inf
-inf
-inf
-inf
-inf
-inf
-inf
-inf
-inf
-inf
-inf
-inf
-inf
inf
inf
inf
inf
inf
inf
inf
-inf
inf
inf
inf
inf
-inf
-inf
inf
inf
-inf
-inf
-inf
-inf
inf
inf
inf
inf
-inf
-inf
-inf
-inf
-inf
-inf
-inf
-inf
-inf
-inf
-inf
-inf
-inf
-inf
-inf
-inf
-inf
-inf
-inf
-inf
-inf
-inf
-inf
-inf
-inf
-inf
-inf
-inf
-inf
-inf
-inf
-inf
-inf
-inf
-inf
-inf
-inf
-inf
-inf
-inf
-inf
-inf
-inf
-inf
-inf
-inf
-inf
-inf
-inf
-inf
-inf
-inf
-inf
-inf
-inf
-inf
-inf
-inf
-inf
-inf
-inf
-inf
-inf
-inf
-inf
-inf
-inf
-inf
-inf
-inf
-inf
-inf
-inf
-inf
-inf
-inf
-inf
-inf
-inf
-inf
-inf
-inf
-inf
-inf
-inf
-inf
-inf
-inf
-inf
-inf
-inf
-inf
-inf
-inf
-inf
-inf
-inf
-inf
-inf
-inf
-inf
-inf
-inf
-inf
-inf
-inf
-inf
-inf
-inf
-inf
-inf
-inf
inf
inf
-inf
-inf
inf
inf
inf
inf
inf
-inf
inf
inf
inf
inf
inf
inf
inf
inf
inf
inf
inf
inf
inf
inf
inf
inf
inf
inf
inf
inf
inf
inf
inf
inf
inf
inf
inf
inf
inf
inf
inf
inf
inf
inf
inf
inf
inf
inf
inf
inf
inf
inf
inf
inf
inf
inf
inf
inf
inf
inf
inf
inf
inf
inf
inf
inf
inf
inf
inf
inf
inf
inf
inf
inf
inf
inf
inf
inf
inf
inf
inf
inf
inf
inf
inf
inf
inf
inf
inf
inf
inf
inf
inf
inf
inf
inf
inf
inf
inf
inf
inf
inf
inf
inf
inf
inf
inf
inf
inf
inf
inf
inf
inf
inf
inf
inf
inf
inf
inf
inf
inf
-inf
-inf
inf
inf
inf
inf
-inf
inf
inf
inf
inf
inf
-inf
-inf
-inf
-inf
-inf
-inf
-inf
-inf
-inf
-inf
inf
inf
inf
inf
inf
inf
inf
inf
inf
inf
inf
inf
-inf
-inf
-inf
-inf
-inf
-inf
-inf
-inf
-inf
-inf
-inf
-inf
-inf
-inf
-inf
-inf
-inf
-inf
-inf
-inf
-inf
-inf
-inf
-inf
-inf
-inf
-inf
-inf
-inf
-inf
-inf
-inf
-inf
-inf
-inf
-inf
-inf
-inf
-inf
-inf
-inf
-inf
-inf
-inf
-inf
-inf
-inf
-inf
-inf
-inf
-inf
-inf
-inf
-inf
-inf
-inf
-inf
-inf
-inf
-inf
-inf
-inf
-inf
-inf
-inf
-inf
-inf
-inf
-inf
-inf
-inf
-inf
-inf
-inf
-inf
-inf
-inf
inf
-inf
-inf
-inf
-inf
-inf
-inf
-inf
-inf
-inf
-inf
-inf
-inf
-inf
-inf
-inf
-inf
-inf
-inf
-inf
-inf
-inf
-inf
-inf
-inf
-inf
-inf
-inf
-inf
-inf
-inf
-inf
-inf
-inf
-inf
-inf
-inf
-inf
-inf
-inf
-inf
-inf
-inf
-inf
-inf
-inf
-inf
-inf
-inf
-inf
-inf
-inf
-inf
-inf
-inf
-inf
-inf
-inf
-inf
-inf
-inf
-inf
-inf
-inf
-inf
-inf
-inf
-inf
-inf
-inf
-inf
-inf
-inf
-inf
-inf
-inf
-inf
-inf
-inf
-inf
-inf
-inf
-inf
-inf
-inf
-inf
-inf
-inf
-inf
-inf
-inf
-inf
-inf
-inf
-inf
-inf
-inf
-inf
-inf
-inf
-inf
-inf
-inf
-inf
-inf
-inf
-inf
-inf
-inf
-inf
-inf
-inf
-inf
-inf
-inf
-inf
-inf
-inf
-inf
-inf
-inf
-inf
-inf
-inf
-inf
-inf
-inf
-inf
inf
inf
inf
inf
inf
inf
inf
inf
-inf
-inf
-inf
-inf
-inf
-inf
-inf
-inf
-inf
inf
inf
inf
inf
-inf
-inf
-inf
-inf
-inf
-inf
-inf
-inf
-inf
-inf
-inf
-inf
-inf
-inf
-inf
-inf
-inf
-inf
-inf
-inf
-inf
-inf
-inf
-inf
-inf
-inf
-inf
-inf
-inf
-inf
-inf
-inf
-inf
-inf
-inf
-inf
-inf
-inf
-inf
-inf
-inf
-inf
-inf
-inf
-inf
-inf
-inf
-inf
-inf
-inf
-inf
-inf
-inf
-inf
-inf
-inf
-inf
-inf
-inf
-inf
-inf
-inf
-inf
-inf
-inf
-inf
-inf
-inf
-inf
-inf
-inf
-inf
-inf
-inf
-inf
-inf
-inf
-inf
-inf
-inf
-inf
-inf
-inf
-inf
-inf
-inf
-inf
inf
inf
inf
inf
inf
inf
inf
inf
-inf
-inf
-inf
-inf
-inf
-inf
-inf
-inf
-inf
-inf
-inf
-inf
inf
inf
inf
inf
inf
inf
inf
inf
inf
inf
inf
inf
inf
inf
inf
inf
inf
inf
inf
inf
inf
inf
inf
inf
inf
inf
inf
inf
inf
inf
inf
inf
inf
inf
inf
inf
inf
inf
inf
inf
inf
inf
inf
inf
inf
inf
inf
inf
inf
inf
inf
inf
inf
inf
inf
inf
inf
inf
inf
inf
inf
inf
inf
inf
inf
inf
inf
inf
inf
inf
inf
inf
inf
inf
inf
inf
inf
inf
inf
inf
inf
inf
inf
inf
inf
inf
inf
inf
inf
inf
inf
inf
inf
inf
inf
inf
inf
inf
inf
inf
inf
inf
inf
inf
inf
inf
inf
inf
inf
inf
inf
inf
inf
inf
inf
inf
inf
inf
inf
inf
-inf
inf
inf
inf
-inf
-inf
-inf
inf
-inf
-inf
-inf
-inf
-inf
-inf
-inf
inf
-inf
-inf
-inf
-inf
-inf
-inf
-inf
-inf
-inf
-inf
-inf
-inf
-inf
-inf
-inf
-inf
-inf
-inf
-inf
-inf
-inf
-inf
-inf
-inf
-inf
-inf
-inf
-inf
-inf
-inf
-inf
-inf
-inf
-inf
-inf
-inf
-inf
-inf
-inf
-inf
-inf
-inf
-inf
-inf
-inf
-inf
-inf
-inf
-inf
-inf
-inf
-inf
-inf
-inf
-inf
-inf
-inf
-inf
-inf
-inf
-inf
-inf
-inf
-inf
-inf
-inf
-inf
-inf
-inf
-inf
-inf
-inf
-inf
-inf
-inf
-inf
-inf
-inf
-inf
-inf
inf
inf
inf
inf
inf
inf
inf
inf
inf
inf
inf
inf
-inf
-inf
-inf
-inf
-inf
-inf
inf
-inf
-inf
-inf
-inf
-inf
-inf
-inf
-inf
inf
inf
inf
inf
inf
-inf
-inf
-inf
-inf
-inf
-inf
-inf
-inf
-inf
-inf
-inf
-inf
-inf
-inf
-inf
-inf
-inf
-inf
-inf
-inf
-inf
-inf
-inf
-inf
-inf
-inf
-inf
-inf
-inf
-inf
-inf
-inf
-inf
-inf
-inf
-inf
-inf
-inf
-inf
-inf
-inf
-inf
-inf
-inf
-inf
-inf
-inf
-inf
-inf
-inf
-inf
-inf
-inf
-inf
-inf
-inf
-inf
-inf
-inf
-inf
-inf
-inf
-inf
-inf
-inf
-inf
-inf
-inf
-inf
-inf
-inf
-inf
-inf
-inf
-inf
-inf
-inf
-inf
-inf
-inf
-inf
-inf
-inf
-inf
-inf
-inf
-inf
-inf
-inf
-inf
-inf
-inf
-inf
-inf
-inf
-inf
inf
inf
inf
inf
-inf
-inf
-inf
-inf
-inf
-inf
-inf
-inf
-inf
-inf
inf
inf
-inf
-inf
-inf
-inf
-inf
-inf
-inf
-inf
-inf
-inf
-inf
-inf
-inf
-inf
-inf
-inf
-inf
-inf
-inf
-inf
-inf
-inf
-inf
-inf
-inf
-inf
-inf
-inf
-inf
-inf
-inf
-inf
-inf
-inf
-inf
-inf
-inf
-inf
-inf
-inf
-inf
-inf
-inf
-inf
-inf
-inf
-inf
-inf
-inf
-inf
-inf
-inf
-inf
-inf
-inf
-inf
-inf
-inf
-inf
-inf
-inf
-inf
-inf
-inf
-inf
-inf
-inf
-inf
-inf
-inf
-inf
-inf
-inf
-inf
-inf
-inf
-inf
-inf
-inf
-inf
-inf
-inf
-inf
-inf
-inf
-inf
-inf
-inf
-inf
-inf
-inf
-inf
-inf
-inf
-inf
-inf
-inf
-inf
-inf
-inf
-inf
-inf
-inf
-inf
-inf
-inf
-inf
-inf
-inf
-inf
-inf
-inf
-inf
-inf
-inf
-inf
-inf
-inf
-inf
-inf
-inf
-inf
-inf
-inf
-inf
inf
inf
inf
inf
inf
inf
inf
inf
inf
inf
inf
inf
inf
inf
inf
inf
inf
inf
inf
inf
inf
inf
inf
inf
inf
inf
inf
inf
inf
inf
inf
inf
inf
inf
inf
inf
inf
inf
inf
inf
inf
inf
inf
inf
inf
inf
inf
inf
inf
inf
inf
inf
inf
inf
inf
inf
inf
inf
inf
inf
inf
inf
inf
inf
inf
inf
inf
inf
inf
inf
inf
inf
inf
inf
inf
inf
inf
inf
inf
inf
inf
inf
inf
inf
inf
inf
inf
inf
inf
inf
inf
inf
inf
inf
inf
inf
inf
inf
inf
-inf
-inf
-inf
-inf
-inf
-inf
-inf
-inf
-inf
-inf
-inf
-inf
-inf
-inf
-inf
-inf
-inf
-inf
-inf
-inf
-inf
-inf
-inf
-inf
-inf
-inf
-inf
-inf
-inf
-inf
-inf
-inf
-inf
-inf
-inf
-inf
-inf
-inf
-inf
-inf
-inf
-inf
-inf
-inf
-inf
-inf
-inf
-inf
-inf
-inf
-inf
-inf
-inf
-inf
-inf
-inf
-inf
-inf
-inf
-inf
-inf
-inf
-inf
-inf
-inf
-inf
-inf
-inf
-inf
-inf
-inf
-inf
-inf
-inf
-inf
-inf
-inf
-inf
-inf
-inf
-inf
-inf
-inf
-inf
-inf
-inf
-inf
-inf
-inf
-inf
-inf
-inf
-inf
-inf
-inf
-inf
-inf
-inf
-inf
-inf
-inf
-inf
-inf
-inf
-inf
-inf
-inf
-inf
-inf
-inf
-inf
-inf
-inf
-inf
-inf
-inf
-inf
-inf
-inf
-inf
-inf
-inf
inf
inf
inf
inf
inf
inf
inf
inf
inf
inf
inf
inf
inf
inf
inf
inf
inf
inf
inf
inf
inf
inf
inf
inf
inf
inf
inf
inf
inf
inf
inf
inf
inf
inf
inf
inf
inf
inf
inf
inf
inf
inf
inf
inf
inf
inf
inf
inf
inf
inf
inf
inf
inf
inf
inf
inf
inf
inf
inf
inf
inf
inf
inf
inf
inf
inf
inf
inf
inf
inf
inf
inf
inf
inf
inf
inf
inf
inf
inf
inf
inf
inf
inf
inf
inf
inf
inf
inf
inf
inf
inf
inf
inf
inf
inf
inf
inf
inf
inf
inf
inf
inf
inf
inf
inf
inf
inf
inf
inf
inf
inf
inf
inf
inf
inf
inf
inf
inf
inf
inf
inf
inf
inf
inf
inf
inf
inf
inf
inf
inf
-inf
-inf
-inf
-inf
-inf
-inf
inf
inf
-inf
-inf
-inf
-inf
-inf
-inf
-inf
-inf
inf
inf
inf
inf
inf
inf
inf
inf
inf
inf
inf
inf
inf
inf
inf
inf
inf
inf
inf
inf
inf
inf
inf
inf
inf
inf
inf
inf
inf
inf
inf
inf
inf
inf
inf
inf
inf
inf
inf
inf
inf
inf
inf
inf
inf
inf
inf
inf
inf
inf
inf
inf
inf
inf
inf
inf
inf
inf
inf
inf
inf
inf
inf
inf
inf
inf
inf
inf
inf
inf
inf
inf
inf
inf
inf
inf
inf
inf
inf
inf
inf
inf
inf
inf
inf
inf
inf
inf
inf
inf
inf
inf
-inf
-inf
-inf
-inf
inf
-inf
-inf
-inf
-inf
-inf
-inf
-inf
-inf
-inf
-inf
-inf
-inf
-inf
-inf
-inf
-inf
-inf
-inf
-inf
inf
inf
inf
inf
inf
inf
inf
inf
inf
inf
inf
inf
inf
inf
inf
inf
inf
inf
inf
inf
inf
inf
inf
inf
inf
inf
inf
inf
inf
inf
inf
inf
inf
inf
inf
inf
inf
inf
inf
inf
inf
inf
inf
inf
inf
inf
inf
inf
inf
inf
inf
inf
inf
inf
inf
inf
inf
inf
inf
inf
inf
inf
inf
inf
inf
inf
inf
inf
inf
inf
inf
inf
inf
inf
inf
inf
inf
inf
inf
inf
inf
inf
inf
inf
inf
inf
inf
inf
inf
inf
inf
inf
inf
inf
inf
inf
inf
inf
inf
inf
-inf
-inf
-inf
-inf
-inf
-inf
-inf
-inf
-inf
-inf
-inf
-inf
-inf
-inf
-inf
-inf
-inf
inf
inf
inf
inf
inf
inf
inf
inf
inf
inf
inf
inf
inf
inf
inf
inf
inf
inf
inf
inf
inf
inf
inf
inf
inf
inf
inf
inf
inf
inf
inf
inf
inf
inf
inf
inf
inf
inf
inf
inf
inf
inf
inf
inf
inf
inf
inf
inf
inf
inf
inf
inf
inf
inf
inf
inf
inf
inf
inf
inf
inf
inf
inf
inf
inf
inf
inf
inf
inf
inf
inf
inf
inf
inf
inf
inf
inf
inf
inf
inf
inf
inf
inf
inf
inf
inf
inf
inf
inf
inf
inf
inf
inf
-inf
-inf
inf
inf
inf
inf
inf
inf
inf
inf
inf
inf
inf
inf
-inf
-inf
-inf
-inf
-inf
-inf
-inf
-inf
-inf
-inf
-inf
-inf
inf
inf
-inf
-inf
-inf
-inf
-inf
-inf
-inf
-inf
-inf
-inf
-inf
-inf
-inf
-inf
-inf
-inf
-inf
-inf
-inf
-inf
-inf
-inf
-inf
-inf
-inf
-inf
-inf
-inf
-inf
-inf
-inf
-inf
-inf
-inf
-inf
-inf
-inf
-inf
-inf
-inf
-inf
-inf
-inf
-inf
-inf
-inf
-inf
-inf
-inf
-inf
-inf
-inf
-inf
-inf
-inf
-inf
-inf
-inf
-inf
-inf
-inf
-inf
-inf
-inf
-inf
-inf
-inf
-inf
-inf
-inf
-inf
-inf
-inf
-inf
-inf
-inf
-inf
-inf
-inf
-inf
-inf
-inf
-inf
-inf
-inf
-inf
inf
inf
inf
inf
inf
inf
inf
inf
inf
inf
inf
inf
inf
inf
inf
inf
inf
inf
inf
inf
inf
inf
inf
inf
-inf
-inf
-inf
-inf
-inf
-inf
-inf
-inf
inf
inf
inf
inf
-inf
-inf
-inf
-inf
inf
inf
inf
inf
inf
inf
inf
inf
inf
inf
inf
inf
inf
inf
inf
inf
inf
inf
inf
inf
inf
inf
inf
inf
inf
inf
inf
inf
inf
inf
inf
inf
inf
inf
inf
inf
inf
inf
inf
inf
inf
inf
inf
inf
inf
inf
inf
inf
inf
inf
inf
inf
inf
inf
inf
inf
inf
inf
inf
inf
inf
inf
inf
inf
inf
inf
inf
inf
inf
inf
inf
inf
inf
inf
inf
inf
inf
inf
inf
inf
inf
inf
inf
inf
inf
-inf
inf
inf
-inf
-inf
-inf
-inf
-inf
-inf
-inf
-inf
inf
inf
inf
inf
-inf
-inf
-inf
-inf
inf
inf
inf
inf
inf
inf
inf
inf
inf
inf
inf
inf
inf
inf
inf
inf
inf
inf
inf
inf
inf
inf
inf
inf
inf
inf
inf
inf
inf
inf
inf
inf
inf
inf
inf
inf
inf
inf
inf
inf
inf
inf
inf
inf
inf
inf
inf
inf
inf
inf
inf
inf
inf
inf
inf
inf
inf
inf
inf
inf
inf
inf
inf
inf
inf
inf
inf
inf
inf
inf
inf
inf
inf
inf
inf
inf
inf
inf
inf
inf
inf
inf
inf
inf
inf
inf
inf
inf
inf
inf
inf
inf
inf
inf
inf
inf
inf
inf
inf
inf
inf
inf
inf
inf
-inf
-inf
-inf
-inf
inf
inf
inf
inf
-inf
-inf
-inf
-inf
-inf
-inf
-inf
-inf
-inf
-inf
-inf
-inf
-inf
inf
inf
inf
inf
inf
inf
inf
inf
inf
inf
inf
inf
inf
inf
inf
inf
inf
inf
inf
inf
inf
inf
inf
inf
inf
inf
inf
inf
inf
inf
inf
inf
inf
inf
inf
inf
inf
inf
inf
inf
inf
inf
inf
inf
inf
inf
inf
inf
inf
inf
inf
inf
inf
inf
inf
inf
inf
inf
inf
inf
inf
inf
inf
inf
inf
inf
inf
inf
inf
inf
inf
inf
inf
inf
inf
inf
inf
inf
inf
inf
inf
inf
inf
inf
inf
inf
inf
inf
inf
inf
inf
inf
inf
inf
inf
inf
inf
inf
inf
inf
inf
inf
inf
-inf
-inf
-inf
-inf
-inf
-inf
-inf
inf
-inf
inf
inf
inf
inf
inf
inf
inf
inf
-inf
-inf
inf
inf
inf
-inf
-inf
inf
inf
inf
inf
inf
inf
-inf
inf
inf
inf
inf
inf
inf
inf
inf
inf
inf
inf
inf
inf
inf
inf
inf
inf
inf
inf
inf
inf
inf
inf
inf
inf
inf
inf
inf
inf
inf
inf
inf
inf
inf
inf
inf
inf
inf
inf
inf
inf
inf
inf
inf
inf
inf
inf
inf
inf
inf
inf
inf
inf
inf
inf
inf
inf
inf
inf
inf
inf
inf
inf
inf
inf
inf
inf
inf
inf
inf
inf
inf
inf
inf
inf
inf
inf
inf
inf
inf
inf
inf
inf
inf
inf
inf
inf
inf
inf
-inf
-inf
-inf
-inf
-inf
-inf
-inf
-inf
-inf
inf
-inf
-inf
inf
inf
inf
inf
inf
inf
inf
inf
inf
inf
inf
inf
-inf
-inf
-inf
-inf
inf
-inf
-inf
-inf
-inf
-inf
-inf
-inf
-inf
-inf
-inf
-inf
-inf
-inf
-inf
-inf
-inf
-inf
-inf
-inf
-inf
-inf
-inf
-inf
-inf
-inf
-inf
-inf
-inf
-inf
-inf
-inf
-inf
-inf
-inf
-inf
-inf
-inf
-inf
-inf
-inf
-inf
-inf
-inf
-inf
-inf
-inf
-inf
-inf
-inf
-inf
-inf
-inf
-inf
-inf
-inf
-inf
-inf
-inf
-inf
-inf
-inf
-inf
-inf
-inf
-inf
-inf
-inf
-inf
-inf
-inf
-inf
-inf
-inf
-inf
-inf
-inf
-inf
-inf
-inf
-inf
-inf
-inf
-inf
-inf
-inf
-inf
-inf
-inf
-inf
-inf
-inf
-inf
-inf
-inf
-inf
inf
inf
inf
inf
inf
inf
inf
inf
-inf
-inf
inf
inf
inf
inf
inf
inf
inf
inf
inf
inf
inf
inf
inf
inf
inf
inf
inf
inf
inf
inf
inf
inf
inf
inf
inf
inf
inf
inf
inf
inf
inf
inf
inf
inf
inf
inf
inf
inf
inf
inf
inf
inf
inf
inf
inf
inf
inf
inf
inf
inf
inf
inf
inf
inf
inf
inf
inf
inf
inf
inf
inf
inf
inf
inf
inf
inf
inf
inf
inf
inf
inf
inf
inf
inf
inf
inf
inf
inf
inf
inf
inf
inf
inf
inf
inf
inf
inf
inf
inf
inf
inf
inf
inf
inf
inf
inf
inf
inf
inf
inf
inf
inf
inf
inf
inf
inf
inf
inf
inf
inf
inf
inf
inf
inf
inf
-inf
-inf
-inf
-inf
-inf
-inf
-inf
-inf
-inf
-inf
-inf
-inf
-inf
-inf
-inf
inf
inf
inf
inf
inf
inf
inf
inf
inf
inf
inf
inf
inf
inf
inf
inf
inf
inf
inf
inf
inf
inf
inf
inf
inf
inf
inf
inf
inf
inf
inf
inf
inf
inf
inf
inf
inf
inf
inf
inf
inf
inf
inf
inf
inf
inf
inf
inf
inf
inf
inf
inf
inf
inf
inf
inf
inf
inf
inf
inf
inf
inf
inf
inf
inf
inf
inf
inf
inf
inf
inf
inf
inf
inf
inf
inf
inf
inf
inf
inf
inf
inf
inf
inf
inf
inf
inf
inf
inf
inf
inf
inf
inf
inf
inf
inf
-inf
-inf
inf
inf
inf
inf
inf
inf
-inf
-inf
-inf
-inf
-inf
-inf
-inf
-inf
inf
inf
inf
inf
inf
inf
inf
inf
-inf
inf
inf
inf
inf
inf
inf
inf
-inf
inf
inf
inf
inf
inf
inf
inf
inf
inf
inf
inf
inf
inf
inf
inf
inf
inf
inf
inf
inf
inf
inf
inf
inf
inf
inf
inf
inf
inf
inf
inf
inf
inf
inf
inf
inf
inf
inf
inf
inf
inf
inf
inf
inf
inf
inf
inf
inf
inf
inf
inf
inf
inf
inf
inf
inf
inf
inf
inf
inf
inf
inf
inf
inf
inf
inf
inf
inf
inf
inf
inf
inf
inf
inf
inf
inf
inf
inf
inf
inf
inf
inf
inf
inf
inf
inf
inf
inf
inf
inf
inf
inf
inf
inf
inf
-inf
-inf
-inf
-inf
-inf
-inf
-inf
-inf
-inf
-inf
-inf
-inf
-inf
-inf
-inf
-inf
-inf
inf
inf
inf
inf
inf
inf
inf
-inf
-inf
inf
-inf
-inf
-inf
-inf
-inf
-inf
-inf
-inf
-inf
-inf
-inf
-inf
-inf
-inf
-inf
-inf
-inf
-inf
-inf
-inf
-inf
-inf
-inf
-inf
-inf
-inf
-inf
-inf
-inf
-inf
-inf
-inf
-inf
-inf
-inf
-inf
-inf
-inf
-inf
-inf
-inf
-inf
-inf
-inf
-inf
-inf
-inf
-inf
-inf
-inf
-inf
-inf
-inf
-inf
-inf
-inf
-inf
-inf
-inf
-inf
-inf
-inf
-inf
-inf
-inf
-inf
-inf
-inf
-inf
-inf
-inf
-inf
-inf
-inf
-inf
-inf
-inf
-inf
-inf
-inf
-inf
inf
-inf
-inf
-inf
-inf
-inf
-inf
-inf
-inf
-inf
-inf
-inf
-inf
-inf
-inf
-inf
-inf
inf
inf
-inf
-inf
-inf
-inf
-inf
-inf
-inf
-inf
inf
inf
inf
inf
inf
-inf
-inf
-inf
-inf
-inf
-inf
-inf
-inf
-inf
-inf
-inf
-inf
-inf
-inf
-inf
-inf
-inf
-inf
-inf
-inf
-inf
-inf
-inf
-inf
-inf
-inf
-inf
-inf
-inf
-inf
-inf
-inf
-inf
-inf
-inf
-inf
-inf
-inf
-inf
-inf
-inf
-inf
-inf
-inf
-inf
-inf
-inf
-inf
-inf
-inf
-inf
-inf
-inf
-inf
-inf
-inf
-inf
-inf
-inf
-inf
-inf
-inf
-inf
-inf
-inf
-inf
-inf
-inf
-inf
-inf
-inf
-inf
-inf
-inf
-inf
-inf
-inf
-inf
-inf
-inf
-inf
-inf
-inf
-inf
-inf
-inf
-inf
-inf
inf
inf
inf
inf
inf
inf
inf
inf
inf
inf
inf
inf
-inf
-inf
-inf
-inf
-inf
-inf
-inf
-inf
inf
inf
inf
inf
inf
inf
inf
inf
inf
-inf
inf
inf
-inf
-inf
-inf
-inf
-inf
-inf
-inf
-inf
-inf
-inf
-inf
-inf
-inf
-inf
-inf
-inf
-inf
-inf
-inf
-inf
-inf
-inf
-inf
-inf
-inf
-inf
-inf
-inf
-inf
-inf
-inf
-inf
-inf
-inf
-inf
-inf
-inf
-inf
-inf
-inf
-inf
-inf
-inf
-inf
-inf
-inf
-inf
-inf
-inf
-inf
-inf
-inf
-inf
-inf
-inf
-inf
-inf
-inf
-inf
-inf
-inf
-inf
-inf
-inf
-inf
-inf
-inf
-inf
-inf
-inf
-inf
-inf
-inf
-inf
-inf
-inf
-inf
-inf
-inf
-inf
-inf
-inf
-inf
-inf
-inf
-inf
-inf
-inf
-inf
-inf
-inf
-inf
-inf
-inf
-inf
-inf
-inf
-inf
-inf
-inf
-inf
-inf
-inf
-inf
inf
inf
inf
inf
inf
inf
inf
inf
inf
inf
inf
inf
-inf
-inf
-inf
-inf
inf
-inf
-inf
-inf
-inf
-inf
-inf
-inf
-inf
-inf
-inf
-inf
-inf
-inf
-inf
-inf
-inf
-inf
-inf
-inf
-inf
-inf
-inf
-inf
-inf
-inf
-inf
-inf
-inf
-inf
-inf
-inf
-inf
-inf
-inf
-inf
-inf
-inf
-inf
-inf
-inf
-inf
-inf
-inf
-inf
-inf
-inf
-inf
-inf
-inf
-inf
-inf
-inf
-inf
-inf
-inf
-inf
-inf
-inf
-inf
-inf
-inf
-inf
-inf
-inf
-inf
-inf
-inf
-inf
-inf
-inf
-inf
-inf
-inf
-inf
-inf
-inf
-inf
-inf
-inf
-inf
-inf
-inf
-inf
-inf
-inf
-inf
-inf
-inf
-inf
-inf
-inf
-inf
-inf
-inf
-inf
-inf
-inf
-inf
-inf
-inf
-inf
inf
inf
-inf
-inf
-inf
-inf
-inf
-inf
-inf
-inf
-inf
-inf
-inf
-inf
-inf
-inf
-inf
-inf
-inf
-inf
-inf
-inf
-inf
-inf
-inf
-inf
-inf
-inf
-inf
-inf
-inf
-inf
-inf
-inf
-inf
-inf
-inf
-inf
-inf
-inf
-inf
-inf
-inf
-inf
-inf
-inf
-inf
-inf
-inf
-inf
-inf
-inf
-inf
-inf
-inf
-inf
-inf
-inf
-inf
-inf
-inf
-inf
-inf
-inf
-inf
-inf
-inf
-inf
-inf
-inf
-inf
-inf
-inf
-inf
-inf
-inf
-inf
-inf
-inf
-inf
-inf
-inf
-inf
-inf
-inf
-inf
-inf
-inf
-inf
-inf
-inf
-inf
-inf
-inf
-inf
-inf
-inf
-inf
-inf
-inf
-inf
-inf
-inf
-inf
-inf
-inf
inf
inf
inf
inf
inf
inf
inf
inf
inf
inf
inf
inf
-inf
inf
inf
inf
-inf
-inf
-inf
-inf
inf
inf
inf
inf
inf
inf
inf
inf
inf
inf
-inf
-inf
-inf
-inf
-inf
-inf
inf
-inf
inf
inf
inf
inf
inf
inf
inf
inf
inf
inf
inf
inf
inf
inf
inf
inf
inf
inf
inf
inf
inf
inf
inf
inf
inf
inf
inf
inf
inf
inf
inf
inf
inf
inf
inf
inf
inf
inf
inf
inf
inf
inf
inf
inf
inf
inf
inf
inf
inf
inf
inf
inf
inf
inf
inf
inf
inf
inf
inf
inf
inf
inf
inf
inf
inf
inf
inf
inf
inf
inf
inf
inf
inf
inf
inf
inf
inf
inf
inf
inf
inf
inf
inf
inf
inf
inf
inf
inf
inf
inf
inf
inf
inf
inf
inf
inf
-inf
-inf
-inf
-inf
-inf
-inf
inf
inf
inf
inf
inf
inf
inf
inf
-inf
-inf
-inf
-inf
inf
-inf
-inf
-inf
-inf
-inf
-inf
-inf
-inf
-inf
-inf
-inf
-inf
-inf
-inf
-inf
-inf
-inf
-inf
-inf
-inf
-inf
-inf
-inf
-inf
-inf
-inf
-inf
-inf
-inf
-inf
-inf
-inf
-inf
-inf
-inf
-inf
-inf
-inf
-inf
-inf
-inf
-inf
-inf
-inf
-inf
-inf
-inf
-inf
-inf
-inf
-inf
-inf
-inf
-inf
-inf
-inf
-inf
-inf
-inf
-inf
-inf
-inf
-inf
-inf
-inf
-inf
-inf
-inf
-inf
-inf
-inf
-inf
-inf
-inf
-inf
-inf
-inf
-inf
-inf
-inf
-inf
-inf
-inf
-inf
-inf
-inf
-inf
inf
inf
inf
inf
inf
inf
inf
inf
inf
inf
inf
inf
inf
inf
inf
inf
inf
inf
inf
inf
inf
inf
inf
inf
inf
inf
inf
inf
-inf
-inf
-inf
-inf
inf
inf
inf
inf
inf
inf
inf
inf
inf
inf
inf
inf
inf
inf
inf
inf
inf
inf
inf
inf
inf
inf
inf
inf
inf
inf
inf
inf
inf
inf
inf
inf
inf
inf
inf
inf
inf
inf
inf
inf
inf
inf
inf
inf
inf
inf
inf
inf
inf
inf
inf
inf
inf
inf
inf
inf
inf
inf
inf
inf
inf
inf
inf
inf
inf
inf
inf
inf
inf
inf
inf
inf
inf
inf
inf
inf
inf
inf
inf
inf
inf
inf
inf
inf
inf
inf
inf
inf
inf
inf
inf
inf
inf
inf
inf
inf
inf
inf
inf
inf
inf
inf
inf
inf
inf
inf
inf
inf
inf
inf
inf
-inf
-inf
-inf
-inf
-inf
-inf
-inf
-inf
-inf
-inf
-inf
-inf
-inf
-inf
-inf
-inf
-inf
-inf
-inf
-inf
-inf
-inf
-inf
-inf
-inf
-inf
-inf
-inf
-inf
-inf
-inf
-inf
-inf
-inf
-inf
-inf
-inf
-inf
-inf
-inf
-inf
-inf
-inf
-inf
-inf
-inf
-inf
-inf
-inf
-inf
-inf
-inf
-inf
-inf
-inf
-inf
-inf
-inf
-inf
-inf
-inf
-inf
-inf
-inf
-inf
-inf
-inf
-inf
-inf
-inf
-inf
-inf
-inf
-inf
-inf
-inf
-inf
-inf
-inf
-inf
-inf
-inf
-inf
-inf
-inf
-inf
-inf
-inf
-inf
-inf
-inf
-inf
-inf
-inf
-inf
inf
-inf
-inf
-inf
-inf
-inf
inf
inf
inf
inf
inf
-inf
-inf
-inf
-inf
-inf
-inf
-inf
inf
inf
inf
inf
inf
inf
-inf
-inf
-inf
-inf
-inf
-inf
inf
inf
inf
inf
inf
inf
inf
inf
inf
inf
inf
inf
inf
inf
inf
inf
inf
inf
inf
inf
inf
inf
inf
inf
inf
inf
inf
inf
inf
inf
inf
inf
inf
inf
inf
inf
inf
inf
inf
inf
inf
inf
inf
inf
inf
inf
inf
inf
inf
inf
inf
inf
inf
inf
inf
inf
inf
inf
inf
inf
inf
inf
inf
inf
inf
inf
inf
inf
inf
inf
inf
inf
inf
inf
inf
inf
inf
inf
inf
inf
inf
inf
inf
inf
inf
inf
inf
inf
inf
inf
inf
inf
inf
inf
inf
inf
inf
inf
inf
inf
-inf
-inf
-inf
-inf
-inf
-inf
-inf
-inf
inf
inf
inf
inf
-inf
-inf
inf
inf
-inf
-inf
-inf
-inf
inf
inf
inf
inf
inf
inf
-inf
-inf
-inf
-inf
-inf
-inf
-inf
-inf
-inf
-inf
-inf
-inf
-inf
-inf
-inf
-inf
-inf
-inf
-inf
-inf
-inf
-inf
-inf
-inf
-inf
-inf
-inf
-inf
-inf
-inf
-inf
-inf
-inf
-inf
-inf
-inf
-inf
-inf
-inf
-inf
-inf
-inf
-inf
-inf
-inf
-inf
-inf
-inf
-inf
-inf
-inf
-inf
-inf
-inf
-inf
-inf
-inf
-inf
-inf
-inf
-inf
-inf
-inf
-inf
-inf
-inf
-inf
-inf
-inf
-inf
-inf
-inf
-inf
-inf
-inf
-inf
-inf
-inf
-inf
-inf
-inf
-inf
-inf
-inf
-inf
-inf
-inf
-inf
-inf
-inf
-inf
-inf
-inf
-inf
-inf
-inf
-inf
-inf
-inf
-inf
-inf
-inf
-inf
-inf
-inf
-inf
inf
inf
inf
inf
inf
inf
inf
inf
inf
inf
inf
inf
inf
inf
inf
inf
inf
inf
inf
inf
inf
inf
inf
inf
inf
inf
inf
inf
inf
inf
inf
inf
inf
inf
inf
inf
inf
inf
inf
inf
inf
inf
inf
inf
inf
inf
inf
inf
inf
inf
inf
inf
inf
inf
inf
inf
inf
inf
inf
inf
inf
inf
inf
inf
inf
inf
inf
inf
inf
inf
inf
inf
inf
inf
inf
inf
inf
inf
inf
inf
inf
inf
inf
inf
inf
inf
inf
inf
inf
inf
inf
inf
inf
inf
inf
inf
inf
inf
inf
inf
inf
inf
inf
inf
inf
inf
inf
-inf
-inf
-inf
-inf
-inf
-inf
inf
inf
inf
-inf
-inf
-inf
inf
inf
inf
inf
inf
inf
-inf
-inf
-inf
-inf
-inf
-inf
-inf
inf
inf
inf
inf
inf
inf
inf
inf
inf
inf
inf
inf
inf
inf
inf
inf
inf
inf
inf
inf
inf
inf
inf
inf
inf
inf
inf
inf
inf
inf
inf
inf
inf
inf
inf
inf
inf
inf
inf
inf
inf
inf
inf
inf
inf
inf
inf
inf
inf
inf
inf
inf
inf
inf
inf
inf
inf
inf
inf
inf
inf
inf
inf
inf
inf
inf
inf
inf
inf
inf
inf
inf
inf
inf
inf
inf
inf
inf
inf
inf
inf
inf
inf
inf
inf
inf
inf
inf
inf
inf
inf
inf
inf
inf
inf
inf
inf
inf
inf
inf
-inf
-inf
-inf
-inf
inf
inf
inf
inf
-inf
-inf
-inf
inf
inf
inf
inf
inf
inf
inf
inf
inf
inf
inf
inf
inf
inf
inf
inf
-inf
-inf
-inf
-inf
-inf
-inf
-inf
-inf
-inf
-inf
-inf
-inf
-inf
-inf
-inf
-inf
-inf
-inf
-inf
-inf
-inf
-inf
-inf
-inf
-inf
-inf
-inf
-inf
-inf
-inf
-inf
-inf
-inf
-inf
-inf
-inf
-inf
-inf
-inf
-inf
-inf
-inf
-inf
-inf
-inf
-inf
-inf
-inf
-inf
-inf
-inf
-inf
-inf
-inf
-inf
-inf
-inf
-inf
-inf
-inf
-inf
-inf
-inf
-inf
-inf
-inf
-inf
-inf
-inf
-inf
-inf
-inf
-inf
-inf
-inf
-inf
-inf
-inf
-inf
-inf
-inf
inf
inf
inf
inf
inf
inf
inf
inf
inf
inf
inf
inf
-inf
-inf
-inf
-inf
inf
-inf
-inf
inf
inf
inf
-inf
-inf
inf
inf
inf
inf
inf
inf
inf
inf
-inf
-inf
-inf
inf
inf
inf
inf
inf
inf
inf
inf
inf
inf
inf
inf
inf
inf
inf
inf
inf
inf
inf
inf
inf
inf
inf
inf
inf
inf
inf
inf
inf
inf
inf
inf
inf
inf
inf
inf
inf
inf
inf
inf
inf
inf
inf
inf
inf
inf
inf
inf
inf
inf
inf
inf
inf
inf
inf
inf
inf
inf
inf
inf
inf
inf
inf
inf
inf
inf
inf
inf
inf
inf
inf
inf
inf
inf
inf
inf
inf
inf
inf
inf
inf
inf
inf
inf
inf
inf
inf
inf
inf
-inf
-inf
-inf
-inf
-inf
inf
inf
inf
inf
inf
inf
inf
inf
inf
inf
inf
-inf
-inf
-inf
-inf
-inf
-inf
-inf
-inf
inf
inf
inf
inf
inf
inf
inf
inf
inf
inf
inf
inf
inf
inf
inf
inf
inf
inf
inf
inf
inf
inf
inf
inf
inf
inf
inf
inf
inf
inf
inf
inf
inf
inf
inf
inf
inf
inf
inf
inf
inf
inf
inf
inf
inf
inf
inf
inf
inf
inf
inf
inf
inf
inf
inf
inf
inf
inf
inf
inf
inf
inf
inf
inf
inf
inf
inf
inf
inf
inf
inf
inf
inf
inf
inf
inf
inf
inf
inf
inf
inf
inf
inf
inf
inf
inf
inf
inf
inf
inf
inf
inf
inf
inf
inf
inf
inf
inf
inf
inf
inf
inf
inf
inf
inf
-inf
-inf
-inf
-inf
inf
inf
inf
inf
inf
inf
inf
-inf
-inf
-inf
-inf
inf
inf
-inf
inf
inf
inf
inf
inf
inf
inf
inf
inf
inf
inf
inf
inf
inf
inf
inf
inf
inf
inf
inf
inf
inf
inf
inf
inf
inf
inf
inf
inf
inf
inf
inf
inf
inf
inf
inf
inf
inf
inf
inf
inf
inf
inf
inf
inf
inf
inf
inf
inf
inf
inf
inf
inf
inf
inf
inf
inf
inf
inf
inf
inf
inf
inf
inf
inf
inf
inf
inf
inf
inf
inf
inf
inf
inf
inf
inf
inf
inf
inf
inf
inf
inf
inf
inf
inf
inf
inf
inf
inf
inf
inf
inf
inf
inf
inf
inf
inf
inf
inf
inf
inf
-inf
inf
inf
inf
inf
inf
inf
inf
-inf
-inf
-inf
-inf
-inf
inf
inf
inf
-inf
-inf
-inf
-inf
-inf
-inf
-inf
-inf
-inf
-inf
-inf
-inf
-inf
-inf
-inf
-inf
-inf
-inf
-inf
-inf
-inf
-inf
-inf
-inf
-inf
-inf
-inf
-inf
-inf
-inf
-inf
-inf
-inf
-inf
-inf
-inf
-inf
-inf
-inf
-inf
-inf
-inf
-inf
-inf
-inf
-inf
-inf
-inf
-inf
-inf
-inf
-inf
-inf
-inf
-inf
-inf
-inf
-inf
-inf
-inf
-inf
-inf
-inf
-inf
-inf
-inf
-inf
-inf
-inf
-inf
-inf
-inf
-inf
-inf
-inf
-inf
-inf
-inf
-inf
-inf
-inf
-inf
-inf
-inf
-inf
-inf
-inf
-inf
-inf
-inf
-inf
-inf
-inf
-inf
-inf
-inf
-inf
-inf
-inf
-inf
-inf
-inf
-inf
-inf
inf
inf
inf
inf
inf
inf
inf
inf
inf
inf
inf
inf
inf
inf
inf
inf
inf
inf
inf
inf
inf
inf
inf
inf
inf
inf
inf
inf
inf
inf
inf
inf
inf
inf
inf
inf
inf
inf
inf
inf
inf
inf
inf
inf
inf
inf
inf
inf
inf
inf
inf
inf
inf
inf
inf
inf
inf
inf
inf
inf
inf
inf
inf
inf
inf
inf
inf
inf
inf
inf
inf
inf
inf
inf
inf
inf
inf
inf
inf
inf
inf
inf
inf
inf
inf
inf
inf
inf
inf
inf
inf
inf
inf
inf
inf
inf
inf
inf
inf
inf
inf
inf
inf
inf
inf
inf
inf
inf
inf
inf
inf
inf
inf
inf
inf
inf
inf
inf
inf
inf
inf
inf
inf
inf
inf
inf
inf
inf
inf
inf
inf
inf
inf
inf
inf
inf
-inf
-inf
-inf
-inf
-inf
inf
inf
inf
inf
inf
inf
inf
inf
-inf
-inf
-inf
-inf
-inf
-inf
-inf
-inf
-inf
-inf
-inf
-inf
-inf
-inf
-inf
-inf
-inf
-inf
-inf
-inf
-inf
-inf
-inf
-inf
-inf
-inf
-inf
-inf
-inf
-inf
-inf
-inf
-inf
-inf
-inf
-inf
-inf
-inf
-inf
-inf
-inf
-inf
-inf
-inf
-inf
-inf
-inf
-inf
-inf
-inf
-inf
-inf
-inf
-inf
-inf
-inf
-inf
-inf
-inf
-inf
-inf
-inf
-inf
-inf
-inf
-inf
-inf
-inf
-inf
-inf
-inf
-inf
-inf
-inf
-inf
-inf
-inf
-inf
-inf
-inf
-inf
-inf
-inf
-inf
inf
inf
inf
inf
inf
inf
inf
inf
-inf
-inf
inf
-inf
-inf
-inf
-inf
-inf
-inf
-inf
-inf
-inf
-inf
inf
inf
-inf
inf
inf
inf
inf
inf
inf
inf
inf
inf
inf
inf
inf
inf
inf
inf
inf
inf
inf
inf
inf
inf
inf
inf
inf
inf
inf
inf
inf
inf
inf
inf
inf
inf
inf
inf
inf
inf
inf
inf
inf
inf
inf
inf
inf
inf
inf
inf
inf
inf
inf
inf
inf
inf
inf
inf
inf
inf
inf
inf
inf
inf
inf
inf
inf
inf
inf
inf
inf
inf
inf
inf
inf
inf
inf
inf
inf
inf
inf
inf
inf
inf
inf
inf
-inf
-inf
-inf
-inf
inf
inf
inf
-inf
inf
inf
inf
inf
inf
-inf
-inf
-inf
-inf
inf
inf
inf
-inf
-inf
inf
inf
inf
-inf
-inf
-inf
-inf
-inf
-inf
-inf
inf
-inf
-inf
-inf
-inf
-inf
-inf
-inf
inf
inf
inf
inf
inf
inf
inf
inf
inf
inf
inf
inf
inf
inf
inf
inf
inf
inf
inf
inf
inf
inf
inf
inf
inf
inf
inf
inf
inf
inf
inf
inf
inf
inf
inf
inf
inf
inf
inf
inf
inf
inf
inf
inf
inf
inf
inf
inf
inf
inf
inf
inf
inf
inf
inf
inf
inf
inf
inf
inf
inf
inf
inf
inf
inf
inf
inf
inf
inf
inf
inf
inf
inf
inf
inf
inf
inf
inf
inf
inf
inf
inf
inf
inf
inf
inf
inf
inf
inf
inf
inf
inf
inf
inf
inf
inf
-inf
-inf
-inf
-inf
-inf
-inf
-inf
-inf
inf
inf
-inf
-inf
-inf
-inf
-inf
-inf
inf
inf
inf
inf
inf
inf
inf
inf
inf
inf
inf
inf
inf
inf
inf
inf
inf
inf
inf
inf
inf
inf
inf
inf
inf
inf
inf
inf
inf
inf
inf
inf
inf
inf
inf
inf
inf
inf
inf
inf
inf
inf
inf
inf
inf
inf
inf
inf
inf
inf
inf
inf
inf
inf
inf
inf
inf
inf
inf
inf
inf
inf
inf
inf
inf
inf
inf
inf
inf
inf
inf
inf
inf
inf
inf
inf
inf
inf
inf
inf
inf
inf
inf
inf
inf
inf
inf
inf
inf
inf
inf
inf
inf
inf
inf
inf
inf
inf
inf
inf
inf
inf
inf
inf
inf
-inf
-inf
-inf
-inf
-inf
-inf
-inf
-inf
-inf
-inf
-inf
inf
inf
inf
inf
inf
inf
-inf
-inf
inf
inf
inf
inf
-inf
-inf
-inf
-inf
inf
-inf
-inf
-inf
-inf
-inf
-inf
-inf
-inf
-inf
-inf
-inf
-inf
-inf
-inf
-inf
-inf
-inf
-inf
-inf
-inf
-inf
-inf
-inf
-inf
-inf
-inf
-inf
-inf
-inf
-inf
-inf
-inf
-inf
-inf
-inf
-inf
-inf
-inf
-inf
-inf
-inf
-inf
-inf
-inf
-inf
-inf
-inf
-inf
-inf
-inf
-inf
-inf
-inf
-inf
-inf
-inf
-inf
-inf
-inf
-inf
-inf
-inf
-inf
-inf
-inf
-inf
-inf
-inf
-inf
-inf
-inf
-inf
-inf
-inf
-inf
-inf
-inf
-inf
-inf
-inf
-inf
-inf
-inf
inf
inf
inf
inf
inf
inf
inf
inf
inf
-inf
-inf
-inf
inf
-inf
-inf
-inf
-inf
-inf
-inf
-inf
-inf
-inf
-inf
-inf
inf
-inf
-inf
-inf
-inf
inf
inf
inf
inf
inf
inf
inf
inf
inf
inf
inf
inf
inf
inf
inf
inf
inf
inf
inf
inf
inf
inf
inf
inf
inf
inf
inf
inf
inf
inf
inf
inf
inf
inf
inf
inf
inf
inf
inf
inf
inf
inf
inf
inf
inf
inf
inf
inf
inf
inf
inf
inf
inf
inf
inf
inf
inf
inf
inf
inf
inf
inf
inf
inf
inf
inf
inf
inf
inf
inf
inf
inf
inf
inf
inf
inf
inf
inf
inf
inf
inf
inf
inf
inf
inf
inf
inf
inf
inf
inf
inf
inf
inf
inf
inf
inf
inf
inf
inf
-inf
-inf
-inf
-inf
-inf
-inf
-inf
-inf
inf
inf
inf
inf
inf
-inf
-inf
-inf
inf
inf
inf
inf
inf
inf
inf
inf
inf
inf
inf
inf
inf
inf
inf
inf
inf
inf
inf
inf
inf
inf
inf
inf
inf
inf
inf
inf
inf
inf
inf
inf
inf
inf
inf
inf
inf
inf
inf
inf
inf
inf
inf
inf
inf
inf
inf
inf
inf
inf
inf
inf
inf
inf
inf
inf
inf
inf
inf
inf
inf
inf
inf
inf
inf
inf
inf
inf
inf
inf
inf
inf
inf
inf
inf
inf
inf
inf
inf
inf
inf
inf
inf
inf
inf
inf
inf
inf
inf
inf
inf
inf
inf
inf
inf
inf
inf
inf
inf
inf
inf
inf
-inf
-inf
-inf
-inf
-inf
-inf
inf
inf
inf
inf
inf
inf
-inf
-inf
-inf
inf
inf
inf
inf
-inf
inf
inf
inf
inf
inf
inf
-inf
inf
inf
inf
inf
inf
inf
inf
inf
inf
inf
inf
inf
inf
inf
inf
inf
inf
inf
inf
inf
inf
inf
inf
inf
inf
inf
inf
inf
inf
inf
inf
inf
inf
inf
inf
inf
inf
inf
inf
inf
inf
inf
inf
inf
inf
inf
inf
inf
inf
inf
inf
inf
inf
inf
inf
inf
inf
inf
inf
inf
inf
inf
inf
inf
inf
inf
inf
inf
inf
inf
inf
inf
inf
inf
inf
inf
inf
inf
inf
inf
inf
inf
inf
-inf
-inf
-inf
-inf
-inf
-inf
-inf
-inf
-inf
-inf
-inf
-inf
inf
inf
inf
inf
inf
inf
inf
inf
inf
inf
inf
-inf
-inf
-inf
-inf
-inf
inf
inf
inf
inf
inf
inf
inf
inf
-inf
-inf
-inf
-inf
-inf
-inf
-inf
-inf
-inf
-inf
-inf
-inf
-inf
-inf
-inf
-inf
-inf
-inf
-inf
-inf
-inf
-inf
-inf
-inf
-inf
-inf
-inf
-inf
-inf
-inf
-inf
-inf
-inf
-inf
-inf
-inf
-inf
-inf
-inf
-inf
-inf
-inf
-inf
-inf
-inf
-inf
-inf
-inf
-inf
-inf
-inf
-inf
-inf
-inf
-inf
-inf
-inf
-inf
-inf
-inf
-inf
-inf
-inf
-inf
-inf
-inf
-inf
-inf
-inf
-inf
-inf
-inf
-inf
-inf
-inf
-inf
-inf
-inf
-inf
-inf
-inf
-inf
-inf
-inf
-inf
-inf
-inf
-inf
-inf
-inf
-inf
-inf
-inf
-inf
-inf
-inf
inf
inf
inf
inf
inf
inf
inf
inf
inf
inf
inf
inf
inf
inf
inf
inf
inf
inf
inf
inf
inf
inf
inf
inf
inf
inf
inf
inf
inf
inf
inf
inf
inf
inf
inf
inf
inf
inf
inf
inf
inf
inf
inf
inf
inf
inf
inf
inf
inf
inf
inf
inf
inf
inf
inf
inf
inf
inf
inf
inf
inf
inf
inf
inf
inf
inf
inf
inf
inf
inf
inf
inf
inf
inf
inf
inf
inf
inf
inf
inf
inf
inf
inf
inf
inf
inf
inf
inf
inf
inf
inf
inf
inf
inf
inf
inf
inf
inf
inf
inf
inf
inf
inf
inf
inf
inf
inf
inf
inf
inf
inf
inf
inf
-inf
-inf
-inf
-inf
-inf
-inf
-inf
-inf
-inf
-inf
-inf
inf
inf
inf
inf
inf
-inf
-inf
-inf
inf
inf
inf
inf
-inf
-inf
-inf
-inf
-inf
-inf
-inf
-inf
-inf
-inf
-inf
-inf
-inf
-inf
-inf
-inf
-inf
-inf
-inf
-inf
-inf
-inf
-inf
-inf
-inf
-inf
-inf
-inf
-inf
-inf
-inf
-inf
-inf
-inf
-inf
-inf
-inf
-inf
-inf
-inf
-inf
-inf
-inf
-inf
-inf
-inf
-inf
-inf
-inf
-inf
-inf
-inf
-inf
-inf
-inf
-inf
-inf
-inf
-inf
-inf
-inf
-inf
-inf
-inf
-inf
-inf
-inf
-inf
-inf
-inf
-inf
-inf
-inf
-inf
-inf
-inf
-inf
-inf
-inf
-inf
-inf
-inf
-inf
-inf
-inf
-inf
-inf
-inf
-inf
-inf
-inf
-inf
-inf
-inf
-inf
-inf
-inf
-inf
-inf
-inf
-inf
-inf
-inf
-inf
-inf
-inf
-inf
-inf
-inf
-inf
-inf
-inf
-inf
-inf
inf
inf
inf
inf
inf
inf
inf
inf
inf
inf
inf
inf
inf
inf
inf
inf
inf
inf
inf
inf
inf
inf
inf
inf
inf
inf
inf
inf
inf
inf
inf
inf
inf
inf
inf
inf
inf
inf
inf
inf
inf
inf
inf
inf
inf
inf
inf
inf
inf
inf
inf
inf
inf
inf
inf
inf
inf
inf
inf
inf
inf
inf
inf
inf
inf
inf
inf
inf
inf
inf
inf
inf
inf
inf
inf
inf
inf
inf
inf
inf
inf
inf
inf
inf
inf
inf
inf
inf
inf
inf
inf
inf
inf
inf
inf
inf
inf
inf
inf
inf
inf
inf
inf
inf
inf
inf
inf
inf
inf
inf
inf
inf
inf
inf
inf
inf
-inf
inf
inf
inf
inf
inf
inf
inf
inf
inf
inf
-inf
-inf
-inf
-inf
-inf
-inf
-inf
-inf
inf
inf
inf
inf
inf
inf
inf
inf
inf
inf
inf
inf
inf
inf
inf
inf
inf
inf
inf
inf
inf
inf
inf
inf
inf
inf
inf
inf
inf
inf
inf
inf
inf
inf
inf
inf
inf
inf
inf
inf
inf
inf
inf
inf
inf
inf
inf
inf
inf
inf
inf
inf
inf
inf
inf
inf
inf
inf
inf
inf
inf
inf
inf
inf
inf
inf
inf
inf
inf
inf
inf
inf
inf
inf
inf
inf
inf
inf
inf
inf
inf
inf
inf
inf
inf
inf
inf
inf
inf
inf
inf
-inf
inf
-inf
-inf
-inf
-inf
-inf
-inf
-inf
inf
-inf
inf
inf
inf
inf
inf
inf
inf
inf
-inf
-inf
-inf
-inf
-inf
-inf
-inf
-inf
-inf
-inf
-inf
-inf
-inf
-inf
-inf
-inf
inf
inf
inf
inf
inf
inf
inf
inf
inf
inf
inf
inf
inf
inf
inf
inf
inf
inf
inf
inf
inf
inf
inf
inf
inf
inf
inf
inf
inf
inf
inf
inf
inf
inf
inf
inf
inf
inf
inf
inf
inf
inf
inf
inf
inf
inf
inf
inf
inf
inf
inf
inf
inf
inf
inf
inf
inf
inf
inf
inf
inf
inf
inf
inf
inf
inf
inf
inf
inf
inf
inf
inf
inf
inf
inf
inf
inf
inf
inf
inf
inf
inf
inf
inf
inf
-inf
-inf
-inf
-inf
-inf
-inf
-inf
-inf
-inf
-inf
-inf
-inf
-inf
-inf
inf
inf
inf
inf
inf
inf
inf
inf
inf
inf
inf
inf
inf
inf
inf
inf
inf
inf
inf
inf
inf
inf
inf
inf
inf
inf
inf
inf
inf
inf
inf
inf
inf
inf
inf
inf
inf
inf
inf
inf
inf
inf
inf
inf
inf
inf
inf
inf
inf
inf
inf
inf
inf
inf
inf
inf
inf
inf
inf
inf
inf
inf
inf
inf
inf
inf
inf
inf
inf
inf
inf
inf
inf
inf
inf
inf
inf
inf
inf
inf
inf
inf
inf
inf
inf
inf
inf
inf
inf
inf
inf
inf
inf
inf
inf
inf
inf
inf
inf
inf
inf
inf
inf
inf
inf
inf
inf
inf
inf
inf
-inf
-inf
-inf
inf
inf
inf
inf
inf
-inf
inf
inf
inf
-inf
-inf
-inf
-inf
inf
inf
inf
inf
-inf
-inf
-inf
-inf
inf
inf
inf
inf
inf
inf
inf
inf
inf
inf
inf
inf
inf
inf
inf
inf
inf
inf
inf
inf
inf
inf
inf
inf
inf
inf
inf
inf
inf
inf
inf
inf
inf
inf
inf
inf
inf
inf
inf
inf
inf
inf
inf
inf
inf
inf
inf
inf
inf
inf
inf
inf
inf
inf
inf
inf
inf
inf
inf
inf
inf
inf
inf
inf
inf
inf
inf
inf
inf
inf
inf
inf
inf
inf
inf
inf
inf
inf
inf
inf
inf
inf
inf
inf
inf
inf
inf
inf
inf
inf
inf
inf
-inf
-inf
inf
inf
inf
inf
inf
inf
-inf
-inf
-inf
-inf
-inf
-inf
-inf
-inf
-inf
-inf
-inf
-inf
inf
-inf
inf
-inf
-inf
inf
inf
inf
inf
inf
inf
inf
inf
inf
inf
inf
inf
inf
inf
inf
inf
inf
inf
inf
inf
inf
inf
inf
inf
inf
inf
inf
inf
inf
inf
inf
inf
inf
inf
inf
inf
inf
inf
inf
inf
inf
inf
inf
inf
inf
inf
inf
inf
inf
inf
inf
inf
inf
inf
inf
inf
inf
inf
inf
inf
inf
inf
inf
inf
inf
inf
inf
inf
inf
inf
inf
inf
inf
inf
inf
inf
inf
inf
inf
inf
inf
inf
inf
inf
inf
inf
inf
inf
inf
inf
inf
inf
inf
inf
inf
inf
inf
inf
inf
-inf
-inf
-inf
-inf
inf
-inf
-inf
-inf
-inf
-inf
-inf
inf
-inf
-inf
-inf
-inf
inf
inf
inf
inf
inf
inf
inf
inf
inf
inf
inf
inf
inf
inf
inf
inf
inf
inf
inf
inf
inf
inf
inf
inf
inf
inf
inf
inf
inf
inf
inf
inf
inf
inf
inf
inf
inf
inf
inf
inf
inf
inf
inf
inf
inf
inf
inf
inf
inf
inf
inf
inf
inf
inf
inf
inf
inf
inf
inf
inf
inf
inf
inf
inf
inf
inf
inf
inf
inf
inf
inf
inf
inf
inf
inf
inf
inf
inf
inf
inf
inf
inf
inf
inf
inf
inf
inf
inf
inf
inf
inf
inf
inf
inf
inf
inf
-inf
-inf
-inf
-inf
-inf
-inf
-inf
-inf
-inf
-inf
-inf
-inf
-inf
-inf
-inf
-inf
inf
inf
inf
inf
inf
inf
inf
inf
inf
inf
inf
inf
inf
inf
inf
inf
-inf
-inf
-inf
-inf
-inf
-inf
-inf
-inf
-inf
-inf
-inf
-inf
-inf
-inf
-inf
-inf
-inf
-inf
-inf
-inf
-inf
-inf
-inf
-inf
-inf
-inf
-inf
-inf
-inf
-inf
-inf
-inf
-inf
-inf
-inf
-inf
-inf
-inf
-inf
-inf
-inf
-inf
-inf
-inf
-inf
-inf
-inf
-inf
-inf
-inf
-inf
-inf
-inf
-inf
-inf
-inf
-inf
-inf
-inf
-inf
-inf
-inf
-inf
-inf
-inf
-inf
-inf
-inf
-inf
-inf
-inf
-inf
-inf
-inf
-inf
-inf
-inf
-inf
-inf
-inf
-inf
-inf
-inf
-inf
-inf
-inf
-inf
-inf
-inf
-inf
-inf
-inf
-inf
-inf
inf
inf
-inf
-inf
-inf
-inf
-inf
-inf
-inf
-inf
inf
inf
inf
inf
inf
inf
inf
inf
inf
inf
inf
-inf
-inf
-inf
-inf
-inf
-inf
-inf
-inf
-inf
-inf
-inf
-inf
-inf
-inf
-inf
-inf
-inf
-inf
-inf
-inf
-inf
-inf
-inf
-inf
-inf
-inf
-inf
-inf
-inf
-inf
-inf
-inf
-inf
-inf
-inf
-inf
-inf
-inf
-inf
-inf
-inf
-inf
-inf
-inf
-inf
-inf
-inf
-inf
-inf
-inf
-inf
-inf
-inf
-inf
-inf
-inf
-inf
-inf
-inf
-inf
-inf
-inf
-inf
-inf
-inf
-inf
-inf
-inf
-inf
-inf
-inf
-inf
-inf
-inf
-inf
-inf
-inf
-inf
-inf
-inf
-inf
-inf
-inf
-inf
-inf
-inf
-inf
-inf
-inf
-inf
-inf
-inf
-inf
-inf
-inf
-inf
inf
inf
-inf
-inf
-inf
-inf
inf
inf
inf
inf
inf
inf
inf
-inf
-inf
-inf
inf
inf
inf
inf
inf
-inf
-inf
-inf
-inf
-inf
-inf
-inf
-inf
-inf
inf
inf
inf
inf
inf
inf
inf
inf
inf
inf
inf
inf
inf
inf
inf
inf
inf
inf
inf
inf
inf
inf
inf
inf
inf
inf
inf
inf
inf
inf
inf
inf
inf
inf
inf
inf
inf
inf
inf
inf
inf
inf
inf
inf
inf
inf
inf
inf
inf
inf
inf
inf
inf
inf
inf
inf
inf
inf
inf
inf
inf
inf
inf
inf
inf
inf
inf
inf
inf
inf
inf
inf
inf
inf
inf
inf
inf
inf
inf
inf
inf
inf
inf
inf
inf
inf
inf
inf
inf
inf
inf
-inf
-inf
-inf
-inf
-inf
-inf
-inf
-inf
inf
inf
inf
-inf
-inf
-inf
-inf
-inf
inf
-inf
-inf
inf
-inf
inf
inf
inf
inf
inf
inf
inf
inf
inf
inf
inf
inf
inf
inf
inf
inf
inf
inf
inf
-inf
-inf
-inf
-inf
-inf
-inf
-inf
-inf
-inf
-inf
-inf
-inf
-inf
-inf
-inf
-inf
-inf
-inf
-inf
-inf
-inf
-inf
-inf
-inf
-inf
-inf
-inf
-inf
-inf
-inf
-inf
-inf
-inf
-inf
-inf
-inf
-inf
-inf
-inf
-inf
-inf
-inf
-inf
-inf
-inf
-inf
-inf
-inf
-inf
-inf
-inf
-inf
-inf
-inf
-inf
-inf
-inf
-inf
-inf
-inf
-inf
-inf
-inf
-inf
-inf
-inf
-inf
-inf
-inf
-inf
-inf
-inf
-inf
-inf
-inf
-inf
-inf
-inf
-inf
-inf
-inf
-inf
-inf
inf
inf
inf
inf
inf
inf
inf
inf
inf
-inf
-inf
-inf
-inf
inf
inf
inf
inf
inf
inf
inf
inf
-inf
-inf
-inf
-inf
-inf
-inf
-inf
-inf
-inf
-inf
inf
-inf
-inf
-inf
-inf
-inf
-inf
-inf
-inf
-inf
-inf
-inf
-inf
-inf
-inf
-inf
-inf
-inf
-inf
-inf
-inf
-inf
-inf
-inf
-inf
-inf
-inf
-inf
-inf
-inf
-inf
-inf
-inf
-inf
-inf
-inf
-inf
-inf
-inf
-inf
-inf
-inf
-inf
-inf
-inf
-inf
-inf
-inf
-inf
-inf
-inf
-inf
-inf
-inf
-inf
-inf
-inf
-inf
-inf
-inf
-inf
-inf
-inf
-inf
-inf
-inf
-inf
-inf
-inf
-inf
-inf
-inf
-inf
-inf
-inf
-inf
-inf
-inf
-inf
-inf
-inf
-inf
-inf
-inf
-inf
-inf
-inf
-inf
inf
inf
inf
inf
inf
inf
-inf
-inf
-inf
-inf
-inf
-inf
-inf
-inf
inf
inf
inf
inf
-inf
-inf
-inf
-inf
-inf
-inf
-inf
-inf
-inf
-inf
inf
inf
inf
-inf
-inf
-inf
-inf
-inf
-inf
-inf
-inf
-inf
-inf
-inf
-inf
-inf
-inf
-inf
-inf
-inf
-inf
-inf
-inf
-inf
-inf
-inf
-inf
-inf
-inf
-inf
-inf
-inf
-inf
-inf
-inf
-inf
-inf
-inf
-inf
-inf
-inf
-inf
-inf
-inf
-inf
-inf
-inf
-inf
-inf
-inf
-inf
-inf
-inf
-inf
-inf
-inf
-inf
-inf
-inf
-inf
-inf
-inf
-inf
-inf
-inf
-inf
-inf
-inf
-inf
-inf
-inf
-inf
-inf
-inf
-inf
-inf
-inf
-inf
-inf
-inf
-inf
-inf
-inf
-inf
-inf
-inf
-inf
-inf
-inf
-inf
-inf
-inf
-inf
-inf
inf
inf
inf
inf
inf
inf
inf
inf
inf
inf
inf
inf
-inf
-inf
-inf
-inf
-inf
-inf
-inf
-inf
inf
inf
inf
inf
inf
inf
inf
inf
inf
inf
inf
-inf
-inf
-inf
-inf
-inf
-inf
-inf
-inf
-inf
-inf
-inf
-inf
-inf
-inf
-inf
-inf
-inf
-inf
-inf
-inf
-inf
-inf
-inf
-inf
-inf
-inf
-inf
-inf
-inf
-inf
-inf
-inf
-inf
-inf
-inf
-inf
-inf
-inf
-inf
-inf
-inf
-inf
-inf
-inf
-inf
-inf
-inf
-inf
-inf
-inf
-inf
-inf
-inf
-inf
-inf
-inf
-inf
-inf
-inf
-inf
-inf
-inf
-inf
-inf
-inf
-inf
-inf
-inf
-inf
-inf
-inf
-inf
-inf
-inf
-inf
-inf
-inf
-inf
-inf
-inf
-inf
inf
inf
inf
inf
-inf
inf
inf
inf
inf
inf
inf
inf
inf
inf
inf
inf
inf
-inf
-inf
-inf
inf
inf
inf
inf
inf
inf
inf
-inf
inf
inf
inf
inf
inf
inf
inf
inf
inf
inf
inf
inf
-inf
-inf
-inf
-inf
-inf
-inf
-inf
-inf
-inf
-inf
-inf
-inf
-inf
-inf
-inf
-inf
-inf
-inf
-inf
-inf
-inf
-inf
-inf
-inf
-inf
-inf
-inf
-inf
