2.804559999999999942e+00
3.359269999999999978e+00
2.283829999999999927e+03
4.413499999999999801e+01
5.974360000000000070e+01
2.609519999999999982e+02
2.066960000000000000e+06
1.016800000000000000e+07
1.033380000000000000e+06
1.960140000000000000e+08
5.795580000000000000e+07
2.794100000000000000e+10
3.109440000000000000e+12
8.306710000000000000e+11
2.758710000000000000e+11
1.035210000000000000e+12
1.509300000000000000e+10
3.941390000000000000e+11
3.338680000000000000e+13
4.126390000000000000e+11
1.958280000000000000e+12
5.309520000000000000e+12
5.469900000000000000e+13
1.252230000000000000e+14
7.991080000000000000e+14
1.330420000000000000e+15
4.414650000000000000e+16
1.671380000000000000e+16
1.742320000000000000e+18
5.166600000000000000e+19
5.666209999999999777e+22
3.493940000000000079e+22
2.764889999999999913e+23
5.410159999999999736e+24
3.780840000000000138e+26
8.696450000000000248e+27
2.884299999999999872e+28
1.702490000000000049e+30
3.830539999999999879e+31
1.722929999999999858e+32
4.509329999999999692e+32
6.580099999999999791e+33
5.369320000000000122e+35
1.264469999999999971e+36
1.308079999999999963e+35
8.333969999999999532e+36
3.218029999999999858e+37
2.468520000000000150e+38
1.541889999999999950e+40
1.077899999999999939e+41
-8.676160000000000252e+40
-3.713760000000000201e+42
-5.289149999999999727e+44
5.813849999999999861e+44
3.265099999999999942e+46
1.551769999999999938e+47
-1.346050000000000093e+49
6.232690000000000296e+50
1.463499999999999985e+53
1.304520000000000000e+53
1.011310000000000065e+52
2.668870000000000046e+51
2.761290000000000108e+54
6.334770000000000139e+54
4.238660000000000122e+56
2.443870000000000194e+56
1.755089999999999951e+59
1.557890000000000133e+58
9.432559999999999636e+60
9.336980000000000503e+61
9.785359999999999448e+61
1.287089999999999988e+64
3.230720000000000091e+68
7.096509999999999534e+68
-2.483119999999999966e+71
-1.112259999999999925e+73
-6.976560000000000466e+73
-3.272100000000000228e+77
2.921179999999999947e+77
2.282249999999999927e+80
1.745860000000000135e+83
8.733760000000000431e+81
2.415049999999999995e+83
1.157690000000000026e+85
5.218459999999999815e+85
8.767719999999999717e+86
3.697369999999999834e+86
6.742389999999999426e+88
5.919299999999999731e+91
2.418500000000000078e+92
4.591889999999999753e+94
6.694410000000000287e+96
2.856910000000000180e+97
4.972379999999999851e+95
2.071149999999999945e+98
6.278119999999999668e+99
1.578999999999999969e+99
4.458650000000000192e+98
2.675150000000000085e+100
2.459060000000000002e+101
1.820889999999999849e+103
5.148880000000000379e+103
8.031749999999999441e+104
1.678340000000000098e+102
9.320460000000000638e+103
7.028599999999999827e+105
2.048499999999999930e+105
3.009370000000000294e+107
6.869629999999999711e+108
6.398130000000000426e+108
1.075079999999999963e+108
1.302179999999999979e+110
4.692799999999999827e+111
9.553930000000000179e+113
1.074429999999999947e+113
3.309410000000000088e+114
2.692739999999999958e+118
1.769310000000000031e+118
1.408239999999999925e+119
6.919470000000000314e+122
1.165629999999999977e+123
4.328350000000000195e+123
8.672770000000000674e+121
1.204320000000000041e+123
3.582489999999999880e+126
3.277909999999999846e+127
4.446199999999999913e+126
2.133469999999999939e+127
1.887339999999999991e+128
1.862179999999999920e+129
3.109049999999999816e+130
3.481640000000000212e+130
1.649799999999999965e+131
3.884850000000000045e+131
1.644510000000000038e+132
9.632110000000000142e+132
2.321829999999999907e+132
1.145699999999999955e+132
1.700480000000000003e+134
5.096599999999999869e+135
1.433369999999999966e+137
6.758189999999999830e+137
1.713539999999999991e+137
3.474140000000000159e+137
1.412909999999999927e+136
2.649510000000000089e+137
4.512970000000000030e+136
7.559809999999999801e+137
1.866059999999999882e+137
1.213040000000000063e+138
6.483939999999999566e+138
3.102780000000000246e+139
4.281999999999999798e+141
1.742900000000000120e+142
1.267419999999999928e+139
1.678930000000000039e+138
1.053079999999999978e+136
3.400059999999999926e+137
4.781879999999999881e+137
1.920820000000000081e+139
9.183610000000000165e+141
6.476390000000000124e+141
1.189219999999999924e+143
2.023619999999999931e+142
8.709690000000000534e+141
5.281120000000000141e+141
4.224970000000000327e+140
4.361179999999999846e+141
2.972260000000000024e+141
2.075990000000000041e+142
7.635500000000000482e+142
6.321019999999999558e+141
9.716670000000000294e+143
2.750280000000000021e+144
5.320750000000000254e+143
9.045899999999999643e+143
3.627629999999999925e+143
1.851380000000000140e+144
-1.161400000000000028e+146
-2.337770000000000131e+148
3.481719999999999878e+148
1.460720000000000010e+148
8.248029999999999587e+150
2.981299999999999858e+150
6.918219999999999294e+153
-1.371410000000000010e+152
1.425029999999999947e+152
-1.725010000000000183e+153
-1.026779999999999994e+151
1.253339999999999998e+153
1.913170000000000121e+154
2.256280000000000148e+154
-5.345369999999999821e+154
1.863939999999999926e+157
4.033649999999999949e+155
6.089040000000000165e+155
1.118369999999999963e+155
2.279360000000000087e+154
6.240690000000000134e+154
7.639110000000000096e+154
2.580530000000000069e+154
3.654200000000000042e+154
-5.988139999999999959e+156
-1.420549999999999940e+156
4.053599999999999640e+159
4.433600000000000308e+159
-2.759000000000000087e+160
-2.746539999999999994e+161
-8.455419999999999891e+160
-3.160400000000000169e+160
-3.575329999999999886e+161
-2.766289999999999872e+162
-5.025959999999999839e+162
-4.328500000000000064e+163
-7.673360000000000505e+163
-1.384659999999999961e+165
-1.146039999999999951e+167
-3.652410000000000037e+165
-1.730920000000000086e+167
-1.660170000000000097e+166
-2.858250000000000169e+167
-5.959360000000000126e+169
-2.350180000000000069e+171
-4.301550000000000158e+173
-2.341469999999999985e+173
-3.221469999999999920e+174
-9.782109999999999950e+173
-5.930300000000000211e+174
-1.588519999999999943e+175
-5.630929999999999657e+172
-3.324469999999999989e+173
-2.579539999999999800e+174
-2.746469999999999783e+174
-2.689989999999999866e+173
-1.363130000000000036e+174
-2.486650000000000196e+174
-1.017390000000000030e+174
-2.871299999999999978e+174
-2.123379999999999869e+173
-2.963450000000000146e+172
-7.633379999999999712e+170
-1.409379999999999976e+171
-9.193260000000000021e+171
-1.216960000000000041e+173
-3.577869999999999761e+172
-2.129280000000000014e+172
-4.329440000000000123e+172
-4.589419999999999781e+171
-9.251879999999999254e+171
-7.209199999999999671e+170
-3.315149999999999814e+170
-1.857659999999999992e+170
-5.985930000000000328e+170
-2.118990000000000042e+172
-1.972890000000000147e+175
-1.545739999999999969e+178
-9.653249999999999758e+179
-2.938380000000000181e+182
-1.330119999999999914e+180
-2.592009999999999852e+180
-3.224769999999999984e+179
-1.059750000000000031e+181
-5.703480000000000304e+178
-1.666819999999999977e+178
-2.175939999999999995e+180
-6.920550000000000280e+179
-9.411020000000000082e+179
-1.815000000000000021e+179
-3.914820000000000075e+178
-7.567280000000000387e+177
-3.174170000000000196e+180
-1.497550000000000061e+179
-2.735329999999999913e+178
-8.091219999999999570e+179
-3.736589999999999883e+181
-2.333530000000000040e+183
-2.496090000000000120e+183
-9.334679999999999373e+181
-4.051379999999999945e+184
-1.103930000000000101e+183
-2.657649999999999937e+182
-8.457059999999999508e+180
-2.695739999999999946e+180
-5.936059999999999457e+179
-1.291190000000000002e+178
-3.541910000000000095e+177
-2.669119999999999994e+177
-1.362540000000000012e+177
-1.247210000000000005e+177
-5.226109999999999646e+176
-5.264890000000000184e+176
-2.370390000000000083e+177
-9.294860000000000091e+176
-1.983999999999999943e+179
-3.005429999999999782e+180
-2.758990000000000141e+179
-9.226390000000000816e+180
-9.866399999999999725e+181
-1.062209999999999981e+184
-1.191539999999999968e+185
-4.802579999999999916e+187
-1.260340000000000067e+190
-5.000480000000000181e+191
-8.111460000000000668e+190
1.585509999999999952e+192
1.272940000000000101e+192
-2.562629999999999992e+194
-7.061959999999999575e+194
-6.062280000000000071e+195
-1.342590000000000026e+195
3.955859999999999931e+195
1.430589999999999921e+197
2.718339999999999762e+198
7.630989999999999571e+198
2.522040000000000112e+200
7.805959999999999428e+200
7.582710000000000320e+198
2.738889999999999784e+198
-3.381400000000000184e+198
-6.023690000000000651e+197
-1.596539999999999913e+197
-2.301770000000000010e+197
-6.761059999999999712e+195
-3.302429999999999960e+195
-2.057310000000000197e+196
-1.186189999999999987e+198
-5.091289999999999801e+197
-1.970200000000000046e+197
-7.874570000000000420e+198
-4.077399999999999951e+199
-2.620870000000000042e+197
-3.563190000000000241e+198
-6.869380000000000456e+197
-2.805509999999999825e+196
-2.471650000000000091e+195
-1.124099999999999985e+197
-2.971309999999999748e+194
-2.162089999999999921e+194
-3.222709999999999979e+194
-1.464310000000000033e+192
-3.334389999999999793e+192
-1.229059999999999947e+195
-1.889690000000000119e+195
-6.059619999999999520e+194
-3.885469999999999688e+197
-3.719960000000000082e+196
-1.453600000000000061e+196
-1.563449999999999928e+198
-2.270019999999999915e+197
-3.193979999999999845e+198
-8.318019999999999288e+199
-6.551260000000000280e+199
-1.396930000000000010e+201
-2.345099999999999918e+202
-2.167240000000000028e+202
-1.162030000000000040e+202
-1.982610000000000053e+200
-1.650789999999999923e+199
-3.650899999999999757e+198
-1.503090000000000129e+198
-8.504939999999999741e+199
-1.310869999999999990e+202
-1.045920000000000063e+201
-3.862369999999999747e+198
-3.496189999999999758e+198
-3.070669999999999778e+198
-3.297769999999999795e+200
-2.742969999999999935e+201
-2.716279999999999866e+202
-1.161430000000000049e+204
-3.813419999999999753e+204
-1.205420000000000083e+206
-1.134070000000000059e+206
-2.785399999999999809e+202
-1.011779999999999928e+202
-1.872429999999999988e+198
-9.626089999999999263e+196
-5.519840000000000470e+195
-7.142740000000000206e+195
-3.551580000000000031e+195
-2.490170000000000114e+194
-3.207049999999999932e+192
-2.962679999999999991e+193
-3.478340000000000128e+195
-5.057769999999999941e+194
-6.638429999999999372e+194
-1.876320000000000092e+194
-8.020709999999999514e+195
-3.526749999999999870e+195
-3.531820000000000235e+195
-1.272450000000000043e+196
-1.356620000000000061e+197
-2.612279999999999949e+196
-6.634460000000000285e+194
-4.101480000000000242e+192
-1.635729999999999858e+191
-1.022589999999999957e+192
-2.080999999999999881e+191
-3.318830000000000242e+189
-2.180060000000000092e+190
-3.339249999999999891e+190
-9.710839999999999627e+191
-1.660560000000000046e+191
-4.937749999999999620e+192
-2.846490000000000154e+193
-5.842419999999999943e+192
-9.919620000000000247e+191
-1.000589999999999941e+192
-3.837459999999999670e+193
-3.720309999999999728e+193
-3.666569999999999764e+193
-2.655320000000000153e+194
-4.886820000000000003e+193
-1.424250000000000045e+194
-7.581450000000000384e+193
-1.856880000000000120e+195
-1.127020000000000017e+196
-1.306930000000000066e+194
-2.282879999999999868e+192
-7.468159999999999626e+191
-2.744220000000000027e+192
-3.784520000000000072e+191
-2.976360000000000091e+190
-2.787910000000000113e+191
-6.672600000000000335e+192
-9.376700000000000555e+192
-1.596150000000000110e+194
-7.639339999999999531e+194
5.757429999999999956e+196
1.864789999999999903e+199
3.263519999999999937e+199
3.521099999999999684e+200
-2.301189999999999864e+200
-1.664670000000000098e+201
-1.668389999999999986e+202
-2.364659999999999859e+203
-2.362849999999999891e+205
-9.819170000000000142e+203
-1.209750000000000022e+206
-2.469650000000000197e+208
-1.719820000000000130e+210
-1.204329999999999985e+209
-3.659529999999999755e+210
-1.785459999999999973e+212
-2.998809999999999781e+210
-5.476699999999999577e+208
-2.273790000000000024e+209
-2.842649999999999954e+209
-7.630180000000000362e+207
-5.305829999999999812e+206
-4.404780000000000209e+208
-8.227739999999999760e+207
-8.734780000000000591e+208
-2.305770000000000027e+211
-4.165239999999999983e+210
-1.966190000000000012e+209
-6.114459999999999977e+208
-9.526179999999999946e+206
-8.213500000000000175e+206
-1.941400000000000118e+210
-5.475950000000000080e+209
-1.947840000000000025e+205
-1.426710000000000049e+205
-2.981170000000000164e+206
-1.009029999999999914e+205
-2.923240000000000053e+205
-1.589950000000000061e+206
-6.974039999999999487e+204
-4.316199999999999616e+205
-1.697689999999999967e+205
-6.193780000000000233e+204
-1.185490000000000086e+203
-9.765760000000000013e+199
-1.945129999999999791e+199
-4.021590000000000169e+200
-1.673370000000000091e+201
-1.174089999999999976e+201
-1.027339999999999972e+200
-4.073419999999999837e+201
-1.346049999999999889e+201
-2.167000000000000029e+199
-1.053039999999999962e+196
-2.531489999999999952e+196
-1.968100000000000070e+197
-3.264019999999999744e+197
-1.414760000000000069e+196
-2.906689999999999902e+196
-1.969819999999999920e+196
-1.334370000000000060e+195
-2.169250000000000111e+193
-1.224619999999999999e+193
-3.835159999999999847e+190
-8.364079999999999808e+190
-5.649239999999999723e+193
-1.562889999999999969e+193
-1.024999999999999931e+193
-2.623009999999999815e+192
-1.570120000000000069e+192
-3.730100000000000291e+194
-3.366059999999999898e+193
-3.372340000000000295e+194
-4.455259999999999795e+195
-8.714260000000000435e+195
-2.625789999999999964e+196
-2.455869999999999899e+199
-1.523320000000000002e+198
-6.469190000000000454e+198
-4.603919999999999798e+198
-5.425830000000000250e+199
-1.473629999999999953e+199
-1.912589999999999994e+198
-2.036700000000000091e+200
-5.142640000000000141e+199
-1.591349999999999913e+200
-3.721000000000000109e+200
-3.030460000000000188e+201
-2.477010000000000125e+203
-2.528909999999999930e+202
-4.251930000000000360e+202
-4.428900000000000160e+202
-1.156149999999999915e+203
-3.270039999999999869e+204
-2.539750000000000081e+205
-1.674540000000000122e+204
-2.222570000000000046e+205
-5.176870000000000482e+207
-7.879599999999999958e+207
-6.940929999999999913e+210
-5.731620000000000191e+212
-3.070599999999999956e+212
-2.786079999999999868e+212
-1.524540000000000090e+213
-1.967439999999999990e+213
-4.361089999999999777e+212
-1.283800000000000042e+213
-3.339390000000000196e+211
-8.827829999999999687e+210
-3.198319999999999912e+212
-1.464339999999999997e+213
-2.089440000000000051e+211
2.625899999999999953e+210
1.902719999999999917e+213
1.584580000000000111e+213
-2.723719999999999987e+207
-1.330890000000000104e+207
-2.860610000000000082e+208
-5.058459999999999982e+209
-5.350880000000000156e+208
-2.266569999999999994e+211
-1.188449999999999978e+212
1.070749999999999926e+211
-1.343560000000000005e+209
-4.796019999999999769e+210
-3.585009999999999735e+209
1.052760000000000007e+210
1.248609999999999894e+211
3.797239999999999793e+211
1.361919999999999980e+212
3.869400000000000306e+212
1.040809999999999934e+213
-2.579290000000000077e+214
-5.864500000000000037e+215
-1.572779999999999917e+216
-3.586069999999999838e+216
-9.302559999999999291e+215
-6.521239999999999427e+216
-3.192590000000000183e+216
-6.581249999999999944e+215
1.119259999999999945e+218
1.616059999999999938e+218
1.791189999999999942e+215
5.308099999999999938e+215
9.934600000000000236e+214
6.691760000000000079e+214
1.516419999999999955e+214
6.468800000000000349e+214
5.533839999999999956e+215
7.859559999999999270e+218
7.203280000000000750e+218
7.043560000000000041e+217
8.769790000000000071e+219
1.420960000000000044e+221
8.588410000000000000e+220
1.569370000000000044e+220
9.587009999999999969e+218
1.772100000000000057e+218
1.549749999999999979e+218
3.413730000000000078e+219
2.255610000000000007e+219
2.319849999999999795e+220
2.904719999999999862e+219
3.900649999999999831e+223
8.969809999999999981e+225
5.536160000000000259e+225
4.243500000000000283e+225
1.918970000000000146e+225
9.862390000000000636e+225
1.405169999999999932e+227
4.053250000000000234e+226
8.120530000000000420e+225
7.127019999999999639e+228
8.767419999999999806e+231
2.396090000000000022e+232
3.446660000000000134e+232
9.439520000000000556e+230
1.186330000000000044e+230
3.798940000000000036e+229
6.407850000000000066e+227
4.957839999999999843e+228
2.666719999999999975e+230
1.465110000000000079e+228
1.188689999999999895e+230
9.339679999999999632e+228
6.238970000000000377e+226
5.835110000000000191e+227
4.035810000000000080e+228
1.732479999999999952e+227
1.460999999999999999e+226
3.116030000000000071e+226
1.088570000000000064e+226
2.977769999999999964e+226
3.750449999999999916e+226
8.809369999999999950e+226
5.569419999999999856e+225
9.339769999999999414e+224
2.042550000000000028e+225
3.996639999999999970e+224
1.210319999999999987e+224
4.310579999999999773e+222
4.980519999999999733e+222
1.368309999999999968e+224
2.788900000000000030e+223
1.140299999999999977e+224
6.061889999999999602e+224
4.278270000000000175e+223
1.313830000000000048e+224
9.359009999999999348e+224
3.206219999999999925e+224
5.134239999999999771e+224
9.199250000000000266e+222
1.984580000000000082e+224
3.883549999999999772e+225
4.976940000000000042e+224
6.495030000000000048e+226
6.607449999999999658e+224
1.178699999999999914e+221
3.375589999999999800e+221
3.290039999999999890e+221
7.349809999999999965e+219
1.226530000000000049e+219
4.038649999999999808e+216
6.228650000000000466e+213
2.685589999999999989e+213
1.499500000000000009e+212
6.249259999999999525e+213
1.672550000000000011e+215
-3.420759999999999927e+214
-2.316840000000000046e+214
-4.136309999999999786e+215
-4.737020000000000010e+215
-9.857250000000000726e+214
-5.059090000000000042e+215
-1.621119999999999928e+216
-8.588509999999999703e+217
-1.241949999999999904e+218
-4.733029999999999993e+220
7.740450000000000137e+221
5.552320000000000183e+222
-3.341050000000000011e+224
-1.915940000000000125e+225
1.003070000000000019e+226
9.007270000000000408e+225
7.995749999999999916e+226
-1.569279999999999996e+227
-2.072300000000000157e+225
-1.270190000000000085e+223
6.391670000000000252e+222
1.321030000000000020e+223
-3.268100000000000050e+223
-6.229920000000000052e+224
-2.131340000000000032e+226
-2.106489999999999991e+227
1.108139999999999963e+229
1.665880000000000144e+228
9.971740000000000138e+228
1.092470000000000015e+228
3.530820000000000022e+225
5.552479999999999860e+225
1.009020000000000045e+226
1.309190000000000058e+227
7.880469999999999551e+228
7.962919999999999967e+226
3.914520000000000400e+230
8.891740000000000071e+229
1.216920000000000001e+230
2.382300000000000126e+229
1.866419999999999946e+229
1.796100000000000043e+228
5.746670000000000156e+227
1.224420000000000047e+228
3.454050000000000006e+227
7.554579999999999737e+227
1.312850000000000035e+228
3.763430000000000308e+228
5.532609999999999899e+226
5.657279999999999728e+225
4.370069999999999986e+224
7.073500000000000245e+222
1.421660000000000020e+224
2.045769999999999966e+222
2.448759999999999988e+223
2.388029999999999980e+221
2.089710000000000135e+222
9.342380000000000703e+220
3.967830000000000052e+217
1.262059999999999923e+219
7.854609999999999504e+220
2.027949999999999984e+215
4.937729999999999735e+216
4.701700000000000007e+216
6.234289999999999763e+213
2.650609999999999947e+214
6.893139999999999632e+213
9.574910000000000292e+217
1.401260000000000064e+219
1.668630000000000026e+219
8.990430000000000921e+217
6.179310000000000089e+218
4.772490000000000273e+217
2.235759999999999901e+216
7.720309999999999500e+216
7.580550000000000631e+218
5.674740000000000211e+219
1.075370000000000080e+221
7.213980000000000176e+221
1.944799999999999865e+221
1.140880000000000075e+222
3.598479999999999957e+223
1.695079999999999922e+221
8.578240000000000227e+220
5.185170000000000074e+219
1.243239999999999920e+218
2.909879999999999924e+218
1.648980000000000027e+218
3.076619999999999864e+218
2.073139999999999899e+218
2.869049999999999886e+219
1.298009999999999886e+220
5.914579999999999900e+219
1.177319999999999929e+218
1.882400000000000138e+218
3.760039999999999840e+216
4.924480000000000156e+216
5.364370000000000129e+215
9.886469999999999801e+215
4.263190000000000218e+214
1.313989999999999980e+216
1.256790000000000021e+217
4.132830000000000051e+217
6.166870000000000229e+217
1.716339999999999976e+218
4.365510000000000033e+217
2.134079999999999995e+218
3.085769999999999963e+215
1.753180000000000093e+217
2.634180000000000194e+217
2.018459999999999885e+217
1.655959999999999941e+218
-6.529199999999999984e+216
-7.958630000000000379e+216
-1.604750000000000052e+216
-1.754690000000000083e+217
-1.025189999999999976e+216
-1.481420000000000000e+217
-3.824859999999999934e+216
-2.354209999999999885e+217
3.993910000000000205e+221
-1.153639999999999931e+224
-1.191100000000000091e+223
1.977689999999999865e+225
7.042149999999999710e+227
3.485499999999999970e+230
3.465809999999999950e+231
9.745809999999999809e+232
-5.622939999999999759e+233
-1.371890000000000000e+232
-4.259190000000000090e+233
-1.365630000000000080e+236
-1.196140000000000061e+237
2.002699999999999932e+235
-2.352350000000000105e+235
-1.169310000000000095e+236
1.625639999999999937e+235
2.492710000000000067e+236
-1.170150000000000041e+235
-6.849200000000000124e+235
-2.202110000000000028e+237
-2.641909999999999751e+238
-8.524849999999999957e+237
-1.412339999999999930e+237
8.013299999999999473e+237
3.861949999999999963e+238
7.512610000000000198e+239
7.790560000000000005e+240
-3.441490000000000132e+240
-1.155110000000000026e+241
-8.629979999999999264e+242
-7.299459999999999558e+241
-2.551579999999999959e+240
-4.923830000000000151e+240
-9.306699999999999947e+239
-8.271269999999999416e+237
-6.164450000000000501e+238
-1.745899999999999953e+236
-8.860620000000000039e+235
-4.834619999999999998e+236
-1.452399999999999984e+237
-6.940420000000000545e+237
-2.064419999999999995e+238
-6.502729999999999644e+237
-1.117299999999999929e+239
-5.810810000000000324e+237
-5.338790000000000179e+237
-1.921679999999999894e+238
-7.680149999999999774e+238
-2.122619999999999958e+238
-1.742009999999999930e+238
-2.365630000000000020e+237
-2.381909999999999929e+238
-1.091439999999999990e+241
-7.039269999999999747e+240
-2.931370000000000155e+240
-1.795730000000000016e+240
-3.784599999999999822e+243
-6.219719999999999887e+245
-1.927769999999999840e+243
-1.135299999999999931e+244
-1.352650000000000020e+246
-5.217279999999999935e+245
-6.371230000000000210e+246
-1.275289999999999979e+247
-3.135139999999999919e+247
-9.167759999999999634e+245
-3.977900000000000142e+245
-2.005740000000000082e+245
-2.775029999999999947e+246
-4.884770000000000486e+248
-2.282150000000000034e+247
-5.241649999999999720e+247
-6.470020000000000552e+247
-2.364840000000000042e+246
-2.696719999999999987e+245
-7.859879999999999555e+243
-1.507329999999999988e+245
-5.335309999999999953e+242
-2.811600000000000058e+241
-1.827369999999999911e+241
-4.185470000000000182e+242
-1.528879999999999979e+243
-6.082979999999999810e+244
-1.185129999999999907e+246
-5.413100000000000262e+247
-1.496960000000000050e+245
-5.718589999999999718e+244
-2.067129999999999938e+243
-2.622130000000000129e+241
-5.029600000000000125e+240
-1.906980000000000007e+241
-1.317220000000000061e+244
-2.605449999999999998e+241
-2.749229999999999828e+240
-2.359889999999999966e+241
-1.046090000000000041e+242
-2.276480000000000060e+244
-1.656900000000000009e+244
-1.662310000000000042e+245
-1.761379999999999904e+244
-4.735640000000000361e+243
-1.509050000000000104e+244
-3.604029999999999946e+241
-2.344409999999999850e+240
-8.280159999999999452e+238
-3.739590000000000063e+239
-1.079360000000000039e+241
-6.982480000000000576e+237
-1.746919999999999876e+237
-1.206750000000000026e+239
-1.433859999999999979e+239
-6.636840000000000064e+241
-1.942139999999999921e+243
-1.348169999999999996e+245
-1.649129999999999930e+246
-1.581780000000000074e+247
-5.195439999999999945e+249
-7.598180000000000379e+248
-7.397699999999999466e+250
-4.637949999999999934e+248
-7.998430000000000359e+249
-1.548719999999999904e+249
-8.076620000000000183e+246
4.020000000000000016e+247
4.612360000000000189e+246
1.963270000000000014e+247
-5.824579999999999888e+246
-5.115860000000000098e+249
-1.022250000000000043e+251
-1.996980000000000010e+252
-2.014739999999999991e+253
-1.674569999999999942e+254
-6.173799999999999741e+256
5.559360000000000047e+259
7.366499999999999743e+260
2.837130000000000081e+262
1.708869999999999879e+262
-1.129280000000000027e+265
7.125969999999999566e+264
1.171199999999999997e+266
3.977620000000000099e+266
3.617699999999999744e+265
3.817830000000000016e+265
-3.388829999999999922e+267
-1.517650000000000048e+267
-1.576269999999999950e+269
-5.997039999999999877e+267
-7.953469999999999883e+267
-3.568980000000000124e+270
-2.610460000000000137e+271
-1.217249999999999968e+272
-1.558310000000000019e+274
-1.756500000000000023e+276
1.783840000000000019e+279
8.282460000000000344e+280
2.307469999999999891e+281
1.049819999999999972e+282
9.817040000000000093e+280
1.053009999999999960e+284
1.488900000000000059e+285
6.414619999999999665e+286
1.315009999999999915e+285
2.474089999999999851e+284
8.765620000000000218e+286
7.367049999999999886e+284
3.077230000000000195e+284
1.184960000000000030e+283
2.381669999999999949e+284
2.937520000000000185e+281
1.979439999999999928e+283
9.213060000000000505e+283
3.579380000000000107e+280
5.278269999999999706e+279
2.444669999999999858e+281
6.411979999999999482e+281
1.182679999999999982e+284
5.693599999999999539e+282
3.241620000000000058e+282
3.151110000000000012e+282
1.555719999999999963e+281
3.939120000000000237e+278
1.001650000000000014e+278
5.404659999999999824e+275
1.107989999999999918e+277
4.112889999999999823e+274
1.119979999999999976e+275
5.715359999999999652e+276
3.461240000000000182e+279
3.614929999999999986e+279
7.367539999999999574e+276
4.437300000000000029e+277
2.859199999999999823e+279
5.097740000000000124e+279
5.203169999999999814e+283
6.167729999999999982e+283
1.558319999999999861e+284
2.277890000000000105e+283
1.443419999999999987e+285
3.926270000000000385e+286
2.486789999999999929e+287
3.123769999999999798e+287
4.040629999999999848e+288
2.876059999999999936e+287
1.033520000000000001e+286
3.441539999999999766e+284
8.131189999999999271e+286
6.791539999999999898e+286
4.152150000000000113e+285
1.122910000000000001e+289
2.580180000000000022e+288
1.097940000000000012e+288
1.618019999999999833e+290
8.283449999999999971e+290
5.235300000000000067e+292
4.825849999999999829e+295
5.148310000000000018e+295
1.160750000000000070e+294
5.199920000000000283e+293
6.059100000000000308e+293
4.132900000000000047e+293
1.916749999999999950e+292
4.145999999999999766e+291
5.004690000000000038e+291
3.780079999999999898e+292
2.022819999999999874e+294
1.154760000000000087e+295
9.044209999999999834e+291
3.104289999999999931e+293
2.890409999999999900e+290
1.828259999999999935e+289
4.505040000000000196e+289
3.880089999999999790e+288
4.842590000000000044e+287
2.208610000000000022e+288
9.077909999999999817e+287
1.326210000000000093e+288
5.116459999999999884e+286
1.471470000000000014e+286
1.213300000000000036e+287
-9.269760000000000385e+286
-7.337070000000000229e+286
-2.584089999999999947e+287
-7.802289999999999361e+289
-1.480879999999999987e+293
-2.622520000000000197e+294
-4.021149999999999684e+293
-1.108859999999999940e+294
-1.368329999999999929e+295
-1.555900000000000075e+295
-2.901579999999999899e+297
1.503440000000000086e+298
4.599050000000000077e+299
1.506820000000000033e+300
7.916120000000000069e+298
7.133739999999999698e+300
2.668149999999999788e+301
5.585949999999999996e+299
-4.315389999999999731e+299
-6.343100000000000496e+300
2.186630000000000071e+302
7.716850000000000059e+301
-3.597490000000000317e+302
-5.657429999999999819e+304
7.201859999999999655e+306
-1.672450000000000059e+305
-9.280010000000000639e+305
-3.537949999999999880e+306
-1.037879999999999941e+304
-2.699490000000000012e+303
-1.120139999999999989e+303
-4.618750000000000170e+304
-4.145839999999999954e+304
-3.455189999999999846e+304
-8.670580000000000404e+305
-7.375569999999999777e+304
-9.937309999999999443e+303
-3.491259999999999975e+306
-1.051669999999999999e+308
-inf
-inf
-inf
-inf
-inf
-inf
-inf
-inf
-inf
-inf
-inf
-inf
-inf
-inf
-inf
-inf
-inf
-inf
-inf
-inf
-inf
-inf
-inf
-inf
-inf
-inf
-inf
-inf
-inf
-inf
-inf
-inf
-inf
-inf
-inf
-inf
-inf
-inf
-inf
-inf
-inf
-inf
-inf
-inf
-inf
-inf
-inf
-inf
-inf
-inf
-inf
-inf
-inf
-inf
-inf
-inf
-inf
-inf
-inf
-inf
-inf
-inf
-inf
-inf
-inf
-inf
-inf
-inf
-inf
-inf
-inf
-inf
-inf
-inf
-inf
-inf
-inf
-inf
-inf
-inf
-inf
-inf
-inf
-inf
-inf
-inf
-inf
inf
inf
inf
inf
-inf
-inf
inf
-inf
-inf
-inf
-inf
-inf
inf
inf
inf
inf
inf
inf
-inf
-inf
-inf
-inf
-inf
-inf
-inf
-inf
-inf
-inf
-inf
-inf
-inf
-inf
-inf
-inf
-inf
-inf
-inf
-inf
-inf
-inf
-inf
-inf
-inf
-inf
-inf
-inf
-inf
-inf
-inf
-inf
-inf
-inf
-inf
-inf
-inf
-inf
-inf
-inf
-inf
-inf
-inf
-inf
-inf
-inf
-inf
-inf
-inf
-inf
-inf
-inf
-inf
-inf
-inf
-inf
-inf
-inf
-inf
-inf
-inf
-inf
-inf
-inf
-inf
-inf
-inf
-inf
-inf
-inf
-inf
-inf
-inf
-inf
-inf
-inf
-inf
-inf
-inf
-inf
-inf
-inf
-inf
-inf
-inf
-inf
-inf
-inf
-inf
-inf
-inf
-inf
-inf
-inf
-inf
-inf
inf
inf
inf
inf
inf
inf
inf
inf
-inf
-inf
-inf
-inf
-inf
-inf
inf
-inf
inf
inf
inf
-inf
-inf
-inf
inf
-inf
-inf
-inf
-inf
-inf
-inf
-inf
-inf
-inf
-inf
-inf
-inf
inf
inf
inf
inf
inf
inf
inf
inf
inf
inf
inf
inf
inf
inf
inf
inf
inf
inf
inf
inf
inf
inf
inf
inf
inf
inf
inf
inf
inf
inf
inf
inf
inf
inf
inf
inf
inf
inf
inf
inf
inf
inf
inf
inf
inf
inf
inf
inf
inf
inf
inf
inf
inf
inf
inf
inf
inf
inf
inf
inf
inf
inf
inf
inf
inf
inf
inf
inf
inf
inf
inf
inf
inf
inf
inf
inf
inf
inf
inf
inf
inf
inf
inf
inf
inf
-inf
-inf
-inf
-inf
inf
-inf
inf
inf
inf
-inf
inf
inf
inf
inf
inf
inf
-inf
-inf
-inf
-inf
-inf
-inf
inf
inf
-inf
-inf
-inf
-inf
-inf
-inf
inf
inf
-inf
-inf
-inf
-inf
-inf
-inf
-inf
-inf
-inf
-inf
-inf
-inf
-inf
-inf
-inf
-inf
-inf
-inf
-inf
-inf
-inf
-inf
-inf
-inf
-inf
-inf
-inf
-inf
-inf
-inf
-inf
-inf
-inf
-inf
-inf
-inf
-inf
-inf
-inf
-inf
-inf
-inf
-inf
-inf
-inf
-inf
-inf
-inf
-inf
-inf
-inf
-inf
-inf
-inf
-inf
-inf
-inf
-inf
-inf
-inf
-inf
-inf
-inf
-inf
-inf
-inf
-inf
-inf
-inf
-inf
-inf
-inf
-inf
-inf
-inf
-inf
-inf
-inf
-inf
-inf
inf
inf
inf
inf
inf
inf
inf
inf
inf
inf
-inf
-inf
-inf
-inf
-inf
-inf
-inf
-inf
inf
-inf
inf
inf
inf
inf
inf
inf
inf
inf
inf
inf
-inf
-inf
-inf
-inf
-inf
-inf
-inf
-inf
-inf
-inf
-inf
-inf
-inf
-inf
-inf
-inf
-inf
-inf
-inf
-inf
-inf
-inf
-inf
-inf
-inf
-inf
-inf
-inf
-inf
-inf
-inf
-inf
-inf
-inf
-inf
-inf
-inf
-inf
-inf
-inf
-inf
-inf
-inf
-inf
-inf
-inf
-inf
-inf
-inf
-inf
-inf
-inf
-inf
-inf
-inf
-inf
-inf
-inf
-inf
-inf
-inf
-inf
-inf
-inf
-inf
-inf
-inf
-inf
-inf
-inf
-inf
-inf
-inf
-inf
-inf
-inf
-inf
-inf
-inf
-inf
-inf
-inf
-inf
-inf
-inf
-inf
-inf
-inf
-inf
-inf
-inf
-inf
-inf
-inf
-inf
-inf
-inf
-inf
-inf
-inf
-inf
-inf
inf
inf
inf
inf
inf
inf
inf
inf
inf
inf
-inf
-inf
-inf
-inf
inf
-inf
inf
inf
inf
inf
inf
inf
-inf
-inf
-inf
-inf
inf
inf
inf
inf
inf
inf
inf
inf
inf
inf
inf
inf
inf
inf
inf
inf
inf
inf
inf
inf
inf
inf
inf
inf
inf
inf
inf
inf
inf
inf
inf
inf
inf
inf
inf
inf
inf
inf
inf
inf
inf
inf
inf
inf
inf
inf
inf
inf
inf
inf
inf
inf
inf
inf
inf
inf
inf
inf
inf
inf
inf
inf
inf
inf
inf
inf
inf
inf
inf
inf
inf
inf
inf
inf
inf
inf
inf
inf
inf
inf
inf
inf
inf
inf
inf
inf
inf
inf
inf
inf
inf
inf
inf
inf
-inf
-inf
inf
inf
-inf
-inf
inf
inf
inf
inf
-inf
-inf
-inf
-inf
-inf
-inf
-inf
inf
-inf
-inf
-inf
-inf
inf
-inf
-inf
-inf
inf
inf
-inf
-inf
-inf
-inf
-inf
-inf
-inf
-inf
-inf
-inf
-inf
-inf
-inf
-inf
-inf
-inf
-inf
-inf
-inf
-inf
-inf
-inf
-inf
-inf
-inf
-inf
-inf
-inf
-inf
-inf
-inf
-inf
-inf
-inf
-inf
-inf
-inf
-inf
-inf
-inf
-inf
-inf
-inf
-inf
-inf
-inf
-inf
-inf
-inf
-inf
-inf
-inf
-inf
-inf
-inf
-inf
-inf
-inf
-inf
-inf
-inf
-inf
-inf
-inf
-inf
-inf
-inf
-inf
-inf
-inf
-inf
-inf
-inf
-inf
-inf
-inf
-inf
-inf
-inf
-inf
-inf
-inf
-inf
-inf
inf
inf
-inf
-inf
-inf
-inf
inf
inf
inf
inf
inf
inf
inf
inf
-inf
-inf
-inf
inf
inf
inf
-inf
inf
inf
inf
inf
inf
inf
inf
-inf
-inf
-inf
-inf
-inf
-inf
-inf
-inf
-inf
-inf
inf
inf
inf
-inf
-inf
-inf
-inf
-inf
-inf
-inf
-inf
-inf
-inf
-inf
-inf
-inf
-inf
-inf
-inf
-inf
-inf
-inf
-inf
-inf
-inf
-inf
-inf
-inf
-inf
-inf
-inf
-inf
-inf
-inf
-inf
-inf
-inf
-inf
-inf
-inf
-inf
-inf
-inf
-inf
-inf
-inf
-inf
-inf
-inf
-inf
-inf
-inf
-inf
-inf
-inf
-inf
-inf
-inf
-inf
-inf
-inf
-inf
-inf
-inf
-inf
-inf
-inf
-inf
-inf
-inf
-inf
-inf
-inf
-inf
-inf
-inf
-inf
-inf
-inf
-inf
-inf
-inf
-inf
-inf
-inf
-inf
-inf
-inf
-inf
-inf
-inf
-inf
inf
inf
inf
inf
-inf
-inf
inf
-inf
inf
inf
inf
inf
inf
inf
-inf
-inf
-inf
-inf
-inf
-inf
-inf
-inf
-inf
-inf
-inf
-inf
-inf
-inf
-inf
-inf
-inf
-inf
-inf
-inf
-inf
-inf
-inf
-inf
-inf
-inf
-inf
-inf
-inf
-inf
-inf
-inf
-inf
-inf
-inf
-inf
-inf
-inf
-inf
-inf
-inf
-inf
-inf
-inf
-inf
-inf
-inf
-inf
-inf
-inf
-inf
-inf
-inf
-inf
-inf
-inf
-inf
-inf
-inf
-inf
-inf
-inf
-inf
-inf
-inf
-inf
-inf
-inf
-inf
-inf
-inf
-inf
-inf
-inf
-inf
-inf
-inf
-inf
-inf
-inf
-inf
-inf
-inf
-inf
-inf
-inf
-inf
-inf
-inf
-inf
-inf
-inf
-inf
-inf
-inf
-inf
-inf
-inf
-inf
-inf
-inf
-inf
-inf
-inf
-inf
-inf
inf
inf
inf
inf
inf
inf
inf
inf
inf
inf
inf
inf
-inf
-inf
inf
inf
inf
-inf
inf
-inf
inf
inf
inf
inf
inf
inf
-inf
-inf
inf
inf
inf
inf
inf
inf
inf
inf
inf
inf
inf
inf
inf
inf
inf
inf
inf
inf
inf
inf
inf
inf
inf
inf
inf
inf
inf
inf
inf
inf
inf
inf
inf
inf
inf
inf
inf
inf
inf
inf
inf
inf
inf
inf
inf
inf
inf
inf
inf
inf
inf
inf
inf
inf
inf
inf
inf
inf
inf
inf
inf
inf
inf
inf
inf
inf
inf
inf
inf
inf
inf
inf
inf
inf
inf
inf
inf
inf
inf
inf
inf
inf
inf
inf
-inf
-inf
inf
inf
-inf
-inf
-inf
-inf
-inf
-inf
inf
inf
-inf
-inf
-inf
-inf
inf
inf
inf
inf
-inf
-inf
inf
inf
-inf
-inf
inf
-inf
inf
inf
inf
inf
inf
inf
inf
inf
inf
inf
inf
inf
inf
inf
inf
inf
inf
inf
inf
inf
inf
inf
inf
inf
inf
inf
inf
inf
inf
inf
inf
inf
inf
inf
inf
inf
inf
inf
inf
inf
inf
inf
inf
inf
inf
inf
inf
inf
inf
inf
inf
inf
inf
inf
inf
inf
inf
inf
inf
inf
inf
inf
inf
inf
inf
inf
inf
inf
inf
inf
inf
inf
inf
inf
inf
inf
inf
inf
inf
inf
inf
inf
inf
inf
inf
inf
inf
inf
inf
inf
inf
inf
-inf
-inf
-inf
-inf
inf
inf
-inf
-inf
-inf
-inf
-inf
inf
-inf
-inf
-inf
inf
inf
inf
inf
inf
-inf
inf
inf
inf
inf
inf
inf
-inf
-inf
-inf
-inf
-inf
-inf
-inf
-inf
-inf
-inf
-inf
-inf
-inf
-inf
-inf
-inf
-inf
-inf
-inf
-inf
-inf
-inf
-inf
-inf
-inf
-inf
-inf
-inf
-inf
-inf
-inf
-inf
-inf
-inf
-inf
-inf
-inf
-inf
-inf
-inf
-inf
-inf
-inf
-inf
-inf
-inf
-inf
-inf
-inf
-inf
-inf
-inf
-inf
-inf
-inf
-inf
-inf
-inf
-inf
-inf
-inf
-inf
-inf
-inf
-inf
-inf
-inf
-inf
-inf
-inf
-inf
-inf
-inf
-inf
-inf
-inf
-inf
-inf
-inf
-inf
-inf
-inf
-inf
-inf
-inf
-inf
-inf
-inf
-inf
-inf
-inf
-inf
-inf
-inf
-inf
-inf
-inf
-inf
-inf
inf
inf
-inf
-inf
-inf
-inf
inf
-inf
-inf
-inf
-inf
-inf
-inf
-inf
inf
inf
inf
inf
-inf
inf
inf
inf
inf
inf
-inf
-inf
-inf
-inf
-inf
-inf
inf
inf
inf
inf
inf
inf
inf
inf
inf
inf
inf
inf
inf
inf
inf
inf
inf
inf
inf
inf
inf
inf
inf
inf
inf
inf
inf
inf
inf
inf
inf
inf
inf
inf
inf
inf
inf
inf
inf
inf
inf
inf
inf
inf
inf
inf
inf
inf
inf
inf
inf
inf
inf
inf
inf
inf
inf
inf
inf
inf
inf
inf
inf
inf
inf
inf
inf
inf
inf
inf
inf
inf
inf
inf
inf
inf
inf
inf
inf
inf
inf
inf
inf
inf
inf
inf
inf
inf
inf
inf
-inf
-inf
-inf
-inf
-inf
-inf
inf
inf
inf
inf
-inf
-inf
-inf
-inf
-inf
-inf
-inf
inf
inf
inf
-inf
-inf
inf
inf
-inf
inf
inf
inf
inf
inf
inf
inf
-inf
-inf
-inf
-inf
-inf
-inf
-inf
-inf
-inf
-inf
-inf
-inf
-inf
-inf
-inf
-inf
-inf
-inf
-inf
-inf
-inf
-inf
-inf
-inf
-inf
-inf
-inf
-inf
-inf
-inf
-inf
-inf
-inf
-inf
-inf
-inf
-inf
-inf
-inf
-inf
-inf
-inf
-inf
-inf
-inf
-inf
-inf
-inf
-inf
-inf
-inf
-inf
-inf
-inf
-inf
-inf
-inf
-inf
-inf
-inf
-inf
-inf
-inf
-inf
-inf
-inf
-inf
-inf
-inf
-inf
-inf
-inf
-inf
-inf
-inf
-inf
-inf
-inf
inf
inf
inf
inf
inf
inf
inf
inf
inf
inf
inf
inf
inf
inf
inf
inf
inf
inf
inf
inf
inf
inf
-inf
-inf
-inf
-inf
-inf
-inf
inf
inf
inf
inf
inf
inf
inf
inf
inf
inf
inf
inf
inf
inf
inf
inf
inf
inf
inf
inf
inf
inf
inf
inf
inf
inf
inf
inf
inf
inf
inf
inf
inf
inf
inf
inf
inf
inf
inf
inf
inf
inf
inf
inf
inf
inf
inf
inf
inf
inf
inf
inf
inf
inf
inf
inf
inf
inf
inf
inf
inf
inf
inf
inf
inf
inf
inf
inf
inf
inf
inf
inf
inf
inf
inf
inf
inf
inf
inf
inf
inf
inf
inf
inf
inf
inf
inf
inf
inf
inf
inf
inf
inf
inf
inf
inf
inf
inf
inf
inf
inf
inf
inf
inf
inf
inf
-inf
inf
inf
inf
inf
-inf
inf
inf
-inf
-inf
inf
inf
-inf
-inf
-inf
-inf
inf
inf
inf
inf
inf
inf
-inf
-inf
-inf
-inf
-inf
-inf
-inf
-inf
-inf
-inf
-inf
-inf
-inf
-inf
-inf
-inf
-inf
-inf
-inf
-inf
-inf
-inf
-inf
-inf
-inf
-inf
-inf
-inf
-inf
-inf
-inf
-inf
-inf
-inf
-inf
-inf
-inf
-inf
-inf
-inf
-inf
-inf
-inf
-inf
-inf
-inf
-inf
-inf
-inf
-inf
-inf
-inf
-inf
-inf
-inf
-inf
-inf
-inf
-inf
-inf
-inf
-inf
-inf
-inf
-inf
-inf
-inf
-inf
-inf
-inf
-inf
-inf
-inf
-inf
-inf
-inf
-inf
-inf
-inf
-inf
-inf
-inf
-inf
-inf
-inf
-inf
-inf
-inf
-inf
-inf
-inf
-inf
-inf
-inf
-inf
-inf
-inf
-inf
-inf
-inf
inf
inf
inf
inf
-inf
-inf
-inf
-inf
-inf
-inf
inf
-inf
-inf
inf
-inf
-inf
-inf
-inf
inf
inf
inf
inf
-inf
-inf
-inf
-inf
-inf
-inf
-inf
-inf
-inf
-inf
-inf
-inf
-inf
-inf
-inf
-inf
-inf
-inf
-inf
-inf
-inf
-inf
-inf
-inf
-inf
-inf
-inf
-inf
-inf
-inf
-inf
-inf
-inf
-inf
-inf
-inf
-inf
-inf
-inf
-inf
-inf
-inf
-inf
-inf
-inf
-inf
-inf
-inf
-inf
-inf
-inf
-inf
-inf
-inf
-inf
-inf
-inf
-inf
-inf
-inf
-inf
-inf
-inf
-inf
-inf
-inf
-inf
-inf
-inf
-inf
-inf
-inf
-inf
-inf
-inf
-inf
-inf
-inf
-inf
-inf
-inf
-inf
-inf
-inf
inf
inf
inf
inf
inf
inf
inf
inf
inf
-inf
inf
inf
inf
-inf
-inf
-inf
inf
-inf
inf
inf
inf
inf
inf
inf
-inf
-inf
inf
inf
inf
inf
inf
inf
inf
inf
inf
inf
inf
inf
inf
inf
inf
inf
inf
inf
inf
inf
inf
inf
inf
inf
inf
inf
inf
inf
inf
inf
inf
inf
inf
inf
inf
inf
inf
inf
inf
inf
inf
inf
inf
inf
inf
inf
inf
inf
inf
inf
inf
inf
inf
inf
inf
inf
inf
inf
inf
inf
inf
inf
inf
inf
inf
inf
inf
inf
inf
inf
inf
inf
inf
inf
inf
inf
inf
inf
inf
inf
inf
inf
inf
inf
inf
inf
inf
inf
inf
inf
inf
inf
inf
inf
inf
inf
inf
inf
-inf
inf
inf
inf
inf
inf
inf
-inf
-inf
-inf
-inf
-inf
inf
-inf
-inf
inf
-inf
-inf
-inf
-inf
-inf
-inf
-inf
-inf
-inf
-inf
inf
inf
inf
inf
inf
inf
inf
inf
inf
inf
inf
inf
inf
inf
inf
inf
inf
inf
inf
inf
inf
inf
inf
inf
inf
inf
inf
inf
inf
inf
inf
inf
inf
inf
inf
inf
inf
inf
inf
inf
inf
inf
inf
inf
inf
inf
inf
inf
inf
inf
inf
inf
inf
inf
inf
inf
inf
inf
inf
inf
inf
inf
inf
inf
inf
inf
inf
inf
inf
inf
inf
inf
inf
inf
inf
inf
inf
inf
inf
inf
inf
inf
inf
inf
inf
inf
inf
inf
inf
inf
inf
inf
inf
inf
inf
inf
-inf
inf
-inf
inf
-inf
-inf
-inf
-inf
-inf
-inf
inf
-inf
-inf
-inf
inf
inf
inf
inf
-inf
-inf
inf
inf
inf
inf
inf
inf
-inf
-inf
-inf
-inf
-inf
-inf
-inf
-inf
-inf
-inf
-inf
-inf
-inf
-inf
-inf
-inf
-inf
-inf
-inf
-inf
-inf
-inf
-inf
-inf
-inf
-inf
-inf
-inf
-inf
-inf
-inf
-inf
-inf
-inf
-inf
-inf
-inf
-inf
-inf
-inf
-inf
-inf
-inf
-inf
-inf
-inf
-inf
-inf
-inf
-inf
-inf
-inf
-inf
-inf
-inf
-inf
-inf
-inf
-inf
-inf
-inf
-inf
-inf
-inf
-inf
-inf
-inf
-inf
-inf
-inf
-inf
-inf
-inf
-inf
-inf
-inf
-inf
-inf
-inf
-inf
-inf
-inf
-inf
-inf
-inf
-inf
inf
inf
inf
inf
inf
inf
inf
inf
-inf
-inf
-inf
-inf
inf
inf
inf
inf
inf
-inf
-inf
-inf
-inf
inf
inf
inf
-inf
inf
inf
inf
-inf
-inf
-inf
-inf
-inf
-inf
-inf
-inf
-inf
-inf
inf
inf
inf
inf
inf
inf
inf
inf
inf
inf
inf
inf
inf
inf
inf
inf
inf
inf
inf
inf
inf
inf
inf
inf
inf
inf
inf
inf
inf
inf
inf
inf
inf
inf
inf
inf
inf
inf
inf
inf
inf
inf
inf
inf
inf
inf
inf
inf
inf
inf
inf
inf
inf
inf
inf
inf
inf
inf
inf
inf
inf
inf
inf
inf
inf
inf
inf
inf
inf
inf
inf
inf
inf
inf
inf
inf
inf
inf
inf
inf
inf
inf
inf
inf
inf
inf
inf
inf
inf
inf
-inf
-inf
-inf
-inf
-inf
-inf
-inf
-inf
-inf
-inf
-inf
-inf
inf
inf
-inf
-inf
-inf
-inf
-inf
inf
inf
inf
inf
inf
-inf
-inf
-inf
-inf
-inf
-inf
-inf
-inf
-inf
-inf
-inf
-inf
-inf
-inf
-inf
-inf
-inf
-inf
-inf
-inf
-inf
-inf
-inf
-inf
-inf
-inf
-inf
-inf
-inf
-inf
-inf
-inf
-inf
-inf
-inf
-inf
-inf
-inf
-inf
-inf
-inf
-inf
-inf
-inf
-inf
-inf
-inf
-inf
-inf
-inf
-inf
-inf
-inf
-inf
-inf
-inf
-inf
-inf
-inf
-inf
-inf
-inf
-inf
-inf
-inf
-inf
-inf
-inf
-inf
-inf
-inf
-inf
-inf
-inf
-inf
-inf
-inf
-inf
-inf
-inf
-inf
-inf
-inf
-inf
-inf
-inf
-inf
-inf
-inf
-inf
-inf
-inf
-inf
-inf
inf
inf
-inf
-inf
-inf
-inf
inf
-inf
-inf
-inf
inf
inf
-inf
inf
-inf
-inf
inf
inf
inf
-inf
inf
inf
inf
inf
inf
inf
-inf
-inf
-inf
-inf
-inf
-inf
inf
inf
inf
inf
inf
inf
inf
inf
inf
inf
inf
inf
inf
inf
inf
inf
inf
inf
inf
inf
inf
inf
inf
inf
inf
inf
inf
inf
inf
inf
inf
inf
inf
inf
inf
inf
inf
inf
inf
inf
inf
inf
inf
inf
inf
inf
inf
inf
inf
inf
inf
inf
inf
inf
inf
inf
inf
inf
inf
inf
inf
inf
inf
inf
inf
inf
inf
inf
inf
inf
inf
inf
inf
inf
inf
inf
inf
inf
inf
inf
inf
inf
inf
inf
inf
inf
inf
inf
inf
inf
inf
inf
inf
inf
-inf
-inf
inf
inf
inf
inf
inf
inf
-inf
-inf
-inf
-inf
inf
inf
-inf
-inf
-inf
inf
-inf
-inf
-inf
-inf
-inf
-inf
-inf
-inf
-inf
-inf
-inf
-inf
-inf
-inf
-inf
-inf
-inf
-inf
-inf
-inf
-inf
-inf
-inf
-inf
-inf
-inf
-inf
-inf
-inf
-inf
-inf
-inf
-inf
-inf
-inf
-inf
-inf
-inf
-inf
-inf
-inf
-inf
-inf
-inf
-inf
-inf
-inf
-inf
-inf
-inf
-inf
-inf
-inf
-inf
-inf
-inf
-inf
-inf
-inf
-inf
-inf
-inf
-inf
-inf
-inf
-inf
-inf
-inf
-inf
-inf
-inf
-inf
-inf
-inf
-inf
-inf
-inf
-inf
-inf
-inf
-inf
-inf
-inf
-inf
-inf
-inf
-inf
-inf
-inf
-inf
-inf
-inf
-inf
-inf
-inf
-inf
-inf
-inf
inf
inf
-inf
-inf
-inf
-inf
-inf
inf
inf
inf
inf
inf
-inf
-inf
-inf
-inf
inf
inf
inf
inf
inf
inf
-inf
-inf
-inf
-inf
-inf
-inf
-inf
-inf
inf
-inf
-inf
-inf
-inf
-inf
-inf
-inf
-inf
-inf
-inf
-inf
-inf
-inf
-inf
-inf
-inf
-inf
-inf
-inf
-inf
-inf
-inf
-inf
-inf
-inf
-inf
-inf
-inf
-inf
-inf
-inf
-inf
-inf
-inf
-inf
-inf
-inf
-inf
-inf
-inf
-inf
-inf
-inf
-inf
-inf
-inf
-inf
-inf
-inf
-inf
-inf
-inf
-inf
-inf
-inf
-inf
-inf
-inf
-inf
-inf
-inf
-inf
-inf
-inf
-inf
-inf
-inf
-inf
-inf
-inf
-inf
-inf
-inf
-inf
-inf
-inf
-inf
-inf
-inf
-inf
-inf
-inf
-inf
-inf
-inf
-inf
-inf
-inf
-inf
-inf
-inf
inf
inf
inf
inf
inf
inf
-inf
inf
-inf
-inf
inf
inf
inf
inf
-inf
-inf
inf
inf
-inf
-inf
-inf
-inf
-inf
-inf
-inf
-inf
-inf
-inf
-inf
-inf
-inf
-inf
-inf
-inf
-inf
-inf
-inf
-inf
-inf
-inf
-inf
-inf
-inf
-inf
-inf
-inf
-inf
-inf
-inf
-inf
-inf
-inf
-inf
-inf
-inf
-inf
-inf
-inf
-inf
-inf
-inf
-inf
-inf
-inf
-inf
-inf
-inf
-inf
-inf
-inf
-inf
-inf
-inf
-inf
-inf
-inf
-inf
-inf
-inf
-inf
-inf
-inf
-inf
-inf
-inf
-inf
-inf
-inf
-inf
-inf
-inf
-inf
-inf
-inf
-inf
-inf
-inf
-inf
-inf
-inf
-inf
-inf
-inf
-inf
-inf
-inf
-inf
-inf
-inf
-inf
-inf
-inf
-inf
-inf
-inf
-inf
-inf
-inf
inf
inf
inf
inf
inf
-inf
-inf
-inf
-inf
-inf
inf
inf
inf
inf
-inf
-inf
-inf
-inf
-inf
-inf
inf
inf
-inf
-inf
-inf
-inf
-inf
-inf
-inf
-inf
-inf
-inf
-inf
-inf
-inf
-inf
-inf
-inf
-inf
-inf
-inf
-inf
-inf
-inf
-inf
-inf
-inf
-inf
-inf
-inf
-inf
-inf
-inf
-inf
-inf
-inf
-inf
-inf
-inf
-inf
-inf
-inf
-inf
-inf
-inf
-inf
-inf
-inf
-inf
-inf
-inf
-inf
-inf
-inf
-inf
-inf
-inf
-inf
-inf
-inf
-inf
-inf
-inf
-inf
-inf
-inf
-inf
-inf
-inf
-inf
-inf
-inf
-inf
-inf
-inf
-inf
-inf
-inf
-inf
-inf
-inf
-inf
-inf
-inf
-inf
-inf
-inf
-inf
-inf
-inf
-inf
-inf
inf
inf
inf
inf
inf
-inf
-inf
inf
inf
inf
inf
inf
inf
inf
inf
inf
inf
inf
-inf
inf
inf
inf
inf
inf
-inf
-inf
-inf
-inf
-inf
-inf
-inf
-inf
-inf
-inf
-inf
-inf
-inf
-inf
-inf
-inf
-inf
-inf
inf
inf
inf
inf
inf
inf
inf
inf
inf
inf
inf
inf
inf
inf
inf
inf
inf
inf
inf
inf
inf
inf
inf
inf
inf
inf
inf
inf
inf
inf
inf
inf
inf
inf
inf
inf
inf
inf
inf
inf
inf
inf
inf
inf
inf
inf
inf
inf
inf
inf
inf
inf
inf
inf
inf
inf
inf
inf
inf
inf
inf
inf
inf
inf
inf
inf
inf
inf
inf
inf
inf
inf
inf
inf
inf
inf
inf
inf
inf
inf
inf
inf
-inf
-inf
-inf
-inf
-inf
-inf
-inf
-inf
-inf
-inf
-inf
-inf
-inf
-inf
inf
inf
inf
inf
inf
inf
inf
inf
inf
inf
inf
inf
inf
inf
inf
inf
inf
inf
inf
inf
inf
inf
-inf
-inf
-inf
-inf
-inf
-inf
-inf
-inf
-inf
-inf
-inf
-inf
-inf
-inf
-inf
-inf
-inf
-inf
-inf
-inf
-inf
-inf
-inf
-inf
-inf
-inf
-inf
-inf
-inf
-inf
-inf
-inf
-inf
-inf
-inf
-inf
-inf
-inf
-inf
-inf
-inf
-inf
-inf
-inf
-inf
-inf
-inf
-inf
-inf
-inf
-inf
-inf
-inf
-inf
-inf
-inf
-inf
-inf
-inf
-inf
-inf
-inf
-inf
-inf
-inf
-inf
-inf
-inf
-inf
-inf
-inf
-inf
-inf
-inf
-inf
-inf
-inf
-inf
-inf
-inf
-inf
-inf
-inf
-inf
-inf
inf
-inf
-inf
-inf
-inf
-inf
-inf
-inf
-inf
-inf
-inf
inf
-inf
-inf
-inf
-inf
-inf
inf
inf
-inf
-inf
-inf
-inf
-inf
-inf
inf
inf
-inf
-inf
-inf
-inf
-inf
-inf
-inf
-inf
-inf
-inf
-inf
-inf
-inf
-inf
-inf
-inf
-inf
-inf
-inf
-inf
-inf
-inf
-inf
-inf
-inf
-inf
-inf
-inf
-inf
-inf
-inf
-inf
-inf
-inf
-inf
-inf
-inf
-inf
-inf
-inf
-inf
-inf
-inf
-inf
-inf
-inf
-inf
-inf
-inf
-inf
-inf
-inf
-inf
-inf
-inf
-inf
-inf
-inf
-inf
-inf
-inf
-inf
-inf
-inf
-inf
-inf
-inf
-inf
-inf
-inf
-inf
-inf
-inf
-inf
-inf
-inf
-inf
-inf
-inf
-inf
-inf
-inf
-inf
-inf
-inf
-inf
-inf
-inf
-inf
-inf
-inf
-inf
-inf
-inf
-inf
-inf
inf
inf
-inf
-inf
-inf
-inf
-inf
-inf
-inf
-inf
-inf
inf
-inf
-inf
-inf
-inf
-inf
-inf
-inf
-inf
-inf
-inf
-inf
-inf
-inf
-inf
-inf
-inf
-inf
-inf
-inf
-inf
-inf
-inf
-inf
-inf
-inf
-inf
-inf
-inf
-inf
-inf
-inf
-inf
-inf
-inf
-inf
-inf
-inf
-inf
-inf
-inf
-inf
-inf
-inf
-inf
-inf
-inf
-inf
-inf
-inf
-inf
-inf
-inf
-inf
-inf
-inf
-inf
-inf
-inf
-inf
-inf
-inf
-inf
-inf
-inf
-inf
-inf
-inf
-inf
-inf
-inf
-inf
-inf
-inf
-inf
-inf
-inf
-inf
-inf
-inf
-inf
-inf
-inf
-inf
-inf
-inf
-inf
-inf
-inf
-inf
-inf
-inf
-inf
-inf
-inf
-inf
-inf
-inf
-inf
-inf
-inf
-inf
-inf
-inf
-inf
-inf
-inf
inf
inf
-inf
-inf
-inf
-inf
-inf
-inf
-inf
-inf
-inf
-inf
inf
-inf
inf
-inf
inf
inf
inf
inf
inf
inf
-inf
inf
inf
inf
inf
inf
inf
inf
inf
inf
inf
inf
inf
inf
inf
inf
inf
inf
inf
inf
inf
inf
inf
inf
inf
inf
inf
inf
inf
inf
inf
inf
inf
inf
inf
inf
inf
inf
inf
inf
inf
inf
inf
inf
inf
inf
inf
inf
inf
inf
inf
inf
inf
inf
inf
inf
inf
inf
inf
inf
inf
inf
inf
inf
inf
inf
inf
inf
inf
inf
inf
inf
inf
inf
inf
inf
inf
inf
inf
inf
inf
inf
inf
inf
inf
inf
inf
inf
inf
inf
inf
inf
inf
inf
inf
inf
inf
inf
-inf
-inf
-inf
-inf
inf
-inf
-inf
-inf
-inf
-inf
-inf
-inf
-inf
-inf
inf
inf
inf
-inf
-inf
-inf
inf
inf
-inf
-inf
-inf
-inf
inf
inf
inf
inf
inf
inf
inf
-inf
-inf
inf
inf
inf
inf
inf
inf
inf
inf
inf
inf
inf
inf
inf
inf
inf
inf
inf
inf
inf
inf
inf
inf
inf
inf
inf
inf
inf
inf
inf
inf
inf
inf
inf
inf
inf
inf
inf
inf
inf
inf
inf
inf
inf
inf
inf
inf
inf
inf
inf
inf
inf
inf
inf
inf
inf
inf
inf
inf
inf
inf
inf
inf
inf
inf
inf
inf
inf
inf
inf
inf
inf
inf
inf
inf
inf
inf
inf
inf
inf
inf
inf
inf
inf
-inf
-inf
-inf
-inf
inf
inf
inf
inf
inf
inf
inf
inf
-inf
-inf
-inf
-inf
-inf
inf
inf
inf
inf
inf
-inf
-inf
-inf
-inf
-inf
-inf
inf
inf
inf
inf
inf
inf
inf
inf
inf
inf
inf
inf
inf
inf
inf
inf
inf
inf
inf
inf
inf
inf
inf
inf
inf
inf
inf
inf
inf
inf
inf
inf
inf
inf
inf
inf
inf
inf
inf
inf
inf
inf
inf
inf
inf
inf
inf
inf
inf
inf
inf
inf
inf
inf
inf
inf
inf
inf
inf
inf
inf
inf
inf
inf
inf
inf
inf
inf
inf
inf
inf
inf
inf
inf
inf
inf
inf
inf
inf
inf
inf
inf
inf
inf
inf
inf
inf
inf
-inf
-inf
-inf
-inf
-inf
-inf
-inf
-inf
-inf
-inf
-inf
-inf
-inf
-inf
inf
inf
inf
inf
inf
inf
inf
inf
inf
inf
inf
inf
inf
inf
inf
inf
inf
inf
-inf
-inf
-inf
-inf
inf
inf
inf
inf
inf
inf
inf
inf
inf
inf
inf
inf
inf
inf
inf
inf
inf
inf
inf
inf
inf
inf
inf
inf
inf
inf
inf
inf
inf
inf
inf
inf
inf
inf
inf
inf
inf
inf
inf
inf
inf
inf
inf
inf
inf
inf
inf
inf
inf
inf
inf
inf
inf
inf
inf
inf
inf
inf
inf
inf
inf
inf
inf
inf
inf
inf
inf
inf
inf
inf
inf
inf
inf
inf
inf
inf
inf
inf
inf
inf
inf
inf
inf
inf
inf
inf
inf
inf
inf
inf
inf
inf
inf
inf
inf
inf
inf
inf
inf
inf
inf
inf
inf
inf
inf
inf
-inf
-inf
-inf
inf
inf
inf
-inf
-inf
inf
inf
inf
-inf
-inf
-inf
-inf
-inf
-inf
-inf
-inf
-inf
-inf
-inf
-inf
-inf
-inf
-inf
-inf
-inf
-inf
-inf
-inf
-inf
-inf
-inf
-inf
-inf
-inf
-inf
-inf
-inf
-inf
-inf
-inf
-inf
-inf
-inf
-inf
-inf
-inf
-inf
-inf
-inf
-inf
-inf
-inf
-inf
-inf
-inf
-inf
-inf
-inf
-inf
-inf
-inf
-inf
-inf
-inf
-inf
-inf
-inf
-inf
-inf
-inf
-inf
-inf
-inf
-inf
-inf
-inf
-inf
-inf
-inf
-inf
-inf
-inf
-inf
-inf
-inf
-inf
-inf
-inf
-inf
-inf
-inf
-inf
-inf
-inf
-inf
inf
inf
inf
inf
inf
inf
-inf
-inf
-inf
-inf
-inf
-inf
-inf
inf
-inf
-inf
inf
-inf
inf
inf
inf
inf
inf
inf
inf
inf
inf
inf
inf
inf
inf
inf
inf
inf
inf
inf
inf
inf
inf
inf
inf
inf
inf
inf
inf
inf
inf
inf
inf
inf
inf
inf
inf
inf
inf
inf
inf
inf
inf
inf
inf
inf
inf
inf
inf
inf
inf
inf
inf
inf
inf
inf
inf
inf
inf
inf
inf
inf
inf
inf
inf
inf
inf
inf
inf
inf
inf
inf
inf
inf
inf
inf
inf
inf
inf
inf
inf
inf
inf
inf
inf
inf
inf
inf
inf
inf
inf
inf
inf
inf
inf
inf
inf
inf
inf
inf
inf
inf
inf
inf
inf
inf
inf
inf
inf
inf
-inf
-inf
-inf
-inf
-inf
-inf
-inf
-inf
-inf
-inf
-inf
-inf
inf
inf
-inf
-inf
inf
inf
inf
inf
inf
inf
inf
inf
inf
-inf
inf
inf
inf
-inf
inf
inf
inf
inf
inf
inf
inf
inf
inf
inf
inf
inf
inf
inf
inf
inf
inf
inf
inf
inf
inf
inf
inf
inf
inf
inf
inf
inf
inf
inf
inf
inf
inf
inf
inf
inf
inf
inf
inf
inf
inf
inf
inf
inf
inf
inf
inf
inf
inf
inf
inf
inf
inf
inf
inf
inf
inf
inf
inf
inf
inf
inf
inf
inf
inf
inf
inf
inf
inf
inf
inf
inf
inf
inf
inf
inf
inf
inf
inf
inf
inf
inf
inf
inf
inf
inf
inf
inf
inf
inf
-inf
-inf
-inf
-inf
-inf
-inf
-inf
-inf
-inf
-inf
-inf
-inf
inf
inf
inf
inf
-inf
inf
-inf
-inf
-inf
-inf
inf
inf
inf
inf
inf
inf
inf
inf
inf
inf
-inf
inf
-inf
-inf
inf
inf
inf
inf
inf
inf
inf
inf
inf
inf
inf
inf
inf
inf
inf
inf
inf
inf
inf
inf
inf
inf
inf
inf
inf
inf
inf
inf
inf
inf
inf
inf
inf
inf
inf
inf
inf
inf
inf
inf
inf
inf
inf
inf
inf
inf
inf
inf
inf
inf
inf
inf
inf
inf
inf
inf
inf
inf
inf
inf
inf
inf
inf
inf
inf
inf
inf
inf
inf
inf
inf
inf
inf
inf
inf
inf
inf
inf
inf
inf
inf
inf
inf
inf
-inf
inf
-inf
-inf
-inf
-inf
-inf
-inf
inf
inf
inf
inf
inf
inf
-inf
inf
inf
inf
inf
inf
inf
inf
inf
inf
-inf
-inf
-inf
-inf
-inf
-inf
-inf
inf
inf
inf
inf
inf
inf
inf
inf
inf
inf
inf
inf
inf
inf
inf
inf
inf
inf
inf
inf
inf
inf
inf
inf
inf
inf
inf
inf
inf
inf
inf
inf
inf
inf
inf
inf
inf
inf
inf
inf
inf
inf
inf
inf
inf
inf
inf
inf
inf
inf
inf
inf
inf
inf
inf
inf
inf
inf
inf
inf
inf
inf
inf
inf
inf
inf
inf
inf
inf
inf
inf
inf
inf
inf
inf
inf
inf
inf
inf
inf
inf
-inf
-inf
-inf
-inf
inf
inf
inf
inf
inf
-inf
inf
inf
inf
inf
inf
inf
inf
inf
inf
inf
inf
inf
inf
inf
inf
-inf
inf
inf
inf
inf
inf
inf
inf
inf
-inf
-inf
inf
inf
inf
inf
inf
inf
inf
inf
inf
inf
inf
inf
inf
inf
inf
inf
inf
inf
inf
inf
inf
inf
inf
inf
inf
inf
inf
inf
inf
inf
inf
inf
inf
inf
inf
inf
inf
inf
inf
inf
inf
inf
inf
inf
inf
inf
inf
inf
inf
inf
inf
inf
inf
inf
inf
inf
inf
inf
inf
inf
inf
inf
inf
inf
inf
inf
inf
inf
inf
inf
inf
inf
inf
inf
inf
inf
inf
inf
inf
inf
inf
inf
inf
inf
inf
inf
inf
inf
-inf
-inf
inf
inf
-inf
inf
inf
-inf
-inf
-inf
-inf
-inf
-inf
-inf
-inf
-inf
-inf
-inf
inf
inf
inf
-inf
-inf
-inf
-inf
-inf
-inf
inf
inf
inf
inf
inf
inf
inf
-inf
inf
inf
inf
inf
inf
inf
inf
inf
inf
-inf
-inf
-inf
-inf
-inf
-inf
-inf
-inf
-inf
-inf
-inf
-inf
-inf
-inf
-inf
-inf
-inf
-inf
-inf
-inf
-inf
-inf
-inf
-inf
-inf
-inf
-inf
-inf
-inf
-inf
-inf
-inf
-inf
-inf
-inf
-inf
-inf
-inf
-inf
-inf
-inf
-inf
-inf
-inf
-inf
-inf
-inf
-inf
-inf
-inf
-inf
-inf
-inf
-inf
-inf
-inf
-inf
-inf
-inf
-inf
-inf
-inf
-inf
-inf
-inf
-inf
-inf
-inf
-inf
-inf
-inf
-inf
-inf
-inf
-inf
-inf
-inf
-inf
-inf
-inf
inf
inf
inf
inf
-inf
-inf
-inf
-inf
-inf
-inf
inf
inf
-inf
-inf
inf
-inf
inf
inf
-inf
inf
inf
-inf
-inf
-inf
inf
inf
inf
inf
inf
inf
inf
inf
inf
inf
inf
inf
inf
inf
inf
inf
inf
inf
inf
inf
inf
inf
inf
inf
inf
inf
inf
inf
inf
inf
inf
inf
inf
inf
inf
inf
inf
inf
inf
inf
inf
inf
inf
inf
inf
inf
inf
inf
inf
inf
inf
inf
inf
inf
inf
inf
inf
inf
inf
inf
inf
inf
inf
inf
inf
inf
inf
inf
inf
inf
inf
inf
inf
inf
inf
inf
inf
inf
inf
inf
inf
inf
inf
inf
inf
inf
inf
inf
inf
inf
inf
inf
inf
inf
inf
inf
-inf
-inf
-inf
-inf
-inf
-inf
-inf
-inf
-inf
-inf
-inf
-inf
-inf
-inf
-inf
-inf
-inf
-inf
-inf
-inf
inf
inf
inf
inf
inf
inf
inf
inf
inf
inf
inf
inf
inf
inf
inf
inf
inf
inf
inf
inf
inf
inf
inf
inf
inf
inf
inf
inf
inf
inf
inf
inf
inf
inf
inf
inf
inf
inf
inf
inf
inf
inf
inf
inf
inf
inf
inf
inf
inf
inf
inf
inf
inf
inf
inf
inf
inf
inf
inf
inf
inf
inf
inf
inf
inf
inf
inf
inf
inf
inf
inf
inf
inf
inf
inf
inf
inf
inf
inf
inf
inf
inf
inf
inf
inf
inf
inf
inf
inf
inf
inf
inf
inf
inf
-inf
-inf
-inf
-inf
-inf
-inf
-inf
-inf
-inf
inf
inf
inf
-inf
-inf
-inf
-inf
inf
inf
inf
inf
inf
inf
-inf
inf
inf
inf
-inf
-inf
-inf
inf
inf
inf
inf
inf
inf
inf
inf
inf
inf
inf
inf
inf
-inf
-inf
inf
inf
-inf
-inf
-inf
-inf
-inf
-inf
-inf
-inf
-inf
-inf
-inf
-inf
-inf
-inf
-inf
-inf
-inf
-inf
-inf
-inf
-inf
-inf
-inf
-inf
-inf
-inf
-inf
-inf
-inf
-inf
-inf
-inf
-inf
-inf
-inf
-inf
-inf
-inf
-inf
-inf
-inf
-inf
-inf
-inf
-inf
-inf
-inf
-inf
-inf
-inf
-inf
-inf
-inf
-inf
-inf
-inf
-inf
-inf
-inf
-inf
-inf
-inf
-inf
-inf
-inf
-inf
-inf
-inf
-inf
-inf
-inf
-inf
-inf
-inf
-inf
-inf
-inf
-inf
-inf
-inf
-inf
-inf
inf
inf
inf
inf
inf
inf
inf
inf
inf
inf
-inf
-inf
inf
inf
inf
-inf
-inf
-inf
-inf
-inf
-inf
-inf
-inf
-inf
inf
inf
inf
inf
inf
inf
inf
inf
inf
inf
inf
inf
inf
inf
inf
inf
inf
inf
inf
inf
inf
inf
inf
inf
inf
inf
inf
inf
inf
inf
inf
inf
inf
inf
inf
inf
inf
inf
inf
inf
inf
inf
inf
inf
inf
inf
inf
inf
inf
inf
inf
inf
inf
inf
inf
inf
inf
inf
inf
inf
inf
inf
inf
inf
inf
inf
inf
inf
inf
inf
inf
inf
inf
inf
inf
inf
inf
inf
inf
inf
inf
inf
inf
inf
inf
inf
inf
inf
inf
inf
inf
inf
-inf
-inf
-inf
-inf
-inf
-inf
inf
inf
-inf
-inf
-inf
-inf
-inf
-inf
-inf
-inf
-inf
-inf
inf
inf
inf
inf
inf
inf
inf
inf
-inf
-inf
-inf
-inf
inf
inf
inf
inf
-inf
-inf
inf
inf
inf
inf
inf
inf
inf
inf
inf
inf
inf
inf
inf
inf
inf
inf
inf
inf
inf
inf
inf
inf
inf
inf
inf
inf
inf
inf
inf
inf
inf
inf
inf
inf
inf
inf
inf
inf
inf
inf
inf
inf
inf
inf
inf
inf
inf
inf
inf
inf
inf
inf
inf
inf
inf
inf
inf
inf
inf
inf
inf
inf
inf
inf
inf
inf
inf
inf
inf
inf
inf
inf
inf
inf
inf
inf
inf
inf
inf
inf
inf
inf
inf
inf
inf
inf
inf
inf
-inf
-inf
-inf
-inf
inf
inf
inf
-inf
-inf
inf
-inf
-inf
-inf
-inf
-inf
-inf
-inf
-inf
-inf
-inf
-inf
-inf
-inf
-inf
-inf
-inf
-inf
-inf
-inf
-inf
-inf
-inf
-inf
-inf
-inf
-inf
-inf
-inf
-inf
-inf
-inf
-inf
-inf
-inf
-inf
-inf
-inf
-inf
-inf
-inf
-inf
-inf
-inf
-inf
-inf
-inf
-inf
-inf
-inf
-inf
-inf
-inf
-inf
-inf
-inf
-inf
-inf
-inf
-inf
-inf
-inf
-inf
-inf
-inf
-inf
-inf
-inf
-inf
-inf
-inf
-inf
-inf
-inf
-inf
-inf
-inf
-inf
-inf
-inf
-inf
-inf
-inf
-inf
-inf
-inf
-inf
-inf
-inf
-inf
-inf
-inf
inf
inf
inf
inf
inf
inf
inf
inf
inf
inf
inf
inf
inf
inf
inf
inf
inf
inf
inf
inf
inf
-inf
-inf
-inf
-inf
-inf
-inf
inf
inf
-inf
inf
inf
inf
-inf
-inf
-inf
-inf
-inf
-inf
inf
inf
-inf
-inf
-inf
inf
inf
inf
inf
inf
inf
inf
inf
inf
inf
inf
inf
inf
inf
inf
inf
inf
inf
inf
inf
inf
inf
inf
inf
inf
inf
inf
inf
inf
inf
inf
inf
inf
inf
inf
inf
inf
inf
inf
inf
inf
inf
inf
inf
inf
inf
inf
inf
inf
inf
inf
inf
inf
inf
inf
inf
inf
inf
inf
inf
inf
inf
inf
inf
inf
inf
inf
inf
inf
inf
inf
inf
inf
inf
inf
inf
inf
inf
inf
inf
inf
inf
inf
inf
inf
inf
inf
inf
inf
inf
inf
-inf
-inf
-inf
-inf
-inf
-inf
inf
inf
-inf
-inf
inf
inf
inf
inf
inf
-inf
-inf
-inf
inf
inf
inf
inf
inf
inf
inf
-inf
inf
inf
inf
inf
inf
inf
-inf
-inf
-inf
-inf
-inf
-inf
-inf
-inf
-inf
-inf
-inf
-inf
-inf
-inf
-inf
-inf
-inf
-inf
-inf
-inf
-inf
-inf
-inf
-inf
-inf
-inf
-inf
-inf
-inf
-inf
-inf
-inf
-inf
-inf
-inf
-inf
-inf
-inf
-inf
-inf
-inf
-inf
-inf
-inf
-inf
-inf
-inf
-inf
-inf
-inf
-inf
-inf
-inf
-inf
-inf
-inf
-inf
-inf
-inf
-inf
-inf
-inf
-inf
-inf
-inf
-inf
-inf
-inf
-inf
-inf
-inf
-inf
-inf
-inf
-inf
-inf
-inf
-inf
-inf
-inf
-inf
-inf
-inf
-inf
-inf
-inf
-inf
-inf
-inf
-inf
-inf
-inf
-inf
-inf
inf
inf
inf
inf
inf
inf
-inf
-inf
inf
inf
-inf
inf
-inf
-inf
-inf
-inf
-inf
-inf
-inf
inf
inf
inf
inf
inf
inf
inf
inf
inf
inf
inf
inf
inf
inf
inf
inf
inf
inf
inf
inf
inf
inf
inf
inf
inf
inf
inf
inf
inf
inf
inf
inf
inf
inf
inf
inf
inf
inf
inf
inf
inf
inf
inf
inf
inf
inf
inf
inf
inf
inf
inf
inf
inf
inf
inf
inf
inf
inf
inf
inf
inf
inf
inf
inf
inf
inf
inf
inf
inf
inf
inf
inf
inf
inf
inf
inf
inf
inf
inf
inf
inf
inf
inf
inf
inf
inf
inf
inf
inf
inf
inf
inf
inf
inf
inf
inf
inf
-inf
inf
inf
inf
inf
inf
inf
inf
inf
inf
inf
-inf
inf
-inf
inf
inf
inf
inf
inf
inf
inf
-inf
inf
inf
inf
inf
inf
inf
inf
inf
inf
inf
inf
inf
inf
inf
inf
inf
inf
inf
inf
inf
inf
inf
inf
inf
inf
inf
inf
inf
inf
inf
inf
inf
inf
inf
inf
inf
inf
inf
inf
inf
inf
inf
inf
inf
inf
inf
inf
inf
inf
inf
inf
inf
inf
inf
inf
inf
inf
inf
inf
inf
inf
inf
inf
inf
inf
inf
inf
inf
inf
inf
inf
inf
inf
inf
inf
inf
inf
inf
inf
inf
inf
inf
inf
inf
inf
inf
inf
inf
inf
inf
inf
inf
inf
inf
inf
inf
inf
inf
-inf
-inf
inf
inf
-inf
-inf
-inf
-inf
-inf
inf
inf
inf
-inf
-inf
inf
inf
-inf
-inf
-inf
inf
-inf
-inf
inf
inf
-inf
-inf
-inf
-inf
inf
inf
-inf
-inf
inf
inf
inf
inf
inf
inf
inf
inf
inf
-inf
-inf
-inf
inf
inf
inf
inf
inf
inf
inf
inf
inf
inf
inf
inf
inf
inf
inf
inf
inf
inf
inf
inf
inf
inf
inf
inf
inf
inf
inf
inf
inf
inf
inf
inf
inf
inf
inf
inf
inf
inf
inf
inf
inf
inf
inf
inf
inf
inf
inf
inf
inf
inf
inf
inf
inf
inf
inf
inf
inf
inf
inf
inf
inf
inf
inf
inf
inf
inf
inf
inf
inf
inf
inf
inf
inf
inf
inf
inf
inf
inf
-inf
-inf
-inf
-inf
-inf
-inf
inf
inf
-inf
inf
inf
inf
-inf
-inf
-inf
-inf
-inf
inf
-inf
-inf
-inf
inf
inf
inf
-inf
inf
inf
inf
inf
inf
inf
inf
inf
inf
inf
inf
inf
inf
inf
inf
inf
inf
inf
inf
inf
inf
inf
inf
inf
inf
inf
inf
inf
inf
inf
inf
inf
inf
inf
inf
inf
inf
inf
inf
inf
inf
inf
inf
inf
inf
inf
inf
inf
inf
inf
inf
inf
inf
inf
inf
inf
inf
inf
inf
inf
inf
inf
inf
inf
inf
inf
inf
inf
inf
inf
inf
inf
inf
inf
inf
inf
inf
inf
inf
inf
inf
inf
inf
inf
inf
inf
inf
inf
inf
inf
inf
inf
inf
inf
inf
-inf
-inf
inf
inf
-inf
-inf
-inf
inf
inf
-inf
inf
inf
inf
inf
-inf
-inf
-inf
-inf
-inf
-inf
-inf
-inf
-inf
-inf
-inf
-inf
-inf
-inf
-inf
-inf
-inf
-inf
inf
inf
inf
inf
inf
inf
inf
inf
inf
inf
inf
inf
inf
inf
inf
inf
inf
inf
inf
inf
inf
inf
inf
inf
inf
inf
inf
inf
inf
inf
inf
inf
inf
inf
inf
inf
inf
inf
inf
inf
inf
inf
inf
inf
inf
inf
inf
inf
inf
inf
inf
inf
inf
inf
inf
inf
inf
inf
inf
inf
inf
inf
inf
inf
inf
inf
inf
inf
inf
inf
inf
inf
inf
inf
inf
inf
inf
inf
inf
inf
inf
inf
-inf
-inf
-inf
-inf
-inf
-inf
-inf
-inf
inf
-inf
-inf
-inf
inf
inf
inf
inf
inf
inf
inf
inf
-inf
inf
-inf
-inf
inf
inf
inf
inf
inf
inf
inf
inf
inf
inf
inf
inf
inf
inf
inf
inf
inf
inf
inf
inf
inf
inf
inf
inf
inf
inf
inf
inf
inf
inf
inf
inf
inf
inf
inf
inf
inf
inf
inf
inf
inf
inf
inf
inf
inf
inf
inf
inf
inf
inf
inf
inf
inf
inf
inf
inf
inf
inf
inf
inf
inf
inf
inf
inf
inf
inf
inf
inf
inf
inf
inf
inf
inf
inf
inf
inf
inf
inf
inf
inf
inf
inf
inf
inf
inf
inf
inf
inf
inf
inf
inf
inf
inf
inf
inf
inf
inf
inf
inf
inf
inf
inf
inf
inf
inf
inf
-inf
-inf
-inf
-inf
-inf
inf
-inf
-inf
-inf
-inf
-inf
-inf
-inf
-inf
-inf
-inf
-inf
-inf
-inf
-inf
inf
inf
inf
inf
inf
inf
inf
inf
inf
inf
inf
inf
inf
inf
inf
inf
inf
inf
inf
inf
inf
inf
inf
inf
inf
inf
inf
inf
inf
inf
inf
inf
inf
inf
inf
inf
inf
inf
inf
inf
inf
inf
inf
inf
inf
inf
inf
inf
inf
inf
inf
inf
inf
inf
inf
inf
inf
inf
inf
inf
inf
inf
inf
inf
inf
inf
inf
inf
inf
inf
inf
inf
inf
inf
inf
inf
inf
inf
inf
inf
inf
inf
inf
inf
inf
inf
inf
inf
inf
inf
inf
inf
inf
inf
inf
inf
inf
inf
-inf
-inf
-inf
-inf
-inf
-inf
-inf
-inf
inf
inf
inf
inf
-inf
-inf
inf
inf
inf
inf
-inf
-inf
-inf
inf
inf
inf
inf
inf
inf
inf
inf
-inf
-inf
-inf
-inf
-inf
-inf
-inf
-inf
-inf
-inf
-inf
-inf
-inf
-inf
-inf
-inf
-inf
-inf
-inf
-inf
-inf
-inf
-inf
-inf
-inf
-inf
-inf
-inf
-inf
-inf
-inf
-inf
-inf
-inf
-inf
-inf
-inf
-inf
-inf
-inf
-inf
-inf
-inf
-inf
-inf
-inf
-inf
-inf
-inf
-inf
-inf
-inf
-inf
-inf
-inf
-inf
-inf
-inf
-inf
-inf
-inf
-inf
-inf
-inf
-inf
-inf
-inf
-inf
-inf
-inf
-inf
-inf
-inf
-inf
-inf
-inf
-inf
-inf
-inf
-inf
-inf
-inf
-inf
-inf
-inf
-inf
-inf
inf
inf
inf
inf
inf
-inf
inf
inf
inf
inf
inf
inf
inf
inf
inf
inf
inf
inf
-inf
-inf
inf
inf
inf
inf
inf
inf
inf
-inf
-inf
-inf
-inf
-inf
-inf
-inf
-inf
inf
-inf
-inf
-inf
inf
inf
inf
inf
inf
inf
inf
inf
inf
inf
inf
inf
inf
inf
inf
inf
inf
inf
inf
inf
inf
inf
inf
inf
inf
inf
inf
inf
inf
inf
inf
inf
inf
inf
inf
inf
inf
inf
inf
inf
inf
inf
inf
inf
inf
inf
inf
inf
inf
inf
inf
inf
inf
inf
inf
inf
inf
inf
inf
inf
inf
inf
inf
inf
inf
inf
inf
inf
inf
inf
inf
inf
inf
inf
inf
-inf
-inf
-inf
-inf
inf
inf
inf
-inf
-inf
-inf
-inf
-inf
inf
inf
inf
inf
-inf
-inf
-inf
-inf
-inf
-inf
inf
inf
inf
-inf
-inf
-inf
inf
inf
-inf
-inf
inf
inf
-inf
-inf
inf
inf
inf
inf
inf
inf
inf
inf
inf
inf
inf
inf
inf
inf
inf
inf
inf
inf
inf
inf
inf
inf
inf
inf
inf
inf
inf
inf
inf
inf
inf
inf
inf
inf
inf
inf
inf
inf
inf
inf
inf
inf
inf
inf
inf
inf
inf
inf
inf
inf
inf
inf
inf
inf
inf
inf
inf
inf
inf
inf
inf
inf
inf
inf
inf
inf
inf
inf
inf
inf
inf
inf
inf
inf
inf
inf
inf
inf
inf
inf
inf
inf
inf
inf
inf
inf
inf
inf
inf
inf
inf
inf
inf
inf
inf
inf
inf
inf
inf
inf
inf
inf
inf
inf
inf
inf
inf
inf
-inf
-inf
-inf
-inf
-inf
-inf
-inf
-inf
-inf
-inf
-inf
-inf
-inf
-inf
-inf
-inf
-inf
-inf
-inf
-inf
-inf
-inf
-inf
-inf
-inf
-inf
-inf
-inf
-inf
-inf
-inf
-inf
-inf
-inf
-inf
-inf
-inf
-inf
-inf
-inf
-inf
-inf
-inf
-inf
-inf
-inf
-inf
-inf
-inf
-inf
-inf
-inf
-inf
-inf
-inf
-inf
-inf
-inf
-inf
-inf
-inf
-inf
-inf
-inf
-inf
-inf
-inf
-inf
-inf
-inf
-inf
-inf
-inf
-inf
-inf
-inf
-inf
-inf
-inf
-inf
-inf
-inf
-inf
-inf
-inf
-inf
-inf
-inf
-inf
-inf
-inf
-inf
-inf
-inf
inf
inf
inf
inf
-inf
-inf
-inf
inf
inf
inf
inf
inf
inf
inf
-inf
-inf
-inf
-inf
-inf
-inf
inf
inf
-inf
-inf
inf
-inf
-inf
-inf
-inf
inf
inf
inf
-inf
-inf
inf
inf
inf
-inf
inf
inf
inf
-inf
-inf
inf
-inf
-inf
-inf
-inf
-inf
-inf
-inf
-inf
-inf
-inf
-inf
inf
inf
inf
inf
inf
inf
inf
inf
inf
inf
inf
inf
inf
inf
inf
inf
inf
inf
inf
inf
inf
inf
inf
inf
inf
inf
inf
inf
inf
inf
inf
inf
inf
inf
inf
inf
inf
inf
inf
inf
inf
inf
inf
inf
inf
inf
inf
inf
inf
inf
inf
inf
inf
inf
inf
inf
inf
inf
inf
inf
inf
inf
inf
inf
inf
inf
inf
inf
inf
inf
inf
inf
inf
inf
inf
inf
inf
inf
inf
inf
inf
inf
-inf
inf
inf
inf
inf
inf
inf
inf
inf
inf
inf
-inf
-inf
inf
inf
-inf
-inf
inf
inf
-inf
-inf
-inf
-inf
inf
-inf
inf
inf
inf
inf
inf
inf
inf
inf
inf
inf
inf
inf
inf
inf
inf
inf
inf
inf
inf
inf
inf
inf
inf
inf
inf
inf
inf
inf
inf
inf
inf
inf
inf
inf
inf
inf
inf
inf
inf
inf
inf
inf
inf
inf
inf
inf
inf
inf
inf
inf
inf
inf
inf
inf
inf
inf
inf
inf
inf
inf
inf
inf
inf
inf
inf
inf
inf
inf
inf
inf
inf
inf
inf
inf
inf
inf
inf
inf
inf
inf
inf
-inf
-inf
-inf
-inf
-inf
-inf
-inf
inf
inf
inf
inf
inf
inf
inf
inf
inf
inf
-inf
inf
inf
-inf
inf
inf
inf
-inf
-inf
-inf
-inf
-inf
inf
inf
inf
inf
inf
inf
inf
inf
inf
inf
inf
inf
inf
inf
inf
inf
inf
inf
inf
inf
inf
inf
inf
inf
inf
inf
inf
inf
inf
inf
inf
inf
inf
inf
inf
inf
inf
inf
inf
inf
inf
inf
inf
inf
inf
inf
inf
inf
inf
inf
inf
inf
inf
inf
inf
inf
inf
inf
inf
inf
inf
inf
inf
inf
inf
inf
inf
inf
inf
inf
inf
inf
inf
inf
inf
inf
inf
inf
inf
inf
inf
inf
inf
inf
inf
inf
inf
inf
inf
inf
inf
inf
inf
inf
inf
inf
inf
inf
-inf
-inf
-inf
-inf
-inf
-inf
-inf
-inf
-inf
-inf
inf
inf
inf
inf
inf
inf
inf
inf
-inf
inf
inf
inf
inf
inf
inf
inf
-inf
-inf
-inf
-inf
-inf
-inf
-inf
-inf
-inf
-inf
-inf
-inf
-inf
-inf
-inf
-inf
-inf
-inf
-inf
-inf
-inf
-inf
-inf
-inf
-inf
-inf
-inf
-inf
-inf
-inf
-inf
-inf
-inf
-inf
-inf
-inf
-inf
-inf
-inf
-inf
-inf
-inf
-inf
-inf
-inf
-inf
-inf
-inf
-inf
-inf
-inf
-inf
-inf
-inf
-inf
-inf
-inf
-inf
-inf
-inf
-inf
-inf
-inf
-inf
-inf
-inf
-inf
-inf
-inf
-inf
-inf
-inf
-inf
-inf
-inf
-inf
-inf
-inf
-inf
-inf
-inf
-inf
-inf
-inf
-inf
-inf
-inf
-inf
-inf
-inf
-inf
-inf
-inf
-inf
inf
inf
inf
inf
inf
inf
inf
-inf
-inf
-inf
inf
inf
-inf
-inf
-inf
-inf
-inf
inf
inf
inf
inf
inf
inf
inf
-inf
-inf
inf
inf
inf
inf
inf
inf
inf
inf
inf
inf
inf
inf
inf
inf
inf
inf
inf
inf
inf
inf
inf
inf
inf
inf
inf
inf
inf
inf
inf
inf
inf
inf
inf
inf
inf
inf
inf
inf
inf
inf
inf
inf
inf
inf
inf
inf
inf
inf
inf
inf
inf
inf
inf
inf
inf
inf
inf
inf
inf
inf
inf
inf
inf
inf
inf
inf
inf
inf
inf
inf
inf
inf
inf
inf
inf
inf
inf
inf
inf
inf
inf
inf
inf
inf
inf
inf
inf
inf
inf
inf
inf
inf
inf
inf
inf
inf
inf
-inf
-inf
inf
inf
inf
inf
inf
inf
inf
inf
inf
inf
inf
inf
inf
inf
inf
inf
inf
inf
inf
inf
inf
-inf
-inf
inf
inf
inf
inf
inf
inf
inf
inf
inf
inf
inf
inf
inf
inf
inf
inf
inf
inf
inf
inf
inf
inf
inf
inf
inf
inf
inf
inf
inf
inf
inf
inf
inf
inf
inf
inf
inf
inf
inf
inf
inf
inf
inf
inf
inf
inf
inf
inf
inf
inf
inf
inf
inf
inf
inf
inf
inf
inf
inf
inf
inf
inf
inf
inf
inf
inf
inf
inf
inf
inf
inf
inf
inf
inf
inf
inf
inf
inf
inf
inf
inf
inf
inf
inf
inf
inf
inf
inf
inf
inf
inf
inf
inf
inf
inf
inf
-inf
-inf
-inf
-inf
inf
inf
-inf
inf
inf
inf
inf
-inf
inf
inf
inf
inf
inf
inf
-inf
-inf
-inf
-inf
inf
inf
inf
inf
inf
inf
inf
inf
inf
inf
inf
inf
inf
inf
inf
inf
inf
inf
inf
inf
inf
inf
inf
inf
inf
inf
inf
inf
inf
inf
inf
inf
inf
inf
inf
inf
inf
inf
inf
inf
inf
inf
inf
inf
inf
inf
inf
inf
inf
inf
inf
inf
inf
inf
inf
inf
inf
inf
inf
inf
inf
inf
inf
inf
inf
inf
inf
inf
inf
inf
inf
inf
inf
inf
inf
inf
inf
inf
inf
inf
inf
inf
inf
inf
inf
inf
inf
inf
inf
inf
inf
inf
inf
inf
inf
inf
inf
inf
inf
inf
inf
inf
inf
inf
-inf
inf
inf
inf
-inf
-inf
inf
inf
-inf
inf
-inf
-inf
inf
-inf
-inf
-inf
inf
inf
-inf
-inf
-inf
-inf
inf
inf
-inf
inf
inf
inf
inf
inf
inf
inf
inf
inf
inf
inf
inf
inf
inf
inf
inf
inf
inf
inf
inf
inf
inf
inf
inf
inf
inf
inf
inf
inf
inf
inf
inf
inf
inf
inf
inf
inf
inf
inf
inf
inf
inf
inf
inf
inf
inf
inf
inf
inf
inf
inf
inf
inf
inf
inf
inf
inf
inf
inf
inf
inf
inf
inf
inf
inf
inf
inf
inf
inf
inf
inf
inf
inf
inf
inf
inf
inf
inf
inf
inf
inf
-inf
-inf
inf
inf
-inf
-inf
-inf
inf
inf
inf
inf
inf
-inf
-inf
-inf
-inf
-inf
-inf
-inf
-inf
inf
inf
-inf
-inf
-inf
-inf
-inf
-inf
-inf
-inf
-inf
-inf
-inf
-inf
inf
inf
inf
inf
inf
inf
inf
inf
inf
inf
inf
inf
inf
inf
inf
inf
inf
inf
inf
inf
inf
inf
inf
inf
inf
inf
inf
inf
inf
inf
inf
inf
inf
inf
inf
inf
inf
inf
inf
inf
inf
inf
inf
inf
inf
inf
inf
inf
inf
inf
inf
inf
inf
inf
inf
inf
inf
inf
inf
inf
inf
inf
inf
inf
inf
inf
inf
inf
inf
inf
inf
inf
inf
inf
inf
inf
inf
inf
inf
inf
inf
inf
inf
inf
inf
inf
-inf
-inf
inf
inf
inf
inf
inf
inf
inf
inf
-inf
-inf
-inf
-inf
-inf
-inf
-inf
-inf
-inf
-inf
-inf
inf
-inf
-inf
inf
inf
-inf
-inf
-inf
-inf
inf
inf
inf
inf
inf
inf
inf
inf
inf
inf
inf
inf
-inf
-inf
-inf
-inf
-inf
-inf
-inf
-inf
-inf
-inf
-inf
-inf
-inf
-inf
-inf
-inf
-inf
-inf
-inf
-inf
-inf
-inf
-inf
-inf
-inf
-inf
-inf
-inf
-inf
-inf
-inf
-inf
-inf
-inf
-inf
-inf
-inf
-inf
-inf
-inf
-inf
-inf
-inf
-inf
-inf
-inf
-inf
-inf
-inf
-inf
-inf
-inf
-inf
-inf
-inf
-inf
-inf
-inf
-inf
-inf
-inf
-inf
-inf
-inf
-inf
-inf
-inf
-inf
-inf
-inf
-inf
-inf
-inf
-inf
inf
inf
inf
inf
inf
inf
-inf
-inf
-inf
-inf
inf
inf
-inf
-inf
-inf
inf
inf
inf
-inf
-inf
inf
inf
-inf
inf
-inf
-inf
inf
-inf
inf
inf
-inf
-inf
-inf
-inf
inf
inf
inf
inf
inf
inf
inf
inf
inf
-inf
-inf
-inf
-inf
-inf
-inf
-inf
-inf
-inf
-inf
-inf
-inf
-inf
-inf
-inf
-inf
-inf
-inf
-inf
-inf
-inf
-inf
-inf
-inf
-inf
-inf
-inf
-inf
-inf
-inf
-inf
-inf
-inf
-inf
-inf
-inf
-inf
-inf
-inf
-inf
-inf
-inf
-inf
-inf
-inf
-inf
-inf
-inf
-inf
-inf
-inf
-inf
-inf
-inf
-inf
-inf
-inf
-inf
-inf
-inf
-inf
-inf
-inf
-inf
-inf
-inf
-inf
-inf
-inf
-inf
-inf
-inf
-inf
-inf
-inf
-inf
-inf
inf
inf
inf
inf
-inf
-inf
-inf
-inf
-inf
-inf
-inf
inf
inf
inf
inf
inf
-inf
-inf
-inf
-inf
inf
-inf
-inf
-inf
-inf
-inf
-inf
-inf
inf
inf
-inf
-inf
-inf
inf
-inf
-inf
inf
inf
inf
inf
inf
inf
inf
inf
inf
inf
inf
inf
inf
inf
inf
inf
inf
inf
inf
inf
inf
inf
inf
inf
inf
inf
inf
inf
inf
inf
inf
inf
inf
inf
inf
inf
inf
inf
inf
inf
inf
inf
inf
inf
inf
inf
inf
inf
inf
inf
inf
inf
inf
inf
inf
inf
inf
inf
inf
inf
inf
inf
inf
inf
inf
inf
inf
inf
inf
inf
inf
inf
inf
inf
inf
inf
inf
inf
inf
inf
inf
inf
inf
inf
inf
inf
-inf
-inf
-inf
-inf
-inf
-inf
-inf
-inf
-inf
-inf
-inf
-inf
-inf
-inf
inf
-inf
-inf
inf
inf
inf
-inf
inf
-inf
-inf
-inf
-inf
-inf
-inf
inf
-inf
-inf
-inf
-inf
-inf
inf
inf
inf
inf
inf
inf
-inf
-inf
inf
inf
inf
inf
inf
inf
inf
inf
inf
inf
inf
inf
inf
inf
inf
inf
inf
inf
inf
inf
inf
inf
inf
inf
inf
inf
inf
inf
inf
inf
inf
inf
inf
inf
inf
inf
inf
inf
inf
inf
inf
inf
inf
inf
inf
inf
inf
inf
inf
inf
inf
inf
inf
inf
inf
inf
inf
inf
inf
inf
inf
inf
inf
inf
inf
inf
inf
inf
inf
inf
inf
inf
inf
inf
inf
inf
inf
inf
inf
inf
inf
inf
inf
inf
inf
inf
inf
inf
-inf
-inf
-inf
-inf
-inf
-inf
inf
-inf
inf
inf
inf
inf
inf
inf
-inf
-inf
inf
inf
-inf
-inf
-inf
-inf
-inf
-inf
-inf
-inf
-inf
inf
inf
inf
inf
inf
inf
inf
inf
inf
inf
inf
inf
inf
inf
inf
inf
inf
inf
inf
inf
inf
inf
inf
inf
inf
inf
inf
inf
inf
inf
inf
inf
inf
inf
inf
inf
inf
inf
inf
inf
inf
inf
inf
inf
inf
inf
inf
inf
inf
inf
inf
inf
inf
inf
inf
inf
inf
inf
inf
inf
inf
inf
inf
inf
inf
inf
inf
inf
inf
inf
inf
inf
inf
inf
inf
inf
inf
inf
inf
inf
inf
inf
inf
-inf
-inf
-inf
-inf
-inf
-inf
inf
inf
inf
inf
inf
-inf
-inf
-inf
inf
inf
-inf
-inf
inf
inf
inf
inf
inf
inf
inf
inf
inf
inf
inf
inf
inf
inf
inf
inf
inf
inf
inf
inf
inf
inf
inf
inf
inf
inf
inf
inf
inf
inf
inf
inf
inf
inf
inf
inf
inf
inf
inf
inf
inf
inf
inf
inf
inf
inf
inf
inf
inf
inf
inf
inf
inf
inf
inf
inf
inf
inf
inf
inf
inf
inf
inf
inf
inf
inf
inf
inf
inf
inf
inf
inf
inf
inf
inf
inf
inf
inf
inf
inf
inf
inf
inf
inf
inf
inf
inf
inf
inf
inf
inf
inf
inf
inf
inf
inf
inf
inf
inf
inf
inf
inf
inf
-inf
-inf
-inf
-inf
-inf
inf
inf
inf
inf
-inf
inf
inf
inf
-inf
-inf
-inf
-inf
-inf
-inf
-inf
-inf
inf
inf
inf
inf
-inf
inf
inf
inf
inf
inf
inf
inf
inf
inf
inf
inf
inf
inf
inf
inf
inf
inf
inf
inf
inf
inf
inf
inf
inf
inf
inf
inf
inf
inf
inf
inf
inf
inf
inf
inf
inf
inf
inf
inf
inf
inf
inf
inf
inf
inf
inf
inf
inf
inf
inf
inf
inf
inf
inf
inf
inf
inf
inf
inf
inf
inf
inf
inf
inf
inf
inf
inf
inf
inf
inf
inf
inf
inf
inf
inf
inf
inf
inf
inf
inf
inf
inf
inf
inf
inf
inf
inf
inf
inf
inf
inf
inf
inf
inf
inf
inf
inf
inf
inf
-inf
-inf
-inf
inf
inf
inf
inf
inf
inf
inf
inf
inf
-inf
-inf
-inf
-inf
inf
inf
inf
inf
inf
inf
-inf
-inf
-inf
-inf
inf
inf
inf
inf
inf
inf
inf
inf
inf
inf
inf
inf
inf
inf
inf
inf
inf
inf
inf
inf
inf
inf
inf
inf
inf
inf
inf
inf
inf
inf
inf
inf
inf
inf
inf
inf
inf
inf
inf
inf
inf
inf
inf
inf
inf
inf
inf
inf
inf
inf
inf
inf
inf
inf
inf
inf
inf
inf
inf
inf
inf
inf
inf
inf
inf
inf
inf
inf
inf
inf
inf
inf
inf
inf
inf
inf
inf
inf
inf
inf
inf
inf
inf
inf
inf
inf
inf
inf
inf
inf
inf
inf
inf
-inf
-inf
-inf
inf
inf
-inf
-inf
-inf
-inf
-inf
-inf
-inf
inf
-inf
-inf
inf
inf
inf
inf
inf
inf
inf
inf
-inf
-inf
-inf
-inf
inf
inf
inf
inf
inf
inf
inf
inf
inf
inf
inf
inf
inf
inf
inf
inf
inf
inf
inf
inf
inf
inf
inf
inf
inf
inf
inf
inf
inf
inf
inf
inf
inf
inf
inf
inf
inf
inf
inf
inf
inf
inf
inf
inf
inf
inf
inf
inf
inf
inf
inf
inf
inf
inf
inf
inf
inf
inf
inf
inf
inf
inf
inf
inf
inf
inf
inf
inf
inf
inf
inf
inf
inf
inf
inf
inf
inf
inf
inf
inf
inf
inf
inf
inf
inf
inf
inf
inf
inf
inf
inf
inf
-inf
-inf
inf
-inf
-inf
-inf
-inf
-inf
-inf
-inf
inf
inf
-inf
-inf
inf
inf
inf
inf
-inf
-inf
-inf
-inf
-inf
-inf
-inf
-inf
-inf
-inf
-inf
-inf
-inf
-inf
-inf
-inf
-inf
-inf
-inf
-inf
-inf
-inf
-inf
-inf
-inf
-inf
-inf
-inf
-inf
-inf
-inf
-inf
-inf
-inf
-inf
-inf
-inf
-inf
-inf
-inf
-inf
-inf
-inf
-inf
-inf
-inf
-inf
-inf
-inf
-inf
-inf
-inf
-inf
-inf
-inf
-inf
-inf
-inf
-inf
-inf
-inf
-inf
-inf
-inf
-inf
-inf
-inf
-inf
-inf
-inf
-inf
-inf
-inf
-inf
-inf
-inf
-inf
-inf
-inf
-inf
-inf
-inf
-inf
-inf
inf
inf
inf
inf
inf
inf
inf
inf
inf
inf
inf
inf
inf
inf
-inf
-inf
-inf
-inf
-inf
-inf
inf
-inf
-inf
-inf
inf
inf
-inf
-inf
-inf
-inf
-inf
-inf
-inf
-inf
-inf
-inf
inf
inf
inf
inf
-inf
-inf
inf
-inf
-inf
-inf
inf
inf
inf
inf
-inf
-inf
-inf
inf
inf
inf
inf
inf
inf
inf
inf
inf
inf
inf
inf
inf
inf
inf
inf
inf
inf
inf
inf
inf
inf
inf
inf
inf
inf
inf
inf
inf
inf
inf
inf
inf
inf
inf
inf
inf
inf
inf
inf
inf
inf
inf
inf
inf
inf
inf
inf
inf
inf
inf
inf
inf
inf
inf
inf
inf
inf
inf
inf
inf
inf
inf
inf
inf
inf
inf
inf
inf
inf
inf
inf
inf
inf
inf
inf
inf
-inf
-inf
inf
inf
inf
inf
-inf
-inf
-inf
-inf
inf
inf
inf
inf
-inf
-inf
-inf
inf
-inf
-inf
-inf
-inf
inf
inf
inf
inf
inf
inf
inf
inf
-inf
-inf
-inf
-inf
-inf
-inf
inf
-inf
-inf
-inf
inf
inf
inf
inf
inf
inf
inf
inf
inf
inf
inf
inf
inf
inf
inf
inf
inf
inf
inf
inf
inf
inf
inf
inf
inf
inf
inf
inf
inf
inf
inf
inf
inf
inf
inf
inf
inf
inf
inf
inf
inf
inf
inf
inf
inf
inf
inf
inf
inf
inf
inf
inf
inf
inf
inf
inf
inf
inf
inf
inf
inf
inf
inf
inf
inf
inf
inf
inf
inf
inf
inf
inf
inf
inf
inf
inf
inf
inf
inf
inf
inf
inf
inf
inf
inf
inf
inf
inf
inf
-inf
inf
inf
inf
inf
inf
inf
inf
inf
inf
inf
inf
inf
-inf
-inf
inf
inf
inf
inf
-inf
inf
inf
inf
inf
inf
inf
inf
inf
inf
inf
inf
inf
inf
inf
inf
inf
inf
inf
inf
inf
inf
inf
inf
inf
inf
inf
inf
inf
inf
inf
inf
inf
inf
inf
inf
inf
inf
inf
inf
inf
inf
inf
inf
inf
inf
inf
inf
inf
inf
inf
inf
inf
inf
inf
inf
inf
inf
inf
inf
inf
inf
inf
inf
inf
inf
inf
inf
inf
inf
inf
inf
inf
inf
inf
inf
inf
inf
inf
inf
inf
inf
inf
inf
inf
inf
inf
inf
inf
inf
inf
inf
inf
inf
inf
inf
inf
inf
inf
inf
inf
inf
inf
inf
inf
inf
inf
inf
inf
inf
-inf
-inf
-inf
-inf
inf
inf
-inf
-inf
-inf
-inf
-inf
-inf
-inf
-inf
-inf
-inf
-inf
-inf
-inf
-inf
-inf
-inf
-inf
-inf
-inf
-inf
-inf
-inf
-inf
-inf
-inf
-inf
-inf
-inf
-inf
-inf
-inf
-inf
-inf
-inf
-inf
-inf
-inf
-inf
-inf
-inf
-inf
-inf
-inf
-inf
-inf
-inf
-inf
-inf
-inf
-inf
-inf
-inf
-inf
-inf
-inf
-inf
-inf
-inf
-inf
-inf
-inf
-inf
-inf
-inf
-inf
-inf
-inf
-inf
-inf
-inf
-inf
-inf
-inf
-inf
-inf
-inf
-inf
-inf
-inf
-inf
-inf
-inf
-inf
-inf
-inf
-inf
-inf
-inf
-inf
-inf
-inf
-inf
-inf
-inf
-inf
-inf
-inf
-inf
-inf
-inf
-inf
-inf
-inf
-inf
-inf
-inf
-inf
-inf
-inf
-inf
-inf
-inf
-inf
-inf
-inf
-inf
-inf
-inf
-inf
-inf
-inf
inf
inf
inf
-inf
-inf
-inf
-inf
-inf
-inf
-inf
-inf
-inf
-inf
-inf
-inf
-inf
-inf
-inf
-inf
-inf
-inf
-inf
-inf
-inf
-inf
-inf
-inf
-inf
-inf
-inf
-inf
-inf
-inf
-inf
-inf
-inf
-inf
-inf
-inf
-inf
-inf
-inf
-inf
-inf
-inf
-inf
-inf
-inf
-inf
-inf
-inf
-inf
-inf
-inf
-inf
-inf
-inf
-inf
-inf
-inf
-inf
-inf
-inf
-inf
-inf
-inf
-inf
-inf
-inf
-inf
-inf
-inf
-inf
-inf
-inf
-inf
-inf
-inf
-inf
-inf
-inf
-inf
-inf
-inf
-inf
-inf
-inf
-inf
-inf
-inf
-inf
-inf
-inf
-inf
-inf
-inf
-inf
-inf
-inf
-inf
-inf
-inf
-inf
-inf
-inf
-inf
-inf
inf
inf
inf
inf
-inf
-inf
-inf
-inf
-inf
inf
inf
-inf
-inf
-inf
inf
inf
-inf
-inf
inf
inf
inf
inf
inf
inf
inf
inf
-inf
-inf
-inf
-inf
-inf
-inf
-inf
-inf
-inf
-inf
-inf
-inf
-inf
-inf
-inf
-inf
-inf
-inf
-inf
-inf
-inf
-inf
-inf
-inf
-inf
-inf
-inf
-inf
-inf
-inf
-inf
-inf
-inf
-inf
-inf
-inf
-inf
-inf
-inf
-inf
-inf
-inf
-inf
-inf
-inf
-inf
-inf
-inf
-inf
-inf
-inf
-inf
-inf
-inf
-inf
-inf
-inf
-inf
-inf
-inf
-inf
-inf
-inf
-inf
-inf
-inf
-inf
-inf
-inf
-inf
-inf
-inf
-inf
-inf
-inf
-inf
-inf
-inf
-inf
-inf
-inf
-inf
-inf
-inf
-inf
-inf
-inf
-inf
-inf
-inf
-inf
-inf
-inf
-inf
inf
inf
-inf
inf
inf
inf
inf
inf
inf
inf
inf
inf
-inf
-inf
-inf
inf
inf
inf
inf
inf
inf
inf
inf
inf
inf
inf
inf
inf
inf
inf
inf
inf
inf
inf
inf
inf
inf
inf
inf
inf
inf
inf
inf
inf
inf
inf
inf
inf
inf
inf
inf
inf
inf
inf
inf
inf
inf
inf
inf
inf
inf
inf
inf
inf
inf
inf
inf
inf
inf
inf
inf
inf
inf
inf
inf
inf
inf
inf
inf
inf
inf
inf
inf
inf
inf
inf
inf
inf
inf
inf
inf
inf
inf
inf
inf
inf
inf
inf
inf
inf
inf
inf
inf
inf
inf
inf
inf
inf
inf
inf
inf
inf
inf
inf
inf
inf
inf
inf
inf
inf
-inf
-inf
-inf
-inf
inf
inf
-inf
-inf
-inf
-inf
inf
inf
-inf
-inf
-inf
-inf
-inf
-inf
-inf
-inf
-inf
-inf
-inf
-inf
-inf
-inf
-inf
-inf
-inf
-inf
-inf
-inf
-inf
-inf
-inf
-inf
-inf
-inf
-inf
-inf
-inf
-inf
-inf
-inf
-inf
-inf
-inf
-inf
-inf
-inf
-inf
-inf
-inf
-inf
-inf
-inf
-inf
-inf
-inf
-inf
-inf
-inf
-inf
-inf
-inf
-inf
-inf
-inf
-inf
-inf
-inf
-inf
-inf
-inf
-inf
-inf
-inf
-inf
-inf
-inf
-inf
-inf
-inf
-inf
-inf
-inf
-inf
-inf
-inf
-inf
-inf
-inf
-inf
-inf
-inf
-inf
-inf
-inf
-inf
-inf
-inf
-inf
-inf
-inf
-inf
-inf
-inf
-inf
-inf
-inf
-inf
-inf
inf
inf
-inf
-inf
-inf
-inf
-inf
-inf
-inf
-inf
-inf
-inf
-inf
-inf
-inf
-inf
-inf
-inf
-inf
-inf
-inf
-inf
-inf
-inf
inf
inf
inf
inf
inf
inf
-inf
inf
inf
inf
inf
inf
inf
inf
inf
inf
inf
inf
inf
inf
inf
inf
inf
inf
inf
inf
inf
inf
inf
inf
inf
inf
inf
inf
inf
inf
inf
inf
inf
inf
inf
inf
inf
inf
inf
inf
inf
inf
inf
inf
inf
inf
inf
inf
inf
inf
inf
inf
inf
inf
inf
inf
inf
inf
inf
inf
inf
inf
inf
inf
inf
inf
inf
inf
inf
inf
inf
inf
inf
inf
inf
inf
inf
inf
inf
inf
inf
inf
inf
inf
inf
inf
inf
inf
inf
inf
-inf
-inf
-inf
-inf
inf
inf
inf
inf
-inf
-inf
-inf
-inf
-inf
-inf
-inf
-inf
-inf
-inf
-inf
-inf
-inf
-inf
-inf
-inf
inf
inf
inf
inf
-inf
-inf
-inf
-inf
-inf
-inf
-inf
-inf
-inf
-inf
-inf
-inf
-inf
-inf
-inf
-inf
-inf
-inf
-inf
-inf
-inf
-inf
-inf
-inf
-inf
-inf
-inf
-inf
-inf
-inf
-inf
-inf
-inf
-inf
-inf
-inf
-inf
-inf
-inf
-inf
-inf
-inf
-inf
-inf
-inf
-inf
-inf
-inf
-inf
-inf
-inf
-inf
-inf
-inf
-inf
-inf
-inf
-inf
-inf
-inf
-inf
-inf
-inf
-inf
-inf
-inf
-inf
-inf
-inf
-inf
-inf
-inf
-inf
-inf
-inf
-inf
-inf
-inf
-inf
-inf
-inf
-inf
-inf
-inf
-inf
-inf
-inf
-inf
-inf
-inf
-inf
-inf
-inf
-inf
-inf
-inf
-inf
-inf
-inf
-inf
inf
inf
inf
inf
inf
-inf
-inf
-inf
-inf
-inf
-inf
-inf
inf
inf
-inf
-inf
inf
inf
inf
-inf
-inf
-inf
-inf
-inf
-inf
-inf
-inf
inf
inf
inf
inf
inf
inf
inf
inf
inf
inf
inf
inf
inf
inf
inf
inf
inf
inf
inf
inf
inf
inf
inf
inf
inf
inf
inf
inf
inf
inf
inf
inf
inf
inf
inf
inf
inf
inf
inf
inf
inf
inf
inf
inf
inf
inf
inf
inf
inf
inf
inf
inf
inf
inf
inf
inf
inf
inf
inf
inf
inf
inf
inf
inf
inf
inf
inf
inf
inf
inf
inf
inf
inf
inf
inf
inf
inf
inf
inf
inf
inf
inf
inf
inf
inf
inf
inf
inf
inf
inf
inf
inf
inf
-inf
-inf
-inf
inf
inf
inf
inf
inf
-inf
-inf
inf
inf
-inf
-inf
-inf
-inf
-inf
-inf
inf
inf
inf
inf
inf
inf
-inf
-inf
inf
inf
-inf
-inf
-inf
-inf
-inf
-inf
-inf
-inf
-inf
-inf
-inf
-inf
-inf
-inf
-inf
-inf
-inf
-inf
-inf
-inf
-inf
-inf
-inf
-inf
-inf
-inf
-inf
-inf
-inf
-inf
-inf
-inf
