# Configuration log weight
1.043059999999999959e-01
3.213779999999999970e-01
3.150990000000000180e-01
9.772739999999999760e-01
9.772739999999999760e-01
1.821769999999999889e+00
1.824729999999999963e+00
1.395229999999999970e+00
7.093739999999999490e-01
5.024009999999999865e-01
9.847810000000000175e-01
9.802760000000000362e-01
1.319029999999999925e+00
2.131250000000000089e+00
3.048869999999999969e+00
2.584529999999999994e+00
2.584210000000000118e+00
2.584529999999999994e+00
2.585570000000000146e+00
3.506699999999999928e+00
3.507979999999999876e+00
2.577809999999999935e+00
1.742550000000000043e+00
1.739470000000000072e+00
1.061569999999999903e+00
8.231819999999999693e-01
8.267550000000000177e-01
8.231819999999999693e-01
1.102829999999999977e+00
1.100649999999999906e+00
1.099979999999999958e+00
1.100649999999999906e+00
1.099979999999999958e+00
1.500420000000000087e+00
1.090189999999999992e+00
1.090859999999999941e+00
7.164639999999999898e-01
7.147930000000000117e-01
1.554310000000000136e-01
1.576410000000000033e-01
7.474939999999999918e-01
1.331640000000000046e-01
-1.152590000000000003e-01
-1.177919999999999939e-01
5.784849999999999715e-02
6.016900000000000026e-02
6.035270000000000357e-01
1.394700000000000051e+00
1.841669999999999918e+00
2.305260000000000087e+00
2.303560000000000052e+00
2.774049999999999905e+00
3.253600000000000048e+00
3.255520000000000191e+00
2.333769999999999900e+00
1.916630000000000056e+00
1.248669999999999947e+00
1.910420000000000007e+00
1.905469999999999997e+00
1.248129999999999962e+00
1.907119999999999926e+00
1.904279999999999973e+00
2.773010000000000197e+00
2.317759999999999820e+00
2.317009999999999792e+00
1.485249999999999959e+00
1.136220000000000008e+00
1.138360000000000039e+00
1.136220000000000008e+00
8.387679999999999580e-01
1.507970000000000033e+00
1.134840000000000071e+00
1.134840000000000071e+00
1.134179999999999966e+00
1.134840000000000071e+00
6.823050000000000503e-01
6.849859999999999838e-01
6.823050000000000503e-01
6.849859999999999838e-01
6.902059999999999862e-01
1.076619999999999910e+00
1.399259999999999948e+00
1.087020000000000097e+00
1.390030000000000099e+00
2.146160000000000068e+00
2.151870000000000172e+00
2.161379999999999857e+00
2.577890000000000015e+00
2.594279999999999919e+00
2.621109999999999829e+00
1.949980000000000047e+00
1.912349999999999994e+00
1.613599999999999923e+00
1.657229999999999981e+00
1.920760000000000023e+00
2.539070000000000160e+00
1.931319999999999926e+00
2.533469999999999889e+00
1.935959999999999903e+00
1.721670000000000034e+00
1.935060000000000002e+00
1.721729999999999983e+00
1.968499999999999917e+00
2.586520000000000152e+00
3.418820000000000192e+00
2.579860000000000042e+00
1.929540000000000033e+00
2.593129999999999935e+00
2.243110000000000159e+00
2.201280000000000125e+00
1.622200000000000086e+00
1.902940000000000076e+00
1.965070000000000094e+00
1.668549999999999978e+00
1.543150000000000022e+00
1.664290000000000047e+00
1.543150000000000022e+00
1.466139999999999999e+00
1.543150000000000022e+00
1.641389999999999905e+00
2.181029999999999802e+00
2.955090000000000217e+00
2.925879999999999814e+00
2.908009999999999984e+00
3.817660000000000053e+00
4.301300000000000345e+00
3.355069999999999997e+00
3.343879999999999963e+00
2.445959999999999912e+00
2.445959999999999912e+00
2.435329999999999995e+00
2.435329999999999995e+00
1.621720000000000050e+00
1.048910000000000009e+00
1.070119999999999960e+00
1.048910000000000009e+00
1.642370000000000108e+00
1.658160000000000078e+00
1.038629999999999942e+00
1.017079999999999984e+00
8.072240000000000526e-01
7.384089999999999820e-01
1.124810000000000088e+00
1.444800000000000084e+00
1.438549999999999995e+00
1.444800000000000084e+00
1.818670000000000009e+00
2.672330000000000094e+00
2.679670000000000218e+00
1.848370000000000068e+00
1.517919999999999936e+00
1.500979999999999981e+00
1.243549999999999933e+00
1.234550000000000036e+00
1.243549999999999933e+00
1.234550000000000036e+00
1.752909999999999968e+00
1.748830000000000107e+00
1.746580000000000021e+00
1.745579999999999909e+00
1.746580000000000021e+00
2.510609999999999786e+00
2.953500000000000014e+00
3.418289999999999829e+00
3.419259999999999966e+00
3.895469999999999988e+00
3.419430000000000192e+00
3.420409999999999950e+00
4.379330000000000389e+00
3.415399999999999991e+00
2.501560000000000006e+00
2.500020000000000131e+00
2.058660000000000156e+00
2.060000000000000053e+00
1.626579999999999915e+00
1.218050000000000077e+00
5.383719999999999617e-01
1.737889999999999990e-01
1.670280000000000098e-01
1.884709999999999996e-01
6.261849999999999916e-01
6.315610000000000390e-01
3.960589999999999944e-01
6.087939999999999463e-01
3.774109999999999965e-01
5.431019999999999737e-01
7.597120000000000539e-01
5.227910000000000057e-01
6.791199999999999459e-01
8.864419999999999522e-01
1.486779999999999990e+00
1.484990000000000032e+00
1.484439999999999982e+00
1.257319999999999993e+00
1.257319999999999993e+00
1.258599999999999941e+00
1.257319999999999993e+00
1.257319999999999993e+00
1.397440000000000015e+00
1.397440000000000015e+00
1.823800000000000088e+00
1.823800000000000088e+00
1.824759999999999938e+00
1.631019999999999914e+00
1.633399999999999963e+00
1.631019999999999914e+00
1.633399999999999963e+00
1.637729999999999908e+00
1.477780000000000094e+00
1.727470000000000061e+00
1.734509999999999996e+00
2.265150000000000219e+00
3.027680000000000149e+00
3.459690000000000154e+00
3.905670000000000197e+00
4.829500000000000348e+00
4.833639999999999937e+00
5.306149999999999700e+00
5.306149999999999700e+00
5.301940000000000097e+00
4.868870000000000253e+00
4.875600000000000378e+00
5.727850000000000108e+00
6.661979999999999791e+00
5.739279999999999937e+00
6.657869999999999955e+00
6.187310000000000088e+00
5.743070000000000341e+00
6.651019999999999932e+00
6.189939999999999998e+00
6.189939999999999998e+00
5.768239999999999590e+00
5.108209999999999695e+00
5.741100000000000314e+00
6.571069999999999744e+00
6.141729999999999912e+00
6.149289999999999701e+00
6.553600000000000314e+00
7.446500000000000341e+00
6.572470000000000034e+00
6.991850000000000342e+00
6.986889999999999823e+00
6.991850000000000342e+00
7.426169999999999938e+00
7.421039999999999637e+00
7.869080000000000297e+00
8.335589999999999833e+00
7.876129999999999853e+00
7.080980000000000274e+00
6.586100000000000065e+00
6.582429999999999559e+00
6.580210000000000115e+00
6.613929999999999865e+00
7.118999999999999773e+00
6.808360000000000412e+00
6.806820000000000093e+00
6.437540000000000262e+00
6.824220000000000397e+00
6.823299999999999699e+00
7.571519999999999584e+00
6.798110000000000319e+00
6.278039999999999843e+00
6.279250000000000220e+00
6.278039999999999843e+00
6.892900000000000027e+00
6.893790000000000084e+00
6.179409999999999847e+00
6.178139999999999965e+00
6.177380000000000315e+00
6.177380000000000315e+00
5.525430000000000064e+00
5.195159999999999556e+00
5.194429999999999659e+00
5.195159999999999556e+00
5.170650000000000190e+00
5.559219999999999828e+00
5.869780000000000442e+00
5.412709999999999688e+00
5.561219999999999608e+00
5.560179999999999900e+00
5.559569999999999901e+00
5.559239999999999959e+00
5.559569999999999901e+00
5.559239999999999959e+00
5.719800000000000217e+00
5.719660000000000188e+00
5.719660000000000188e+00
5.719800000000000217e+00
5.719660000000000188e+00
5.991640000000000299e+00
6.596529999999999561e+00
7.402680000000000149e+00
7.402680000000000149e+00
8.297340000000000160e+00
8.769170000000000798e+00
8.769180000000000419e+00
9.731690000000000396e+00
8.772119999999999251e+00
8.314109999999999445e+00
8.314109999999999445e+00
8.773039999999999949e+00
9.248639999999999972e+00
9.734189999999999898e+00
9.734199999999999520e+00
8.771890000000000853e+00
7.864650000000000141e+00
7.864630000000000010e+00
7.432649999999999757e+00
7.028979999999999784e+00
7.028950000000000031e+00
7.028979999999999784e+00
6.320590000000000153e+00
7.055310000000000414e+00
7.055310000000000414e+00
6.634590000000000209e+00
7.512430000000000163e+00
7.053619999999999557e+00
6.617020000000000124e+00
6.216420000000000279e+00
6.216739999999999711e+00
6.217319999999999958e+00
6.618380000000000152e+00
6.617770000000000152e+00
7.054770000000000429e+00
7.055150000000000254e+00
7.515670000000000073e+00
7.057419999999999582e+00
7.513069999999999915e+00
7.513069999999999915e+00
7.513720000000000176e+00
7.514800000000000146e+00
8.438240000000000407e+00
8.439370000000000260e+00
8.438240000000000407e+00
8.921260000000000190e+00
8.922399999999999665e+00
8.434450000000000003e+00
8.434450000000000003e+00
8.436320000000000263e+00
7.469909999999999606e+00
6.993529999999999802e+00
6.527809999999999668e+00
5.636650000000000382e+00
5.218239999999999768e+00
5.230229999999999713e+00
4.820890000000000342e+00
4.445369999999999600e+00
4.434639999999999915e+00
4.831929999999999836e+00
4.843239999999999768e+00
4.067440000000000389e+00
3.741919999999999913e+00
4.455739999999999590e+00
3.711559999999999970e+00
3.696050000000000058e+00
3.711559999999999970e+00
3.127029999999999976e+00
3.160960000000000214e+00
2.852520000000000167e+00
2.916380000000000194e+00
3.326589999999999936e+00
3.326589999999999936e+00
2.993959999999999955e+00
2.946379999999999999e+00
3.293089999999999851e+00
2.705159999999999787e+00
2.569910000000000139e+00
2.999260000000000037e+00
2.704250000000000043e+00
2.661529999999999951e+00
2.704250000000000043e+00
2.476010000000000044e+00
2.428049999999999820e+00
2.663429999999999964e+00
3.279999999999999805e+00
3.260740000000000194e+00
2.916409999999999947e+00
2.452249999999999819e+00
2.429580000000000073e+00
2.415750000000000064e+00
2.390600000000000058e+00
2.823010000000000019e+00
2.834290000000000198e+00
2.823010000000000019e+00
2.382190000000000030e+00
2.829419999999999824e+00
2.822610000000000063e+00
3.589139999999999997e+00
3.176719999999999988e+00
3.176719999999999988e+00
3.184070000000000178e+00
3.176719999999999988e+00
4.025520000000000209e+00
4.030330000000000190e+00
3.592249999999999943e+00
3.584540000000000060e+00
3.579870000000000108e+00
4.495890000000000164e+00
4.024729999999999919e+00
3.133360000000000145e+00
3.570170000000000066e+00
3.574860000000000149e+00
2.703549999999999898e+00
2.320710000000000051e+00
1.719240000000000101e+00
2.341800000000000104e+00
1.687310000000000088e+00
1.987039999999999917e+00
1.976660000000000084e+00
1.970420000000000060e+00
2.376520000000000188e+00
2.372599999999999820e+00
1.570599999999999996e+00
1.567239999999999966e+00
1.565509999999999957e+00
1.564990000000000103e+00
1.565509999999999957e+00
1.144009999999999971e+00
1.144009999999999971e+00
7.310799999999999521e-01
7.361809999999999743e-01
3.445880000000000054e-01
-2.531669999999999754e-01
-2.420799999999999896e-01
-4.972759999999999958e-01
-2.129479999999999984e-01
-2.238739999999999897e-01
9.239440000000000153e-02
-4.841960000000000153e-01
-6.757819999999999938e-01
-4.131469999999999865e-01
-4.041159999999999752e-01
-6.125420000000000309e-01
-3.217450000000000032e-01
-3.304110000000000102e-01
-1.767370000000000052e-02
-2.008630000000000138e-02
-1.767370000000000052e-02
-2.008630000000000138e-02
8.246149999999999869e-01
-4.435800000000000159e-02
-4.341209999999999791e-01
-4.326829999999999843e-01
-1.080379999999999896e+00
-1.073919999999999986e+00
-7.465169999999999861e-01
-7.543699999999999850e-01
-3.447379999999999889e-01
1.059979999999999950e-01
-3.419130000000000225e-01
-3.506670000000000065e-01
-7.838580000000000547e-01
-3.381330000000000169e-01
-3.381330000000000169e-01
1.288140000000000118e-01
-7.587699999999999445e-01
-1.480869999999999909e+00
-1.137170000000000014e+00
-1.099299999999999944e+00
-1.637990000000000057e+00
-1.557860000000000023e+00
-1.637990000000000057e+00
-1.753880000000000106e+00
-1.669079999999999897e+00
-1.753880000000000106e+00
-1.404959999999999987e+00
-1.066910000000000025e+00
-1.595820000000000016e+00
-1.658900000000000041e+00
-1.595820000000000016e+00
-1.758289999999999909e+00
-1.811139999999999972e+00
-1.758289999999999909e+00
-1.811139999999999972e+00
-1.843180000000000041e+00
-1.861769999999999925e+00
-1.544829999999999925e+00
-1.528960000000000097e+00
-1.828719999999999901e+00
-1.847169999999999979e+00
-1.552680000000000060e+00
-1.759980000000000100e+00
-1.765749999999999931e+00
-1.759980000000000100e+00
-1.768510000000000026e+00
-1.755479999999999929e+00
-1.287570000000000103e+00
-1.269009999999999971e+00
-1.549169999999999936e+00
-1.858149999999999968e+00
-1.890949999999999909e+00
-1.909999999999999920e+00
-1.783709999999999907e+00
-1.899029999999999996e+00
-1.880090000000000039e+00
-1.786000000000000032e+00
-1.804059999999999997e+00
-1.813390000000000057e+00
-1.804059999999999997e+00
-1.901529999999999943e+00
-1.907729999999999926e+00
-1.686010000000000009e+00
-1.055560000000000054e+00
-6.439219999999999944e-01
-1.951219999999999899e-01
-1.066109999999999891e+00
-1.066109999999999891e+00
-6.353360000000000118e-01
-1.065749999999999975e+00
-1.463759999999999950e+00
-1.466169999999999973e+00
-1.463759999999999950e+00
-6.368139999999999912e-01
-1.069620000000000015e+00
-1.060429999999999984e+00
-1.799639999999999906e+00
-1.812959999999999905e+00
-2.274150000000000116e+00
-2.088820000000000121e+00
-2.078129999999999811e+00
-2.349489999999999856e+00
-2.274690000000000101e+00
-2.087800000000000100e+00
-2.077109999999999790e+00
-2.056420000000000137e+00
-2.255630000000000024e+00
-2.278500000000000192e+00
-2.111689999999999845e+00
-2.260240000000000027e+00
-2.271959999999999980e+00
-2.156010000000000204e+00
-2.159419999999999895e+00
-1.642349999999999977e+00
-1.939659999999999940e+00
-1.291909999999999892e+00
-1.919470000000000010e+00
-1.913240000000000052e+00
-1.899240000000000039e+00
-2.087829999999999853e+00
-2.060200000000000031e+00
-1.899289999999999923e+00
-1.856530000000000014e+00
-1.787009999999999987e+00
-1.676690000000000014e+00
-1.529959999999999987e+00
-1.608950000000000102e+00
-1.899909999999999988e+00
-1.956690000000000040e+00
-1.991170000000000107e+00
-1.956690000000000040e+00
-1.719519999999999937e+00
-1.750119999999999898e+00
-1.148279999999999967e+00
-1.492399999999999949e+00
-1.471850000000000103e+00
-1.720579999999999998e+00
-1.187969999999999970e+00
-4.104050000000000198e-01
4.919850000000000056e-01
9.645200000000000440e-01
9.645200000000000440e-01
5.559290000000000065e-02
6.509700000000000208e-02
6.509700000000000208e-02
4.925329999999999986e-01
9.266370000000000440e-01
9.371300000000000185e-01
1.801709999999999978e-01
9.139110000000000289e-01
9.315369999999999484e-01
9.604580000000000339e-01
1.801739999999999897e+00
1.832710000000000061e+00
1.020659999999999901e+00
1.386700000000000044e+00
1.023660000000000014e+00
7.396409999999999929e-01
8.494650000000000256e-01
7.396409999999999929e-01
8.494650000000000256e-01
5.803289999999999837e-01
7.408430000000000293e-01
1.276909999999999989e+00
7.198809999999999931e-01
4.816309999999999758e-01
7.444079999999999586e-01
9.224409999999999554e-01
8.639759999999999662e-01
1.205799999999999983e+00
8.639759999999999662e-01
7.020469999999999766e-01
1.070200000000000040e+00
7.020469999999999766e-01
8.259130000000000082e-01
1.246129999999999960e+00
8.422279999999999767e-01
6.001819999999999933e-01
8.422279999999999767e-01
6.001819999999999933e-01
4.381479999999999819e-01
6.001819999999999933e-01
6.671430000000000415e-01
5.465149999999999730e-01
7.460229999999999917e-01
1.419839999999999991e+00
1.845180000000000042e+00
1.494709999999999983e+00
1.433599999999999985e+00
2.200779999999999959e+00
2.175050000000000150e+00
2.159349999999999881e+00
2.175050000000000150e+00
1.490280000000000049e+00
1.526420000000000110e+00
1.216909999999999936e+00
1.284899999999999931e+00
1.392479999999999940e+00
1.653000000000000025e+00
1.558869999999999978e+00
1.499719999999999942e+00
2.128569999999999851e+00
1.500359999999999916e+00
1.559500000000000108e+00
2.176779999999999937e+00
2.133519999999999861e+00
2.528849999999999820e+00
2.981819999999999915e+00
2.964440000000000186e+00
2.953870000000000218e+00
2.078679999999999861e+00
1.361779999999999990e+00
9.413650000000000073e-01
9.469020000000000215e-01
9.721119999999999761e-01
1.164230000000000098e+00
8.560619999999999896e-01
9.554799999999999960e-01
9.727459999999999996e-01
1.001079999999999970e+00
9.727459999999999996e-01
8.612729999999999553e-01
8.430130000000000123e-01
8.320130000000000026e-01
9.653909999999999991e-01
9.756829999999999670e-01
1.540380000000000082e+00
9.646430000000000282e-01
9.542939999999999756e-01
1.554599999999999982e+00
9.357029999999999514e-01
6.852150000000000185e-01
6.782489999999999908e-01
7.676619999999999555e-01
1.277949999999999919e+00
1.281830000000000025e+00
7.454809999999999492e-01
1.295609999999999928e+00
1.302319999999999922e+00
7.087069999999999759e-01
7.238419999999999854e-01
4.713800000000000212e-01
4.541999999999999926e-01
6.150919999999999721e-01
4.883029999999999871e-01
4.782109999999999972e-01
4.724059999999999926e-01
9.056659999999999711e-01
9.032649999999999846e-01
3.906640000000000112e-01
3.897109999999999741e-01
3.906640000000000112e-01
3.937660000000000049e-01
1.189820000000000044e-01
1.154229999999999978e-01
4.890789999999999860e-01
4.881719999999999948e-01
4.890789999999999860e-01
4.881719999999999948e-01
1.272030000000000105e-01
5.094210000000000127e-01
1.077720000000000067e-01
5.212750000000000439e-01
9.748149999999999871e-01
9.748149999999999871e-01
9.748149999999999871e-01
5.021160000000000068e-01
4.416370000000000018e-02
-7.866130000000000067e-01
-1.400600000000000067e+00
-7.732820000000000249e-01
-7.697669999999999790e-01
-1.443060000000000009e+00
-1.666390000000000038e+00
-1.805029999999999912e+00
-1.786960000000000104e+00
-1.612570000000000059e+00
-1.807630000000000070e+00
-1.776149999999999896e+00
-1.724210000000000020e+00
-1.512499999999999956e+00
-1.437159999999999993e+00
-1.604910000000000059e+00
-1.452020000000000088e+00
-1.332230000000000025e+00
-1.053029999999999911e+00
-8.486730000000000107e-01
-1.053029999999999911e+00
-8.486730000000000107e-01
-8.452640000000000153e-01
-8.365890000000000271e-01
-4.825639999999999930e-01
-8.632499999999999618e-01
-7.719880000000000075e-01
-5.199489999999999945e-01
-1.136749999999999983e-01
4.170280000000000098e-01
1.068810000000000038e+00
1.068810000000000038e+00
9.127690000000000525e-01
1.719740000000000046e+00
9.127690000000000525e-01
8.356529999999999792e-01
1.238879999999999981e+00
1.276259999999999950e+00
9.436980000000000368e-01
1.740459999999999896e+00
9.436980000000000368e-01
7.044430000000000414e-01
1.418430000000000080e+00
1.259300000000000086e+00
9.417710000000000248e-01
1.257460000000000022e+00
1.169170000000000043e+00
1.593800000000000106e+00
2.514330000000000176e+00
2.047270000000000145e+00
2.073319999999999830e+00
1.187929999999999930e+00
3.662779999999999925e-01
1.187929999999999930e+00
1.156660000000000021e+00
2.053290000000000060e+00
2.523480000000000167e+00
3.472210000000000019e+00
4.442459999999999631e+00
4.930279999999999774e+00
4.442689999999999806e+00
3.472579999999999778e+00
3.950610000000000177e+00
3.964480000000000004e+00
4.938710000000000377e+00
5.426379999999999981e+00
4.938519999999999577e+00
4.931329999999999991e+00
5.425410000000000288e+00
4.930819999999999759e+00
3.951620000000000132e+00
4.439470000000000027e+00
4.932570000000000121e+00
4.943880000000000052e+00
5.442619999999999791e+00
5.429529999999999745e+00
5.921789999999999665e+00
5.927850000000000286e+00
6.420350000000000001e+00
7.416809999999999903e+00
8.416710000000000136e+00
7.915910000000000224e+00
8.416679999999999495e+00
7.416769999999999641e+00
7.416769999999999641e+00
7.416179999999999772e+00
8.416320000000000690e+00
8.917609999999999815e+00
8.917149999999999466e+00
8.416320000000000690e+00
8.417949999999999378e+00
8.917640000000000455e+00
8.917239999999999611e+00
7.916000000000000369e+00
7.916470000000000340e+00
7.919539999999999580e+00
8.919389999999999930e+00
8.917609999999999815e+00
9.419290000000000163e+00
1.042229999999999990e+01
1.042190000000000083e+01
1.142590000000000039e+01
1.192820000000000036e+01
1.192820000000000036e+01
1.243050000000000033e+01
1.243040000000000056e+01
1.142590000000000039e+01
1.092389999999999972e+01
1.142590000000000039e+01
1.092389999999999972e+01
1.092440000000000033e+01
1.042220000000000013e+01
1.042220000000000013e+01
9.920199999999999463e+00
1.042220000000000013e+01
1.142609999999999992e+01
1.142590000000000039e+01
1.243040000000000056e+01
1.343520000000000003e+01
1.343520000000000003e+01
1.293290000000000006e+01
1.293280000000000030e+01
1.243040000000000056e+01
1.293280000000000030e+01
1.293309999999999960e+01
1.393790000000000084e+01
1.393820000000000014e+01
1.343619999999999948e+01
1.243210000000000015e+01
1.243120000000000047e+01
1.243069999999999986e+01
1.243120000000000047e+01
1.192960000000000065e+01
1.192869999999999919e+01
1.192869999999999919e+01
1.243069999999999986e+01
1.142629999999999946e+01
1.142709999999999937e+01
1.142629999999999946e+01
1.092469999999999963e+01
1.092469999999999963e+01
1.142639999999999922e+01
1.042259999999999920e+01
1.042360000000000042e+01
1.092469999999999963e+01
1.092469999999999963e+01
1.092440000000000033e+01
9.921039999999999637e+00
1.092440000000000033e+01
1.042259999999999920e+01
9.419729999999999492e+00
9.420479999999999521e+00
9.922299999999999898e+00
9.921290000000000830e+00
9.420109999999999317e+00
9.420439999999999259e+00
8.919299999999999784e+00
8.919299999999999784e+00
8.419600000000000861e+00
7.921759999999999913e+00
8.419669999999999987e+00
7.919740000000000002e+00
8.919510000000000716e+00
9.420510000000000161e+00
8.919420000000000570e+00
8.919919999999999405e+00
8.922409999999999286e+00
8.425769999999999982e+00
9.424189999999999401e+00
9.429140000000000299e+00
8.927369999999999806e+00
9.424480000000000857e+00
9.428890000000000882e+00
8.433500000000000441e+00
8.426759999999999806e+00
7.932669999999999888e+00
7.443800000000000416e+00
7.434429999999999872e+00
7.433740000000000236e+00
8.426999999999999602e+00
9.424939999999999429e+00
8.426999999999999602e+00
8.924509999999999721e+00
7.927979999999999805e+00
7.434280000000000221e+00
6.946500000000000341e+00
5.970609999999999751e+00
5.507799999999999585e+00
5.475869999999999571e+00
6.448719999999999786e+00
5.475869999999999571e+00
5.953759999999999941e+00
4.985689999999999955e+00
4.040390000000000370e+00
4.034570000000000434e+00
4.040350000000000108e+00
3.130370000000000097e+00
3.121170000000000222e+00
4.034510000000000041e+00
3.121170000000000222e+00
2.679479999999999862e+00
3.122079999999999966e+00
3.122079999999999966e+00
3.567660000000000053e+00
3.120859999999999967e+00
3.127069999999999794e+00
2.268209999999999837e+00
1.918709999999999916e+00
1.203719999999999901e+00
1.073479999999999990e+00
7.185089999999999533e-01
1.428279999999999994e+00
1.070750000000000091e+00
1.184039999999999981e+00
5.749360000000000026e-01
4.635719999999999841e-01
2.670899999999999941e-01
4.289640000000000120e-01
7.951319999999999499e-01
8.899519999999999653e-01
4.459679999999999755e-01
8.595329999999999915e-01
1.173229999999999995e+00
1.676069999999999949e+00
1.410860000000000003e+00
8.772520000000000318e-01
9.899480000000000501e-01
8.180859999999999799e-01
4.424509999999999832e-01
3.069830000000000059e-01
2.203720000000000123e-01
1.661469999999999891e-01
1.327000000000000124e-01
4.012299999999999756e-01
4.305059999999999998e-01
2.355009999999999881e-01
2.032029999999999947e-01
5.347349999999999604e-01
1.235849999999999893e+00
5.016969999999999485e-01
4.847759999999999847e-01
-4.159129999999999772e-02
-5.475470000000000337e-02
-6.233559999999999796e-02
-3.481909999999999727e-01
-3.526869999999999727e-01
-3.540690000000000226e-01
-3.526869999999999727e-01
1.623699999999999866e-01
-1.714600000000000013e-01
-1.714600000000000013e-01
-1.655889999999999862e-01
-6.916919999999999735e-01
-4.528929999999999900e-01
-7.014730000000000132e-01
-8.644150000000000444e-01
-7.716690000000000493e-01
-8.200290000000000079e-01
-3.857459999999999778e-01
-8.456590000000000495e-01
-8.805290000000000061e-01
-8.177649999999999642e-01
-8.067140000000000422e-01
-7.875710000000000210e-01
-8.067140000000000422e-01
-9.518659999999999899e-01
-5.280399999999999539e-01
-9.726259999999999906e-01
-9.456149999999999833e-01
-7.362769999999999593e-01
-7.678139999999999965e-01
-1.063970000000000082e+00
-1.027449999999999974e+00
-9.680929999999999813e-01
-6.501970000000000249e-01
-7.007170000000000343e-01
-6.501970000000000249e-01
-8.453180000000000138e-01
-9.174290000000000500e-01
-1.098119999999999985e+00
-1.019330000000000069e+00
-8.271760000000000224e-01
-2.546629999999999727e-01
-8.396919999999999940e-01
-2.432149999999999868e-01
1.792650000000000077e-01
-5.486539999999999750e-01
-1.027239999999999931e+00
-8.685429999999999540e-01
-3.958309999999999884e-01
-2.059580000000000022e-01
7.309809999999999919e-02
-3.435030000000000028e-01
-5.308789999999999898e-01
-4.675929999999999809e-01
-1.610910000000000120e-01
2.724019999999999775e-01
6.865839999999999721e-01
7.023989999999999956e-01
1.278810000000000002e+00
1.603820000000000023e+00
1.125180000000000069e+00
1.148730000000000029e+00
1.581730000000000080e+00
2.166710000000000136e+00
2.058219999999999938e+00
1.615790000000000060e+00
2.215590000000000170e+00
2.928580000000000183e+00
2.684730000000000061e+00
3.407810000000000006e+00
3.165270000000000028e+00
2.933149999999999924e+00
2.810340000000000060e+00
2.044480000000000075e+00
2.009419999999999984e+00
2.043000000000000149e+00
2.809330000000000105e+00
2.387529999999999930e+00
3.205540000000000056e+00
2.387529999999999930e+00
2.387529999999999930e+00
2.483859999999999957e+00
2.383570000000000189e+00
1.993710000000000093e+00
2.387659999999999894e+00
3.205620000000000136e+00
2.387659999999999894e+00
2.347700000000000120e+00
3.179170000000000051e+00
4.071439999999999948e+00
5.005099999999999660e+00
5.008189999999999920e+00
5.008860000000000312e+00
4.077440000000000175e+00
4.557570000000000121e+00
4.141060000000000407e+00
4.555039999999999978e+00
5.000490000000000101e+00
5.962900000000000311e+00
6.442520000000000024e+00
6.930740000000000123e+00
6.930740000000000123e+00
7.424210000000000420e+00
7.430959999999999788e+00
7.423919999999999852e+00
7.920700000000000074e+00
7.920799999999999841e+00
8.419769999999999754e+00
9.420550000000000423e+00
9.421179999999999666e+00
9.423600000000000421e+00
8.424789999999999779e+00
8.421129999999999782e+00
8.921969999999999956e+00
8.421139999999999404e+00
8.920519999999999783e+00
8.420790000000000219e+00
7.922869999999999635e+00
7.423680000000000057e+00
7.423680000000000057e+00
7.921780000000000044e+00
8.920749999999999957e+00
8.921079999999999899e+00
8.422610000000000596e+00
8.923709999999999809e+00
8.929339999999999833e+00
9.425390000000000157e+00
8.923880000000000479e+00
8.921799999999999287e+00
8.921799999999999287e+00
8.423059999999999548e+00
8.422430000000000305e+00
7.923519999999999897e+00
7.426459999999999617e+00
6.436200000000000365e+00
6.929389999999999716e+00
5.942669999999999675e+00
5.947910000000000252e+00
4.976180000000000270e+00
4.968110000000000248e+00
4.976029999999999731e+00
5.947809999999999597e+00
5.943050000000000388e+00
6.436849999999999739e+00
6.435539999999999594e+00
6.931989999999999874e+00
6.929630000000000400e+00
6.934650000000000425e+00
6.929610000000000269e+00
5.943039999999999878e+00
5.454270000000000174e+00
6.435469999999999580e+00
5.454270000000000174e+00
5.946119999999999628e+00
5.943699999999999761e+00
5.943699999999999761e+00
5.946089999999999876e+00
6.931470000000000020e+00
6.930010000000000225e+00
6.438279999999999781e+00
5.943889999999999674e+00
5.946729999999999627e+00
6.931869999999999976e+00
5.946729999999999627e+00
5.466389999999999638e+00
6.442890000000000228e+00
6.436119999999999841e+00
5.455339999999999634e+00
5.946799999999999642e+00
5.962100000000000399e+00
5.946480000000000210e+00
6.442739999999999689e+00
6.461920000000000108e+00
6.941469999999999807e+00
6.930150000000000254e+00
6.432070000000000398e+00
6.442960000000000242e+00
5.466499999999999915e+00
5.005919999999999703e+00
4.966899999999999871e+00
4.944890000000000008e+00
4.934660000000000046e+00
5.426070000000000171e+00
4.932970000000000077e+00
5.427599999999999980e+00
4.444720000000000226e+00
3.963319999999999954e+00
3.985660000000000203e+00
4.951749999999999652e+00
3.985660000000000203e+00
4.023909999999999876e+00
4.092559999999999754e+00
3.212060000000000137e+00
3.111229999999999940e+00
3.111229999999999940e+00
2.243819999999999926e+00
2.386979999999999880e+00
1.657059999999999977e+00
1.988820000000000032e+00
1.658050000000000024e+00
1.913140000000000063e+00
2.721719999999999917e+00
2.646279999999999966e+00
3.115540000000000198e+00
2.722370000000000179e+00
3.115400000000000169e+00
2.721820000000000128e+00
3.597929999999999851e+00
2.721820000000000128e+00
3.202859999999999818e+00
3.597710000000000186e+00
3.553259999999999863e+00
2.652179999999999982e+00
2.253470000000000084e+00
3.117490000000000094e+00
3.092509999999999870e+00
2.656109999999999971e+00
2.258220000000000116e+00
1.916069999999999940e+00
2.120410000000000128e+00
2.384059999999999846e+00
3.203240000000000087e+00
3.203240000000000087e+00
3.137030000000000207e+00
2.283490000000000020e+00
1.506229999999999958e+00
8.287600000000000522e-01
2.696000000000000063e-01
2.034040000000000153e-02
-3.569479999999999875e-01
-4.841369999999999840e-01
-3.503410000000000135e-01
-2.675790000000000113e-01
-5.234670000000000156e-01
-1.209820000000000062e-01
-2.607639999999999958e-01
-3.502759999999999763e-01
3.422660000000000147e-01
1.196339999999999959e+00
1.671140000000000070e+00
1.671140000000000070e+00
1.645070000000000032e+00
7.758399999999999741e-01
1.182260000000000089e+00
7.822010000000000352e-01
4.496879999999999766e-01
1.176639999999999908e+00
1.150700000000000056e+00
1.134910000000000085e+00
1.125410000000000021e+00
7.673999999999999710e-01
3.072980000000000156e-01
2.962480000000000113e-01
3.416230000000000100e-01
3.354079999999999839e-01
2.332809999999999884e-01
5.796360000000000401e-01
5.768100000000000449e-01
2.832259999999999778e-01
5.562080000000000357e-01
3.056220000000000048e-01
5.374520000000000408e-01
5.403339999999999810e-01
5.374520000000000408e-01
5.403339999999999810e-01
3.763639999999999763e-01
3.824540000000000162e-01
5.213590000000000169e-01
3.952649999999999775e-01
3.892140000000000044e-01
4.920030000000000237e-01
4.890499999999999847e-01
4.093220000000000192e-01
4.083780000000000188e-01
4.671449999999999769e-01
9.619269999999999765e-01
6.713500000000000023e-01
6.730570000000000164e-01
4.394199999999999773e-01
4.375009999999999732e-01
4.394199999999999773e-01
4.375009999999999732e-01
6.020929999999999893e-01
6.020929999999999893e-01
4.729510000000000103e-01
4.748370000000000091e-01
5.727910000000000501e-01
1.092719999999999914e+00
5.857970000000000121e-01
5.324090000000000211e-01
5.365400000000000169e-01
5.324090000000000211e-01
9.738560000000000549e-01
9.771689999999999543e-01
5.043250000000000233e-01
5.001259999999999595e-01
5.043250000000000233e-01
1.026960000000000095e+00
1.026960000000000095e+00
1.032820000000000071e+00
1.836379999999999901e+00
1.843050000000000077e+00
1.409829999999999917e+00
6.876430000000000042e-01
1.415699999999999958e+00
1.409359999999999946e+00
2.315139999999999976e+00
2.315139999999999976e+00
1.386540000000000106e+00
9.493700000000000472e-01
9.554540000000000255e-01
1.928169999999999884e-01
2.079439999999999900e-01
1.928169999999999884e-01
-3.693350000000000244e-01
-5.297560000000000047e-01
-5.130780000000000340e-01
-3.472839999999999816e-01
-5.923770000000000424e-01
-3.709560000000000080e-01
-1.127159999999999968e-01
-5.178920000000000190e-01
-5.013130000000000086e-01
-5.178920000000000190e-01
-1.665540000000000076e-01
-1.745710000000000039e-01
5.018989999999999840e-01
-1.637520000000000087e-01
1.343439999999999912e-01
1.434819999999999984e-01
-3.112340000000000106e-01
-2.917930000000000246e-01
1.350810000000000066e-01
4.808790000000000009e-01
1.290950000000000042e+00
1.309770000000000101e+00
1.290950000000000042e+00
1.309770000000000101e+00
1.764750000000000041e+00
1.341369999999999951e+00
1.310599999999999987e+00
2.213109999999999911e+00
2.232759999999999856e+00
1.329979999999999940e+00
5.311099999999999710e-01
-7.126369999999999927e-02
-2.157280000000000031e-01
-3.031229999999999758e-01
-1.604530000000000123e-01
5.516349999999999726e-02
3.673779999999999824e-01
4.974850000000000105e-01
2.064400000000000124e-01
7.341160000000000220e-03
-1.234640000000000043e-01
-2.069110000000000116e-01
4.651089999999999947e-01
4.279850000000000043e-01
-3.364570000000000061e-01
6.000029999999999947e-02
6.000029999999999947e-02
4.750039999999999818e-01
-3.703529999999999878e-01
-4.042879999999999807e-01
-4.248600000000000154e-01
-1.177939999999999987e+00
-1.682290000000000063e+00
-1.806999999999999940e+00
-1.510629999999999917e+00
-1.531590000000000007e+00
-1.699729999999999963e+00
-1.328859999999999930e+00
-1.314599999999999991e+00
-1.289959999999999996e+00
-7.013749999999999707e-01
-3.327689999999999815e-01
-3.443709999999999827e-01
-3.507919999999999927e-01
-3.443709999999999827e-01
-6.450270000000000170e-01
-6.552170000000000494e-01
-8.744260000000000366e-01
-8.802769999999999762e-01
-7.513929999999999776e-01
-2.337319999999999953e-01
-2.350339999999999929e-01
-6.708150000000000501e-01
-2.647059999999999969e-01
-6.363640000000000407e-01
-2.918419999999999903e-01
1.241929999999999944e-02
1.241929999999999944e-02
3.573160000000000225e-01
-2.053460000000000008e-01
-2.040629999999999944e-01
2.876699999999999813e-01
-1.615590000000000082e-01
-1.628149999999999875e-01
2.224180000000000046e-01
5.388680000000000136e-01
2.439830000000000054e-01
2.450080000000000036e-01
8.161810000000000453e-01
1.606119999999999992e+00
1.605599999999999916e+00
2.036810000000000009e+00
1.620030000000000081e+00
1.620549999999999935e+00
2.007010000000000183e+00
2.420690000000000008e+00
3.308279999999999887e+00
3.774030000000000218e+00
3.323069999999999968e+00
3.760819999999999830e+00
4.676899999999999835e+00
5.635710000000000441e+00
4.691959999999999908e+00
3.860199999999999854e+00
4.252760000000000318e+00
4.251879999999999882e+00
3.876809999999999867e+00
4.242860000000000298e+00
5.085449999999999804e+00
5.084869999999999557e+00
5.085449999999999804e+00
4.301800000000000068e+00
3.812539999999999818e+00
3.814449999999999896e+00
3.795160000000000089e+00
3.798410000000000064e+00
3.795160000000000089e+00
3.783329999999999860e+00
3.806569999999999787e+00
3.804650000000000087e+00
4.300209999999999866e+00
5.088280000000000136e+00
4.663640000000000008e+00
4.663109999999999644e+00
4.663640000000000008e+00
4.265559999999999796e+00
4.266429999999999723e+00
4.265559999999999796e+00
3.905040000000000067e+00
3.904279999999999973e+00
4.273189999999999600e+00
5.139850000000000030e+00
4.688060000000000116e+00
3.890499999999999847e+00
3.578450000000000131e+00
4.265480000000000160e+00
4.266359999999999708e+00
4.265480000000000160e+00
3.568330000000000002e+00
3.889120000000000132e+00
3.567390000000000061e+00
4.266169999999999796e+00
3.887340000000000018e+00
4.260379999999999612e+00
5.117960000000000065e+00
5.118249999999999744e+00
5.118249999999999744e+00
4.314259999999999984e+00
4.012739999999999974e+00
4.013469999999999871e+00
4.280009999999999870e+00
4.280870000000000175e+00
4.067580000000000418e+00
4.069770000000000110e+00
4.067580000000000418e+00
4.200590000000000046e+00
4.466029999999999944e+00
4.179009999999999891e+00
3.871350000000000069e+00
4.007520000000000415e+00
4.011289999999999800e+00
4.513729999999999798e+00
4.872119999999999784e+00
5.269569999999999865e+00
5.692070000000000185e+00
4.951690000000000147e+00
4.946670000000000122e+00
4.943620000000000125e+00
4.941799999999999748e+00
5.207819999999999894e+00
4.969890000000000363e+00
4.969280000000000364e+00
5.404849999999999710e+00
5.045589999999999797e+00
5.231969999999999565e+00
5.876940000000000275e+00
5.488179999999999836e+00
5.487840000000000273e+00
5.487680000000000113e+00
4.701520000000000366e+00
4.083470000000000155e+00
3.727110000000000145e+00
3.710059999999999913e+00
3.710059999999999913e+00
3.710440000000000182e+00
3.777060000000000084e+00
3.776699999999999946e+00
3.776699999999999946e+00
3.937100000000000044e+00
4.417740000000000222e+00
4.417740000000000222e+00
4.699029999999999596e+00
4.698920000000000208e+00
4.699029999999999596e+00
4.698920000000000208e+00
4.703789999999999694e+00
4.930710000000000370e+00
4.503890000000000171e+00
4.456249999999999822e+00
4.456509999999999749e+00
4.670869999999999855e+00
4.364690000000000403e+00
4.751050000000000217e+00
4.265150000000000219e+00
4.121340000000000003e+00
4.122029999999999639e+00
4.258180000000000298e+00
4.231139999999999901e+00
4.445380000000000109e+00
4.191340000000000288e+00
4.825140000000000207e+00
4.825619999999999798e+00
4.055850000000000399e+00
3.726850000000000218e+00
4.084150000000000169e+00
4.085420000000000051e+00
3.675060000000000215e+00
2.962070000000000203e+00
2.959140000000000104e+00
2.406660000000000021e+00
2.410519999999999996e+00
2.416990000000000194e+00
1.952029999999999932e+00
1.813430000000000097e+00
1.808750000000000080e+00
2.175209999999999866e+00
2.465149999999999952e+00
3.165610000000000035e+00
4.001929999999999765e+00
4.914970000000000283e+00
4.463219999999999743e+00
4.062839999999999563e+00
4.867670000000000385e+00
4.864510000000000112e+00
4.867670000000000385e+00
5.733600000000000030e+00
6.675159999999999982e+00
7.159799999999999720e+00
7.650229999999999642e+00
6.684809999999999697e+00
5.785050000000000026e+00
5.788359999999999950e+00
5.381330000000000169e+00
5.386529999999999596e+00
5.381330000000000169e+00
6.234840000000000160e+00
5.369970000000000354e+00
5.791299999999999670e+00
4.978399999999999714e+00
4.396720000000000184e+00
4.392710000000000115e+00
4.390299999999999869e+00
4.392710000000000115e+00
4.390299999999999869e+00
4.392710000000000115e+00
4.713809999999999611e+00
5.106980000000000075e+00
5.541780000000000150e+00
4.705330000000000013e+00
4.356690000000000396e+00
4.703599999999999781e+00
5.540079999999999671e+00
5.541129999999999889e+00
5.104540000000000077e+00
5.106220000000000425e+00
5.104540000000000077e+00
6.000530000000000364e+00
5.097000000000000419e+00
5.096000000000000085e+00
4.676230000000000331e+00
4.675290000000000390e+00
4.285280000000000200e+00
3.949730000000000185e+00
3.952049999999999841e+00
3.691860000000000142e+00
4.284519999999999662e+00
4.677559999999999718e+00
5.108340000000000103e+00
4.686399999999999899e+00
5.101449999999999818e+00
5.104260000000000019e+00
5.534290000000000376e+00
5.979770000000000252e+00
6.914290000000000269e+00
7.885340000000000238e+00
7.886499999999999844e+00
7.400780000000000136e+00
6.462930000000000064e+00
6.467950000000000088e+00
6.029020000000000046e+00
5.623730000000000118e+00
4.966350000000000264e+00
4.966350000000000264e+00
5.612210000000000143e+00
6.009549999999999947e+00
6.001439999999999664e+00
5.996509999999999785e+00
5.615599999999999703e+00
5.610960000000000392e+00
5.977730000000000210e+00
5.343069999999999986e+00
5.956179999999999808e+00
6.782600000000000406e+00
7.711350000000000371e+00
8.195159999999999556e+00
8.194390000000000285e+00
8.193920000000000314e+00
7.234180000000000277e+00
6.768950000000000244e+00
5.900800000000000267e+00
5.193329999999999558e+00
5.192370000000000374e+00
5.191819999999999879e+00
4.674529999999999852e+00
4.675239999999999618e+00
4.676479999999999748e+00
4.403920000000000279e+00
4.549520000000000231e+00
4.548199999999999577e+00
5.013980000000000103e+00
5.015030000000000321e+00
5.016790000000000305e+00
5.015030000000000321e+00
4.833520000000000039e+00
4.897210000000000285e+00
4.765159999999999840e+00
5.052229999999999777e+00
5.321780000000000399e+00
4.968060000000000365e+00
5.251829999999999998e+00
5.089369999999999727e+00
5.431689999999999685e+00
6.065380000000000216e+00
6.065120000000000289e+00
6.837670000000000137e+00
6.837670000000000137e+00
6.484160000000000146e+00
6.484440000000000204e+00
6.310299999999999798e+00
6.310069999999999624e+00
6.527940000000000076e+00
6.527849999999999930e+00
6.482260000000000133e+00
6.482310000000000016e+00
6.482450000000000045e+00
6.199860000000000149e+00
6.369559999999999889e+00
5.993450000000000166e+00
5.993719999999999715e+00
5.994209999999999816e+00
5.557699999999999640e+00
5.557089999999999641e+00
5.120639999999999858e+00
4.869150000000000311e+00
4.815290000000000070e+00
4.961610000000000298e+00
5.301029999999999909e+00
5.815830000000000055e+00
5.816370000000000040e+00
5.817280000000000229e+00
6.200339999999999741e+00
6.199589999999999712e+00
6.200339999999999741e+00
6.586319999999999730e+00
7.222290000000000099e+00
8.017789999999999750e+00
8.906349999999999767e+00
8.467650000000000787e+00
8.094699999999999562e+00
8.436700000000000088e+00
8.436379999999999768e+00
8.436700000000000088e+00
8.436379999999999768e+00
9.050539999999999807e+00
8.508219999999999672e+00
8.998029999999999973e+00
8.572839999999999350e+00
8.673899999999999721e+00
8.673730000000000828e+00
8.673640000000000683e+00
8.673730000000000828e+00
9.001129999999999853e+00
9.001239999999999242e+00
8.314909999999999357e+00
7.907960000000000100e+00
7.890530000000000044e+00
7.988260000000000360e+00
8.244089999999999918e+00
7.959690000000000154e+00
7.749789999999999957e+00
7.750239999999999796e+00
7.987090000000000245e+00
8.316649999999999210e+00
8.316309999999999647e+00
7.726379999999999804e+00
8.325469999999999260e+00
8.325269999999999726e+00
8.732710000000000861e+00
8.732580000000000453e+00
9.181190000000000850e+00
9.651930000000000121e+00
1.013550000000000040e+01
1.062679999999999936e+01
9.649829999999999686e+00
9.171599999999999753e+00
9.171599999999999753e+00
9.652570000000000761e+00
8.705500000000000682e+00
8.705719999999999459e+00
8.254459999999999908e+00
7.830680000000000085e+00
7.450599999999999667e+00
6.919010000000000105e+00
6.920139999999999958e+00
6.922019999999999840e+00
7.439400000000000013e+00
7.441790000000000127e+00
7.445750000000000313e+00
7.452259999999999884e+00
8.246399999999999508e+00
7.441449999999999676e+00
7.111390000000000100e+00
6.723810000000000286e+00
6.716510000000000424e+00
6.712089999999999890e+00
6.716510000000000424e+00
6.712089999999999890e+00
6.737729999999999997e+00
6.725179999999999936e+00
6.724770000000000358e+00
7.171680000000000277e+00
7.919170000000000265e+00
8.818300000000000693e+00
8.817360000000000753e+00
8.816800000000000637e+00
8.345700000000000784e+00
8.345370000000000843e+00
7.881409999999999805e+00
7.434070000000000178e+00
7.433889999999999887e+00
7.433799999999999741e+00
6.995519999999999960e+00
6.995680000000000121e+00
6.995980000000000310e+00
6.562000000000000277e+00
5.803639999999999688e+00
6.169480000000000075e+00
5.481290000000000440e+00
5.481919999999999682e+00
5.819060000000000343e+00
6.220670000000000144e+00
6.220229999999999926e+00
7.134990000000000165e+00
6.203909999999999592e+00
5.355649999999999800e+00
4.673680000000000057e+00
5.394650000000000389e+00
4.613789999999999836e+00
4.613249999999999851e+00
3.938969999999999860e+00
3.511839999999999851e+00
3.511420000000000208e+00
3.290220000000000145e+00
3.426460000000000061e+00
3.426890000000000214e+00
3.427859999999999907e+00
3.426890000000000214e+00
3.426460000000000061e+00
3.424780000000000157e+00
3.424780000000000157e+00
3.425209999999999866e+00
3.426180000000000003e+00
3.427950000000000053e+00
3.287549999999999972e+00
3.555130000000000123e+00
3.140190000000000037e+00
3.143670000000000186e+00
3.436069999999999958e+00
3.084090000000000220e+00
3.080509999999999859e+00
2.366880000000000095e+00
1.803749999999999964e+00
1.437279999999999891e+00
1.304340000000000055e+00
1.419810000000000016e+00
1.770720000000000072e+00
2.005409999999999915e+00
2.013339999999999907e+00
2.359609999999999985e+00
2.352939999999999809e+00
2.359609999999999985e+00
2.606619999999999937e+00
3.115400000000000169e+00
3.813909999999999911e+00
4.636070000000000135e+00
4.639619999999999855e+00
4.636070000000000135e+00
5.470299999999999940e+00
5.468890000000000029e+00
5.470299999999999940e+00
5.901589999999999669e+00
6.820850000000000080e+00
6.357910000000000394e+00
7.286749999999999616e+00
6.371710000000000207e+00
5.606589999999999741e+00
5.605809999999999960e+00
5.605360000000000120e+00
5.605809999999999960e+00
5.165230000000000210e+00
5.166199999999999903e+00
5.607630000000000337e+00
6.360439999999999650e+00
7.267220000000000013e+00
6.351289999999999658e+00
5.927749999999999631e+00
5.928619999999999557e+00
6.361869999999999692e+00
6.823909999999999698e+00
6.361620000000000275e+00
5.519280000000000186e+00
5.517000000000000348e+00
6.369369999999999976e+00
5.920049999999999812e+00
6.370910000000000295e+00
5.495940000000000047e+00
5.920980000000000132e+00
5.112119999999999997e+00
4.553340000000000387e+00
4.408140000000000391e+00
4.732809999999999739e+00
4.518930000000000113e+00
4.518159999999999954e+00
4.999380000000000379e+00
5.760979999999999990e+00
5.760979999999999990e+00
5.761389999999999567e+00
5.762109999999999843e+00
5.763320000000000221e+00
5.762109999999999843e+00
5.142649999999999721e+00
5.144300000000000317e+00
5.147050000000000125e+00
5.739939999999999820e+00
5.743330000000000268e+00
5.748910000000000409e+00
5.758110000000000284e+00
6.579670000000000130e+00
6.151119999999999699e+00
6.141399999999999970e+00
5.395030000000000214e+00
5.741369999999999862e+00
6.143659999999999677e+00
6.149540000000000006e+00
6.143659999999999677e+00
5.737770000000000259e+00
6.578979999999999606e+00
5.737610000000000099e+00
5.384949999999999903e+00
5.110280000000000378e+00
4.901309999999999611e+00
4.898200000000000109e+00
4.896320000000000228e+00
4.895209999999999617e+00
4.894580000000000375e+00
4.894250000000000433e+00
4.894149999999999778e+00
4.894250000000000433e+00
4.894580000000000375e+00
4.894250000000000433e+00
5.066200000000000259e+00
5.066200000000000259e+00
5.066200000000000259e+00
4.809339999999999726e+00
5.078339999999999854e+00
4.794240000000000279e+00
4.794240000000000279e+00
5.106849999999999667e+00
5.794480000000000075e+00
5.794480000000000075e+00
6.688839999999999897e+00
5.772949999999999804e+00
5.772949999999999804e+00
4.935240000000000293e+00
5.787829999999999586e+00
5.787829999999999586e+00
5.787959999999999994e+00
4.878840000000000288e+00
4.081109999999999793e+00
4.081809999999999938e+00
3.448479999999999990e+00
3.136569999999999858e+00
3.135450000000000070e+00
3.134949999999999903e+00
3.135450000000000070e+00
3.136569999999999858e+00
2.945460000000000189e+00
2.947709999999999830e+00
2.951529999999999987e+00
2.957910000000000039e+00
2.968459999999999877e+00
2.864539999999999864e+00
3.051050000000000040e+00
2.848869999999999791e+00
2.863199999999999967e+00
3.449889999999999901e+00
3.439220000000000166e+00
3.872609999999999886e+00
2.980300000000000171e+00
2.158570000000000100e+00
1.441130000000000022e+00
1.105250000000000066e+00
5.512089999999999490e-01
2.162840000000000040e-01
1.450140000000000040e-01
1.782579999999999998e-01
1.755450000000000066e-01
1.422559999999999936e-01
1.755450000000000066e-01
2.124730000000000021e-02
1.193179999999999935e-01
4.581520000000000037e-01
1.001470000000000082e+00
1.037349999999999994e+00
1.001470000000000082e+00
1.501290000000000013e+00
1.484199999999999964e+00
1.501290000000000013e+00
2.060049999999999937e+00
2.818519999999999914e+00
2.809699999999999864e+00
3.657049999999999912e+00
2.848930000000000184e+00
2.553409999999999958e+00
2.545599999999999863e+00
2.540909999999999780e+00
2.545599999999999863e+00
2.476620000000000044e+00
2.484710000000000196e+00
2.448370000000000157e+00
2.829039999999999999e+00
3.512280000000000069e+00
3.151050000000000129e+00
3.146570000000000089e+00
3.469910000000000050e+00
4.246100000000000207e+00
5.138980000000000103e+00
5.141119999999999912e+00
4.298399999999999999e+00
4.295139999999999958e+00
5.118579999999999686e+00
5.117280000000000051e+00
6.045729999999999826e+00
5.115190000000000126e+00
6.050130000000000230e+00
6.050130000000000230e+00
5.568609999999999616e+00
5.098889999999999922e+00
5.098889999999999922e+00
5.565809999999999924e+00
5.565010000000000012e+00
5.105240000000000222e+00
4.293000000000000149e+00
4.293000000000000149e+00
4.294150000000000134e+00
4.296100000000000030e+00
4.299360000000000070e+00
4.296100000000000030e+00
5.003330000000000055e+00
5.005620000000000402e+00
5.009409999999999918e+00
4.349459999999999660e+00
4.644770000000000287e+00
4.654440000000000133e+00
4.670320000000000249e+00
4.239740000000000286e+00
4.271919999999999717e+00
4.239740000000000286e+00
4.643869999999999720e+00
4.247910000000000075e+00
4.318279999999999674e+00
4.349219999999999864e+00
4.318279999999999674e+00
4.525260000000000282e+00
5.201089999999999769e+00
4.525830000000000020e+00
4.512559999999999683e+00
4.504500000000000171e+00
4.162810000000000343e+00
4.157020000000000159e+00
4.153520000000000323e+00
4.151419999999999888e+00
4.150190000000000268e+00
4.149510000000000254e+00
4.297530000000000072e+00
4.549699999999999633e+00
4.878639999999999866e+00
4.878739999999999633e+00
4.355509999999999771e+00
4.355940000000000367e+00
4.355509999999999771e+00
4.833210000000000228e+00
4.371500000000000163e+00
4.822250000000000369e+00
5.169830000000000148e+00
4.574749999999999872e+00
4.410050000000000026e+00
4.409779999999999589e+00
4.761870000000000047e+00
4.387349999999999639e+00
4.781889999999999752e+00
4.361089999999999911e+00
4.804750000000000298e+00
5.573929999999999829e+00
5.573929999999999829e+00
5.138480000000000381e+00
5.138480000000000381e+00
5.138770000000000060e+00
5.138770000000000060e+00
4.722039999999999793e+00
5.134310000000000151e+00
5.134220000000000006e+00
5.134310000000000151e+00
5.134599999999999831e+00
4.414769999999999861e+00
4.415580000000000283e+00
4.416999999999999815e+00
4.419369999999999798e+00
4.423329999999999984e+00
4.025699999999999612e+00
4.431799999999999962e+00
4.427859999999999907e+00
4.431799999999999962e+00
5.187509999999999621e+00
5.631859999999999644e+00
6.583969999999999878e+00
6.098139999999999894e+00
5.617619999999999614e+00
5.144999999999999574e+00
5.140430000000000277e+00
4.664150000000000240e+00
4.664150000000000240e+00
4.195129999999999804e+00
4.202449999999999797e+00
3.303819999999999979e+00
3.292339999999999822e+00
3.303819999999999979e+00
2.441279999999999895e+00
2.057770000000000099e+00
1.711640000000000050e+00
1.357140000000000013e+00
1.420600000000000085e+00
1.741479999999999917e+00
1.062189999999999968e+00
1.358549999999999924e+00
1.421959999999999891e+00
1.036890000000000089e+00
7.039720000000000422e-01
6.491900000000000448e-01
2.788140000000000063e-01
6.642580000000000151e-01
7.186350000000000238e-01
1.021940000000000071e+00
1.396640000000000104e+00
1.434500000000000108e+00
2.311760000000000037e+00
2.351370000000000182e+00
1.472860000000000058e+00
6.929870000000000196e-01
7.938510000000000011e-02
-4.664259999999999934e-02
-1.268809999999999938e-01
-3.956810000000000049e-01
-8.091650000000000231e-01
-8.736049999999999649e-01
-7.262170000000000014e-01
-5.548990000000000311e-01
-6.897699999999999942e-01
-6.897699999999999942e-01
-7.759270000000000334e-01
-1.186160000000000103e+00
-7.418099999999999694e-01
-1.230979999999999963e+00
-1.365059999999999940e+00
-1.250220000000000109e+00
-1.073609999999999953e+00
-9.268140000000000267e-01
-4.692310000000000092e-01
-5.982600000000000140e-01
-6.804829999999999490e-01
-1.077430000000000110e+00
-7.081849999999999534e-01
-6.248390000000000333e-01
-4.941389999999999949e-01
-2.951610000000000067e-01
-4.941389999999999949e-01
5.789199999999999902e-02
2.106570000000000109e-01
6.312799999999999523e-01
4.459719999999999795e-01
1.064850000000000074e+00
1.311260000000000092e+00
1.661880000000000024e+00
1.245419999999999972e+00
1.811790000000000012e+00
1.245419999999999972e+00
1.657040000000000068e+00
1.672940000000000094e+00
1.399370000000000003e+00
2.057539999999999925e+00
1.811039999999999983e+00
2.059600000000000097e+00
2.012379999999999836e+00
2.051590000000000025e+00
1.667890000000000095e+00
1.349569999999999936e+00
1.391210000000000058e+00
1.051979999999999915e+00
7.873139999999999583e-01
3.567839999999999900e-01
4.277480000000000171e-02
-1.742559999999999942e-01
-8.743600000000000677e-03
4.851699999999999902e-01
1.204669999999999908e+00
1.657890000000000086e+00
9.096969999999999779e-01
1.074170000000000069e+00
9.096969999999999779e-01
1.627760000000000096e+00
9.180070000000000174e-01
1.624430000000000041e+00
2.476830000000000087e+00
2.078650000000000109e+00
1.301369999999999916e+00
1.188639999999999919e+00
5.461819999999999453e-01
1.199689999999999923e+00
1.199689999999999923e+00
2.037819999999999965e+00
1.195480000000000098e+00
1.195480000000000098e+00
1.572200000000000042e+00
1.526659999999999906e+00
1.086109999999999909e+00
1.058959999999999901e+00
3.534979999999999789e-01
3.920179999999999776e-01
2.896330000000000085e-02
1.032969999999999999e-01
2.896330000000000085e-02
-1.731279999999999972e-02
3.529209999999999847e-01
6.621590000000000531e-01
6.465480000000000116e-01
6.372259999999999591e-01
6.318650000000000100e-01
1.442730000000000068e+00
1.015460000000000029e+00
1.446020000000000083e+00
1.898020000000000040e+00
1.029339999999999922e+00
1.029339999999999922e+00
6.728739999999999721e-01
6.701770000000000227e-01
6.693489999999999718e-01
6.701770000000000227e-01
6.693489999999999718e-01
6.701770000000000227e-01
4.626819999999999822e-01
4.617620000000000058e-01
4.626819999999999822e-01
5.766839999999999744e-01
5.758159999999999945e-01
5.766839999999999744e-01
1.049390000000000045e+00
1.399399999999999977e+00
1.792790000000000106e+00
1.791250000000000009e+00
2.201369999999999827e+00
1.478220000000000089e+00
2.173160000000000203e+00
1.514639999999999986e+00
1.517169999999999908e+00
1.514639999999999986e+00
1.513519999999999976e+00
1.513519999999999976e+00
2.064189999999999969e+00
1.755749999999999922e+00
1.755270000000000108e+00
1.503919999999999924e+00
1.767200000000000104e+00
1.767679999999999918e+00
2.459029999999999827e+00
2.892879999999999896e+00
2.042520000000000113e+00
1.367550000000000043e+00
1.005719999999999947e+00
1.004269999999999996e+00
1.004269999999999996e+00
1.004269999999999996e+00
9.031439999999999468e-01
1.227200000000000069e+00
1.228490000000000082e+00
1.014100000000000001e+00
1.012659999999999894e+00
1.369650000000000034e+00
1.369650000000000034e+00
9.002510000000000234e-01
1.417750000000000066e+00
8.351790000000000047e-01
5.898510000000000142e-01
5.898510000000000142e-01
5.916299999999999892e-01
6.063220000000000276e-01
1.011460000000000026e+00
1.010010000000000074e+00
1.010010000000000074e+00
8.174890000000000212e-01
9.507929999999999993e-01
9.507929999999999993e-01
9.522779999999999578e-01
9.556270000000000042e-01
9.522779999999999578e-01
1.279749999999999943e+00
1.570680000000000076e+00
2.306560000000000166e+00
2.308889999999999887e+00
3.160569999999999879e+00
3.163219999999999921e+00
3.617269999999999985e+00
2.766169999999999796e+00
2.773169999999999913e+00
2.766169999999999796e+00
3.585749999999999993e+00
3.590390000000000192e+00
2.785089999999999844e+00
2.796580000000000066e+00
3.601170000000000204e+00
4.060050000000000381e+00
3.178659999999999819e+00
4.064530000000000420e+00
3.167019999999999946e+00
2.393940000000000179e+00
3.185979999999999812e+00
2.361590000000000078e+00
1.990750000000000020e+00
2.356219999999999981e+00
2.345089999999999897e+00
2.779939999999999856e+00
2.330529999999999990e+00
1.532219999999999915e+00
1.204749999999999988e+00
8.160429999999999628e-01
1.219589999999999952e+00
1.564210000000000100e+00
1.558319999999999927e+00
9.353460000000000107e-01
1.568750000000000089e+00
9.178990000000000204e-01
6.191860000000000142e-01
7.276679999999999815e-01
1.255589999999999984e+00
1.250350000000000072e+00
2.060779999999999834e+00
1.629610000000000003e+00
8.916500000000000536e-01
4.520480000000000054e-01
9.077910000000000146e-01
4.296030000000000126e-01
3.753790000000000182e-01
3.692679999999999851e-01
3.661280000000000090e-01
3.651630000000000154e-01
5.144109999999999516e-01
5.153069999999999595e-01
1.119380000000000042e+00
1.121539999999999981e+00
1.535639999999999894e+00
1.534529999999999950e+00
7.075709999999999500e-01
7.922940000000000538e-02
3.736459999999999781e-01
3.746070000000000233e-01
7.618049999999999544e-01
3.655999999999999805e-01
7.643520000000000314e-01
7.643520000000000314e-01
3.702300000000000035e-01
1.182350000000000012e+00
3.891310000000000047e-01
3.900850000000000151e-01
3.931870000000000087e-01
3.992260000000000253e-01
7.574959999999999471e-01
1.154849999999999932e+00
1.584079999999999933e+00
2.504509999999999792e+00
2.984290000000000109e+00
2.987179999999999946e+00
2.515550000000000175e+00
2.512760000000000105e+00
2.979369999999999852e+00
2.079919999999999991e+00
1.684770000000000101e+00
1.100119999999999987e+00
1.342680000000000096e+00
9.868280000000000385e-01
1.318940000000000001e+00
1.013349999999999973e+00
1.297379999999999978e+00
1.304089999999999971e+00
1.576650000000000107e+00
1.572189999999999976e+00
1.569730000000000070e+00
1.333790000000000031e+00
1.333190000000000097e+00
1.333790000000000031e+00
1.797109999999999985e+00
2.539759999999999796e+00
2.970639999999999947e+00
3.890519999999999978e+00
4.857560000000000322e+00
4.370890000000000164e+00
4.370890000000000164e+00
3.902759999999999785e+00
4.364959999999999951e+00
4.364830000000000432e+00
4.364959999999999951e+00
3.519439999999999902e+00
3.173680000000000057e+00
3.512000000000000011e+00
4.325210000000000221e+00
4.324770000000000003e+00
5.238159999999999705e+00
5.717539999999999623e+00
5.240770000000000373e+00
6.200090000000000323e+00
5.715589999999999726e+00
4.790919999999999845e+00
5.244519999999999627e+00
5.716319999999999624e+00
5.246509999999999785e+00
4.387260000000000382e+00
4.386840000000000295e+00
4.386709999999999887e+00
5.243590000000000195e+00
4.795759999999999579e+00
4.795759999999999579e+00
4.795969999999999622e+00
5.249089999999999812e+00
5.722089999999999677e+00
4.792270000000000252e+00
3.969199999999999839e+00
3.629700000000000149e+00
3.971839999999999815e+00
3.631429999999999936e+00
3.966190000000000104e+00
3.643510000000000026e+00
4.324480000000000324e+00
4.324910000000000032e+00
4.324480000000000324e+00
3.731180000000000163e+00
3.731770000000000032e+00
4.293859999999999566e+00
4.294719999999999871e+00
3.983620000000000161e+00
3.774939999999999962e+00
4.250939999999999941e+00
3.982650000000000023e+00
4.559009999999999785e+00
5.356029999999999625e+00
4.591709999999999958e+00
5.336439999999999628e+00
5.336070000000000313e+00
4.953990000000000116e+00
4.953669999999999796e+00
4.663190000000000168e+00
4.936429999999999652e+00
5.655739999999999768e+00
6.074110000000000120e+00
6.971989999999999910e+00
6.522149999999999892e+00
6.121900000000000119e+00
6.121900000000000119e+00
6.896899999999999586e+00
6.501159999999999606e+00
7.301300000000000345e+00
8.207979999999999166e+00
7.752159999999999940e+00
6.975600000000000023e+00
6.975670000000000037e+00
6.717319999999999958e+00
6.717279999999999696e+00
7.242469999999999963e+00
8.015459999999999141e+00
7.272470000000000212e+00
7.997419999999999973e+00
8.879350000000000520e+00
9.350039999999999907e+00
9.350070000000000547e+00
9.828839999999999577e+00
9.352479999999999905e+00
9.826280000000000570e+00
8.907519999999999882e+00
8.907500000000000639e+00
8.495319999999999538e+00
8.903610000000000468e+00
9.803760000000000474e+00
1.076539999999999964e+01
1.027960000000000029e+01
1.027970000000000006e+01
9.803380000000000649e+00
9.803369999999999251e+00
9.338509999999999422e+00
8.483670000000000044e+00
8.483670000000000044e+00
7.802590000000000359e+00
8.500870000000000815e+00
8.933999999999999275e+00
9.397529999999999717e+00
9.397550000000000736e+00
8.924289999999999168e+00
8.463070000000000093e+00
8.463070000000000093e+00
8.022460000000000591e+00
7.278270000000000017e+00
7.278369999999999784e+00
7.278270000000000017e+00
7.278240000000000265e+00
6.860859999999999737e+00
7.281279999999999752e+00
7.281310000000000393e+00
8.029109999999999303e+00
7.270389999999999908e+00
8.039210000000000633e+00
7.251610000000000333e+00
8.054589999999999250e+00
7.224429999999999907e+00
7.224529999999999674e+00
6.848959999999999937e+00
6.848880000000000301e+00
7.249760000000000204e+00
7.249789999999999957e+00
7.249889999999999723e+00
7.249789999999999957e+00
7.249789999999999957e+00
6.778310000000000279e+00
6.314939999999999998e+00
5.444770000000000110e+00
4.720629999999999882e+00
5.073760000000000048e+00
4.399359999999999715e+00
4.399359999999999715e+00
3.973599999999999799e+00
3.973599999999999799e+00
3.973599999999999799e+00
4.550349999999999895e+00
4.961350000000000371e+00
4.142439999999999678e+00
3.500100000000000211e+00
3.499899999999999789e+00
3.228559999999999874e+00
3.021549999999999958e+00
3.021809999999999885e+00
2.842820000000000125e+00
2.842540000000000067e+00
3.131250000000000089e+00
2.778589999999999893e+00
2.840739999999999821e+00
2.841019999999999879e+00
2.906340000000000146e+00
2.906070000000000153e+00
2.906340000000000146e+00
2.635180000000000078e+00
2.636190000000000033e+00
2.635180000000000078e+00
2.634869999999999823e+00
2.531919999999999948e+00
2.640769999999999840e+00
2.589080000000000048e+00
3.050570000000000004e+00
3.423849999999999838e+00
3.034009999999999874e+00
3.034009999999999874e+00
3.034009999999999874e+00
3.034539999999999793e+00
2.664470000000000116e+00
2.664169999999999927e+00
2.664470000000000116e+00
3.465549999999999908e+00
3.921829999999999927e+00
3.462880000000000180e+00
3.922680000000000167e+00
4.398780000000000356e+00
4.399200000000000443e+00
3.463470000000000049e+00
3.462800000000000100e+00
2.603540000000000187e+00
2.226879999999999971e+00
3.037360000000000060e+00
2.601869999999999905e+00
2.602889999999999926e+00
2.601869999999999905e+00
2.602889999999999926e+00
2.601869999999999905e+00
2.146360000000000046e+00
1.294869999999999965e+00
5.925859999999999461e-01
3.219609999999999972e-01
3.229469999999999841e-01
6.418030000000000124e-01
1.040079999999999893e+00
6.284610000000000474e-01
1.047719999999999985e+00
6.223929999999999740e-01
2.375299999999999911e-01
6.222860000000000058e-01
1.500439999999999996e+00
1.500439999999999996e+00
1.500439999999999996e+00
1.501570000000000071e+00
5.979680000000000550e-01
5.979680000000000550e-01
1.518270000000000008e+00
1.045400000000000107e+00
5.827999999999999847e-01
1.412829999999999919e-01
1.402039999999999953e-01
-6.275030000000000330e-01
-6.259190000000000031e-01
-1.135399999999999965e+00
-6.092600000000000238e-01
-6.041490000000000471e-01
-6.092600000000000238e-01
-1.220800000000000107e+00
-1.476769999999999916e+00
-1.290419999999999900e+00
-1.283239999999999936e+00
-1.063690000000000024e+00
-1.054519999999999902e+00
-7.764739999999999975e-01
-7.873580000000000023e-01
-1.103839999999999932e+00
-1.091099999999999959e+00
-8.246949999999999559e-01
-1.152770000000000072e+00
-1.069010000000000016e+00
-6.008719999999999617e-01
-6.108390000000000208e-01
-6.159670000000000423e-01
-6.108390000000000208e-01
3.119299999999999851e-02
3.842809999999999976e-02
-5.328169999999999851e-01
-5.424499999999999877e-01
-5.328169999999999851e-01
-5.161139999999999617e-01
-5.623489999999999878e-01
-5.404360000000000275e-01
-5.573439999999999506e-01
-1.251200000000000090e-01
-5.358629999999999782e-01
-1.410379999999999967e-01
-5.182870000000000532e-01
-1.541420000000000012e-01
-5.042259999999999520e-01
-5.137209999999999832e-01
-5.042259999999999520e-01
-4.877589999999999981e-01
-1.800120000000000053e-01
-1.564589999999999870e-01
-1.178590000000000054e-01
1.467900000000000038e-01
8.988540000000000418e-01
8.809360000000000523e-01
8.701429999999999998e-01
1.192519999999999969e-01
1.192519999999999969e-01
8.598519999999999497e-01
1.344299999999999939e-01
1.252500000000000002e-01
-2.546080000000000010e-01
-2.435140000000000082e-01
-1.213069999999999982e-01
4.176989999999999870e-01
1.207540000000000058e+00
7.910490000000000022e-01
7.910490000000000022e-01
7.976339999999999542e-01
1.179059999999999997e+00
1.171920000000000073e+00
1.562910000000000021e+00
1.190940000000000110e+00
1.195000000000000062e+00
1.898169999999999913e+00
1.540780000000000038e+00
1.291840000000000099e+00
1.285090000000000066e+00
1.728080000000000060e+00
1.733489999999999975e+00
1.742569999999999952e+00
1.549409999999999954e+00
1.565949999999999953e+00
1.549409999999999954e+00
1.539409999999999945e+00
1.533449999999999980e+00
2.126529999999999809e+00
1.450409999999999977e+00
1.186700000000000088e+00
9.895340000000000247e-01
9.850400000000000267e-01
9.895340000000000247e-01
9.895340000000000247e-01
9.973539999999999628e-01
9.895340000000000247e-01
9.850400000000000267e-01
9.895340000000000247e-01
5.371569999999999956e-01
4.905220000000000136e-01
5.005519999999999969e-01
8.316339999999999844e-01
1.485589999999999966e+00
1.890109999999999957e+00
1.503759999999999986e+00
1.863599999999999923e+00
1.529190000000000049e+00
1.525760000000000005e+00
2.130939999999999834e+00
2.133480000000000043e+00
2.137900000000000134e+00
2.465539999999999843e+00
2.470410000000000217e+00
2.810200000000000031e+00
2.807040000000000202e+00
2.535629999999999828e+00
2.408040000000000180e+00
2.405100000000000016e+00
2.408040000000000180e+00
2.237309999999999910e+00
2.451659999999999950e+00
2.448780000000000179e+00
2.914829999999999810e+00
2.913580000000000059e+00
2.913019999999999943e+00
3.524410000000000043e+00
4.330650000000000333e+00
4.330919999999999881e+00
4.330650000000000333e+00
4.330650000000000333e+00
3.964820000000000011e+00
4.721919999999999895e+00
5.614200000000000301e+00
6.086059999999999803e+00
6.085950000000000415e+00
6.085950000000000415e+00
6.086059999999999803e+00
6.086059999999999803e+00
6.085950000000000415e+00
5.632600000000000051e+00
6.552999999999999936e+00
7.034880000000000244e+00
7.034950000000000259e+00
6.085329999999999906e+00
5.212550000000000239e+00
4.828240000000000087e+00
4.827910000000000146e+00
4.237540000000000084e+00
4.237400000000000055e+00
4.008490000000000109e+00
4.008639999999999759e+00
4.285730000000000040e+00
4.285590000000000011e+00
4.977289999999999992e+00
4.977289999999999992e+00
4.977289999999999992e+00
4.589150000000000063e+00
4.589150000000000063e+00
4.589400000000000368e+00
4.955409999999999648e+00
4.322829999999999728e+00
4.322700000000000209e+00
4.918330000000000091e+00
4.918429999999999858e+00
4.918330000000000091e+00
4.918429999999999858e+00
5.719310000000000116e+00
4.921450000000000102e+00
4.921350000000000335e+00
4.609070000000000000e+00
5.294699999999999740e+00
4.612239999999999895e+00
5.294850000000000279e+00
4.918630000000000280e+00
5.713339999999999641e+00
5.713549999999999685e+00
5.713339999999999641e+00
6.167629999999999946e+00
5.284889999999999866e+00
5.284889999999999866e+00
5.285070000000000157e+00
4.532840000000000202e+00
4.058370000000000033e+00
4.058060000000000223e+00
4.058060000000000223e+00
4.613610000000000433e+00
4.018760000000000332e+00
3.786010000000000097e+00
4.061779999999999724e+00
4.062090000000000423e+00
4.779209999999999958e+00
4.778990000000000293e+00
3.955179999999999918e+00
3.290669999999999984e+00
3.038749999999999840e+00
3.039579999999999949e+00
2.690170000000000172e+00
2.689189999999999969e+00
2.630809999999999871e+00
2.631829999999999892e+00
2.874859999999999971e+00
2.876609999999999889e+00
2.874859999999999971e+00
3.312739999999999796e+00
3.312019999999999964e+00
3.311799999999999855e+00
3.580090000000000217e+00
4.277820000000000178e+00
4.277820000000000178e+00
4.278100000000000236e+00
3.763619999999999965e+00
3.952420000000000044e+00
4.209480000000000111e+00
4.209190000000000431e+00
4.209190000000000431e+00
4.059359999999999857e+00
4.134660000000000224e+00
4.134960000000000413e+00
4.134660000000000224e+00
4.134960000000000413e+00
4.134660000000000224e+00
4.411699999999999733e+00
4.411699999999999733e+00
4.411699999999999733e+00
4.786109999999999864e+00
4.785999999999999588e+00
4.356959999999999944e+00
3.942550000000000221e+00
3.943070000000000075e+00
3.522660000000000124e+00
2.776390000000000136e+00
2.252240000000000020e+00
2.251459999999999795e+00
1.952669999999999906e+00
1.952669999999999906e+00
1.953570000000000029e+00
1.794149999999999912e+00
1.793179999999999996e+00
1.793179999999999996e+00
1.760809999999999986e+00
1.761800000000000033e+00
1.973379999999999912e+00
1.972490000000000077e+00
1.973379999999999912e+00
2.110580000000000123e+00
2.109750000000000014e+00
2.110580000000000123e+00
1.590910000000000046e+00
1.414090000000000069e+00
1.412220000000000031e+00
1.154120000000000035e+00
1.153469999999999995e+00
1.154120000000000035e+00
9.553350000000000453e-01
1.095979999999999954e+00
1.095310000000000006e+00
1.095979999999999954e+00
1.098160000000000025e+00
1.102400000000000047e+00
1.013719999999999954e+00
1.264820000000000055e+00
1.800130000000000008e+00
1.797129999999999894e+00
1.795590000000000019e+00
1.795120000000000049e+00
2.313610000000000166e+00
2.313969999999999860e+00
2.313610000000000166e+00
2.960420000000000051e+00
3.785829999999999806e+00
4.234259999999999913e+00
3.412500000000000089e+00
2.886350000000000193e+00
2.886919999999999931e+00
2.886350000000000193e+00
2.937300000000000022e+00
2.937300000000000022e+00
3.504030000000000200e+00
3.504030000000000200e+00
3.134570000000000078e+00
3.134809999999999874e+00
3.134809999999999874e+00
2.511210000000000164e+00
2.255580000000000140e+00
2.256800000000000139e+00
2.255580000000000140e+00
2.255209999999999937e+00
2.381219999999999892e+00
2.283040000000000180e+00
2.283409999999999940e+00
2.328359999999999985e+00
2.327989999999999782e+00
2.328359999999999985e+00
2.329530000000000101e+00
2.740979999999999972e+00
2.351710000000000189e+00
2.350540000000000074e+00
2.350179999999999936e+00
2.690459999999999852e+00
2.690459999999999852e+00
3.341099999999999959e+00
3.341320000000000068e+00
4.161769999999999747e+00
4.162239999999999718e+00
4.161769999999999747e+00
5.073150000000000048e+00
5.073150000000000048e+00
5.549269999999999925e+00
5.549269999999999925e+00
4.636070000000000135e+00
4.225900000000000212e+00
4.631669999999999732e+00
4.631910000000000416e+00
5.520730000000000359e+00
4.639179999999999637e+00
4.639179999999999637e+00
5.506330000000000169e+00
5.972369999999999735e+00
6.934829999999999828e+00
7.426260000000000083e+00
6.453630000000000422e+00
5.531559999999999810e+00
5.985970000000000013e+00
6.460099999999999731e+00
5.985229999999999606e+00
6.459819999999999673e+00
6.459819999999999673e+00
6.941970000000000418e+00
6.464059999999999917e+00
6.937969999999999970e+00
6.937850000000000072e+00
6.034200000000000230e+00
6.034150000000000347e+00
6.034200000000000230e+00
5.290390000000000370e+00
4.854870000000000019e+00
4.855199999999999960e+00
5.031539999999999679e+00
5.655929999999999680e+00
5.032130000000000436e+00
4.800279999999999880e+00
4.799789999999999779e+00
4.799579999999999735e+00
5.041520000000000223e+00
4.794760000000000133e+00
4.794760000000000133e+00
4.794760000000000133e+00
4.794760000000000133e+00
4.794760000000000133e+00
5.068039999999999878e+00
5.068229999999999791e+00
5.364499999999999602e+00
6.144919999999999938e+00
6.592880000000000074e+00
7.060649999999999871e+00
7.540320000000000356e+00
7.540549999999999642e+00
8.027219999999999800e+00
7.540490000000000137e+00
7.064370000000000260e+00
7.539690000000000225e+00
6.610409999999999897e+00
7.066060000000000230e+00
7.065949999999999953e+00
6.611150000000000304e+00
7.065199999999999925e+00
7.065409999999999968e+00
6.195809999999999818e+00
6.196390000000000065e+00
5.507740000000000080e+00
5.506920000000000037e+00
5.507740000000000080e+00
6.226890000000000036e+00
6.226320000000000299e+00
6.670130000000000337e+00
5.802609999999999602e+00
5.803530000000000300e+00
6.237680000000000113e+00
5.795429999999999637e+00
6.242110000000000269e+00
6.241539999999999644e+00
5.356729999999999769e+00
4.959220000000000184e+00
4.960040000000000227e+00
5.369659999999999656e+00
5.817169999999999952e+00
5.816880000000000273e+00
5.362499999999999822e+00
4.934289999999999843e+00
4.224630000000000329e+00
4.225279999999999703e+00
4.226469999999999949e+00
4.228489999999999860e+00
3.822459999999999969e+00
3.979319999999999968e+00
4.241909999999999847e+00
3.834550000000000125e+00
3.906419999999999781e+00
4.427740000000000009e+00
4.114779999999999660e+00
3.779079999999999995e+00
3.782350000000000101e+00
3.895210000000000061e+00
3.801689999999999792e+00
3.799189999999999845e+00
4.200380000000000003e+00
4.202429999999999666e+00
4.200380000000000003e+00
4.199180000000000135e+00
4.971529999999999561e+00
4.175399999999999778e+00
3.612680000000000113e+00
3.867929999999999868e+00
4.214190000000000325e+00
4.619749999999999801e+00
3.860399999999999832e+00
4.624439999999999884e+00
4.623709999999999987e+00
4.204920000000000435e+00
4.206120000000000303e+00
4.204920000000000435e+00
4.204259999999999664e+00
4.204259999999999664e+00
5.105129999999999946e+00
5.105550000000000033e+00
5.106320000000000192e+00
4.168720000000000425e+00
3.299720000000000208e+00
2.905250000000000110e+00
3.318010000000000126e+00
2.891350000000000087e+00
2.896440000000000126e+00
2.891350000000000087e+00
2.085799999999999876e+00
1.746199999999999974e+00
1.266399999999999970e+00
1.477600000000000025e+00
2.179739999999999789e+00
2.617879999999999985e+00
2.177890000000000104e+00
2.189979999999999816e+00
1.380810000000000093e+00
2.209750000000000103e+00
1.346479999999999899e+00
6.118869999999999587e-01
1.029869999999999952e-01
-7.038239999999999774e-02
1.404050000000000020e-01
1.486140000000000030e-02
4.172969999999999735e-01
1.087079999999999991e-01
-2.568259999999999987e-01
-2.888729999999999909e-01
-3.474689999999999723e-01
-1.344139999999999918e-02
6.207030000000000047e-01
6.084060000000000024e-01
1.398109999999999964e+00
1.834680000000000089e+00
1.033420000000000005e+00
1.029020000000000046e+00
1.378430000000000044e+00
1.049520000000000008e+00
7.418510000000000382e-01
7.410520000000000440e-01
9.214310000000000000e-01
1.462949999999999973e+00
1.175119999999999942e+00
9.896960000000000202e-01
9.911529999999999507e-01
9.944380000000000441e-01
9.449269999999999614e-01
1.074689999999999923e+00
1.080410000000000093e+00
1.378889999999999949e+00
1.385320000000000107e+00
1.794089999999999963e+00
1.357830000000000092e+00
1.803439999999999932e+00
9.060409999999999853e-01
1.077000000000000041e-01
-5.099460000000000104e-01
-5.099460000000000104e-01
-7.471780000000000088e-01
-7.579040000000000221e-01
-9.954690000000000483e-01
-9.833939999999999904e-01
-9.954690000000000483e-01
-8.728190000000000115e-01
-9.524200000000000443e-01
-9.138389999999999569e-01
-9.022470000000000212e-01
-7.503370000000000317e-01
-1.919780000000000098e-01
-1.979269999999999918e-01
-6.600599999999999801e-01
-6.633879999999999777e-01
-5.857860000000000289e-01
-5.825850000000000195e-01
-5.857860000000000289e-01
-8.035109999999999753e-01
-7.999420000000000419e-01
-6.278200000000000447e-01
-7.502109999999999612e-01
-7.536920000000000286e-01
-8.003219999999999779e-01
-8.020509999999999584e-01
-5.905939999999999523e-01
-5.890379999999999505e-01
-7.417519999999999669e-01
-7.362919999999999465e-01
-7.417519999999999669e-01
-6.678929999999999589e-01
-1.759239999999999970e-01
-1.718079999999999885e-01
-1.638010000000000022e-01
-1.718079999999999885e-01
-4.326590000000000158e-01
-4.356289999999999885e-01
-4.356289999999999885e-01
-2.081969999999999932e-01
-5.106380000000000363e-01
-2.419739999999999946e-01
3.813440000000000163e-01
-2.122199999999999920e-01
-2.122199999999999920e-01
-3.029640000000000111e-01
-3.043120000000000269e-01
-3.854159999999999808e-01
-3.854159999999999808e-01
-2.646190000000000001e-02
-4.355559999999999987e-01
-4.355559999999999987e-01
-4.833870000000000111e-01
-4.833870000000000111e-01
-4.833870000000000111e-01
-4.803459999999999952e-01
-2.480710000000000137e-01
-4.281550000000000078e-01
-8.486420000000000075e-02
-4.811409999999999854e-01
-4.628800000000000137e-01
-3.637030000000000124e-02
-4.106099999999999750e-01
-7.817240000000000300e-02
-7.256859999999999700e-02
2.008439999999999948e-01
1.974279999999999924e-01
2.008439999999999948e-01
2.074920000000000098e-01
8.361929999999999641e-01
1.663019999999999943e+00
2.114440000000000097e+00
2.112560000000000215e+00
2.112560000000000215e+00
2.112560000000000215e+00
2.544669999999999987e+00
3.448840000000000128e+00
3.917229999999999990e+00
4.388340000000000352e+00
4.862269999999999648e+00
4.862269999999999648e+00
4.862059999999999604e+00
4.083969999999999878e+00
4.828630000000000422e+00
5.709249999999999936e+00
6.656159999999999854e+00
7.142350000000000421e+00
7.142380000000000173e+00
6.661629999999999718e+00
7.629220000000000113e+00
7.140509999999999913e+00
6.192989999999999995e+00
5.326660000000000394e+00
4.948579999999999757e+00
4.401250000000000107e+00
4.959749999999999659e+00
5.781430000000000291e+00
5.781299999999999883e+00
4.918779999999999930e+00
5.344649999999999679e+00
4.908850000000000158e+00
4.151659999999999684e+00
3.861889999999999823e+00
3.862049999999999983e+00
3.550769999999999982e+00
3.701360000000000205e+00
3.572280000000000122e+00
3.572919999999999874e+00
3.661950000000000038e+00
3.663130000000000219e+00
3.614440000000000097e+00
3.616550000000000153e+00
3.626729999999999787e+00
4.076900000000000190e+00
4.075219999999999843e+00
3.815300000000000136e+00
3.813849999999999962e+00
3.813050000000000050e+00
4.358159999999999812e+00
3.833880000000000177e+00
3.833520000000000039e+00
3.784180000000000099e+00
3.784180000000000099e+00
4.231160000000000032e+00
4.231160000000000032e+00
5.009199999999999875e+00
4.208330000000000126e+00
3.637820000000000054e+00
3.481460000000000221e+00
3.917590000000000128e+00
3.917749999999999844e+00
3.917590000000000128e+00
3.388430000000000053e+00
3.388640000000000096e+00
3.388430000000000053e+00
3.168550000000000200e+00
3.429800000000000182e+00
3.120159999999999823e+00
3.241690000000000182e+00
3.089500000000000135e+00
3.389850000000000030e+00
3.389850000000000030e+00
3.211279999999999912e+00
3.212040000000000006e+00
3.301280000000000214e+00
3.537380000000000191e+00
3.538300000000000001e+00
3.273829999999999796e+00
3.273089999999999833e+00
3.030899999999999928e+00
3.291999999999999815e+00
3.292730000000000157e+00
3.291999999999999815e+00
3.605230000000000157e+00
3.286070000000000046e+00
3.285849999999999937e+00
3.990819999999999812e+00
3.990979999999999972e+00
3.990819999999999812e+00
3.990819999999999812e+00
3.593989999999999796e+00
3.594390000000000196e+00
3.595279999999999809e+00
3.594390000000000196e+00
3.979649999999999910e+00
3.979490000000000194e+00
3.979649999999999910e+00
3.979649999999999910e+00
4.840130000000000265e+00
3.994990000000000041e+00
3.385650000000000048e+00
3.986250000000000071e+00
3.649610000000000021e+00
4.368240000000000123e+00
4.368240000000000123e+00
4.368509999999999671e+00
4.368240000000000123e+00
5.243339999999999890e+00
4.364119999999999777e+00
4.364390000000000214e+00
3.971249999999999947e+00
4.366760000000000197e+00
4.801479999999999748e+00
4.801820000000000199e+00
3.981380000000000141e+00
4.803410000000000402e+00
5.739709999999999646e+00
4.794030000000000236e+00
3.920249999999999790e+00
3.528150000000000119e+00
4.367460000000000342e+00
3.917990000000000084e+00
3.918530000000000069e+00
3.479060000000000041e+00
3.925980000000000025e+00
3.927010000000000112e+00
3.928819999999999979e+00
2.997520000000000184e+00
2.548939999999999984e+00
2.548939999999999984e+00
2.544259999999999966e+00
2.073129999999999917e+00
1.165960000000000107e+00
7.359750000000000458e-01
-5.800349999999999950e-02
-6.787549999999999972e-01
-9.139500000000000401e-01
-1.119890000000000052e+00
-9.307180000000000453e-01
-7.163270000000000470e-01
-9.371890000000000498e-01
-8.153120000000000367e-01
-3.478660000000000085e-01
3.600200000000000067e-01
1.207959999999999923e+00
1.205009999999999915e+00
1.203699999999999992e+00
2.095250000000000057e+00
2.565850000000000186e+00
2.565850000000000186e+00
2.116699999999999804e+00
2.117529999999999912e+00
1.429040000000000088e+00
2.087309999999999999e+00
2.929790000000000116e+00
2.931029999999999802e+00
2.130710000000000104e+00
2.921809999999999796e+00
3.370159999999999823e+00
2.521370000000000111e+00
2.519280000000000186e+00
2.521370000000000111e+00
1.912330000000000085e+00
1.704779999999999962e+00
1.912190000000000056e+00
1.917130000000000001e+00
1.706769999999999898e+00
1.715980000000000061e+00
1.931829999999999936e+00
1.945500000000000007e+00
1.720320000000000071e+00
1.964860000000000051e+00
1.951319999999999943e+00
1.964860000000000051e+00
1.951319999999999943e+00
1.943140000000000089e+00
2.569529999999999870e+00
2.214150000000000063e+00
2.210910000000000153e+00
1.760799999999999921e+00
1.758559999999999901e+00
1.769379999999999953e+00
1.771609999999999907e+00
2.239040000000000141e+00
1.953899999999999970e+00
1.705880000000000063e+00
1.704269999999999952e+00
1.936839999999999895e+00
1.936399999999999899e+00
1.936839999999999895e+00
1.936839999999999895e+00
1.936399999999999899e+00
1.936839999999999895e+00
1.822189999999999976e+00
1.907759999999999900e+00
1.852179999999999938e+00
1.878819999999999935e+00
1.881389999999999896e+00
2.364529999999999799e+00
2.365679999999999783e+00
2.748650000000000038e+00
3.181010000000000115e+00
2.746799999999999908e+00
2.350159999999999805e+00
2.356829999999999981e+00
2.350159999999999805e+00
2.346189999999999998e+00
3.187250000000000139e+00
2.745429999999999815e+00
3.191469999999999807e+00
3.188860000000000028e+00
2.740899999999999892e+00
3.187440000000000051e+00
3.186679999999999957e+00
3.186679999999999957e+00
3.650279999999999969e+00
3.650669999999999860e+00
3.196790000000000020e+00
3.645610000000000017e+00
3.645610000000000017e+00
3.645989999999999842e+00
4.103699999999999903e+00
3.226859999999999840e+00
3.226630000000000109e+00
3.226859999999999840e+00
2.856030000000000069e+00
2.559530000000000083e+00
3.206290000000000084e+00
4.052120000000000388e+00
4.052120000000000388e+00
4.506029999999999980e+00
3.656979999999999897e+00
3.656590000000000007e+00
4.044159999999999755e+00
4.463269999999999627e+00
3.715129999999999821e+00
4.436580000000000190e+00
4.436580000000000190e+00
4.436580000000000190e+00
3.803920000000000190e+00
3.803920000000000190e+00
3.803920000000000190e+00
4.339889999999999581e+00
4.049310000000000187e+00
3.886730000000000018e+00
4.238800000000000345e+00
4.885419999999999874e+00
4.885419999999999874e+00
4.373879999999999768e+00
4.374150000000000205e+00
4.373879999999999768e+00
4.503300000000000303e+00
4.447799999999999976e+00
4.447919999999999874e+00
4.448330000000000339e+00
4.255200000000000315e+00
4.256070000000000242e+00
4.607160000000000366e+00
4.956269999999999953e+00
4.955809999999999604e+00
4.546230000000000437e+00
4.546990000000000087e+00
3.754249999999999865e+00
3.121680000000000010e+00
3.120130000000000070e+00
2.808390000000000164e+00
2.523359999999999825e+00
2.150549999999999962e+00
2.620400000000000063e+00
2.281540000000000123e+00
1.757700000000000040e+00
1.544929999999999914e+00
1.697210000000000107e+00
1.696190000000000087e+00
1.696190000000000087e+00
1.975360000000000005e+00
2.555050000000000043e+00
3.327879999999999949e+00
3.327879999999999949e+00
3.736920000000000019e+00
3.039410000000000167e+00
3.691549999999999887e+00
4.521349999999999980e+00
4.521749999999999936e+00
3.764029999999999987e+00
4.501879999999999882e+00
5.388189999999999813e+00
4.514599999999999724e+00
4.932870000000000310e+00
5.378280000000000172e+00
4.542769999999999975e+00
3.960820000000000007e+00
4.528229999999999755e+00
4.528999999999999915e+00
4.528999999999999915e+00
4.530330000000000190e+00
5.289559999999999818e+00
5.291089999999999627e+00
4.903380000000000294e+00
4.373479999999999812e+00
4.371599999999999930e+00
4.373479999999999812e+00
4.371599999999999930e+00
4.370499999999999829e+00
4.429240000000000066e+00
4.428650000000000198e+00
4.658750000000000391e+00
4.292010000000000325e+00
4.291870000000000296e+00
4.367910000000000181e+00
4.573290000000000077e+00
5.219140000000000335e+00
5.219140000000000335e+00
4.620429999999999815e+00
4.871900000000000119e+00
5.578529999999999767e+00
5.578769999999999563e+00
5.578529999999999767e+00
6.434160000000000323e+00
6.434309999999999974e+00
6.434160000000000323e+00
5.581739999999999924e+00
6.440050000000000274e+00
5.988730000000000331e+00
6.915160000000000196e+00
6.438109999999999999e+00
5.529399999999999871e+00
5.529469999999999885e+00
5.099700000000000344e+00
4.359359999999999680e+00
4.359969999999999679e+00
4.361069999999999780e+00
4.742619999999999614e+00
5.174990000000000201e+00
5.174249999999999794e+00
5.174249999999999794e+00
5.174990000000000201e+00
5.174990000000000201e+00
5.649189999999999934e+00
5.648749999999999716e+00
4.714489999999999625e+00
4.714140000000000441e+00
4.268500000000000405e+00
3.479420000000000179e+00
3.858429999999999804e+00
4.285730000000000040e+00
4.285730000000000040e+00
4.738940000000000374e+00
4.739040000000000141e+00
4.739040000000000141e+00
5.672469999999999679e+00
5.672399999999999665e+00
6.153240000000000265e+00
6.640850000000000364e+00
6.640990000000000393e+00
5.680780000000000385e+00
5.219750000000000334e+00
4.381590000000000096e+00
3.757870000000000044e+00
4.394110000000000404e+00
4.393839999999999968e+00
3.712079999999999824e+00
3.356920000000000126e+00
3.741810000000000080e+00
3.741810000000000080e+00
4.086120000000000196e+00
4.086269999999999847e+00
4.921859999999999680e+00
4.082539999999999836e+00
4.486550000000000260e+00
3.731520000000000170e+00
3.731520000000000170e+00
4.086990000000000123e+00
3.452729999999999855e+00
3.206539999999999946e+00
3.206770000000000120e+00
3.456500000000000128e+00
3.457170000000000076e+00
3.456500000000000128e+00
3.190700000000000092e+00
3.464179999999999815e+00
3.463979999999999837e+00
3.464179999999999815e+00
3.153259999999999952e+00
3.154040000000000177e+00
3.493050000000000210e+00
4.196209999999999773e+00
4.195750000000000313e+00
4.634430000000000049e+00
5.100799999999999557e+00
5.100799999999999557e+00
4.185880000000000045e+00
4.185410000000000075e+00
4.635460000000000136e+00
4.635229999999999961e+00
4.181540000000000035e+00
5.109060000000000379e+00
5.595240000000000435e+00
5.595240000000000435e+00
4.627200000000000202e+00
3.710609999999999964e+00
4.164049999999999585e+00
4.639300000000000423e+00
4.161150000000000126e+00
3.695549999999999891e+00
3.250820000000000043e+00
3.251050000000000217e+00
2.478219999999999867e+00
3.256530000000000147e+00
2.466159999999999908e+00
1.930090000000000083e+00
2.164369999999999905e+00
2.874159999999999826e+00
2.482699999999999907e+00
2.150650000000000173e+00
2.870019999999999794e+00
2.870019999999999794e+00
2.181430000000000202e+00
2.853369999999999962e+00
3.711460000000000203e+00
3.269989999999999952e+00
3.271430000000000060e+00
3.271430000000000060e+00
3.694500000000000117e+00
2.938610000000000166e+00
3.275500000000000078e+00
3.650230000000000086e+00
4.492180000000000284e+00
4.491150000000000198e+00
4.933769999999999989e+00
4.933150000000000368e+00
5.379179999999999851e+00
6.313290000000000290e+00
6.313189999999999635e+00
7.279749999999999943e+00
6.792790000000000106e+00
6.792830000000000368e+00
6.792830000000000368e+00
6.318299999999999805e+00
5.441279999999999895e+00
5.441639999999999588e+00
6.313839999999999897e+00
5.861670000000000158e+00
5.065330000000000332e+00
5.066349999999999909e+00
5.065330000000000332e+00
4.522400000000000198e+00
4.523740000000000094e+00
4.522400000000000198e+00
5.095740000000000158e+00
4.504640000000000200e+00
4.767929999999999779e+00
4.334430000000000227e+00
4.504769999999999719e+00
5.121520000000000294e+00
5.523410000000000153e+00
5.523259999999999614e+00
6.419640000000000235e+00
6.896939999999999849e+00
6.896980000000000111e+00
5.952689999999999593e+00
5.088099999999999845e+00
5.512599999999999945e+00
4.690439999999999721e+00
5.089780000000000193e+00
4.683790000000000120e+00
4.327759999999999607e+00
4.683060000000000223e+00
5.527800000000000047e+00
5.527800000000000047e+00
5.527949999999999697e+00
6.471449999999999925e+00
6.471449999999999925e+00
5.516960000000000086e+00
4.632850000000000357e+00
4.238679999999999559e+00
4.637660000000000338e+00
3.893349999999999866e+00
3.454559999999999853e+00
3.453599999999999781e+00
3.454159999999999897e+00
3.903270000000000017e+00
3.902930000000000010e+00
3.636379999999999946e+00
3.636989999999999945e+00
3.467089999999999783e+00
3.795139999999999958e+00
3.447010000000000129e+00
3.448319999999999830e+00
3.832930000000000170e+00
4.565610000000000390e+00
4.161249999999999893e+00
3.518050000000000122e+00
3.235050000000000203e+00
3.329400000000000137e+00
3.254610000000000003e+00
3.337470000000000159e+00
3.245839999999999836e+00
3.346220000000000194e+00
3.348629999999999995e+00
3.227580000000000116e+00
3.359640000000000182e+00
3.925180000000000113e+00
3.923369999999999802e+00
3.324539999999999829e+00
3.323139999999999983e+00
3.324539999999999829e+00
3.974380000000000024e+00
3.600750000000000117e+00
3.602360000000000007e+00
3.605119999999999880e+00
4.432199999999999918e+00
4.435249999999999915e+00
3.983169999999999877e+00
3.541529999999999845e+00
3.536760000000000126e+00
2.723360000000000003e+00
2.110180000000000167e+00
1.832330000000000014e+00
2.164379999999999971e+00
2.158710000000000129e+00
1.688460000000000072e+00
1.905769999999999964e+00
1.902930000000000010e+00
1.452509999999999968e+00
1.394519999999999982e+00
1.748240000000000016e+00
1.460220000000000073e+00
1.711529999999999996e+00
1.496019999999999905e+00
1.368060000000000054e+00
1.370780000000000109e+00
1.375709999999999988e+00
1.384100000000000108e+00
1.398039999999999949e+00
1.733729999999999993e+00
1.481519999999999948e+00
2.078349999999999920e+00
2.923659999999999926e+00
2.468059999999999921e+00
2.029399999999999871e+00
2.024739999999999984e+00
2.029399999999999871e+00
1.196939999999999893e+00
5.363179999999999614e-01
1.240040000000000031e+00
8.256980000000000430e-01
1.156360000000000027e-01
1.313560000000000005e-01
1.573690000000000089e-01
-4.652569999999999761e-01
-8.320220000000000393e-01
-3.688919999999999977e-01
-7.230849999999999778e-01
-1.256930000000000103e+00
-1.514520000000000088e+00
-1.561229999999999896e+00
-1.626589999999999980e+00
-1.655780000000000030e+00
-1.518890000000000073e+00
-1.072799999999999976e+00
-1.085429999999999895e+00
-4.871739999999999959e-01
-1.247219999999999995e-01
2.554069999999999951e-01
1.078040000000000109e+00
1.514529999999999932e+00
1.110330000000000039e+00
1.110999999999999988e+00
1.841490000000000071e+00
1.842989999999999906e+00
1.261230000000000073e+00
1.265149999999999997e+00
1.261230000000000073e+00
1.295179999999999998e+00
1.299029999999999907e+00
1.295179999999999998e+00
1.054179999999999895e+00
1.361040000000000028e+00
9.757529999999999815e-01
1.427359999999999962e+00
1.116249999999999964e+00
8.626540000000000319e-01
6.232659999999999867e-01
6.178679999999999728e-01
7.594910000000000272e-01
1.283230000000000093e+00
1.640910000000000091e+00
1.054370000000000029e+00
9.382909999999999862e-01
9.994480000000000031e-01
9.338239999999999874e-01
1.107769999999999921e+00
1.109939999999999927e+00
1.297800000000000065e+00
1.877490000000000103e+00
2.657789999999999875e+00
3.089910000000000156e+00
3.091479999999999784e+00
3.974029999999999951e+00
4.918669999999999654e+00
4.444980000000000153e+00
4.444980000000000153e+00
4.446039999999999992e+00
5.359250000000000291e+00
4.466899999999999871e+00
3.762999999999999901e+00
4.074639999999999596e+00
3.573989999999999778e+00
3.552669999999999995e+00
3.551429999999999865e+00
3.751889999999999947e+00
3.753390000000000004e+00
3.426719999999999988e+00
3.558339999999999836e+00
3.449809999999999821e+00
3.452780000000000182e+00
3.517520000000000202e+00
4.007789999999999964e+00
4.011560000000000237e+00
3.738640000000000185e+00
3.532509999999999817e+00
3.711520000000000152e+00
3.561389999999999834e+00
3.685360000000000191e+00
3.588680000000000092e+00
3.659759999999999902e+00
3.669319999999999915e+00
3.649270000000000014e+00
3.645070000000000032e+00
4.076109999999999900e+00
4.068310000000000315e+00
3.676959999999999784e+00
3.671219999999999928e+00
3.676959999999999784e+00
4.026729999999999698e+00
4.335810000000000386e+00
4.341120000000000090e+00
4.349870000000000125e+00
5.108950000000000102e+00
5.118809999999999860e+00
5.134990000000000165e+00
5.558539999999999814e+00
6.009999999999999787e+00
5.552130000000000010e+00
5.128239999999999910e+00
4.473499999999999588e+00
5.109409999999999563e+00
5.103430000000000355e+00
4.768119999999999692e+00
5.482470000000000176e+00
5.478620000000000267e+00
5.109720000000000262e+00
4.629129999999999967e+00
4.629269999999999996e+00
4.598440000000000083e+00
5.004950000000000010e+00
5.001140000000000363e+00
4.768889999999999851e+00
4.772210000000000285e+00
4.777700000000000280e+00
4.961450000000000138e+00
4.972059999999999924e+00
5.526399999999999757e+00
5.518369999999999997e+00
6.283760000000000012e+00
7.179960000000000342e+00
7.177839999999999776e+00
7.176560000000000272e+00
7.175779999999999603e+00
7.648069999999999702e+00
7.176459999999999617e+00
6.302500000000000213e+00
7.177649999999999864e+00
7.176879999999999704e+00
6.282490000000000130e+00
6.283699999999999619e+00
6.285700000000000287e+00
5.465099999999999625e+00
4.834190000000000431e+00
5.507419999999999760e+00
5.941349999999999909e+00
5.490440000000000431e+00
5.053569999999999673e+00
5.048790000000000333e+00
4.612770000000000259e+00
5.060500000000000220e+00
4.601169999999999760e+00
4.148970000000000269e+00
4.603740000000000165e+00
3.697830000000000172e+00
3.697830000000000172e+00
3.697830000000000172e+00
3.271510000000000140e+00
2.590450000000000141e+00
2.584509999999999863e+00
2.580979999999999830e+00
2.285620000000000207e+00
2.283279999999999976e+00
2.568130000000000024e+00
2.567089999999999872e+00
2.568130000000000024e+00
3.222309999999999786e+00
3.221550000000000136e+00
3.222309999999999786e+00
2.850779999999999870e+00
3.643149999999999888e+00
2.845180000000000042e+00
3.649640000000000217e+00
3.648769999999999847e+00
4.110929999999999751e+00
3.198719999999999786e+00
3.199479999999999880e+00
2.372949999999999893e+00
1.738799999999999901e+00
1.434050000000000047e+00
1.790210000000000079e+00
2.528389999999999915e+00
1.733589999999999964e+00
1.736680000000000001e+00
1.360179999999999945e+00
1.760739999999999972e+00
1.337329999999999908e+00
1.337329999999999908e+00
9.182749999999999524e-01
5.450169999999999737e-01
5.375440000000000218e-01
5.375440000000000218e-01
5.375440000000000218e-01
9.125659999999999883e-01
2.829059999999999908e-01
2.765050000000000008e-01
1.386900000000000077e-01
4.626600000000000157e-01
1.106039999999999912e+00
7.679679999999999840e-01
1.459200000000000053e+00
2.309740000000000126e+00
2.310929999999999929e+00
3.229249999999999954e+00
3.228499999999999925e+00
2.767999999999999794e+00
2.337810000000000166e+00
3.212950000000000195e+00
3.212720000000000020e+00
2.768730000000000135e+00
2.365660000000000096e+00
2.366019999999999790e+00
2.367170000000000218e+00
3.172340000000000160e+00
2.378699999999999815e+00
3.167330000000000201e+00
2.382120000000000015e+00
3.167730000000000157e+00
2.377520000000000078e+00
2.379760000000000097e+00
3.182700000000000085e+00
2.364160000000000039e+00
2.364160000000000039e+00
2.361899999999999888e+00
3.196470000000000145e+00
3.659339999999999815e+00
3.660210000000000186e+00
3.193649999999999878e+00
2.744130000000000180e+00
2.746609999999999996e+00
2.750840000000000174e+00
1.946800000000000086e+00
2.337340000000000195e+00
2.771659999999999791e+00
2.336549999999999905e+00
1.617839999999999945e+00
1.608179999999999943e+00
1.602419999999999956e+00
2.327669999999999906e+00
1.595469999999999944e+00
1.935389999999999944e+00
2.335240000000000204e+00
1.603290000000000104e+00
1.599979999999999958e+00
1.603290000000000104e+00
2.331090000000000106e+00
3.225049999999999972e+00
2.323550000000000004e+00
1.912730000000000041e+00
2.324390000000000178e+00
2.770329999999999959e+00
2.771679999999999922e+00
2.774119999999999919e+00
2.328510000000000080e+00
2.779079999999999995e+00
1.917910000000000004e+00
1.911489999999999911e+00
1.543020000000000058e+00
1.028550000000000075e+00
1.020850000000000035e+00
1.016429999999999945e+00
1.014159999999999950e+00
9.299589999999999801e-01
9.323280000000000456e-01
1.023330000000000073e+00
9.286560000000000370e-01
1.061450000000000005e+00
9.344059999999999588e-01
9.377849999999999797e-01
9.439049999999999940e-01
1.340959999999999930e+00
2.077469999999999928e+00
1.319250000000000034e+00
1.319250000000000034e+00
1.686549999999999994e+00
1.695850000000000080e+00
1.686549999999999994e+00
1.695850000000000080e+00
1.045199999999999907e+00
1.347099999999999964e+00
1.332789999999999919e+00
1.045940000000000092e+00
1.694169999999999954e+00
1.053409999999999958e+00
7.937070000000000514e-01
7.790939999999999532e-01
1.034000000000000030e+00
1.311029999999999918e+00
1.305940000000000101e+00
2.054440000000000044e+00
2.490580000000000016e+00
1.665259999999999962e+00
2.054209999999999869e+00
2.480949999999999989e+00
2.065380000000000216e+00
2.470359999999999889e+00
2.472500000000000142e+00
2.476230000000000153e+00
2.121059999999999945e+00
2.861079999999999846e+00
2.156280000000000197e+00
2.150580000000000158e+00
1.857040000000000024e+00
2.122209999999999930e+00
2.127990000000000048e+00
2.733119999999999994e+00
3.556350000000000122e+00
4.484189999999999898e+00
4.014219999999999899e+00
3.145840000000000192e+00
4.012520000000000309e+00
4.483740000000000059e+00
4.966849999999999987e+00
4.966849999999999987e+00
4.971829999999999750e+00
4.493579999999999686e+00
4.965620000000000367e+00
4.970600000000000129e+00
4.965620000000000367e+00
4.493299999999999628e+00
3.597459999999999880e+00
3.199980000000000047e+00
4.045300000000000118e+00
4.037390000000000256e+00
4.032589999999999897e+00
3.568459999999999965e+00
2.706710000000000171e+00
3.129640000000000200e+00
2.697599999999999998e+00
2.298820000000000086e+00
2.708130000000000148e+00
1.950350000000000028e+00
1.939780000000000060e+00
1.950350000000000028e+00
1.939780000000000060e+00
1.642989999999999950e+00
1.633450000000000069e+00
1.627760000000000096e+00
1.633450000000000069e+00
1.627760000000000096e+00
1.624500000000000055e+00
1.241309999999999913e+00
1.641329999999999956e+00
1.218869999999999898e+00
1.661079999999999890e+00
1.661079999999999890e+00
2.425190000000000179e+00
2.424069999999999947e+00
1.650220000000000020e+00
2.431610000000000049e+00
1.635059999999999958e+00
2.018629999999999924e+00
1.303730000000000055e+00
9.056130000000000013e-01
9.040930000000000355e-01
9.040930000000000355e-01
1.080500000000000016e+00
1.081169999999999964e+00
1.083369999999999944e+00
1.730269999999999975e+00
1.366079999999999961e+00
1.066920000000000091e+00
1.064699999999999980e+00
1.720690000000000053e+00
1.720199999999999951e+00
1.720690000000000053e+00
1.353979999999999961e+00
2.133319999999999883e+00
1.718599999999999905e+00
1.066319999999999935e+00
1.715000000000000080e+00
1.715500000000000025e+00
2.126609999999999889e+00
1.717319999999999958e+00
1.092049999999999965e+00
1.707780000000000076e+00
1.708280000000000021e+00
1.108530000000000015e+00
9.176680000000000392e-01
9.169359999999999733e-01
9.176680000000000392e-01
9.200519999999999810e-01
1.220790000000000042e+00
9.156130000000000102e-01
9.132249999999999535e-01
9.156130000000000102e-01
1.074710000000000054e+00
1.317339999999999955e+00
1.637699999999999934e+00
2.011690000000000200e+00
2.864739999999999842e+00
2.865310000000000024e+00
2.055629999999999846e+00
2.855669999999999931e+00
3.775389999999999802e+00
3.306020000000000181e+00
3.306740000000000013e+00
3.308149999999999924e+00
2.444840000000000124e+00
2.070559999999999956e+00
2.865429999999999922e+00
2.443210000000000104e+00
1.751239999999999908e+00
1.756590000000000096e+00
1.751239999999999908e+00
1.756590000000000096e+00
2.466579999999999995e+00
1.742639999999999967e+00
1.737249999999999961e+00
1.742639999999999967e+00
1.463079999999999936e+00
2.112690000000000179e+00
2.975389999999999979e+00
3.445699999999999985e+00
2.508179999999999854e+00
2.065690000000000026e+00
2.059730000000000061e+00
1.629769999999999941e+00
1.223249999999999948e+00
2.073780000000000179e+00
1.628030000000000088e+00
1.210660000000000069e+00
1.225859999999999950e+00
8.572149999999999492e-01
8.957490000000000174e-01
1.294399999999999995e+00
1.730639999999999956e+00
9.673680000000000057e-01
1.727589999999999959e+00
1.685489999999999933e+00
2.592499999999999805e+00
2.592499999999999805e+00
3.080049999999999955e+00
