-5.13659e+57	-1
-1.36135e+58	-1
4.44855e+58	1
2.46389e+58	1
7.83908e+58	1
1.99172e+59	1
1.45413e+59	1
6.26398e+59	1
2.35587e+59	1
4.92531e+59	1
2.36436e+60	1
2.93027e+60	1
4.48384e+60	1
4.48553e+60	1
2.03503e+60	1
3.1054e+60	1
1.74417e+60	1
2.8631e+60	1
8.4529e+60	1
3.98695e+60	1
4.45407e+60	1
5.09247e+60	1
3.25724e+60	1
5.43943e+60	1
5.46068e+60	1
4.03515e+60	1
1.42135e+61	1
3.49998e+61	1
2.34633e+61	1
4.37526e+61	1
4.26014e+61	1
2.03157e+61	1
1.51966e+62	1
1.00071e+62	1
1.82599e+62	1
2.24103e+61	1
2.32311e+61	1
9.24833e+61	1
1.28596e+62	1
7.32052e+61	1
1.48672e+62	1
2.1528e+62	1
2.02241e+62	1
5.59736e+62	1
2.16192e+63	1
6.77201e+62	1
2.39487e+63	1
9.78833e+62	1
9.14843e+62	1
1.75575e+63	1
4.45716e+62	1
1.24838e+63	1
3.88887e+62	1
2.77145e+62	1
2.74844e+62	1
1.44962e+63	1
1.76781e+62	1
4.60479e+62	1
3.94319e+62	1
3.142e+62	1
5.04191e+62	1
1.34959e+63	1
6.79368e+63	1
7.3801e+63	1
1.89502e+63	1
4.8025e+62	1
2.30752e+63	1
8.24172e+62	1
4.07503e+63	1
7.11791e+63	1
5.06182e+63	1
4.64565e+63	1
4.88346e+63	1
6.2509e+63	1
1.69571e+63	1
2.20909e+63	1
7.44246e+62	1
2.30523e+62	1
3.73916e+63	1
1.01072e+64	1
1.12153e+64	1
1.05662e+64	1
1.71532e+63	1
3.43258e+63	1
1.07353e+64	1
2.3744e+64	1
1.63849e+64	1
4.36807e+63	1
1.54543e+64	1
1.74731e+64	1
7.05311e+63	1
2.57012e+64	1
7.30564e+64	1
1.15649e+66	1
1.09373e+66	1
7.66783e+65	1
8.83354e+65	1
4.30131e+67	1
6.38169e+67	1
1.3286e+68	1
2.12491e+68	1
4.80614e+68	1
4.14094e+68	1
1.10418e+69	1
1.10478e+69	1
2.67388e+68	1
1.13286e+68	1
6.79918e+67	1
6.79918e+67	1
2.71692e+68	1
3.04255e+67	1
7.30258e+67	1
6.7776e+67	1
2.5551e+67	1
1.23505e+67	1
1.34075e+68	1
7.03967e+67	1
7.62762e+67	1
2.14105e+68	1
1.20269e+69	1
2.52468e+69	1
8.8549e+68	1
8.5352e+68	1
1.39457e+68	1
9.75783e+67	1
1.72984e+68	1
1.73047e+68	1
6.81232e+68	1
2.89829e+69	1
7.70928e+69	1
2.52695e+70	1
9.28882e+70	1
7.93147e+69	1
2.12055e+70	1
5.69683e+69	1
5.28639e+69	1
9.00032e+69	1
6.6652e+69	1
6.02361e+69	1
5.20568e+69	1
7.42334e+69	1
1.28644e+71	1
1.27127e+71	1
4.81907e+71	1
4.52354e+71	1
3.49706e+71	1
3.74051e+72	1
1.07039e+72	1
4.3767e+72	1
7.52442e+71	1
1.93124e+72	1
6.0016e+71	1
8.0251e+71	1
3.07891e+71	1
1.29175e+72	1
2.09396e+71	1
4.10409e+70	1
1.4088e+71	1
2.90192e+71	1
2.32331e+71	1
7.94809e+70	1
5.47776e+69	1
5.77793e+69	1
5.24802e+69	1
5.53046e+69	1
6.54129e+69	1
6.06838e+69	1
2.46604e+69	1
2.99229e+68	1
7.77755e+68	1
7.2841e+68	1
8.9947e+68	1
4.01358e+68	1
1.257e+68	1
2.27271e+68	1
7.04815e+68	1
8.03957e+68	1
4.82024e+68	1
4.90837e+69	1
7.75647e+69	1
1.79877e+70	1
7.02244e+70	1
4.91318e+69	1
7.45035e+68	1
2.27299e+68	1
2.64661e+69	1
4.85285e+69	1
7.39986e+68	1
6.76257e+68	1
3.48601e+69	1
3.78295e+69	1
4.68182e+69	1
3.23513e+70	1
1.30452e+69	1
5.61297e+69	1
3.46202e+69	1
3.14651e+70	1
3.00344e+70	1
3.18053e+70	1
3.50196e+70	1
1.86673e+70	1
5.87258e+69	1
6.89886e+69	1
2.67111e+69	1
1.95453e+69	1
4.3141e+68	1
1.24788e+68	1
4.80596e+67	1
1.71655e+68	1
5.05786e+67	1
1.60976e+66	1
2.56865e+66	1
1.2643e+66	1
-7.26174e+66	-1
-2.03053e+66	-1
-7.04199e+66	-1
-2.78007e+66	-1
-2.64981e+66	-1
-4.52369e+66	-1
-4.30742e+66	-1
-1.40922e+66	-1
-8.84774e+65	-1
-2.66316e+66	-1
-8.43173e+65	-1
-1.05917e+67	-1
-8.40504e+66	-1
-2.9672e+66	-1
-7.41921e+66	-1
-1.10542e+66	-1
-2.76612e+65	-1
-1.98857e+65	-1
-6.57495e+64	-1
-1.33471e+66	-1
-5.44337e+65	-1
-6.95001e+65	-1
-5.63366e+65	-1
-1.14602e+65	-1
-9.38675e+65	-1
-2.51207e+66	-1
-9.85929e+66	-1
-4.0167e+67	-1
-2.5225e+67	-1
-5.2099e+66	-1
-4.88292e+66	-1
-2.50567e+65	-1
-3.30973e+65	-1
-1.4493e+66	-1
-1.44725e+66	-1
-6.75025e+65	-1
-5.46367e+65	-1
-7.57902e+65	-1
-4.78397e+66	-1
-6.49532e+66	-1
-3.76232e+65	-1
-8.59587e+64	-1
-2.67346e+64	-1
-4.37516e+64	-1
-1.74684e+65	-1
-1.34575e+65	-1
-5.52952e+64	-1
-1.01791e+64	-1
-5.71114e+64	-1
-2.25686e+65	-1
-8.32803e+65	-1
-5.80619e+64	-1
-2.14614e+65	-1
-1.23368e+66	-1
-2.96856e+66	-1
-7.77833e+65	-1
-7.69672e+65	-1
-2.76156e+66	-1
-2.85187e+66	-1
-2.84549e+66	-1
-3.40539e+66	-1
-9.5906e+66	-1
-6.80785e+66	-1
-2.36872e+66	-1
-3.38029e+65	-1
-6.86083e+65	-1
-1.68637e+66	-1
-2.2097e+66	-1
-6.6329e+66	-1
-1.98642e+66	-1
-2.9357e+66	-1
-8.58247e+65	-1
-1.97635e+65	-1
-1.32615e+65	-1
-8.21632e+64	-1
4.6856e+64	1
1.07272e+66	1
3.69762e+66	1
1.09126e+66	1
3.57099e+66	1
1.44696e+67	1
2.3913e+68	1
1.1805e+69	1
8.71973e+67	1
4.07474e+68	1
9.36822e+67	1
2.70404e+68	1
1.04317e+68	1
4.45143e+67	1
6.82458e+66	1
5.3963e+66	1
5.41759e+66	1
2.43941e+66	1
9.14057e+65	1
8.66035e+65	1
6.61012e+66	1
6.35753e+66	1
5.48438e+66	1
8.91364e+65	1
8.03816e+66	1
1.86342e+66	1
1.84847e+66	1
1.86647e+66	1
6.30615e+66	1
2.71906e+67	1
4.83326e+67	1
1.35156e+68	1
4.8131e+68	1
6.00377e+68	1
1.40752e+69	1
5.69001e+68	1
1.97051e+68	1
8.38604e+67	1
2.7163e+67	1
2.76872e+67	1
7.03425e+68	1
7.26383e+68	1
5.86692e+67	1
2.10206e+67	1
3.50859e+67	1
1.09278e+67	1
9.89628e+65	1
6.73357e+65	1
2.45154e+65	1
6.76042e+64	1
2.54439e+65	1
1.4663e+66	1
5.80728e+66	1
1.08109e+67	1
5.76902e+66	1
5.76902e+66	1
1.17523e+67	1
2.18813e+66	1
8.09197e+66	1
3.08874e+67	1
2.18165e+67	1
1.52847e+68	1
4.72231e+68	1
5.95009e+68	1
4.44346e+68	1
2.73918e+68	1
2.92538e+68	1
2.8956e+68	1
2.85547e+67	1
2.22158e+67	1
7.13583e+66	1
3.2515e+66	1
1.39483e+67	1
4.37963e+66	1
5.00364e+67	1
1.75405e+67	1
2.82877e+67	1
2.58855e+67	1
6.55558e+67	1
2.36222e+67	1
4.38552e+67	1
3.87216e+68	1
3.15906e+68	1
2.74571e+68	1
5.75256e+67	1
2.06682e+67	1
1.4391e+68	1
3.38882e+67	1
7.11893e+66	1
1.16611e+67	1
1.6675e+66	1
1.6675e+66	1
2.82116e+66	1
9.52193e+66	1
1.38237e+67	1
1.99434e+67	1
2.91707e+67	1
3.58656e+67	1
1.30147e+68	1
4.82146e+68	1
7.39333e+69	1
1.61497e+69	1
5.15351e+68	1
2.17353e+69	1
1.71624e+69	1
2.47551e+69	1
5.92144e+69	1
1.3564e+69	1
1.09536e+69	1
1.56389e+69	1
5.62424e+69	1
4.73673e+69	1
7.82336e+70	1
1.25737e+72	1
9.32278e+70	1
1.35772e+71	1
1.35772e+71	1
2.58203e+71	1
6.29636e+71	1
1.54583e+71	1
3.51047e+70	1
7.74411e+70	1
7.74411e+70	1
6.50596e+69	1
2.96111e+70	1
4.95036e+69	1
5.79729e+69	1
4.08884e+68	1
5.75753e+68	1
8.95399e+68	1
1.4331e+68	1
1.29302e+68	1
1.48675e+69	1
5.98041e+69	1
6.81286e+69	1
5.69374e+68	1
4.68078e+68	1
5.59601e+68	1
7.52267e+68	1
5.63665e+68	1
4.71454e+68	1
1.49746e+68	1
4.94993e+67	1
6.65212e+67	1
3.90875e+67	1
1.02624e+67	1
3.44038e+67	1
3.63221e+67	1
8.60712e+67	1
2.29517e+68	1
2.71844e+69	1
2.19535e+69	1
1.83358e+69	1
1.12168e+69	1
1.00273e+69	1
1.73113e+69	1
5.72101e+67	1
9.64212e+67	1
1.95941e+67	1
2.72658e+67	1
3.72348e+66	1
2.01129e+66	1
1.19514e+65	1
3.74647e+64	1
8.77571e+63	1
1.83527e+64	1
2.50259e+64	1
1.7232e+64	1
7.82682e+63	1
5.12389e+63	1
6.70134e+63	1
1.78029e+64	1
8.75766e+63	1
8.40993e+63	1
3.65515e+63	1
1.2498e+63	1
2.02718e+63	1
2.6508e+63	1
7.3021e+63	1
6.04448e+63	1
6.01963e+63	1
7.05342e+63	1
1.96164e+63	1
2.73246e+63	1
4.66269e+63	1
1.43022e+63	1
1.94224e+63	1
1.16527e+64	1
2.5249e+64	1
2.15509e+64	1
3.99415e+64	1
5.62138e+64	1
1.43213e+64	1
1.95199e+63	1
9.92052e+62	1
6.02933e+62	1
2.29878e+62	1
7.44002e+61	1
2.89424e+62	1
1.85088e+62	1
2.44227e+62	1
4.70381e+62	1
1.1844e+63	1
4.14382e+62	1
1.33894e+63	1
6.47045e+62	1
6.77789e+62	1
3.19401e+62	1
9.25503e+62	1
7.05293e+62	1
7.6925e+62	1
1.03393e+63	1
5.15249e+62	1
2.19124e+62	1
6.07453e+62	1
1.77601e+62	1
3.21163e+61	1
7.49629e+61	1
6.83238e+61	1
3.9969e+61	1
6.98623e+61	1
2.2911e+61	1
3.68509e+61	1
-1.98792e+61	-1
-3.23857e+61	-1
-5.23495e+61	-1
-9.42172e+61	-1
-5.95779e+62	-1
-1.62657e+62	-1
-1.00336e+62	-1
-6.45324e+61	-1
2.5329e+61	1
1.63489e+62	1
1.87405e+62	1
6.74484e+62	1
3.39822e+63	1
5.16077e+64	1
1.64388e+65	1
9.8452e+64	1
1.08669e+66	1
8.63012e+65	1
1.69415e+66	1
1.71757e+66	1
1.17164e+65	1
9.89576e+64	1
1.12499e+66	1
1.15077e+66	1
5.56549e+65	1
3.20441e+65	1
1.26798e+65	1
6.06845e+64	1
3.07916e+64	1
9.57287e+64	1
1.7729e+65	1
1.87976e+65	1
5.41397e+64	1
6.7028e+64	1
2.82372e+64	1
2.58293e+64	1
6.33896e+64	1
1.59133e+65	1
1.01134e+65	1
4.81313e+65	1
5.13237e+65	1
1.86437e+66	1
4.25065e+65	1
1.61622e+65	1
1.6812e+65	1
1.14919e+65	1
8.48037e+64	1
6.82227e+64	1
8.81329e+65	1
6.26763e+66	1
5.67765e+66	1
8.94258e+66	1
3.32508e+66	1
2.66334e+66	1
1.3801e+66	1
3.40586e+66	1
4.34458e+66	1
7.40256e+66	1
1.76148e+68	1
3.41391e+67	1
2.09177e+67	1
3.36679e+68	1
6.32303e+68	1
2.37829e+69	1
1.69864e+68	1
3.77724e+67	1
1.92177e+67	1
1.61727e+67	1
6.72899e+66	1
1.08532e+67	1
7.94197e+66	1
1.21452e+67	1
4.43421e+66	1
7.17538e+66	1
6.56346e+66	1
1.3218e+67	1
3.31316e+66	1
8.17951e+65	1
1.5061e+66	1
8.44231e+65	1
1.27293e+65	1
3.93489e+64	1
1.11857e+64	1
7.06752e+64	1
6.51238e+64	1
1.13955e+65	1
9.45531e+64	1
1.2595e+64	1
7.71787e+63	1
6.73303e+64	1
7.06303e+64	1
1.11738e+65	1
6.00587e+64	1
4.34397e+63	1
4.82978e+63	1
7.05145e+63	1
5.57335e+64	1
9.66236e+64	1
8.51721e+65	1
1.79719e+66	1
3.77041e+66	1
4.09638e+66	1
4.02023e+66	1
6.46206e+66	1
1.88715e+67	1
3.39307e+66	1
2.98386e+67	1
9.56671e+67	1
9.21797e+67	1
1.357e+68	1
3.15455e+68	1
2.77904e+67	1
8.26402e+66	1
2.10347e+67	1
2.39154e+67	1
2.3783e+67	1
6.35176e+67	1
2.89863e+67	1
1.38244e+68	1
1.89915e+69	1
2.56058e+69	1
2.56058e+69	1
5.89086e+68	1
1.62565e+69	1
1.28807e+69	1
2.93076e+68	1
3.24468e+68	1
9.61838e+68	1
4.49847e+69	1
3.92787e+69	1
1.00079e+69	1
2.36715e+68	1
9.27881e+68	1
8.07855e+68	1
5.32229e+68	1
8.20929e+68	1
2.91599e+68	1
1.04768e+68	1
1.81487e+68	1
2.34248e+68	1
1.88573e+68	1
-2.5158e+69	-1
-1.42627e+69	-1
-8.01184e+68	-1
-6.71921e+68	-1
-9.18045e+69	-1
-3.22275e+70	-1
-1.47593e+70	-1
-5.76501e+70	-1
-1.76369e+71	-1
-5.52866e+71	-1
-9.01167e+70	-1
-3.3832e+71	-1
-2.09757e+71	-1
-1.99778e+71	-1
-2.83218e+71	-1
-2.83218e+71	-1
-3.60755e+72	-1
-1.68233e+72	-1
-6.09705e+71	-1
-6.09705e+71	-1
-1.91316e+72	-1
-1.16163e+71	-1
-3.28289e+70	-1
-6.02645e+70	-1
-6.55696e+69	-1
-9.16204e+69	-1
-9.16827e+69	-1
-3.85755e+71	-1
-4.58645e+71	-1
-4.44618e+71	-1
-3.65122e+71	-1
-1.35391e+72	-1
-5.26967e+72	-1
-6.79836e+72	-1
-5.73611e+72	-1
-6.17009e+72	-1
-7.73673e+72	-1
-1.48834e+72	-1
-4.23239e+71	-1
-1.12854e+72	-1
-4.84859e+72	-1
-1.33989e+72	-1
-9.20663e+71	-1
-2.0965e+71	-1
-1.96612e+70	-1
-1.03287e+71	-1
-1.48673e+71	-1
-1.52463e+71	-1
-1.17312e+71	-1
-1.32344e+71	-1
3.51284e+70	1
1.68096e+70	1
4.50643e+70	1
1.9622e+70	1
4.463e+70	1
1.27765e+70	1
1.1203e+70	1
1.32647e+70	1
1.27569e+70	1
7.04626e+70	1
2.54093e+71	1
4.36315e+70	1
4.5901e+69	1
1.3106e+70	1
2.80989e+69	1
8.60695e+69	1
3.62014e+69	1
1.86483e+70	1
1.86483e+70	1
2.54211e+69	1
8.56016e+68	1
8.66039e+68	1
2.73925e+69	1
2.50892e+69	1
4.08194e+70	1
3.75121e+70	1
9.50479e+69	1
6.22231e+69	1
2.43444e+70	1
3.49674e+70	1
1.03939e+70	1
1.35004e+69	1
1.97527e+69	1
6.67601e+68	1
9.7926e+68	1
1.09145e+70	1
3.83065e+70	1
1.00489e+70	1
1.3197e+70	1
5.91006e+69	1
1.62865e+70	1
1.51701e+70	1
7.26315e+69	1
1.15547e+69	1
1.03536e+69	1
6.57829e+67	1
7.48471e+67	1
3.26202e+67	1
3.04421e+67	1
1.24909e+68	1
2.66997e+67	1
9.22347e+66	1
2.59357e+67	1
4.20574e+66	1
3.1625e+66	1
2.61877e+67	1
8.4262e+66	1
2.2399e+67	1
3.42095e+67	1
1.93233e+67	1
1.20977e+67	1
8.05116e+66	1
1.10414e+67	1
6.0745e+66	1
1.67337e+66	1
3.92953e+66	1
1.9267e+66	1
5.12955e+66	1
5.13868e+67	1
3.08226e+67	1
7.10188e+66	1
1.89845e+66	1
1.89845e+66	1
3.51837e+65	1
5.48054e+65	1
4.74962e+65	1
1.75621e+66	1
1.70749e+66	1
1.4129e+67	1
6.11436e+66	1
9.87683e+66	1
5.37765e+66	1
1.53821e+66	1
2.38325e+66	1
1.16611e+67	1
7.29714e+66	1
9.09467e+66	1
2.41983e+66	1
2.41983e+66	1
2.46226e+66	1
1.22925e+67	1
7.57364e+66	1
-2.45064e+67	-1
-3.23997e+67	-1
-1.07784e+67	-1
-4.20347e+67	-1
-1.27249e+67	-1
-4.73423e+66	-1
-7.15496e+65	-1
-7.14153e+65	-1
-4.16963e+65	-1
-3.14626e+65	-1
-2.14294e+65	-1
3.74008e+64	1
9.8639e+64	1
1.73987e+65	1
1.8385e+65	1
2.37149e+64	1
2.30841e+64	1
5.69985e+64	1
5.14455e+64	1
4.14836e+64	1
5.10762e+64	1
5.40962e+65	1
6.15444e+65	1
5.44061e+65	1
1.56935e+66	1
5.90582e+66	1
3.63905e+66	1
1.70818e+66	1
1.51904e+66	1
1.00994e+66	1
1.74176e+66	1
8.4313e+65	1
2.50569e+65	1
3.88388e+65	1
1.61061e+65	1
1.57848e+65	1
1.13505e+66	1
1.59039e+65	1
9.15427e+64	1
1.58186e+64	1
2.2012e+64	1
1.71753e+64	1
1.71831e+64	1
9.85337e+63	1
3.1962e+64	1
6.2995e+63	1
8.00734e+63	1
8.03526e+63	1
8.0555e+63	1
6.20712e+63	1
7.33424e+63	1
2.89051e+64	1
3.09564e+64	1
4.87826e+64	1
3.08862e+64	1
1.26918e+64	1
2.64668e+63	1
1.90212e+63	1
1.25241e+63	1
1.27468e+63	1
8.91688e+62	1
1.02921e+63	1
1.19869e+63	1
4.30935e+63	1
6.39427e+63	1
1.0286e+64	1
1.51329e+64	1
8.37788e+64	1
4.64056e+64	1
1.53847e+65	1
3.32017e+64	1
7.20855e+64	1
6.1697e+65	1
5.06923e+65	1
4.89289e+65	1
1.75786e+66	1
1.05751e+66	1
3.14631e+65	1
6.37089e+65	1
9.41182e+65	1
2.56083e+65	1
3.5203e+65	1
2.10985e+65	1
6.20584e+64	1
7.4004e+64	1
2.17525e+64	1
1.10892e+64	1
6.14544e+64	1
1.64683e+65	1
7.29957e+64	1
1.25676e+64	1
1.1917e+64	1
8.42799e+64	1
6.02249e+64	1
1.51529e+66	1
5.22493e+65	1
4.63686e+65	1
1.57176e+66	1
1.49583e+66	1
6.15109e+65	1
1.73468e+66	1
5.135e+65	1
5.14078e+64	1
5.75443e+64	1
8.34253e+64	1
3.24634e+64	1
1.26764e+65	1
3.74928e+65	1
2.8143e+65	1
1.41479e+66	1
8.84598e+65	1
9.60785e+64	1
8.41306e+64	1
2.99642e+64	1
5.06927e+64	1
5.37838e+64	1
1.02678e+65	1
1.09624e+64	1
3.23249e+64	1
6.81128e+65	1
4.30098e+64	1
5.93382e+65	1
8.63081e+64	1
2.39594e+64	1
5.03144e+64	1
2.4749e+65	1
1.41037e+65	1
8.78131e+63	1
5.52319e+63	1
1.37279e+64	1
1.1571e+64	1
1.13503e+64	1
4.38305e+64	1
5.57142e+64	1
5.58936e+64	1
1.62611e+64	1
2.04224e+64	1
1.38826e+64	1
3.23773e+63	1
4.50898e+62	1
1.55623e+63	1
1.51893e+63	1
5.07877e+62	1
7.10397e+62	1
2.91543e+63	1
3.34346e+63	1
1.39926e+64	1
2.65027e+64	1
8.25429e+63	1
3.93549e+63	1
3.37438e+63	1
3.78202e+63	1
7.86642e+63	1
3.45449e+63	1
2.56585e+62	1
7.38136e+62	1
2.12929e+62	1
1.96121e+62	1
7.71242e+61	1
5.36135e+61	1
1.08436e+62	1
3.31124e+62	1
4.18386e+62	1
1.76697e+63	1
1.76697e+63	1
6.6289e+63	1
5.67126e+64	1
4.24551e+64	1
3.94655e+64	1
1.43456e+65	1
1.76456e+65	1
1.6501e+65	1
1.90864e+65	1
6.43402e+64	1
9.50456e+64	1
8.49741e+65	1
7.72756e+65	1
2.83044e+66	1
1.09344e+67	1
4.75275e+66	1
7.69153e+65	1
5.36362e+66	1
4.20036e+66	1
8.48799e+65	1
1.23586e+67	1
5.6835e+66	1
6.39323e+66	1
1.90208e+67	1
2.97383e+67	1
1.95386e+66	1
1.91142e+66	1
4.90067e+67	1
1.31676e+67	1
3.08762e+67	1
5.37438e+66	1
1.89206e+66	1
3.81691e+66	1
2.10164e+66	1
9.38608e+66	1
7.63218e+66	1
1.20632e+67	1
1.13189e+67	1
4.84667e+67	1
7.85705e+67	1
4.30887e+67	1
2.07079e+68	1
3.72341e+68	1
1.90111e+68	1
4.59697e+68	1
1.94315e+70	1
2.3297e+70	1
7.02842e+69	1
6.68514e+69	1
5.88899e+69	1
6.69136e+69	1
1.10285e+69	1
5.77937e+69	1
8.04921e+70	1
1.85715e+71	1
1.2207e+71	1
3.19863e+70	1
1.68268e+70	1
2.80973e+70	1
4.01094e+69	1
1.61369e+70	1
4.7329e+69	1
2.40024e+69	1
4.66265e+68	1
7.63797e+67	1
4.75157e+67	1
1.19894e+68	1
1.24948e+68	1
4.48766e+68	1
1.50338e+68	1
5.09403e+68	1
8.47417e+67	1
1.55533e+68	1
1.10949e+68	1
1.44252e+68	1
1.52859e+68	1
4.45477e+68	1
3.3435e+67	1
5.83251e+66	1
7.43026e+66	1
4.23444e+67	1
3.60301e+67	1
7.31352e+66	1
3.18614e+67	1
7.34399e+66	1
6.27037e+66	1
2.13369e+67	1
2.28365e+67	1
2.07911e+67	1
1.10918e+68	1
3.87527e+67	1
2.42037e+68	1
3.16669e+68	1
1.77842e+68	1
7.65973e+67	1
1.63419e+68	1
5.81095e+67	1
8.90563e+66	1
8.90563e+66	1
5.45746e+67	1
1.17455e+68	1
1.26736e+68	1
1.08405e+68	1
4.75589e+68	1
7.87508e+68	1
5.45321e+68	1
2.9126e+67	1
8.26974e+66	1
2.50817e+66	1
2.63605e+66	1
1.40723e+67	1
2.66518e+67	1
2.66518e+67	1
1.1297e+68	1
2.45382e+67	1
9.65926e+66	1
3.82439e+66	1
3.82439e+66	1
1.05018e+66	1
1.45652e+67	1
2.208e+67	1
1.24553e+67	1
6.92924e+67	1
9.39407e+68	1
1.39092e+69	1
2.25084e+70	1
4.87033e+69	1
4.96228e+69	1
5.47493e+70	1
8.11134e+70	1
1.53945e+70	1
5.57518e+69	1
1.2538e+69	1
3.59171e+69	1
3.24474e+69	1
1.11624e+70	1
1.45659e+70	1
7.7478e+70	1
5.77506e+70	1
6.61949e+69	1
1.20767e+70	1
6.40997e+69	1
4.84104e+70	1
4.43546e+70	1
1.1633e+70	1
7.59771e+70	1
1.19552e+70	1
7.51372e+70	1
3.9184e+70	1
2.40352e+71	1
5.62243e+70	1
5.76156e+70	1
6.47632e+70	1
5.74716e+70	1
1.61438e+71	1
1.47125e+71	1
8.4367e+70	1
1.44628e+71	1
1.35775e+71	1
8.44769e+70	1
5.78948e+71	1
2.63095e+72	1
1.73653e+72	1
2.88736e+71	1
6.31931e+70	1
1.04431e+71	1
3.05333e+71	1
9.19413e+69	1
2.52826e+69	1
7.63142e+69	1
8.72628e+69	1
7.18951e+69	1
6.46518e+69	1
6.35363e+69	1
2.46601e+69	1
4.14403e+68	1
3.5873e+68	1
3.96415e+68	1
1.34919e+69	1
5.00941e+69	1
1.4917e+69	1
1.13195e+69	1
-2.46813e+69	-1
-3.60016e+70	-1
-8.1656e+70	-1
-6.45976e+70	-1
-6.61376e+70	-1
-9.12423e+69	-1
-1.08526e+70	-1
-8.76252e+69	-1
-1.17059e+71	-1
-9.65789e+70	-1
-8.8661e+70	-1
-1.54378e+70	-1
-1.63101e+71	-1
-1.36479e+72	-1
-1.46947e+72	-1
-5.18479e+71	-1
-4.80589e+71	-1
-1.665e+72	-1
-3.93035e+71	-1
-5.82556e+71	-1
-4.82601e+71	-1
-3.40684e+71	-1
-7.11555e+71	-1
-9.56441e+71	-1
-8.31232e+71	-1
-2.9884e+72	-1
-7.1413e+72	-1
-2.31315e+72	-1
-6.08608e+72	-1
-3.52947e+72	-1
-5.7656e+71	-1
-8.62965e+70	-1
-1.67248e+71	-1
-1.43202e+71	-1
-1.37315e+71	-1
-2.50402e+71	-1
-2.73954e+71	-1
-8.18499e+70	-1
-9.23029e+70	-1
-3.6025e+70	-1
-1.74598e+71	-1
-7.66087e+71	-1
-3.86449e+71	-1
-3.85864e+71	-1
-2.03246e+72	-1
-2.1026e+72	-1
-5.2618e+72	-1
-1.40785e+72	-1
-8.57216e+72	-1
-2.45414e+72	-1
-4.16316e+72	-1
-5.37891e+72	-1
-4.93086e+72	-1
-1.52254e+73	-1
-6.3504e+73	-1
-1.01746e+73	-1
-9.22389e+71	-1
-4.57434e+72	-1
-5.5173e+72	-1
-4.37814e+72	-1
-3.8839e+72	-1
-3.58937e+72	-1
-2.01879e+72	-1
-5.90232e+71	-1
-5.39783e+71	-1
-1.47739e+72	-1
-1.16471e+71	-1
-6.17679e+71	-1
-2.68321e+71	-1
-2.19508e+71	-1
-1.97918e+71	-1
-7.31802e+70	-1
-6.92574e+70	-1
-4.98013e+70	-1
-7.98683e+69	-1
-1.58816e+70	-1
-1.71372e+70	-1
-5.0889e+69	-1
-4.7976e+69	-1
-2.41512e+70	-1
-1.78137e+70	-1
-1.00289e+69	-1
-3.38961e+69	-1
-4.64077e+69	-1
-3.63576e+69	-1
-1.21663e+70	-1
-3.3973e+70	-1
-1.37299e+70	-1
-2.45167e+69	-1
-2.69982e+69	-1
-8.34405e+69	-1
-9.76615e+69	-1
-1.4023e+70	-1
-3.58326e+70	-1
-8.64269e+70	-1
-8.58128e+71	-1
-6.52422e+71	-1
-1.84308e+72	-1
-2.47809e+72	-1
-1.42327e+71	-1
-3.64958e+70	-1
-1.0063e+70	-1
-8.7341e+69	-1
-2.36207e+70	-1
-1.95954e+69	-1
-5.57274e+68	-1
-1.40275e+68	-1
-6.52584e+67	-1
3.4213e+67	1
2.0678e+68	1
4.88253e+67	1
2.26552e+68	1
3.12666e+68	1
-1.62845e+68	-1
-4.65857e+68	-1
-4.40859e+68	-1
-1.4311e+69	-1
-8.95358e+68	-1
-7.36302e+69	-1
-1.01228e+70	-1
-4.48684e+70	-1
-2.00454e+70	-1
-1.94179e+70	-1
-6.83924e+69	-1
-2.85175e+69	-1
6.17452e+70	1
6.17452e+70	1
2.86843e+70	1
8.07458e+69	1
7.327e+69	1
3.72915e+70	1
4.34585e+69	1
5.92032e+70	1
1.15358e+70	1
3.7218e+70	1
5.57977e+70	1
9.8988e+69	1
9.67969e+69	1
9.68268e+70	1
2.32182e+70	1
5.92202e+70	1
1.63642e+70	1
4.95353e+69	1
6.02083e+69	1
1.58117e+70	1
6.2232e+70	1
1.46268e+70	1
3.71603e+69	1
3.81955e+69	1
1.03791e+70	1
1.35003e+69	1
5.43407e+68	1
6.2328e+68	1
2.32057e+68	1
1.17071e+68	1
1.48329e+68	1
1.48329e+68	1
1.48943e+68	1
1.47493e+68	1
7.87728e+67	1
1.72628e+68	1
5.94669e+68	1
1.8566e+68	1
1.94594e+69	1
9.34088e+69	1
5.02671e+69	1
1.38929e+70	1
8.31085e+69	1
-2.87568e+70	-1
-3.43383e+70	-1
-3.952e+70	-1
-8.96652e+69	-1
-2.54229e+68	-1
-7.19137e+68	-1
-1.70414e+69	-1
-5.53413e+68	-1
-4.57331e+68	-1
-2.49585e+67	-1
2.5507e+67	1
1.66301e+67	1
2.71991e+66	1
2.75665e+66	1
9.20906e+65	1
1.01446e+66	1
2.85502e+65	1
3.27927e+65	1
5.60245e+65	1
1.17019e+66	1
1.46824e+66	1
3.99519e+65	1
8.68978e+65	1
3.12685e+65	1
1.00324e+65	1
7.31445e+64	1
1.92517e+65	1
1.11532e+65	1
1.05354e+65	1
1.28137e+65	1
1.74331e+65	1
2.19961e+65	1
1.45139e+65	1
2.80827e+65	1
2.53903e+65	1
1.13653e+65	1
7.50769e+64	1
4.31828e+64	1
2.36098e+65	1
3.48866e+64	1
1.59756e+64	1
1.20066e+64	1
1.20337e+64	1
1.86459e+64	1
1.53266e+64	1
1.34705e+64	1
8.97537e+63	1
8.3877e+63	1
3.15832e+64	1
9.61801e+63	1
2.77108e+63	1
8.84852e+62	1
8.76636e+62	1
1.64527e+63	1
7.53024e+62	1
7.06726e+62	1
1.02125e+62	1
2.78375e+61	1
8.72277e+61	1
1.02071e+62	1
1.56727e+62	1
7.47092e+61	1
5.73982e+62	1
7.09845e+62	1
5.58218e+62	1
3.09212e+62	1
8.07118e+62	1
8.00091e+62	1
5.26074e+62	1
4.4422e+62	1
1.36838e+63	1
5.51892e+62	1
1.55525e+63	1
9.77462e+62	1
8.78593e+62	1
1.69296e+63	1
4.5568e+63	1
1.84654e+64	1
1.46088e+64	1
3.68649e+63	1
9.26283e+63	1
4.66955e+63	1
8.25991e+62	1
2.29775e+62	1
4.43574e+62	1
4.10744e+62	1
2.84688e+63	1
4.28952e+63	1
4.2132e+63	1
2.21543e+63	1
3.52644e+63	1
2.00195e+63	1
1.45399e+63	1
4.74874e+63	1
1.77336e+64	1
1.31983e+65	1
6.79368e+64	1
3.07084e+64	1
1.16417e+64	1
1.18796e+64	1
3.55026e+64	1
1.04834e+65	1
3.67861e+65	1
6.23303e+65	1
2.92091e+66	1
3.46674e+66	1
1.64576e+66	1
2.71767e+66	1
2.62471e+66	1
1.57962e+66	1
3.36075e+66	1
3.60827e+66	1
2.22949e+66	1
2.45894e+67	1
6.85113e+66	1
6.10833e+66	1
9.90554e+66	1
2.55469e+67	1
3.95751e+67	1
5.70387e+68	1
6.32185e+68	1
1.41928e+68	1
5.64583e+68	1
3.31902e+68	1
5.79213e+67	1
5.36734e+67	1
1.97635e+68	1
1.24183e+68	1
1.9461e+68	1
1.3965e+68	1
4.58031e+67	1
1.22774e+67	1
1.82233e+67	1
3.37412e+67	1
4.83184e+67	1
6.79004e+67	1
2.4546e+67	1
1.13371e+67	1
7.18178e+66	1
4.76503e+66	1
1.33391e+66	1
3.73243e+66	1
1.13447e+67	1
5.36147e+66	1
1.13857e+67	1
3.74132e+67	1
3.89147e+67	1
9.79555e+66	1
1.7057e+66	1
2.71887e+65	1
1.24134e+65	1
1.42461e+65	1
2.29783e+65	1
7.28396e+64	1
1.88419e+65	1
1.83008e+65	1
3.09899e+65	1
1.00238e+65	1
6.96228e+64	1
3.14406e+65	1
1.08495e+65	1
1.70985e+64	1
2.0272e+64	1
3.88756e+63	1
3.52576e+63	1
1.6438e+63	1
1.62504e+63	1
1.05384e+63	1
9.16537e+62	1
1.23848e+63	1
1.24706e+63	1
1.26611e+63	1
2.10539e+63	1
5.758e+63	1
6.95442e+63	1
1.82411e+63	1
5.33508e+62	1
1.35582e+63	1
2.06738e+63	1
1.13126e+63	1
4.57783e+62	1
1.68257e+62	1
9.4682e+61	1
5.54562e+62	1
4.4157e+62	1
6.01861e+62	1
1.24923e+62	1
9.2261e+61	1
1.05409e+62	1
5.81864e+61	1
6.15605e+61	1
4.73943e+61	1
7.73711e+61	1
1.6612e+62	1
6.44223e+62	1
3.33159e+62	1
2.32601e+62	1
2.04848e+63	1
2.64331e+63	1
4.42415e+63	1
1.11374e+63	1
3.988e+62	1
2.93018e+62	1
5.65061e+62	1
1.53141e+62	1
1.07532e+62	1
2.9577e+62	1
1.1732e+62	1
9.53919e+61	1
5.53995e+62	1
2.0401e+63	1
1.57931e+63	1
1.1714e+63	1
7.10479e+62	1
2.03589e+62	1
5.88707e+62	1
1.58107e+63	1
1.28373e+63	1
3.09179e+62	1
3.09291e+62	1
1.16715e+63	1
4.23689e+63	1
6.75169e+63	1
1.40885e+64	1
4.64532e+63	1
2.68334e+63	1
9.34319e+63	1
1.77588e+64	1
2.28346e+64	1
1.05063e+64	1
2.60425e+64	1
3.16433e+63	1
1.378e+63	1
8.62147e+62	1
3.92108e+62	1
2.61132e+62	1
7.12864e+62	1
3.43862e+62	1
1.36631e+63	1
4.58976e+62	1
1.37281e+63	1
4.92908e+62	1
4.60573e+63	1
2.0176e+63	1
6.60699e+62	1
6.61216e+62	1
5.56621e+62	1
1.06662e+63	1
1.18949e+63	1
8.48847e+63	1
4.5296e+63	1
3.59354e+63	1
5.45531e+63	1
6.38908e+63	1
3.69375e+63	1
2.02676e+63	1
7.69779e+62	1
2.54096e+62	1
5.11657e+62	1
4.74915e+62	1
1.09476e+63	1
1.15471e+63	1
5.25263e+62	1
1.0165e+63	1
3.48449e+63	1
4.1287e+63	1
7.58116e+63	1
1.36294e+64	1
3.43493e+63	1
3.55454e+63	1
4.56449e+63	1
1.41822e+64	1
4.24041e+63	1
3.91452e+63	1
4.26003e+63	1
6.63032e+63	1
5.05982e+63	1
1.98146e+63	1
4.5278e+63	1
5.83278e+63	1
4.31339e+63	1
4.51323e+63	1
1.6017e+63	1
1.60177e+63	1
4.62451e+62	1
2.24624e+62	1
5.4819e+62	1
4.78746e+63	1
5.63851e+63	1
1.23321e+63	1
3.53552e+63	1
8.56888e+63	1
1.84263e+64	1
4.16196e+64	1
7.5816e+64	1
2.22584e+64	1
2.84239e+64	1
3.64695e+64	1
4.77379e+64	1
3.65122e+64	1
4.36496e+64	1
3.25462e+64	1
3.29987e+64	1
1.10954e+65	1
5.90698e+65	1
5.52863e+65	1
9.19333e+65	1
3.79947e+66	1
4.20086e+66	1
1.74361e+67	1
3.2986e+66	1
7.80642e+65	1
6.40583e+65	1
8.26615e+65	1
3.02583e+65	1
1.89504e+65	1
2.81574e+65	1
1.41524e+65	1
1.28499e+65	1
2.91712e+65	1
5.33279e+65	1
1.57113e+65	1
3.47512e+64	1
3.55115e+64	1
3.3106e+64	1
1.94227e+65	1
9.25723e+64	1
7.12021e+64	1
1.05492e+65	1
3.61398e+64	1
1.26934e+65	1
9.23927e+64	1
3.9788e+65	1
5.49811e+65	1
6.43823e+65	1
3.48544e+65	1
3.5477e+65	1
1.20518e+65	1
5.15629e+65	1
4.69764e+65	1
1.34901e+66	1
1.37356e+66	1
5.57288e+66	1
7.79808e+66	1
2.63692e+67	1
1.61276e+68	1
1.06091e+69	1
4.30474e+69	1
2.59086e+68	1
1.3655e+69	1
5.39774e+68	1
2.78873e+69	1
8.06061e+69	1
9.68138e+69	1
3.22206e+69	1
3.48964e+69	1
9.63723e+68	1
1.05667e+69	1
1.49106e+69	1
4.39572e+69	1
1.40484e+69	1
2.48449e+69	1
2.24665e+69	1
6.25863e+68	1
6.21326e+68	1
1.08061e+69	1
1.02066e+68	1
1.86419e+67	1
1.03806e+67	1
1.29271e+67	1
1.8591e+66	1
5.0444e+65	1
1.59677e+65	1
2.64726e+66	1
2.64726e+66	1
1.38791e+67	1
3.24063e+67	1
8.49614e+66	1
9.39474e+66	1
2.31708e+68	1
5.24174e+67	1
5.68664e+67	1
6.73027e+67	1
3.70124e+67	1
1.13002e+68	1
3.03147e+68	1
5.31567e+68	1
1.6342e+69	1
1.86914e+69	1
4.48358e+69	1
9.43143e+69	1
5.51766e+69	1
5.51766e+69	1
1.42222e+70	1
9.86013e+69	1
5.19151e+69	1
2.42765e+69	1
1.09857e+69	1
1.43844e+69	1
9.40753e+69	1
2.24727e+70	1
2.09633e+70	1
9.90865e+69	1
1.37257e+70	1
9.54474e+69	1
1.12427e+70	1
1.12427e+70	1
8.63841e+69	1
1.88598e+69	1
5.23092e+68	1
1.92096e+67	1
4.20167e+67	1
4.27839e+68	1
8.50611e+67	1
6.20952e+68	1
2.85905e+67	1
4.8499e+67	1
2.47656e+67	1
1.10114e+68	1
4.16429e+68	1
3.54194e+68	1
3.24897e+68	1
1.18728e+68	1
1.25899e+68	1
4.07681e+68	1
1.46124e+69	1
2.51876e+68	1
5.00111e+68	1
5.92636e+68	1
3.33154e+68	1
2.11267e+69	1
3.44894e+68	1
3.81685e+68	1
1.76365e+69	1
6.31281e+69	1
6.31281e+69	1
2.68327e+70	1
2.32432e+70	1
2.30244e+70	1
2.83497e+70	1
7.4705e+69	1
7.97008e+70	1
4.11795e+70	1
2.79176e+70	1
3.03842e+71	1
6.65675e+71	1
1.88167e+72	1
5.33772e+72	1
7.97214e+72	1
7.42993e+72	1
1.89118e+73	1
1.8057e+72	1
6.2191e+71	1
2.01049e+72	1
2.43239e+73	1
2.67175e+73	1
2.67175e+73	1
6.01858e+72	1
1.22072e+73	1
9.33574e+72	1
1.0625e+73	1
2.79873e+72	1
2.85347e+72	1
3.2785e+72	1
3.2785e+72	1
1.15287e+73	1
4.74842e+73	1
4.80051e+73	1
3.15092e+73	1
4.42162e+72	1
2.93113e+72	1
5.17248e+72	1
6.27108e+72	1
5.45061e+72	1
3.04849e+72	1
3.22362e+71	1
9.27628e+70	1
1.01731e+71	1
1.98059e+71	1
5.38947e+71	1
4.848e+71	1
1.37884e+71	1
2.01573e+70	1
5.37696e+70	1
7.34119e+69	1
1.52625e+70	1
1.47495e+70	1
2.17149e+70	1
5.26666e+69	1
5.24162e+69	1
4.29102e+70	1
2.32812e+70	1
3.80048e+69	1
1.37394e+70	1
6.44585e+69	1
2.80393e+70	1
9.14127e+70	1
7.75821e+71	1
7.01479e+71	1
2.75268e+72	1
2.13257e+71	1
1.10711e+70	1
4.28937e+69	1
2.75189e+69	1
2.2049e+69	1
2.37722e+69	1
7.47822e+68	1
1.09085e+69	1
9.86534e+68	1
6.44403e+68	1
7.09359e+68	1
1.73746e+69	1
1.5268e+69	1
1.27248e+68	1
1.90275e+68	1
1.38509e+67	1
5.10847e+67	1
7.75003e+67	1
7.75003e+67	1
1.18518e+67	1
9.30981e+66	1
4.38341e+67	1
1.15055e+66	1
3.93358e+65	1
1.11161e+66	1
7.08617e+65	1
1.3702e+66	1
8.6438e+65	1
2.22968e+65	1
6.73699e+64	1
5.70079e+64	1
6.57838e+63	1
1.39491e+63	1
2.29089e+63	1
1.575e+64	1
3.86568e+64	1
1.49119e+64	1
6.92613e+63	1
2.38955e+64	1
2.12134e+64	1
9.92307e+64	1
3.54505e+64	1
6.37304e+64	1
1.18821e+64	1
1.10714e+64	1
3.81933e+64	1
3.05538e+64	1
4.55689e+63	1
1.64318e+64	1
4.88586e+64	1
1.34236e+64	1
2.3254e+64	1
7.23415e+63	1
1.04014e+63	1
9.43451e+62	1
1.04326e+63	1
3.15591e+63	1
5.36844e+63	1
1.64657e+64	1
2.94874e+64	1
7.83872e+63	1
7.88231e+63	1
3.72726e+63	1
2.20934e+64	1
1.02175e+64	1
8.98522e+63	1
1.74783e+64	1
7.12641e+64	1
1.8203e+64	1
1.62786e+64	1
1.56182e+64	1
1.97606e+64	1
1.54915e+64	1
1.10052e+64	1
1.20884e+64	1
6.81907e+63	1
3.21125e+63	1
1.24165e+63	1
2.13329e+63	1
1.02441e+63	1
4.79066e+62	1
2.79783e+62	1
3.63337e+62	1
2.12158e+62	1
1.049e+62	1
3.59175e+62	1
3.2006e+62	1
9.78554e+61	1
3.45673e+61	1
2.05243e+62	1
1.19139e+62	1
9.55625e+61	1
2.64394e+62	1
2.98609e+62	1
9.77193e+62	1
5.94764e+62	1
5.36529e+62	1
1.23145e+63	1
7.85857e+62	1
1.18657e+63	1
1.92878e+63	1
1.84328e+63	1
9.61553e+63	1
1.84286e+64	1
1.57538e+64	1
1.70663e+64	1
2.60723e+64	1
2.97916e+64	1
5.25423e+64	1
3.24474e+64	1
1.46574e+64	1
1.3916e+65	1
5.3559e+64	1
2.21014e+64	1
2.17464e+64	1
1.26489e+64	1
2.03566e+64	1
1.77464e+64	1
1.76243e+64	1
1.32032e+64	1
1.95005e+63	1
1.69238e+63	1
2.51912e+62	1
4.55978e+62	1
1.0857e+63	1
7.6451e+62	1
9.48303e+62	1
7.64009e+62	1
4.07513e+62	1
5.77796e+62	1
6.91885e+62	1
9.12262e+62	1
2.63034e+63	1
8.99024e+63	1
1.74546e+64	1
6.2921e+64	1
9.05432e+63	1
2.70959e+63	1
4.61721e+63	1
9.00875e+63	1
5.62714e+63	1
1.02572e+64	1
1.0804e+64	1
4.89436e+63	1
6.98153e+63	1
9.05885e+63	1
2.42798e+63	1
5.34817e+63	1
2.60431e+63	1
1.02783e+64	1
8.70259e+63	1
5.47329e+63	1
4.79831e+63	1
1.51184e+64	1
6.39502e+63	1
4.38865e+63	1
7.89544e+63	1
4.17002e+63	1
8.43815e+62	1
1.09199e+63	1
9.04315e+62	1
1.26313e+63	1
1.26742e+63	1
3.96377e+62	1
3.63198e+62	1
1.99684e+62	1
4.96166e+62	1
1.47216e+63	1
2.9347e+63	1
2.23062e+63	1
1.93375e+63	1
4.12838e+62	1
6.56791e+62	1
6.90277e+62	1
6.5187e+62	1
2.95928e+63	1
2.53049e+63	1
1.45416e+64	1
1.07102e+64	1
5.6339e+63	1
3.70819e+64	1
1.4133e+65	1
1.38516e+65	1
5.9875e+64	1
1.43059e+65	1
1.12836e+65	1
2.64625e+65	1
9.453e+64	1
5.72956e+65	1
5.46077e+64	1
5.95394e+64	1
2.66418e+64	1
5.42034e+63	1
3.82143e+63	1
6.77635e+63	1
2.73226e+63	1
9.56762e+63	1
1.93617e+64	1
3.23761e+64	1
8.03751e+64	1
4.72885e+64	1
4.87443e+64	1
8.39565e+63	1
1.06533e+64	1
1.32428e+64	1
4.43826e+64	1
5.89263e+65	1
4.51884e+65	1
2.10557e+65	1
1.56136e+66	1
1.82131e+66	1
7.72029e+65	1
2.55563e+66	1
2.21333e+66	1
9.99872e+65	1
2.34086e+66	1
1.28716e+67	1
1.47012e+67	1
8.28082e+67	1
1.60059e+67	1
5.98144e+67	1
2.70325e+67	1
9.7194e+66	1
1.73673e+67	1
2.53826e+67	1
1.85531e+67	1
1.97857e+67	1
4.4285e+67	1
2.75896e+68	1
4.88919e+68	1
5.09503e+68	1
2.93684e+69	1
8.36775e+68	1
5.71887e+68	1
9.97744e+69	1
2.72182e+69	1
1.04156e+70	1
4.07502e+70	1
1.18969e+70	1
1.61001e+70	1
1.60203e+70	1
1.17402e+69	1
3.84186e+69	1
1.52167e+70	1
1.35971e+70	1
4.47535e+69	1
5.27052e+69	1
1.33053e+70	1
6.46446e+69	1
2.06814e+69	1
1.03133e+69	1
3.00993e+69	1
9.50217e+70	1
8.91544e+70	1
6.89778e+70	1
2.50162e+70	1
4.44015e+70	1
1.4587e+71	1
4.04544e+70	1
1.64693e+71	1
1.52764e+71	1
9.08942e+70	1
1.84499e+71	1
3.50444e+70	1
4.08237e+69	1
4.8581e+69	1
2.05885e+69	1
1.27158e+69	1
4.93557e+69	1
2.20844e+69	1
2.49928e+68	1
1.08358e+68	1
3.53325e+68	1
3.53325e+68	1
6.98824e+68	1
2.17088e+69	1
2.47124e+69	1
5.5113e+70	1
5.5113e+70	1
2.75404e+70	1
4.94328e+69	1
4.705e+69	1
1.38021e+70	1
5.99953e+70	1
6.93206e+69	1
1.4562e+70	1
2.01571e+70	1
4.56373e+70	1
4.56373e+70	1
8.04978e+70	1
3.44531e+71	1
5.90146e+69	1
8.44202e+69	1
1.84599e+69	1
5.92713e+68	1
3.14892e+68	1
3.56882e+68	1
1.04145e+69	1
2.78509e+68	1
1.80837e+68	1
7.12701e+66	1
7.54491e+66	1
2.91544e+66	1
7.92864e+65	1
2.15231e+66	1
7.24045e+66	1
7.35679e+66	1
1.07862e+67	1
2.52063e+67	1
7.01996e+66	1
8.37953e+66	1
9.71501e+67	1
4.15728e+68	1
3.4896e+68	1
1.64468e+69	1
3.6425e+68	1
1.58402e+68	1
6.23378e+67	1
3.26217e+67	1
3.02938e+67	1
8.33035e+67	1
9.25065e+66	1
3.61705e+67	1
3.45253e+67	1
2.43635e+67	1
2.82736e+67	1
1.2415e+68	1
4.73443e+67	1
7.13437e+67	1
1.12993e+67	1
2.29042e+67	1
1.99407e+67	1
4.12528e+66	1
3.98155e+66	1
1.70692e+67	1
3.17066e+67	1
3.49868e+67	1
3.49868e+67	1
1.61563e+67	1
4.67466e+67	1
1.45753e+67	1
2.48966e+67	1
7.16919e+67	1
7.82756e+67	1
1.14233e+68	1
2.92801e+68	1
1.3625e+68	1
8.58848e+67	1
3.99792e+67	1
9.56026e+67	1
2.82307e+67	1
2.24067e+67	1
1.95018e+67	1
5.55772e+67	1
4.4436e+68	1
2.18523e+69	1
1.58442e+70	1
1.50845e+69	1
4.60834e+69	1
2.67244e+70	1
1.81464e+70	1
5.90369e+70	1
7.62625e+70	1
5.60483e+70	1
1.76258e+70	1
5.43171e+70	1
5.82777e+71	1
7.6584e+70	1
8.30581e+70	1
2.71618e+71	1
3.15904e+71	1
1.19589e+71	1
2.75465e+71	1
3.194e+72	1
3.08565e+72	1
3.91392e+72	1
6.78684e+71	1
6.64164e+70	1
1.59873e+71	1
5.1037e+70	1
5.15556e+70	1
5.28383e+69	1
1.70818e+70	1
2.21084e+70	1
1.03796e+70	1
4.20969e+70	1
1.5125e+70	1
5.25388e+69	1
3.8037e+69	1
8.03449e+69	1
2.0125e+70	1
1.32477e+71	1
1.70811e+71	1
6.00836e+71	1
2.93452e+72	1
3.62368e+72	1
5.11474e+72	1
1.7001e+73	1
1.7553e+73	1
7.71475e+72	1
1.41392e+72	1
4.6575e+71	1
3.83431e+70	1
2.58499e+70	1
1.63038e+70	1
4.64371e+69	1
1.20155e+69	1
3.0722e+68	1
6.43392e+68	1
5.53953e+68	1
2.26534e+68	1
1.09779e+69	1
7.45371e+69	1
2.13897e+69	1
1.88974e+69	1
1.18089e+69	1
4.3594e+68	1
7.10409e+68	1
9.43502e+68	1
1.47783e+69	1
2.20513e+69	1
1.82706e+69	1
6.39774e+68	1
4.66258e+68	1
4.08733e+68	1
2.139e+68	1
1.23015e+68	1
4.80144e+68	1
4.419e+68	1
3.37777e+68	1
3.96195e+68	1
4.17201e+68	1
1.61899e+68	1
1.79411e+68	1
1.30493e+68	1
2.32487e+67	1
4.66145e+66	1
4.95329e+65	1
1.70662e+66	1
3.84332e+66	1
1.01982e+67	1
1.00137e+67	1
1.26637e+66	1
7.03175e+66	1
5.1175e+66	1
1.27227e+67	1
4.14256e+66	1
6.95092e+66	1
3.44977e+66	1
2.17746e+67	1
2.96803e+67	1
5.04832e+67	1
2.43224e+67	1
3.252e+67	1
6.16585e+67	1
3.04817e+67	1
1.76813e+68	1
9.00431e+67	1
1.74709e+67	1
6.09743e+66	1
1.02549e+66	1
4.92011e+65	1
7.84073e+65	1
2.94766e+66	1
3.01027e+66	1
6.76923e+66	1
2.44281e+66	1
7.26896e+65	1
1.03694e+66	1
8.58119e+65	1
1.54763e+66	1
1.54446e+66	1
1.38691e+66	1
1.55103e+66	1
1.03388e+66	1
1.04798e+66	1
2.3324e+66	1
2.81965e+66	1
1.79095e+66	1
1.66357e+66	1
5.88223e+65	1
2.78234e+65	1
2.15455e+65	1
3.71995e+65	1
1.44137e+66	1
1.13365e+66	1
2.61346e+66	1
2.25638e+66	1
7.7754e+65	1
5.05512e+65	1
2.60783e+65	1
3.31798e+65	1
8.29867e+65	1
6.8235e+66	1
3.23041e+67	1
2.61086e+67	1
9.31981e+66	1
7.0472e+66	1
8.74511e+66	1
1.16379e+67	1
3.41455e+67	1
5.32884e+66	1
2.67235e+66	1
1.32023e+66	1
1.66245e+66	1
5.85861e+66	1
4.79399e+66	1
3.33938e+66	1
3.10311e+66	1
8.63907e+65	1
3.80432e+65	1
1.28977e+65	1
1.28986e+65	1
1.55762e+65	1
1.15352e+65	1
1.15682e+65	1
1.06866e+65	1
2.66621e+64	1
7.90597e+63	1
2.48385e+63	1
2.35924e+63	1
1.11718e+64	1
1.17346e+64	1
2.01008e+64	1
5.21366e+63	1
1.43172e+63	1
1.13693e+63	1
4.34326e+63	1
3.97168e+63	1
4.75647e+63	1
1.14526e+64	1
3.55588e+63	1
2.98929e+63	1
5.25057e+63	1
8.18527e+63	1
3.50784e+64	1
2.63451e+64	1
1.63234e+64	1
1.73096e+64	1
8.84e+63	1
3.45599e+63	1
1.93996e+64	1
1.05378e+64	1
2.77961e+64	1
2.50578e+64	1
1.04377e+64	1
3.40211e+63	1
1.9222e+63	1
2.39479e+63	1
8.38402e+62	1
2.93194e+62	1
7.9571e+62	1
4.91372e+62	1
4.901e+62	1
1.49235e+62	1
2.12754e+62	1
1.30004e+62	1
3.22754e+62	1
4.11613e+63	1
1.0078e+63	1
3.13921e+63	1
1.41941e+63	1
8.98965e+62	1
5.81039e+62	1
2.28253e+63	1
1.78907e+63	1
2.17009e+62	1
1.04784e+62	1
8.38255e+61	1
5.74009e+62	1
5.57483e+62	1
8.40669e+62	1
5.83078e+62	1
1.72705e+63	1
6.63067e+62	1
1.74625e+63	1
6.39868e+63	1
5.53641e+63	1
7.06951e+63	1
2.13048e+63	1
3.14337e+63	1
4.13931e+63	1
1.89701e+63	1
5.49756e+63	1
1.05408e+63	1
2.37144e+63	1
9.13649e+62	1
1.57715e+63	1
3.74722e+63	1
3.58409e+63	1
1.38513e+63	1
5.34362e+62	1
5.90411e+62	1
1.52767e+63	1
5.5077e+62	1
2.76511e+63	1
6.01465e+62	1
4.1091e+62	1
9.83297e+62	1
1.36019e+63	1
4.05294e+63	1
1.13214e+63	1
4.60445e+62	1
3.76787e+62	1
2.32877e+63	1
1.46601e+63	1
1.526e+62	1
2.71006e+62	1
3.17058e+62	1
5.39565e+62	1
9.40769e+62	1
1.1221e+63	1
9.32014e+62	1
1.20626e+63	1
6.45327e+62	1
1.58333e+63	1
3.73061e+63	1
3.73057e+63	1
7.81294e+62	1
1.74827e+63	1
5.96662e+63	1
3.39106e+63	1
8.17943e+63	1
6.34127e+63	1
1.96594e+64	1
1.26541e+64	1
4.05876e+63	1
4.22452e+63	1
1.18796e+64	1
3.85913e+64	1
5.24492e+63	1
1.61893e+64	1
1.2395e+64	1
3.39881e+63	1
8.76226e+63	1
4.18473e+63	1
5.54393e+63	1
8.92232e+63	1
9.91742e+63	1
5.38891e+63	1
1.68628e+63	1
6.18116e+63	1
1.29205e+64	1
2.51496e+63	1
3.26186e+63	1
5.89449e+63	1
2.06259e+64	1
2.57085e+64	1
2.1695e+64	1
7.26288e+63	1
7.31532e+63	1
3.89814e+63	1
1.4137e+63	1
2.49858e+63	1
5.46584e+63	1
2.13186e+63	1
9.85344e+62	1
5.73804e+63	1
5.76315e+63	1
7.79899e+63	1
4.149e+63	1
3.23288e+63	1
1.54897e+63	1
1.14057e+63	1
4.48624e+62	1
1.15767e+63	1
2.07262e+63	1
9.47803e+62	1
3.75293e+62	1
5.08038e+62	1
4.32482e+62	1
5.64627e+62	1
5.0476e+62	1
3.23407e+62	1
3.09309e+62	1
3.3271e+62	1
3.51564e+62	1
4.83389e+62	1
4.69368e+62	1
1.60415e+62	1
4.70182e+62	1
1.17179e+63	1
1.37526e+63	1
1.07784e+63	1
5.03102e+63	1
4.77914e+63	1
3.70727e+63	1
3.86248e+63	1
4.16578e+63	1
8.73399e+62	1
2.94384e+63	1
1.69151e+63	1
4.77286e+62	1
2.34534e+63	1
1.25547e+63	1
7.63985e+62	1
8.29978e+62	1
8.30007e+62	1
4.95875e+62	1
3.54523e+62	1
2.86338e+62	1
3.14662e+62	1
9.5938e+61	1
6.02679e+61	1
6.73635e+61	1
2.52561e+61	1
1.04849e+61	1
2.15152e+61	1
7.0878e+61	1
4.71011e+61	1
9.67681e+61	1
1.24394e+62	1
1.03337e+62	1
1.03261e+62	1
1.03388e+62	1
6.10514e+61	1
4.05396e+61	1
6.44303e+61	1
8.63939e+61	1
8.74439e+61	1
1.20668e+62	1
3.38663e+62	1
1.60009e+62	1
9.06405e+62	1
2.20772e+63	1
1.44282e+63	1
1.65146e+63	1
2.16143e+63	1
2.71452e+63	1
1.34947e+63	1
2.06955e+63	1
5.41054e+63	1
4.43753e+64	1
8.75812e+64	1
7.75224e+64	1
3.40914e+64	1
3.48704e+64	1
3.1872e+64	1
1.36382e+64	1
4.55789e+64	1
4.89728e+63	1
4.23606e+63	1
1.72995e+63	1
2.4113e+63	1
3.31507e+63	1
3.06878e+63	1
3.65765e+63	1
3.70336e+63	1
5.28741e+63	1
6.8402e+63	1
4.24141e+63	1
1.77873e+63	1
8.55727e+62	1
5.27596e+63	1
1.26966e+63	1
1.38737e+63	1
6.17651e+62	1
5.76018e+62	1
1.07007e+63	1
4.63102e+62	1
8.31163e+62	1
1.46519e+63	1
1.27754e+63	1
1.62367e+63	1
7.43294e+63	1
1.07639e+64	1
1.57468e+64	1
4.09038e+63	1
6.50844e+62	1
2.76186e+62	1
7.40479e+62	1
1.80908e+62	1
3.04713e+62	1
3.8169e+61	1
5.61213e+61	1
4.72736e+61	1
4.23811e+61	1
4.23577e+61	1
1.32385e+62	1
5.20163e+62	1
7.47667e+62	1
2.03207e+62	1
9.48535e+61	1
9.48551e+61	1
2.89925e+61	1
1.93703e+61	1
2.26637e+61	1
2.0377e+61	1
2.18407e+61	1
8.34313e+60	1
3.77091e+60	1
7.73363e+60	1
6.37145e+60	1
2.02786e+61	1
2.09646e+61	1
2.18384e+61	1
2.31269e+61	1
1.73193e+61	1
3.84172e+60	1
3.17767e+60	1
1.03866e+61	1
8.86846e+60	1
1.11308e+61	1
6.2811e+60	1
1.86586e+61	1
7.75372e+61	1
3.63251e+61	1
1.60583e+61	1
1.1567e+61	1
1.65613e+60	1
4.95358e+60	1
5.16381e+60	1
7.77772e+59	1
9.40933e+59	1
6.63004e+59	1
8.86261e+59	1
1.22794e+60	1
6.44051e+60	1
2.1245e+60	1
2.34157e+60	1
2.50888e+60	1
6.46168e+60	1
4.85126e+61	1
5.91002e+61	1
2.60827e+62	1
2.21142e+62	1
1.33186e+62	1
5.3675e+61	1
3.46479e+61	1
8.10721e+61	1
1.12916e+62	1
2.89727e+62	1
2.70393e+62	1
2.70108e+62	1
2.96389e+62	1
1.68347e+62	1
4.60858e+62	1
1.91603e+62	1
4.13436e+62	1
4.61027e+62	1
7.52543e+61	1
1.78748e+62	1
1.64621e+62	1
2.72601e+62	1
7.83668e+61	1
7.83959e+61	1
8.41444e+61	1
2.27368e+62	1
4.56734e+62	1
8.76375e+62	1
7.8929e+62	1
6.13352e+62	1
2.13739e+63	1
6.3703e+63	1
9.04318e+63	1
7.321e+63	1
3.32907e+63	1
8.84466e+62	1
7.43225e+62	1
9.0272e+62	1
3.99685e+62	1
1.59229e+62	1
2.59991e+62	1
3.65039e+62	1
8.16325e+62	1
7.12566e+62	1
2.48125e+62	1
5.77346e+62	1
4.57042e+62	1
8.48499e+62	1
7.09678e+62	1
4.36723e+62	1
1.04396e+63	1
9.79073e+62	1
4.03026e+63	1
9.03327e+63	1
2.32412e+63	1
1.18449e+63	1
2.16263e+63	1
3.51134e+63	1
9.15044e+63	1
4.2495e+64	1
4.31113e+64	1
8.49573e+63	1
3.93127e+63	1
1.42521e+63	1
1.23427e+63	1
8.16793e+62	1
5.83558e+63	1
6.54879e+63	1
2.47702e+63	1
1.61553e+63	1
2.58955e+62	1
1.1219e+62	1
1.18943e+62	1
4.21446e+62	1
2.36041e+62	1
2.37726e+62	1
4.56504e+62	1
3.54139e+62	1
6.94841e+62	1
7.45012e+62	1
5.9555e+62	1
3.46952e+62	1
1.27811e+63	1
3.91665e+62	1
1.21758e+62	1
6.46034e+61	1
1.47893e+62	1
4.31394e+62	1
2.81693e+62	1
9.45242e+61	1
2.16086e+62	1
7.67052e+61	1
5.69529e+61	1
1.32977e+61	1
2.63077e+60	1
2.67631e+60	1
3.44612e+60	1
3.42642e+60	1
9.93174e+60	1
2.96255e+61	1
2.65451e+61	1
8.8072e+61	1
2.01395e+62	1
8.92862e+61	1
4.26283e+61	1
4.57287e+61	1
1.35305e+62	1
9.83884e+61	1
1.62526e+62	1
2.1461e+62	1
2.25525e+62	1
3.30651e+62	1
5.42651e+62	1
3.67611e+62	1
2.29476e+62	1
4.32666e+61	1
1.18396e+62	1
7.27312e+61	1
4.34416e+61	1
3.35026e+61	1
1.93766e+61	1
1.48402e+61	1
8.03793e+60	1
1.004e+61	1
4.60423e+61	1
5.14153e+61	1
1.4924e+62	1
5.67734e+62	1
6.92871e+62	1
4.93875e+62	1
1.57724e+62	1
2.773e+62	1
1.07341e+63	1
5.04725e+62	1
2.1791e+62	1
5.12385e+62	1
3.41417e+62	1
3.81938e+62	1
3.27915e+62	1
8.15513e+62	1
3.42699e+62	1
2.69577e+62	1
4.95028e+62	1
4.95193e+62	1
5.43142e+62	1
1.0785e+63	1
1.22326e+63	1
8.6276e+62	1
8.61924e+62	1
2.27044e+63	1
4.44207e+63	1
5.06025e+63	1
4.36394e+63	1
1.66792e+64	1
1.06635e+65	1
6.51042e+64	1
2.52518e+65	1
6.77379e+64	1
1.81053e+64	1
1.59874e+64	1
1.45961e+64	1
4.24142e+63	1
6.30348e+62	1
1.09733e+63	1
1.11595e+63	1
2.12954e+63	1
6.75116e+63	1
2.59704e+64	1
2.74709e+64	1
3.32037e+64	1
1.10529e+64	1
2.48339e+63	1
2.06223e+63	1
9.95067e+62	1
2.63195e+63	1
6.44109e+63	1
8.11282e+63	1
5.29751e+64	1
4.49862e+64	1
2.30907e+64	1
2.09864e+64	1
9.70734e+63	1
2.34974e+64	1
1.52732e+64	1
1.53397e+64	1
2.17401e+64	1
5.39208e+64	1
4.55016e+64	1
4.36459e+64	1
7.41543e+63	1
3.23164e+63	1
1.00555e+63	1
1.061e+63	1
6.43491e+62	1
1.99058e+63	1
9.00384e+62	1
4.85449e+62	1
8.52934e+62	1
6.09839e+62	1
6.96126e+62	1
6.91954e+62	1
2.17832e+63	1
1.21412e+63	1
2.0693e+63	1
2.17549e+63	1
4.43899e+62	1
2.29452e+62	1
4.18345e+62	1
4.01629e+62	1
3.77134e+62	1
1.59408e+63	1
1.72722e+62	1
1.75802e+62	1
6.4944e+62	1
9.59257e+62	1
1.97969e+62	1
2.13999e+62	1
6.7343e+61	1
9.37267e+61	1
7.56253e+61	1
4.90755e+61	1
3.99433e+61	1
5.93314e+61	1
4.20286e+61	1
8.35264e+61	1
3.46256e+62	1
2.66835e+61	1
2.52236e+61	1
1.02439e+61	1
5.7514e+60	1
7.40543e+60	1
1.217e+60	1
1.81201e+60	1
3.64855e+60	1
3.6443e+60	1
3.78422e+60	1
1.08212e+60	1
1.07981e+60	1
1.01384e+60	1
1.68679e+60	1
1.1054e+60	1
1.75454e+60	1
8.04472e+60	1
3.61477e+60	1
2.10829e+60	1
1.20531e+61	1
4.73649e+61	1
9.11084e+61	1
1.07181e+62	1
8.15802e+61	1
2.95702e+62	1
2.79971e+61	1
2.79971e+61	1
1.63862e+62	1
5.51343e+61	1
3.28841e+61	1
2.43209e+61	1
1.75179e+61	1
6.17347e+61	1
1.31636e+61	1
2.77312e+61	1
3.09013e+61	1
4.58592e+61	1
3.49926e+61	1
3.76892e+61	1
1.63018e+62	1
2.88937e+62	1
1.64043e+62	1
3.13494e+62	1
5.54873e+62	1
5.93763e+62	1
2.0909e+63	1
4.34133e+62	1
2.07559e+62	1
2.49175e+62	1
2.91163e+62	1
7.36533e+62	1
5.79281e+62	1
1.99073e+62	1
2.05884e+62	1
6.39438e+61	1
6.63302e+61	1
1.03423e+62	1
5.95274e+61	1
1.3917e+62	1
4.73092e+61	1
3.46474e+61	1
2.44452e+61	1
2.50693e+61	1
1.35958e+62	1
1.4499e+62	1
2.31888e+62	1
2.64243e+62	1
3.07325e+62	1
1.32917e+63	1
3.33117e+62	1
2.93039e+63	1
9.79372e+62	1
5.50729e+62	1
2.81004e+62	1
2.24749e+62	1
2.15483e+62	1
1.1848e+62	1
7.30022e+62	1
9.70501e+62	1
4.15133e+63	1
2.70575e+63	1
6.63277e+62	1
2.26798e+62	1
1.12857e+62	1
4.66969e+61	1
3.91116e+61	1
1.37913e+62	1
1.48958e+62	1
2.08079e+62	1
1.11097e+62	1
1.34283e+62	1
3.18747e+62	1
3.66265e+62	1
3.46183e+62	1
4.0723e+62	1
1.25467e+62	1
8.03476e+61	1
7.57462e+61	1
6.83881e+61	1
3.89673e+61	1
4.46473e+61	1
3.41619e+61	1
3.42702e+61	1
5.82622e+61	1
4.96961e+61	1
6.01186e+61	1
2.62623e+61	1
3.84813e+61	1
2.24392e+61	1
1.25637e+62	1
2.77265e+62	1
8.79469e+62	1
1.14964e+63	1
2.14168e+63	1
1.14866e+63	1
1.4809e+63	1
1.30295e+63	1
1.83062e+63	1
1.47422e+63	1
1.48266e+63	1
1.60064e+63	1
9.59477e+62	1
6.43586e+62	1
8.12481e+62	1
8.79866e+62	1
1.92855e+62	1
1.83949e+62	1
9.48326e+61	1
2.18147e+62	1
2.16151e+62	1
3.31218e+62	1
3.93715e+62	1
9.59009e+62	1
7.33071e+62	1
1.43529e+63	1
2.26553e+63	1
2.15435e+63	1
8.69715e+62	1
2.19687e+63	1
7.80005e+63	1
5.65962e+63	1
4.91154e+63	1
4.74639e+63	1
5.86382e+63	1
7.31889e+63	1
6.15166e+63	1
2.52943e+64	1
2.8364e+64	1
3.81072e+64	1
2.81778e+64	1
5.27794e+63	1
3.4776e+63	1
1.16656e+64	1
9.64023e+63	1
2.45169e+64	1
3.58535e+63	1
4.04941e+63	1
3.27272e+63	1
1.50587e+64	1
4.43959e+63	1
8.5544e+62	1
2.17597e+63	1
1.9934e+63	1
9.3405e+62	1
7.35842e+62	1
5.78072e+62	1
9.57548e+62	1
4.25102e+62	1
1.36916e+63	1
2.64716e+63	1
8.24184e+63	1
2.75998e+63	1
2.5718e+63	1
5.93321e+62	1
4.67616e+62	1
1.77494e+63	1
4.56735e+63	1
1.18416e+64	1
4.13538e+63	1
1.01062e+64	1
1.7802e+64	1
2.12262e+64	1
3.98895e+64	1
8.21484e+64	1
8.7502e+64	1
4.30294e+64	1
2.13756e+64	1
5.33711e+64	1
3.02403e+64	1
1.47755e+64	1
4.30466e+64	1
1.1746e+64	1
1.37669e+64	1
3.99518e+63	1
1.68701e+63	1
1.79673e+63	1
2.04353e+63	1
1.38168e+63	1
3.31251e+63	1
1.72936e+63	1
1.73176e+63	1
5.31237e+63	1
8.86528e+62	1
9.46513e+62	1
5.81705e+62	1
7.99526e+62	1
1.13574e+63	1
5.87093e+62	1
1.94094e+63	1
5.79675e+62	1
3.41538e+62	1
1.43039e+62	1
1.43485e+62	1
2.85131e+62	1
5.83848e+62	1
2.26276e+62	1
2.33894e+62	1
8.74634e+61	1
2.90167e+62	1
9.39934e+61	1
1.07179e+62	1
1.35647e+62	1
8.10522e+61	1
3.31722e+61	1
6.22328e+61	1
4.24987e+61	1
4.34117e+61	1
3.0271e+61	1
6.44604e+60	1
5.51564e+60	1
3.25126e+60	1
1.52493e+60	1
4.40524e+59	1
4.57359e+59	1
1.02429e+60	1
8.42043e+59	1
1.01292e+60	1
8.86615e+59	1
2.89006e+59	1
2.6374e+59	1
3.70993e+59	1
1.41926e+59	1
7.1171e+58	1
3.21945e+59	1
1.31716e+59	1
5.25213e+59	1
2.24624e+59	1
2.17337e+59	1
2.9324e+59	1
1.35463e+59	1
2.46158e+59	1
1.77857e+59	1
2.51643e+59	1
2.19705e+59	1
2.25015e+59	1
2.25014e+59	1
6.9186e+59	1
1.09103e+60	1
1.33872e+60	1
1.16655e+60	1
1.23925e+60	1
4.51812e+60	1
2.71094e+60	1
2.86024e+60	1
1.08515e+61	1
1.17732e+61	1
1.07611e+61	1
3.52924e+60	1
1.45958e+60	1
1.1092e+60	1
7.85893e+59	1
1.08784e+60	1
3.67495e+60	1
4.53359e+60	1
2.08992e+60	1
5.67651e+60	1
1.52288e+61	1
4.22715e+61	1
5.68325e+61	1
2.08314e+61	1
6.07448e+61	1
4.21446e+61	1
3.8864e+61	1
1.37179e+62	1
2.26781e+62	1
2.24393e+62	1
2.25734e+62	1
8.14731e+62	1
1.06229e+63	1
3.71093e+62	1
2.37226e+62	1
1.36569e+63	1
4.27158e+62	1
7.17308e+62	1
1.76062e+63	1
4.23025e+63	1
3.1647e+63	1
1.13574e+64	1
2.27713e+63	1
4.45129e+63	1
4.4686e+63	1
3.53023e+63	1
1.31249e+63	1
1.28053e+63	1
5.65079e+63	1
1.13771e+64	1
1.3823e+64	1
2.36332e+64	1
9.20405e+63	1
8.05907e+64	1
1.66288e+64	1
3.08792e+64	1
2.65125e+64	1
1.77491e+64	1
6.92786e+64	1
7.79538e+64	1
2.15319e+65	1
1.22173e+65	1
1.0008e+65	1
9.96881e+64	1
5.31411e+64	1
1.50681e+64	1
2.10177e+64	1
5.69904e+63	1
8.21512e+63	1
1.07345e+64	1
8.00174e+63	1
3.17569e+63	1
5.31507e+63	1
6.16294e+64	1
7.30483e+64	1
2.50465e+65	1
6.27768e+64	1
2.91728e+64	1
3.32178e+64	1
6.64999e+63	1
2.91596e+63	1
2.25825e+63	1
2.25784e+63	1
5.24932e+63	1
2.50209e+63	1
8.42848e+63	1
3.91128e+64	1
2.53424e+64	1
4.8981e+63	1
3.2965e+63	1
1.16069e+63	1
2.12081e+62	1
1.42397e+62	1
4.54982e+62	1
4.53578e+62	1
5.6297e+62	1
1.01972e+63	1
1.02062e+63	1
8.86942e+62	1
8.14907e+63	1
2.58148e+63	1
7.92688e+62	1
2.69433e+62	1
2.90992e+62	1
2.57064e+62	1
2.04273e+63	1
6.09673e+62	1
4.57357e+62	1
1.47264e+63	1
1.56419e+63	1
1.82606e+62	1
6.36213e+61	1
3.74489e+61	1
3.9219e+61	1
5.40715e+61	1
1.35893e+62	1
2.47493e+61	1
4.16052e+61	1
4.70693e+61	1
5.31177e+61	1
1.45292e+62	1
4.97219e+61	1
1.54728e+61	1
5.59834e+61	1
3.95957e+61	1
7.68478e+61	1
6.06047e+61	1
2.35011e+62	1
5.39275e+61	1
4.84139e+61	1
7.56112e+61	1
3.16576e+61	1
2.55277e+61	1
1.15917e+62	1
3.38329e+62	1
1.09712e+62	1
1.00704e+62	1
1.81657e+62	1
3.56243e+61	1
2.76065e+61	1
9.04641e+60	1
2.54744e+61	1
3.96465e+61	1
4.68666e+61	1
2.27002e+61	1
2.12509e+61	1
2.12613e+61	1
4.16544e+61	1
2.2803e+61	1
2.49534e+61	1
9.55565e+61	1
1.47287e+62	1
3.48535e+62	1
2.14148e+62	1
2.087e+62	1
2.35529e+62	1
2.13388e+62	1
2.76451e+62	1
9.51924e+62	1
7.97634e+62	1
3.05407e+63	1
3.0327e+63	1
2.84031e+63	1
2.59578e+63	1
6.22226e+63	1
1.65353e+64	1
3.29748e+64	1
1.66099e+64	1
1.86564e+64	1
3.53016e+64	1
1.73369e+65	1
1.50874e+64	1
1.11025e+64	1
2.48352e+64	1
1.9459e+64	1
1.20535e+64	1
1.42659e+64	1
2.62434e+64	1
3.09351e+64	1
4.28471e+63	1
1.06463e+64	1
1.2519e+64	1
5.43391e+63	1
5.47362e+63	1
1.83958e+64	1
2.21603e+64	1
1.96516e+64	1
2.25721e+64	1
8.84989e+63	1
1.53241e+64	1
1.54671e+64	1
3.75047e+64	1
6.14302e+63	1
3.51795e+63	1
2.63964e+63	1
6.73671e+63	1
1.07828e+64	1
4.55309e+64	1
3.70044e+64	1
1.38909e+65	1
4.15322e+64	1
6.75041e+64	1
4.02898e+64	1
3.97643e+64	1
3.06873e+64	1
4.19358e+64	1
4.23418e+65	1
4.59849e+65	1
9.0757e+64	1
1.04927e+65	1
4.49095e+65	1
3.60864e+65	1
3.52089e+65	1
2.99124e+64	1
3.88307e+64	1
9.10227e+63	1
1.45014e+64	1
6.22744e+64	1
4.82851e+64	1
4.40499e+64	1
8.46967e+63	1
6.32672e+63	1
1.40032e+63	1
8.35346e+62	1
3.68815e+63	1
3.71011e+63	1
3.82632e+63	1
1.04364e+63	1
2.83948e+62	1
3.38914e+62	1
3.94747e+62	1
3.40264e+62	1
3.92792e+62	1
2.41003e+63	1
2.33825e+64	1
2.31894e+64	1
1.97205e+64	1
1.7057e+64	1
2.49325e+64	1
1.1074e+64	1
2.1229e+64	1
1.20054e+64	1
1.20614e+64	1
6.63542e+63	1
6.79092e+63	1
1.26132e+64	1
6.79891e+63	1
1.9691e+63	1
7.21273e+63	1
1.7104e+63	1
9.20951e+62	1
2.83912e+62	1
2.73021e+62	1
1.13294e+62	1
1.12528e+62	1
3.74245e+62	1
9.22011e+61	1
1.67248e+62	1
1.15143e+62	1
8.3719e+61	1
6.77604e+61	1
2.06018e+61	1
2.08159e+61	1
9.47958e+60	1
2.25429e+61	1
7.76233e+61	1
3.14568e+62	1
6.07215e+61	1
1.88802e+61	1
2.43766e+61	1
2.88829e+61	1
3.49644e+61	1
1.75161e+61	1
1.28468e+61	1
9.16807e+60	1
1.63955e+61	1
2.66531e+61	1
1.45795e+61	1
2.51069e+61	1
6.28044e+60	1
2.0301e+60	1
1.50965e+60	1
4.10427e+60	1
1.3684e+61	1
6.90247e+60	1
1.18536e+61	1
9.66729e+60	1
4.16557e+60	1
2.03391e+61	1
6.02057e+61	1
1.9943e+62	1
7.80614e+62	1
6.40957e+61	1
2.95641e+61	1
1.46983e+61	1
4.41716e+61	1
9.46863e+60	1
1.95423e+61	1
3.78101e+61	1
9.49275e+61	1
6.5692e+61	1
4.07483e+61	1
3.52163e+61	1
1.6293e+61	1
1.66333e+61	1
8.46101e+60	1
7.68015e+61	1
1.43929e+61	1
5.36381e+61	1
6.92906e+61	1
2.20278e+62	1
2.21107e+62	1
1.83201e+63	1
2.96333e+63	1
2.29568e+63	1
1.60075e+63	1
7.36936e+63	1
4.86375e+63	1
3.59168e+63	1
5.1805e+63	1
8.59669e+63	1
6.8257e+63	1
5.9336e+63	1
8.35585e+63	1
1.93037e+64	1
1.08539e+64	1
7.53184e+63	1
1.46394e+64	1
1.78727e+64	1
2.28937e+64	1
1.29593e+65	1
4.78144e+64	1
4.48896e+64	1
8.80836e+64	1
3.04577e+64	1
2.0478e+64	1
1.59417e+64	1
3.29561e+64	1
4.03971e+64	1
1.59744e+64	1
7.2011e+63	1
1.14195e+64	1
4.9996e+64	1
2.5418e+64	1
3.8549e+64	1
3.73294e+64	1
1.52245e+64	1
8.34185e+63	1
1.82033e+63	1
1.66647e+63	1
7.78121e+62	1
2.97935e+62	1
2.11635e+62	1
4.21606e+62	1
9.71637e+62	1
9.47348e+63	1
6.52068e+63	1
5.44711e+63	1
6.67449e+63	1
2.45845e+64	1
2.19234e+64	1
1.89723e+64	1
2.25681e+64	1
1.57674e+64	1
1.28575e+64	1
3.47423e+64	1
9.08863e+64	1
5.20901e+64	1
1.19674e+65	1
1.5472e+65	1
5.85829e+65	1
1.48788e+65	1
6.52192e+64	1
3.54911e+64	1
1.33736e+64	1
2.49536e+64	1
3.12447e+64	1
5.66619e+64	1
1.36658e+65	1
2.79435e+64	1
1.24135e+65	1
4.5245e+64	1
9.93168e+64	1
8.23678e+64	1
4.44183e+64	1
1.1543e+65	1
5.76164e+64	1
3.076e+64	1
5.59323e+64	1
2.55568e+65	1
5.40855e+64	1
6.43721e+64	1
9.20208e+64	1
1.03102e+65	1
1.75748e+65	1
2.02261e+65	1
1.75748e+65	1
3.39623e+65	1
8.27387e+65	1
5.38608e+65	1
2.35178e+65	1
5.34256e+65	1
2.28077e+66	1
3.90842e+66	1
1.76516e+66	1
9.26491e+65	1
3.54062e+65	1
6.88383e+65	1
2.54913e+66	1
4.73768e+66	1
4.72826e+66	1
1.25351e+67	1
2.23323e+67	1
1.23209e+67	1
3.73334e+66	1
1.71229e+66	1
3.54868e+65	1
1.85622e+65	1
3.18157e+65	1
3.99803e+65	1
3.89285e+65	1
1.03333e+66	1
1.94581e+65	1
9.7458e+64	1
6.57662e+64	1
3.88343e+64	1
3.6524e+64	1
2.84688e+64	1
2.97739e+64	1
6.17223e+64	1
7.50462e+64	1
2.31502e+65	1
7.00122e+64	1
1.0646e+65	1
1.35308e+65	1
4.41799e+65	1
5.37514e+65	1
1.25147e+66	1
6.63213e+65	1
2.30542e+65	1
5.55504e+65	1
2.62194e+66	1
7.39475e+66	1
2.45181e+66	1
2.21742e+66	1
2.40985e+67	1
6.98355e+66	1
2.50851e+66	1
1.79137e+66	1
2.16846e+66	1
7.42963e+66	1
4.65258e+66	1
1.17895e+67	1
2.84559e+67	1
9.98311e+66	1
1.92622e+66	1
1.41596e+66	1
5.0136e+65	1
7.25344e+65	1
7.33497e+65	1
7.25344e+65	1
8.55042e+65	1
1.65187e+66	1
3.51062e+66	1
2.36847e+66	1
6.42237e+66	1
1.83695e+66	1
1.92274e+67	1
1.38211e+67	1
5.28719e+67	1
1.37202e+67	1
1.57184e+67	1
4.15869e+66	1
5.68286e+65	1
5.53029e+65	1
3.60922e+65	1
5.87545e+65	1
6.62407e+65	1
2.15643e+66	1
2.12265e+66	1
1.24534e+66	1
7.89188e+65	1
2.19973e+65	1
1.67236e+65	1
1.35385e+65	1
9.21683e+64	1
1.63072e+65	1
7.21599e+64	1
7.76338e+64	1
1.04476e+64	1
9.67256e+63	1
3.38947e+63	1
2.85504e+63	1
1.87675e+63	1
3.07193e+63	1
2.73879e+63	1
2.34411e+63	1
2.01136e+63	1
2.24539e+63	1
2.01386e+63	1
9.15325e+63	1
3.99359e+63	1
3.14116e+64	1
1.12696e+64	1
1.67498e+63	1
1.34449e+63	1
5.62379e+63	1
3.14516e+63	1
1.39785e+63	1
6.19972e+63	1
7.52651e+63	1
1.31615e+64	1
8.09418e+63	1
7.85075e+63	1
2.19462e+64	1
2.7387e+64	1
3.66654e+64	1
1.15241e+64	1
3.70751e+63	1
6.02861e+63	1
1.33872e+63	1
5.10861e+62	1
4.56192e+62	1
7.16485e+62	1
7.17756e+62	1
4.90745e+62	1
1.12891e+63	1
3.77523e+63	1
1.37245e+63	1
5.0466e+63	1
3.86848e+63	1
1.25996e+64	1
2.3873e+63	1
1.16344e+63	1
1.66405e+63	1
2.46728e+63	1
6.43224e+63	1
3.46962e+63	1
1.04746e+64	1
3.92374e+63	1
2.93858e+63	1
4.24832e+63	1
1.88627e+64	1
6.0001e+64	1
1.7699e+64	1
1.65526e+64	1
1.66874e+64	1
1.44149e+64	1
1.81095e+64	1
1.41918e+64	1
1.91738e+64	1
3.70382e+64	1
9.96873e+64	1
1.11865e+65	1
1.03736e+65	1
1.16398e+64	1
6.56365e+63	1
6.53462e+63	1
2.4748e+64	1
3.52263e+64	1
9.19675e+63	1
3.77976e+63	1
3.56685e+63	1
2.63822e+63	1
6.23914e+63	1
3.2654e+63	1
4.3285e+64	1
1.65759e+64	1
4.34212e+63	1
5.82078e+63	1
2.10739e+64	1
6.92404e+63	1
9.59776e+63	1
7.88213e+63	1
2.11538e+63	1
1.19832e+63	1
4.38651e+62	1
1.64234e+62	1
3.18894e+62	1
3.27423e+62	1
1.42969e+63	1
5.35941e+63	1
5.33965e+63	1
1.189e+64	1
1.10223e+64	1
3.70502e+63	1
6.08065e+63	1
1.97247e+64	1
1.97087e+64	1
1.84453e+64	1
7.32873e+63	1
3.11088e+63	1
2.37095e+63	1
1.16866e+63	1
2.16008e+63	1
1.52344e+63	1
2.67483e+63	1
7.21523e+62	1
2.01241e+63	1
7.91029e+62	1
3.95861e+62	1
3.97431e+62	1
1.69755e+63	1
6.33904e+62	1
8.63142e+62	1
5.89675e+62	1
3.12044e+62	1
1.19886e+62	1
2.98366e+62	1
8.86678e+61	1
2.17932e+62	1
2.97976e+62	1
2.46884e+62	1
4.20757e+62	1
4.5709e+62	1
3.99626e+62	1
3.51717e+62	1
2.36823e+63	1
1.165e+63	1
4.19224e+62	1
1.17681e+63	1
3.13301e+62	1
5.85679e+62	1
9.4687e+62	1
3.52089e+63	1
7.22829e+62	1
9.28659e+62	1
7.02728e+62	1
7.45893e+62	1
4.89003e+62	1
3.8673e+62	1
1.26101e+62	1
1.1027e+62	1
1.10349e+62	1
4.00408e+62	1
3.32716e+62	1
1.05373e+63	1
1.43492e+64	1
1.12101e+64	1
2.80987e+63	1
1.37275e+63	1
6.47954e+62	1
4.13578e+62	1
9.06339e+62	1
1.23722e+63	1
4.1673e+62	1
4.16591e+62	1
3.23911e+62	1
1.26526e+63	1
1.14777e+63	1
1.74101e+62	1
5.98237e+61	1
5.99866e+61	1
6.25562e+61	1
5.30733e+61	1
1.8211e+62	1
5.01941e+61	1
2.84346e+61	1
2.72014e+61	1
4.41576e+61	1
1.40423e+62	1
5.13118e+61	1
8.36253e+61	1
7.48041e+61	1
6.23014e+61	1
1.74496e+62	1
9.45711e+61	1
9.84946e+61	1
2.27407e+62	1
6.54223e+62	1
2.15312e+63	1
7.04338e+62	1
9.69065e+62	1
8.50905e+62	1
6.48508e+62	1
4.14248e+62	1
5.87975e+62	1
5.75321e+62	1
2.55741e+62	1
5.58653e+62	1
4.70885e+62	1
4.13377e+63	1
5.79168e+63	1
1.66154e+63	1
5.82717e+63	1
4.60043e+63	1
5.75525e+63	1
1.17446e+64	1
2.78017e+64	1
2.57675e+64	1
1.77307e+64	1
4.2912e+63	1
4.36489e+63	1
2.26871e+63	1
5.84186e+63	1
2.59214e+63	1
3.62753e+63	1
4.67575e+62	1
2.7749e+62	1
3.41615e+62	1
1.4816e+62	1
2.29624e+62	1
1.21351e+63	1
1.84397e+63	1
2.58334e+63	1
6.95702e+62	1
9.25867e+62	1
2.58751e+62	1
1.45627e+62	1
1.49484e+62	1
1.50353e+62	1
1.01894e+62	1
3.41988e+62	1
2.01503e+63	1
4.32581e+62	1
7.50882e+62	1
7.50585e+62	1
1.35914e+63	1
6.99744e+62	1
3.96637e+63	1
4.01029e+63	1
1.29458e+63	1
4.64654e+62	1
6.94149e+62	1
5.86316e+62	1
5.85752e+62	1
5.1646e+62	1
3.15609e+62	1
2.40869e+62	1
4.042e+62	1
2.96788e+62	1
1.07816e+63	1
7.52374e+62	1
2.09391e+62	1
9.93965e+61	1
1.32502e+62	1
1.25318e+62	1
1.61873e+62	1
2.52881e+61	1
2.63146e+61	1
2.49166e+61	1
1.52042e+61	1
1.57942e+61	1
9.45937e+60	1
2.02148e+61	1
3.30696e+61	1
7.1021e+61	1
5.31861e+61	1
6.67424e+61	1
3.11509e+62	1
2.81136e+62	1
1.80287e+62	1
2.24099e+62	1
3.84868e+62	1
2.27339e+62	1
1.17855e+62	1
6.82882e+61	1
7.7566e+61	1
6.37835e+61	1
2.03564e+62	1
9.11594e+62	1
1.09065e+63	1
1.70812e+62	1
8.3652e+61	1
8.38874e+61	1
1.1887e+62	1
1.09532e+62	1
6.93255e+61	1
2.04634e+61	1
6.72103e+61	1
1.74622e+62	1
6.8896e+61	1
1.54046e+61	1
3.52511e+61	1
1.05991e+62	1
3.19612e+61	1
2.13608e+61	1
6.33249e+61	1
2.9856e+61	1
4.15839e+61	1
4.15871e+61	1
8.34358e+61	1
2.76822e+61	1
4.69469e+61	1
1.09322e+62	1
2.8795e+62	1
1.26085e+62	1
5.74136e+62	1
1.42224e+63	1
5.62077e+63	1
5.88169e+63	1
2.18901e+63	1
6.88903e+62	1
2.71838e+63	1
5.14827e+62	1
2.42877e+62	1
8.32584e+62	1
1.95555e+63	1
3.66757e+63	1
2.09565e+63	1
3.16818e+63	1
1.22671e+64	1
2.63582e+63	1
2.47023e+63	1
2.25508e+63	1
2.69123e+63	1
2.65837e+63	1
1.27415e+63	1
1.00891e+63	1
1.05031e+63	1
1.81435e+63	1
1.00516e+63	1
8.93919e+61	1
5.3627e+61	1
1.29386e+62	1
7.16842e+61	1
2.1524e+61	1
3.23395e+61	1
1.03811e+62	1
2.31832e+62	1
4.55263e+62	1
3.36923e+62	1
1.99329e+62	1
3.23604e+61	1
6.76457e+61	1
1.55489e+62	1
6.75476e+61	1
1.15309e+62	1
1.24965e+62	1
7.35016e+61	1
3.36226e+62	1
1.08842e+62	1
5.88217e+61	1
9.60956e+61	1
2.10013e+62	1
2.10017e+62	1
5.46028e+61	1
1.33163e+61	1
1.81385e+61	1
1.81467e+61	1
1.8641e+61	1
2.71619e+61	1
7.49895e+61	1
7.49895e+61	1
2.073e+62	1
1.29373e+62	1
9.7304e+61	1
6.17271e+61	1
1.12232e+62	1
9.23223e+61	1
1.80309e+62	1
1.33487e+62	1
3.83077e+61	1
9.06984e+61	1
5.34755e+61	1
2.9874e+61	1
3.91449e+61	1
5.20657e+61	1
5.58043e+61	1
1.82575e+61	1
4.54759e+61	1
6.39937e+61	1
2.25528e+61	1
7.30469e+61	1
2.15599e+61	1
6.25861e+60	1
1.77209e+61	1
7.77008e+60	1
2.13809e+61	1
2.84953e+61	1
9.25524e+61	1
5.73752e+61	1
3.22191e+61	1
4.94314e+61	1
1.87888e+62	1
2.31803e+62	1
2.29842e+62	1
1.85653e+62	1
7.84014e+62	1
1.87985e+63	1
5.08791e+62	1
1.29201e+63	1
1.02743e+62	1
3.63735e+61	1
1.10526e+62	1
2.02921e+62	1
4.08906e+62	1
2.23018e+62	1
5.17094e+61	1
2.10825e+61	1
2.12662e+61	1
4.48803e+61	1
1.6833e+62	1
1.16796e+62	1
1.13868e+62	1
1.43468e+62	1
9.08524e+62	1
5.84876e+62	1
8.47441e+62	1
8.52296e+62	1
9.6235e+62	1
7.73343e+62	1
6.95822e+62	1
1.5514e+63	1
1.12701e+63	1
4.38465e+62	1
1.9255e+62	1
2.59103e+62	1
1.12259e+62	1
1.48757e+62	1
4.35111e+61	1
2.33266e+61	1
1.03243e+61	1
9.22122e+60	1
1.24879e+61	1
4.13186e+61	1
1.18635e+62	1
1.27588e+63	1
3.58337e+63	1
3.74957e+63	1
8.57598e+62	1
8.89005e+62	1
6.68855e+62	1
8.92099e+62	1
1.79598e+62	1
1.4026e+62	1
5.36907e+62	1
2.10541e+62	1
4.155e+62	1
4.6211e+62	1
2.91632e+62	1
1.08621e+62	1
7.37912e+61	1
1.10856e+62	1
8.32825e+61	1
4.16584e+61	1
8.74476e+61	1
2.22109e+62	1
2.75417e+62	1
1.24293e+62	1
4.99116e+61	1
3.77209e+61	1
4.35572e+61	1
4.2369e+61	1
4.22162e+61	1
1.88685e+62	1
5.11127e+61	1
8.53879e+61	1
9.05445e+61	1
2.75986e+61	1
2.51633e+61	1
1.45083e+61	1
2.18991e+61	1
2.52635e+61	1
2.5812e+61	1
3.75086e+60	1
3.96831e+60	1
1.94497e+60	1
2.30959e+60	1
3.09092e+60	1
4.23953e+60	1
3.82934e+60	1
3.28657e+60	1
3.28876e+60	1
1.72643e+60	1
1.39428e+60	1
7.61164e+60	1
7.43179e+60	1
1.24165e+61	1
9.11912e+60	1
3.56978e+60	1
8.07732e+60	1
2.9311e+61	1
9.73895e+61	1
3.47808e+61	1
3.13479e+61	1
7.25397e+60	1
8.88809e+60	1
8.71312e+60	1
7.38887e+60	1
3.51257e+60	1
2.25444e+60	1
8.73481e+59	1
2.006e+60	1
1.45598e+60	1
2.48259e+60	1
1.13422e+60	1
3.44746e+60	1
4.70388e+60	1
2.42453e+60	1
1.91336e+60	1
1.02847e+60	1
5.04939e+60	1
1.95421e+61	1
1.37257e+61	1
1.33253e+61	1
8.2403e+60	1
3.48384e+61	1
1.00994e+61	1
7.15176e+60	1
1.6332e+60	1
1.32486e+60	1
1.1797e+61	1
2.24845e+60	1
1.61044e+60	1
1.09818e+60	1
5.74007e+60	1
1.06098e+61	1
3.92816e+61	1
2.26782e+62	1
5.71298e+61	1
4.80716e+61	1
5.73184e+61	1
1.64226e+62	1
2.72411e+62	1
1.45472e+63	1
5.87652e+62	1
9.38299e+62	1
2.66202e+63	1
1.12296e+63	1
1.51391e+63	1
2.70516e+63	1
4.06027e+63	1
2.98657e+63	1
1.11501e+63	1
1.75123e+63	1
1.8021e+63	1
1.27398e+63	1
1.15294e+63	1
1.33988e+63	1
4.11635e+63	1
6.96064e+63	1
2.89643e+63	1
7.84681e+63	1
8.4575e+63	1
2.88917e+63	1
2.51396e+63	1
1.83902e+63	1
1.93307e+63	1
2.60694e+63	1
2.65103e+63	1
5.8844e+62	1
9.70666e+62	1
3.37014e+63	1
8.75144e+62	1
1.98592e+63	1
1.07513e+63	1
1.43752e+63	1
2.09086e+63	1
3.80443e+63	1
6.93634e+62	1
1.34774e+63	1
1.32271e+63	1
5.42836e+62	1
1.08125e+63	1
7.75034e+62	1
6.97607e+62	1
8.95294e+62	1
5.75306e+62	1
1.69676e+63	1
6.12161e+62	1
1.04757e+63	1
1.08641e+63	1
1.64951e+63	1
5.60004e+62	1
4.5059e+62	1
9.35074e+62	1
1.53441e+63	1
2.60134e+62	1
9.34404e+61	1
1.24975e+62	1
7.68207e+61	1
2.28785e+62	1
5.09268e+61	1
1.51245e+62	1
1.02649e+62	1
5.78402e+61	1
2.88291e+61	1
1.45373e+61	1
3.3909e+61	1
1.33758e+62	1
5.21207e+61	1
4.77982e+61	1
1.02478e+61	1
1.49657e+61	1
1.00675e+61	1
1.1445e+61	1
2.1277e+61	1
1.11079e+61	1
1.40371e+61	1
5.71443e+61	1
3.92783e+61	1
3.51836e+61	1
1.37324e+62	1
1.08477e+63	1
1.88717e+63	1
1.65945e+63	1
1.39049e+63	1
5.00112e+62	1
1.00568e+63	1
1.36528e+63	1
2.14228e+62	1
2.21222e+62	1
2.08809e+62	1
1.06091e+63	1
6.43513e+62	1
1.1145e+62	1
2.38784e+62	1
1.98343e+62	1
1.17019e+62	1
1.66451e+62	1
7.46295e+61	1
1.35537e+62	1
5.67525e+62	1
2.45077e+62	1
7.72791e+61	1
1.8189e+62	1
1.01961e+63	1
2.36326e+63	1
3.50881e+62	1
1.44251e+62	1
3.65009e+62	1
1.75913e+62	1
5.08074e+62	1
1.48532e+63	1
5.83413e+62	1
2.44797e+62	1
6.88519e+62	1
4.43786e+62	1
2.20504e+62	1
1.61385e+63	1
3.32522e+63	1
7.52653e+62	1
1.72795e+62	1
2.13692e+62	1
2.13547e+62	1
1.3366e+62	1
7.48934e+61	1
1.56744e+62	1
2.11371e+62	1
7.64809e+61	1
1.37489e+62	1
9.65443e+61	1
3.59773e+61	1
8.3567e+61	1
8.35537e+61	1
3.66711e+62	1
1.44067e+62	1
1.07781e+62	1
1.09494e+62	1
5.69821e+61	1
1.04332e+62	1
8.50534e+61	1
3.02948e+61	1
1.38784e+61	1
3.54195e+61	1
3.55648e+61	1
2.89841e+61	1
8.39821e+60	1
5.7022e+60	1
1.24935e+61	1
1.20475e+61	1
1.87737e+60	1
3.55999e+60	1
5.89441e+60	1
2.30005e+60	1
4.29102e+60	1
4.24494e+60	1
4.46809e+60	1
2.11996e+61	1
1.60282e+61	1
7.28095e+60	1
3.37024e+61	1
3.74844e+61	1
3.43906e+61	1
3.43992e+61	1
1.48245e+61	1
2.57529e+61	1
3.0499e+61	1
1.85504e+61	1
3.40376e+61	1
1.86706e+61	1
8.56269e+61	1
1.43381e+62	1
4.87757e+62	1
3.2613e+62	1
2.01868e+62	1
7.68305e+61	1
3.95462e+61	1
4.11131e+61	1
3.37051e+61	1
4.42262e+61	1
2.15701e+61	1
2.40749e+61	1
1.01554e+62	1
2.1544e+62	1
2.05006e+62	1
1.9754e+62	1
1.04858e+62	1
1.0474e+62	1
6.94091e+61	1
2.48145e+62	1
8.43221e+61	1
3.37846e+61	1
1.25621e+62	1
2.56037e+61	1
5.21712e+61	1
1.34607e+62	1
1.49062e+62	1
5.38305e+62	1
3.0818e+62	1
1.57028e+62	1
1.12175e+62	1
1.59765e+62	1
6.0286e+62	1
8.95414e+62	1
3.14815e+62	1
1.0068e+63	1
3.77481e+63	1
4.39157e+63	1
6.73185e+63	1
1.08121e+64	1
4.77789e+63	1
2.53787e+63	1
3.41606e+63	1
6.3362e+63	1
2.46336e+63	1
2.43402e+63	1
3.58203e+63	1
7.73675e+63	1
1.26521e+64	1
1.28452e+64	1
1.23121e+64	1
8.21271e+63	1
4.04212e+63	1
7.87899e+62	1
6.56263e+62	1
9.89888e+62	1
1.44774e+63	1
1.44885e+63	1
1.78627e+63	1
1.37606e+63	1
1.76004e+63	1
9.18748e+62	1
1.79727e+63	1
1.12913e+63	1
1.44696e+63	1
2.6922e+63	1
8.40425e+63	1
1.04129e+64	1
1.94382e+64	1
7.10977e+64	1
3.7552e+64	1
2.64391e+64	1
5.26901e+64	1
9.54123e+64	1
4.16735e+64	1
4.99934e+64	1
4.05214e+64	1
1.17555e+64	1
1.44423e+64	1
2.00365e+63	1
5.75864e+63	1
1.03573e+64	1
2.36338e+63	1
1.7355e+63	1
5.78785e+63	1
1.59904e+63	1
9.66367e+62	1
1.73555e+63	1
1.03637e+63	1
3.4155e+62	1
6.51694e+61	1
5.01748e+61	1
1.26712e+62	1
5.11697e+61	1
8.52216e+61	1
1.19311e+62	1
8.74857e+61	1
5.97886e+61	1
2.0626e+62	1
1.35649e+62	1
1.79973e+62	1
1.86989e+62	1
5.3139e+62	1
1.15114e+63	1
5.58276e+62	1
8.05749e+62	1
4.82194e+62	1
7.95524e+62	1
2.03154e+63	1
9.32036e+62	1
1.92414e+63	1
4.02105e+62	1
-1.85829e+63	-1
7.03254e+62	1
8.79282e+62	1
1.11736e+63	1
6.38984e+62	1
4.43074e+62	1
9.83523e+62	1
2.9688e+62	1
3.28688e+62	1
5.35945e+62	1
7.06751e+62	1
2.9935e+62	1
5.54488e+62	1
3.61661e+62	1
4.23884e+62	1
7.20204e+62	1
1.87129e+63	1
7.9207e+62	1
3.67875e+62	1
8.85412e+61	1
4.98949e+61	1
3.51061e+61	1
4.46428e+61	1
4.80771e+61	1
3.64362e+62	1
3.67586e+62	1
1.42825e+62	1
8.46943e+61	1
2.807e+62	1
4.36123e+62	1
1.24524e+63	1
9.56627e+62	1
1.76607e+63	1
5.1789e+63	1
7.70881e+63	1
1.34916e+63	1
2.39133e+63	1
2.5638e+63	1
2.16534e+63	1
2.92477e+63	1
7.96194e+63	1
1.19141e+64	1
8.56703e+63	1
1.08885e+63	1
4.87888e+62	1
5.3016e+62	1
3.96139e+62	1
4.63083e+62	1
4.72205e+61	1
1.8611e+61	1
2.77867e+61	1
2.89759e+61	1
2.13658e+61	1
1.42185e+61	1
5.97712e+60	1
2.7038e+61	1
1.00924e+61	1
2.38148e+61	1
3.39245e+61	1
2.52028e+61	1
3.05164e+61	1
1.2223e+61	1
4.54246e+60	1
6.99499e+60	1
1.36876e+61	1
2.54332e+61	1
4.04359e+61	1
7.02022e+60	1
1.67241e+61	1
4.6304e+60	1
2.25774e+61	1
9.61667e+60	1
2.99144e+61	1
2.87105e+61	1
6.96912e+61	1
7.13957e+61	1
1.16507e+62	1
1.22001e+62	1
1.39619e+61	1
8.50594e+60	1
2.13938e+61	1
5.26784e+61	1
5.25837e+61	1
1.15974e+61	1
1.47962e+61	1
1.83043e+61	1
8.43762e+61	1
1.79425e+61	1
6.31799e+60	1
3.42606e+60	1
3.41604e+60	1
2.13342e+60	1
8.70177e+59	1
5.78013e+59	1
8.02458e+59	1
4.36588e+60	1
4.28869e+59	1
2.63332e+59	1
6.3263e+59	1
6.55536e+59	1
3.51378e+59	1
3.51295e+59	1
8.08295e+59	1
4.54537e+59	1
3.32305e+59	1
1.22345e+60	1
1.91118e+60	1
9.3391e+59	1
3.60877e+59	1
1.32852e+60	1
2.74301e+60	1
1.90306e+60	1
1.69163e+60	1
6.47119e+60	1
1.78094e+60	1
2.42235e+60	1
1.44509e+60	1
1.85376e+60	1
1.94467e+60	1
2.39076e+60	1
4.5997e+60	1
6.54711e+60	1
2.47829e+60	1
8.26892e+60	1
6.10193e+60	1
1.41204e+61	1
3.47121e+61	1
4.13567e+61	1
1.50761e+61	1
8.02752e+61	1
1.73452e+62	1
5.27762e+61	1
7.40776e+61	1
2.64537e+61	1
1.17473e+61	1
2.04807e+61	1
1.91548e+61	1
1.89316e+61	1
1.25859e+61	1
1.65808e+61	1
1.87893e+62	1
9.72698e+61	1
2.50197e+61	1
3.83264e+61	1
2.48624e+61	1
3.64755e+61	1
3.69551e+61	1
1.18983e+61	1
1.54404e+61	1
2.08691e+61	1
3.53517e+61	1
1.52739e+61	1
3.49345e+61	1
3.51931e+61	1
9.76983e+61	1
2.06064e+62	1
7.36433e+61	1
1.08665e+61	1
6.28405e+60	1
3.02428e+61	1
7.69303e+60	1
1.40535e+61	1
2.36205e+61	1
2.39657e+62	1
5.82058e+61	1
5.85243e+61	1
2.6922e+62	1
4.75515e+61	1
8.13284e+61	1
1.23244e+62	1
1.02641e+62	1
4.50477e+61	1
2.50736e+62	1
7.51728e+61	1
3.94858e+61	1
6.89002e+61	1
6.87049e+61	1
1.36578e+62	1
9.07141e+61	1
1.90436e+61	1
4.60872e+61	1
6.09256e+61	1
8.14025e+60	1
5.86804e+60	1
5.41467e+60	1
2.14724e+61	1
1.58961e+61	1
4.19949e+60	1
4.69859e+60	1
9.37853e+60	1
8.12166e+60	1
1.59838e+61	1
9.86762e+60	1
3.5596e+60	1
1.06634e+61	1
2.5113e+60	1
1.24346e+61	1
1.06846e+61	1
5.91474e+60	1
1.05232e+61	1
1.6565e+61	1
6.38384e+61	1
1.26852e+62	1
1.04151e+62	1
1.00129e+62	1
2.70138e+62	1
2.1022e+62	1
1.13263e+62	1
1.16296e+62	1
9.58611e+61	1
2.79818e+62	1
2.90318e+62	1
8.23908e+61	1
2.83189e+61	1
5.00913e+61	1
1.22103e+62	1
8.67033e+61	1
9.19074e+61	1
1.74683e+62	1
1.44679e+63	1
5.00528e+62	1
2.10111e+62	1
1.76598e+62	1
1.76429e+62	1
5.65024e+62	1
3.85855e+62	1
1.31906e+62	1
2.48424e+62	1
1.24962e+62	1
1.24791e+62	1
1.09201e+63	1
4.7044e+62	1
5.63234e+62	1
2.41097e+62	1
1.97653e+63	1
5.3481e+62	1
2.82474e+62	1
3.74943e+62	1
1.48076e+62	1
9.4537e+61	1
2.54124e+62	1
1.3245e+63	1
1.05941e+63	1
7.29597e+62	1
4.62306e+62	1
7.59287e+62	1
1.44504e+62	1
3.86237e+62	1
1.18692e+62	1
1.16315e+62	1
1.59645e+61	1
1.34935e+61	1
3.17453e+61	1
1.34661e+61	1
2.6782e+61	1
1.43229e+61	1
2.81803e+61	1
1.00661e+62	1
4.15485e+61	1
1.24301e+62	1
4.2184e+61	1
8.93096e+61	1
6.69092e+61	1
4.95974e+61	1
1.96469e+61	1
9.1909e+60	1
9.53072e+60	1
5.75338e+60	1
2.43157e+60	1
6.61649e+59	1
1.14979e+60	1
1.04811e+60	1
1.04989e+60	1
4.60498e+59	1
7.07402e+59	1
2.7053e+60	1
8.50853e+59	1
3.40602e+59	1
1.19474e+59	1
6.80595e+58	1
6.13801e+58	1
6.10499e+58	1
5.9368e+58	1
4.73347e+59	1
6.365e+59	1
3.24295e+59	1
3.11174e+59	1
7.65225e+58	1
1.24734e+59	1
4.2082e+59	1
9.44004e+58	1
1.10814e+59	1
1.10662e+59	1
1.10631e+59	1
3.21217e+59	1
2.998e+59	1
6.11056e+59	1
1.32591e+59	1
3.24417e+59	1
3.05321e+59	1
8.07792e+58	1
1.24381e+59	1
2.16182e+59	1
1.07045e+59	1
7.55539e+58	1
2.93803e+58	1
5.09001e+58	1
7.16188e+58	1
1.49505e+59	1
3.21697e+59	1
3.07546e+59	1
7.38356e+59	1
2.97726e+59	1
4.88585e+59	1
1.61844e+60	1
3.16474e+60	1
4.03774e+60	1
2.15686e+60	1
9.0165e+60	1
1.29516e+60	1
5.02679e+59	1
1.92177e+60	1
6.54989e+59	1
1.08482e+60	1
7.28269e+59	1
8.49603e+59	1
7.44382e+60	1
2.64109e+60	1
3.10424e+60	1
1.15244e+61	1
1.97828e+61	1
2.08942e+61	1
9.95727e+60	1
4.28396e+60	1
5.20844e+60	1
5.29236e+60	1
1.27927e+61	1
2.12372e+61	1
4.11665e+61	1
4.87183e+62	1
2.96689e+62	1
8.87925e+62	1
7.75256e+62	1
2.23646e+62	1
1.07396e+62	1
1.08564e+62	1
7.5849e+61	1
1.47119e+62	1
2.74203e+62	1
4.68648e+62	1
1.00965e+63	1
1.42968e+62	1
2.22137e+62	1
8.78653e+62	1
1.91048e+62	1
2.15154e+62	1
3.652e+62	1
3.61131e+62	1
8.6709e+62	1
5.61402e+62	1
2.07995e+63	1
1.25509e+63	1
1.38071e+63	1
1.5364e+64	1
5.72413e+63	1
7.43255e+63	1
4.10306e+64	1
8.55175e+63	1
4.68351e+63	1
1.48642e+64	1
1.61306e+64	1
1.37359e+64	1
1.13816e+64	1
2.41643e+63	1
1.52098e+63	1
2.90348e+63	1
2.20219e+63	1
1.35915e+64	1
1.2717e+64	1
1.70573e+64	1
1.55589e+64	1
4.9275e+64	1
5.07599e+65	1
1.12727e+65	1
1.04473e+65	1
2.46261e+64	1
1.69232e+65	1
7.01778e+64	1
3.18766e+64	1
1.71158e+64	1
2.84733e+64	1
1.08118e+65	1
1.35873e+65	1
1.7061e+65	1
8.26551e+64	1
1.0485e+65	1
1.71203e+65	1
9.3269e+64	1
7.71772e+65	1
6.30542e+65	1
6.16017e+64	1
3.1635e+64	1
3.31158e+64	1
9.46273e+64	1
1.46163e+65	1
-2.39129e+65	-1
8.19973e+65	1
9.35492e+65	1
1.32415e+66	1
1.40701e+66	1
1.27804e+66	1
2.27518e+66	1
2.37212e+66	1
3.14214e+66	1
2.68406e+66	1
2.58304e+66	1
3.30616e+66	1
2.60244e+66	1
5.38841e+66	1
5.39027e+66	1
3.21058e+66	1
5.02338e+66	1
2.37043e+67	1
2.74727e+67	1
1.01527e+68	1
8.68733e+67	1
6.78032e+67	1
8.05604e+67	1
2.10504e+67	1
9.89123e+67	1
1.22388e+68	1
3.43807e+67	1
8.74134e+66	1
3.40013e+66	1
1.36964e+67	1
1.9499e+66	1
2.39053e+66	1
4.00872e+66	1
1.14998e+66	1
2.94327e+66	1
1.91323e+66	1
2.22065e+66	1
2.99656e+66	1
1.78625e+66	1
2.03533e+66	1
2.96104e+66	1
7.69293e+66	1
1.18831e+66	1
2.19534e+66	1
5.8165e+66	1
4.43574e+66	1
1.99333e+67	1
2.15413e+67	1
3.01863e+67	1
4.42921e+66	1
3.64021e+66	1
3.97997e+66	1
9.00072e+66	1
2.97204e+67	1
3.79794e+67	1
2.93051e+67	1
7.05015e+67	1
8.44814e+66	1
3.83432e+66	1
7.17852e+66	1
7.49689e+66	1
5.27774e+66	1
9.20901e+66	1
3.49611e+66	1
5.50097e+66	1
2.80359e+67	1
3.0123e+67	1
2.10491e+67	1
6.4824e+67	1
1.0619e+68	1
7.45933e+67	1
4.31607e+67	1
8.98474e+66	1
2.51735e+67	1
9.0337e+66	1
2.35481e+66	1
1.12379e+66	1
2.5767e+66	1
7.55445e+66	1
2.56067e+66	1
2.60947e+66	1
4.48834e+66	1
5.51054e+66	1
4.31803e+66	1
2.09195e+66	1
2.53455e+66	1
2.22801e+66	1
6.90107e+65	1
8.78896e+65	1
6.07827e+65	1
4.97292e+65	1
3.00967e+66	1
5.92772e+66	1
4.63565e+66	1
4.24019e+66	1
2.09437e+66	1
2.8853e+66	1
3.71908e+66	1
1.67447e+66	1
4.17249e+65	1
8.34991e+65	1
9.43611e+65	1
9.65356e+66	1
8.16834e+66	1
1.92218e+66	1
1.30097e+66	1
3.70885e+66	1
2.13141e+65	1
1.1861e+65	1
1.3531e+65	1
1.40761e+65	1
4.27825e+65	1
8.78877e+65	1
3.31813e+65	1
7.54289e+65	1
8.97032e+65	1
7.80185e+65	1
9.67364e+65	1
4.48193e+66	1
1.86876e+67	1
2.76631e+66	1
2.19018e+66	1
9.42374e+66	1
2.51693e+66	1
3.28211e+66	1
3.27189e+66	1
3.82125e+66	1
4.17561e+66	1
1.91606e+66	1
7.2511e+65	1
7.2511e+65	1
1.33903e+67	1
1.95483e+67	1
1.90368e+67	1
1.15582e+67	1
1.04467e+67	1
3.03718e+67	1
2.63668e+68	1
9.70834e+68	1
1.85536e+69	1
2.13241e+69	1
4.02269e+69	1
8.0613e+68	1
2.46533e+68	1
5.06413e+67	1
4.78346e+67	1
4.05072e+68	1
1.23831e+68	1
4.13548e+68	1
8.08969e+68	1
1.40066e+69	1
4.51121e+69	1
4.03632e+70	1
5.44182e+71	1
5.38965e+71	1
1.7841e+71	1
1.60126e+72	1
2.40637e+71	1
1.78474e+71	1
1.02907e+71	1
1.95561e+71	1
2.12924e+71	1
6.6205e+71	1
3.95524e+72	1
2.03294e+72	1
1.24608e+71	1
3.91167e+70	1
2.96922e+70	1
4.40915e+70	1
2.27141e+70	1
9.59571e+70	1
6.28886e+70	1
2.51256e+71	1
4.75529e+70	1
1.6497e+71	1
1.44799e+70	1
1.065e+70	1
2.35184e+70	1
3.6895e+69	1
5.62413e+68	1
1.4055e+69	1
3.84317e+68	1
3.08209e+68	1
1.5242e+69	1
3.69684e+69	1
2.80684e+69	1
8.15045e+69	1
3.17299e+70	1
7.06514e+70	1
2.22687e+70	1
1.13567e+70	1
3.89355e+70	1
1.79517e+70	1
2.86653e+70	1
4.85261e+70	1
3.65395e+70	1
1.06854e+71	1
1.60192e+70	1
4.99417e+70	1
5.01123e+71	1
5.13114e+71	1
1.63379e+71	1
6.26738e+70	1
5.50201e+70	1
6.02493e+70	1
5.36118e+70	1
1.24463e+71	1
1.20547e+71	1
3.08896e+70	1
2.85719e+70	1
7.65067e+69	1
8.00121e+69	1
1.02464e+70	1
7.47678e+69	1
2.00628e+69	1
2.00628e+69	1
6.25788e+67	1
8.20302e+66	1
3.65952e+66	1
8.54344e+66	1
1.39055e+67	1
1.56541e+68	1
1.70776e+68	1
1.81781e+68	1
1.17941e+67	1
6.60126e+66	1
1.30784e+67	1
4.59933e+66	1
3.24545e+66	1
1.2327e+67	1
3.61476e+67	1
2.00546e+67	1
2.16326e+67	1
7.07564e+67	1
9.02261e+67	1
2.67059e+67	1
7.71973e+67	1
1.30028e+68	1
8.36121e+68	1
5.07766e+69	1
6.91223e+69	1
5.44376e+70	1
2.89616e+70	1
4.61772e+71	1
8.52311e+70	1
3.27706e+70	1
2.07237e+70	1
5.55381e+69	1
5.13684e+69	1
4.69354e+69	1
1.44383e+69	1
7.42395e+68	1
1.65581e+69	1
6.6676e+69	1
8.30828e+69	1
1.89778e+69	1
8.80641e+68	1
2.37524e+69	1
1.98265e+69	1
2.67168e+70	1
8.27711e+69	1
1.34422e+70	1
7.15455e+69	1
6.66238e+68	1
1.3587e+69	1
2.08343e+69	1
7.38651e+69	1
4.95712e+68	1
2.6509e+69	1
6.82246e+68	1
6.05573e+68	1
7.01296e+68	1
5.02227e+69	1
2.18477e+69	1
2.08216e+69	1
1.99961e+69	1
3.34568e+68	1
1.1613e+69	1
7.45067e+69	1
1.38026e+70	1
3.39226e+70	1
1.14701e+71	1
3.87141e+71	1
1.40963e+71	1
5.97871e+69	1
2.58384e+69	1
5.26879e+69	1
4.21803e+69	1
5.03489e+69	1
1.84873e+69	1
9.29737e+68	1
3.03628e+69	1
8.54969e+68	1
1.95981e+68	1
5.11755e+67	1
9.69227e+67	1
1.5824e+68	1
5.55129e+67	1
8.21313e+67	1
3.58331e+68	1
2.63809e+68	1
8.28028e+67	1
1.5882e+67	1
1.08929e+66	1
4.65671e+65	1
4.22826e+65	1
3.33433e+65	1
2.87403e+65	1
6.81647e+66	1
7.46483e+67	1
1.06027e+67	1
9.0095e+67	1
2.32338e+67	1
9.09848e+66	1
3.48519e+67	1
4.97047e+67	1
4.47502e+67	1
4.47302e+67	1
1.51548e+67	1
1.99843e+68	1
4.61806e+67	1
3.99165e+67	1
4.29695e+67	1
5.37322e+66	1
4.56146e+66	1
6.6468e+66	1
4.38489e+66	1
5.266e+67	1
5.266e+67	1
3.03622e+67	1
1.35207e+67	1
1.85143e+68	1
1.22446e+68	1
1.33206e+68	1
1.6648e+68	1
1.6509e+68	1
2.23315e+67	1
2.20184e+67	1
4.40204e+67	1
4.56864e+67	1
3.28422e+68	1
1.02486e+68	1
4.43413e+67	1
5.37067e+66	1
3.338e+67	1
3.95148e+67	1
4.36801e+67	1
1.61951e+68	1
4.73459e+67	1
7.69429e+67	1
3.96932e+67	1
1.57061e+68	1
4.02147e+69	1
1.78196e+69	1
2.85447e+69	1
1.04874e+70	1
1.20964e+70	1
5.26942e+70	1
1.97609e+70	1
6.00793e+69	1
2.19896e+69	1
2.56776e+69	1
4.66608e+69	1
3.10234e+69	1
1.72023e+70	1
7.09527e+71	1
3.01537e+72	1
5.3539e+73	1
8.7694e+72	1
7.65999e+72	1
3.15548e+73	1
2.17648e+73	1
1.54544e+73	1
2.86105e+72	1
5.23429e+72	1
2.52213e+72	1
1.18114e+73	1
7.86419e+73	1
7.75806e+73	1
1.13363e+73	1
2.10367e+72	1
2.66293e+71	1
1.59326e+71	1
6.8806e+70	1
7.07161e+70	1
2.55225e+70	1
2.55225e+70	1
7.22999e+70	1
1.81851e+71	1
1.85946e+70	1
2.56064e+70	1
1.68222e+70	1
2.091e+69	1
1.00362e+69	1
3.85426e+69	1
1.35899e+69	1
4.26366e+69	1
1.29203e+70	1
2.12558e+70	1
1.35168e+70	1
6.5885e+70	1
2.45531e+71	1
2.83127e+71	1
6.63921e+71	1
2.8723e+72	1
2.08052e+72	1
1.2109e+72	1
1.32864e+72	1
1.26059e+72	1
6.18628e+71	1
4.06727e+71	1
1.44834e+72	1
1.19091e+72	1
1.8577e+71	1
2.44091e+71	1
2.58988e+70	1
8.19896e+69	1
1.80526e+70	1
6.83601e+70	1
1.01448e+71	1
2.32529e+70	1
2.12099e+70	1
5.77022e+70	1
5.36624e+70	1
5.78172e+70	1
1.98612e+70	1
1.15471e+70	1
1.21894e+70	1
1.31956e+70	1
4.78287e+69	1
5.34465e+68	1
3.38166e+68	1
3.21482e+68	1
1.20882e+69	1
8.91439e+68	1
3.27719e+68	1
1.18285e+68	1
1.41379e+68	1
4.11512e+68	1
8.72948e+68	1
7.75488e+68	1
2.26714e+68	1
7.8283e+67	1
5.13558e+67	1
3.39086e+68	1
3.76833e+69	1
4.08594e+69	1
8.45494e+69	1
7.0995e+69	1
2.69255e+70	1
3.10272e+69	1
2.7799e+69	1
5.43806e+69	1
6.44688e+69	1
2.18049e+70	1
5.69889e+69	1
5.79507e+69	1
3.27881e+69	1
6.39192e+69	1
2.59162e+70	1
2.13748e+70	1
5.19414e+69	1
1.14158e+69	1
1.53548e+69	1
1.11985e+69	1
3.44382e+68	1
2.93398e+68	1
3.23707e+67	1
1.13211e+67	1
5.31409e+66	1
2.19905e+67	1
1.38623e+67	1
2.13442e+67	1
3.66322e+67	1
1.62689e+67	1
5.92536e+66	1
5.39823e+66	1
2.64367e+67	1
2.67619e+67	1
3.78023e+68	1
1.51997e+69	1
3.81379e+68	1
3.81379e+68	1
2.4941e+68	1
3.59626e+69	1
5.2317e+69	1
6.87569e+68	1
1.88961e+69	1
2.19282e+69	1
1.7861e+69	1
2.11289e+68	1
1.11191e+69	1
9.4816e+68	1
1.27697e+68	1
1.63986e+69	1
1.76936e+69	1
3.31135e+68	1
3.15012e+68	1
7.93578e+68	1
1.7472e+69	1
6.03e+69	1
1.52432e+69	1
2.93564e+69	1
1.49984e+68	1
6.79407e+68	1
7.61281e+68	1
7.19481e+68	1
4.64136e+67	1
2.46969e+67	1
1.41008e+67	1
2.8161e+67	1
9.17813e+66	1
1.25737e+67	1
6.85935e+66	1
1.06139e+67	1
1.71215e+67	1
1.7932e+67	1
2.989e+66	1
9.66143e+65	1
1.58787e+66	1
5.24767e+65	1
1.69147e+65	1
5.99976e+64	1
1.36789e+64	1
1.96941e+64	1
2.72967e+64	1
2.66243e+65	1
9.48478e+65	1
1.01876e+66	1
9.22253e+65	1
1.03999e+66	1
8.08295e+66	1
1.32586e+67	1
3.89161e+66	1
6.27318e+66	1
7.91539e+66	1
1.32714e+67	1
4.72382e+66	1
4.29618e+66	1
2.30131e+67	1
1.53271e+67	1
1.2432e+67	1
2.4015e+67	1
4.52058e+66	1
4.77306e+66	1
1.66712e+67	1
1.26314e+67	1
1.40978e+67	1
3.10358e+67	1
7.76433e+66	1
3.60156e+67	1
1.46453e+68	1
2.24829e+68	1
2.52336e+67	1
7.39172e+66	1
1.58125e+67	1
2.01532e+68	1
4.03401e+67	1
2.30583e+67	1
5.2613e+66	1
3.00061e+66	1
6.29836e+65	1
2.62877e+65	1
1.16796e+66	1
3.62566e+65	1
2.46886e+66	1
2.3094e+66	1
9.57956e+65	1
6.61905e+65	1
4.78125e+65	1
5.19162e+65	1
2.27988e+66	1
5.76644e+66	1
2.83588e+67	1
5.32232e+66	1
3.89229e+66	1
1.30341e+67	1
2.88273e+67	1
3.56591e+67	1
2.6273e+67	1
3.25887e+68	1
4.43425e+67	1
1.31214e+68	1
3.21297e+69	1
2.68327e+69	1
2.29621e+69	1
2.84444e+69	1
2.14584e+69	1
5.01296e+68	1
4.71384e+68	1
1.26669e+68	1
4.62605e+67	1
4.91024e+67	1
5.44024e+67	1
7.88225e+67	1
4.95692e+67	1
2.03856e+67	1
4.79996e+66	1
6.51986e+66	1
3.54706e+66	1
1.16787e+67	1
5.89692e+66	1
4.59507e+66	1
8.68883e+66	1
1.69522e+67	1
4.23029e+67	1
3.00026e+67	1
3.00026e+67	1
7.23504e+67	1
2.99372e+68	1
2.73821e+68	1
9.5593e+68	1
6.61822e+68	1
8.15112e+68	1
7.55122e+68	1
1.67335e+69	1
4.14203e+69	1
3.5343e+68	1
4.3247e+68	1
8.0039e+67	1
2.18694e+68	1
3.57632e+68	1
1.31452e+68	1
5.71435e+68	1
5.71435e+68	1
-1.12204e+69	-1
-3.86178e+68	-1
-6.34665e+68	-1
-4.62218e+69	-1
-4.83083e+70	-1
-1.48744e+71	-1
-5.78838e+71	-1
-6.1606e+71	-1
-5.37926e+71	-1
-1.77308e+72	-1
-4.15529e+72	-1
1.41818e+72	1
3.59986e+73	1
5.73235e+72	1
6.03753e+72	1
6.03753e+72	1
1.34575e+72	1
8.6001e+72	1
2.50245e+72	1
2.67062e+72	1
2.08001e+72	1
1.28769e+73	1
4.20022e+73	1
1.36825e+73	1
3.52675e+72	1
9.81284e+71	1
4.16062e+70	1
1.48179e+70	1
3.21218e+70	1
3.76719e+70	1
3.41244e+71	1
4.02801e+71	1
5.75366e+72	1
1.35294e+72	1
1.2754e+71	1
3.8565e+71	1
3.8179e+71	1
2.4528e+70	1
8.2814e+70	1
2.40048e+70	1
1.00771e+71	1
1.00771e+71	1
1.27217e+70	1
1.38671e+70	1
1.81793e+69	1
1.61942e+70	1
6.77052e+70	1
1.69019e+70	1
1.68636e+70	1
1.05819e+69	1
1.05819e+69	1
4.32923e+69	1
4.22507e+69	1
1.56312e+70	1
1.18924e+70	1
1.76276e+70	1
1.24474e+71	1
3.44871e+70	1
1.51635e+71	1
1.51635e+71	1
2.30963e+72	1
1.48751e+72	1
5.45824e+72	1
2.72285e+73	1
2.30605e+72	1
7.96726e+71	1
3.80993e+71	1
3.80993e+71	1
1.68872e+72	1
4.25474e+71	1
4.25474e+71	1
1.7881e+72	1
1.7881e+72	1
1.7881e+72	1
1.7881e+72	1
2.05354e+72	1
5.00908e+71	1
8.50452e+72	1
3.57151e+73	1
2.06419e+72	1
2.46176e+72	1
3.24687e+71	1
1.24802e+72	1
1.16039e+72	1
8.84768e+72	1
6.34673e+71	1
1.65966e+71	1
4.37845e+71	1
1.92252e+72	1
1.688e+73	1
8.59121e+72	1
8.51443e+72	1
8.51443e+72	1
1.11842e+74	1
1.18796e+74	1
2.34787e+73	1
2.34787e+73	1
2.16478e+73	1
3.0745e+74	1
1.30545e+75	1
4.94052e+75	1
8.01823e+76	1
3.14939e+77	1
3.14729e+77	1
9.7137e+76	1
1.0679e+77	1
4.04755e+77	1
3.68242e+77	1
5.0296e+78	1
1.26736e+78	1
1.15558e+77	1
3.33445e+77	1
1.24176e+78	1
2.15319e+79	1
5.31096e+78	1
4.02905e+77	1
3.57497e+77	1
1.15491e+77	1
7.73986e+76	1
2.14627e+77	1
1.66387e+77	1
8.24419e+77	1
2.05346e+77	1
2.05346e+77	1
-2.20923e+76	-1
1.86192e+76	1
3.89349e+76	1
6.32082e+76	1
2.00271e+77	1
5.20472e+77	1
3.97846e+77	1
3.97846e+77	1
3.97846e+77	1
5.05709e+77	1
1.06568e+77	1
2.69966e+76	1
2.69966e+76	1
4.48113e+75	1
4.48113e+75	1
2.39858e+76	1
3.20295e+76	1
3.20295e+76	1
1.19805e+76	1
1.87938e+76	1
5.21705e+75	1
1.06884e+76	1
2.52984e+75	1
7.39694e+74	1
4.63859e+75	1
7.74753e+76	1
2.43515e+75	1
3.42208e+75	1
3.52825e+75	1
8.5782e+75	1
9.49723e+76	1
3.57528e+76	1
2.17622e+76	1
1.33274e+77	1
3.38478e+76	1
3.44465e+76	1
2.95584e+75	1
1.00467e+76	1
2.32621e+75	1
2.32621e+75	1
8.24785e+73	1
1.94656e+73	1
9.14937e+72	1
1.26995e+73	1
1.3457e+73	1
9.58927e+72	1
9.67085e+72	1
9.37083e+72	1
3.42183e+71	1
3.41168e+71	1
1.49639e+72	1
1.49639e+72	1
1.49639e+72	1
3.98398e+71	1
4.65546e+71	1
1.48421e+72	1
3.98307e+71	1
1.54998e+72	1
1.01716e+72	1
3.87992e+72	1
-1.44835e+72	-1
-8.56169e+71	-1
-3.27926e+72	-1
-1.38859e+72	-1
-3.06973e+72	-1
-9.92877e+71	-1
-2.2245e+71	-1
-2.11404e+71	-1
-2.70955e+72	-1
-1.68362e+72	-1
-5.20811e+72	-1
-5.20811e+72	-1
-1.33139e+72	-1
-3.46784e+71	-1
-1.10709e+72	-1
-2.75564e+72	-1
-3.02751e+71	-1
-1.06844e+72	-1
-3.10437e+71	-1
-3.10437e+71	-1
-1.5398e+71	-1
-2.2494e+69	-1
3.3965e+70	1
3.64596e+71	1
2.17432e+71	1
1.00495e+71	1
7.70174e+70	1
2.27608e+71	1
6.02201e+71	1
2.78482e+72	1
3.17329e+72	1
8.40216e+71	1
3.50177e+71	1
8.96307e+70	1
8.59223e+70	1
3.79874e+70	1
1.73644e+71	1
5.93252e+70	1
4.31463e+70	1
5.00308e+70	1
4.23977e+71	1
4.1617e+71	1
1.82044e+72	1
2.21503e+72	1
3.79667e+73	1
1.29115e+74	1
1.29115e+74	1
1.9646e+73	1
5.24036e+72	1
2.76006e+72	1
2.53312e+71	1
2.10356e+71	1
9.28305e+71	1
1.08576e+72	1
5.41895e+71	1
2.63387e+71	1
9.14514e+70	1
6.82187e+70	1
7.24974e+70	1
2.26526e+71	1
8.55055e+70	1
7.03887e+70	1
6.4839e+70	1
4.87479e+71	1
4.28619e+71	1
1.53114e+72	1
3.23314e+72	1
6.5649e+71	1
2.58283e+71	1
1.15226e+72	1
1.50581e+73	1
5.72915e+71	1
5.32532e+70	1
1.97927e+70	1
2.62135e+70	1
2.66803e+70	1
7.40464e+70	1
9.39136e+69	1
1.68184e+69	1
1.26849e+68	1
1.80309e+68	1
1.46443e+68	1
4.12193e+68	1
2.67019e+69	1
2.79385e+69	1
1.66028e+69	1
1.18045e+69	1
8.1157e+67	1
9.24416e+67	1
1.30582e+69	1
3.68909e+67	1
1.64393e+67	1
6.07185e+67	1
1.36517e+69	1
3.13042e+68	1
3.15764e+68	1
4.29352e+68	1
2.98521e+68	1
3.15422e+68	1
1.56661e+68	1
2.37848e+67	1
5.99604e+67	1
4.61825e+67	1
4.46548e+67	1
4.73525e+67	1
5.32915e+67	1
1.91613e+67	1
3.64528e+67	1
1.03989e+68	1
3.02483e+67	1
1.42674e+68	1
2.24583e+67	1
6.43082e+67	1
6.64688e+68	1
4.60679e+68	1
1.26402e+68	1
3.87894e+67	1
3.45305e+67	1
5.02248e+67	1
4.47308e+67	1
2.07545e+67	1
1.99565e+66	1
9.56362e+65	1
1.79608e+66	1
1.21205e+66	1
1.21205e+66	1
6.6194e+65	1
1.93991e+64	1
5.54914e+64	1
2.29815e+63	1
1.13416e+63	1
2.19243e+63	1
5.1833e+63	1
6.70484e+62	1
7.39702e+63	1
2.44649e+64	1
2.72545e+64	1
9.5018e+64	1
3.11065e+65	1
9.94274e+64	1
9.16758e+63	1
1.07372e+65	1
9.19119e+64	1
1.06922e+66	1
4.00829e+66	1
3.2075e+65	1
3.02244e+64	1
1.76814e+64	1
5.42052e+64	1
5.42052e+64	1
1.47916e+65	1
2.23108e+65	1
8.24531e+65	1
2.61086e+66	1
9.40369e+66	1
3.86959e+67	1
2.98976e+67	1
4.87744e+67	1
7.5079e+68	1
1.51849e+68	1
1.76541e+68	1
5.32929e+68	1
1.90558e+68	1
4.98149e+68	1
4.66524e+68	1
1.46833e+68	1
1.22245e+68	1
1.01995e+67	1
4.63043e+66	1
3.58617e+65	1
1.06035e+66	1
3.47746e+65	1
7.29004e+65	1
4.29747e+65	1
5.65338e+65	1
3.06441e+65	1
1.43349e+66	1
9.46953e+65	1
1.24226e+66	1
3.26229e+66	1
3.15693e+66	1
5.8949e+66	1
7.07911e+66	1
4.2801e+67	1
3.43624e+67	1
2.09768e+68	1
2.03515e+68	1
9.7305e+68	1
6.56965e+69	1
5.48145e+69	1
2.77738e+69	1
2.05124e+70	1
2.90981e+70	1
2.90901e+69	1
3.16309e+69	1
1.27571e+69	1
1.12284e+69	1
5.06163e+69	1
6.44279e+68	1
2.26795e+69	1
1.95679e+69	1
2.94827e+69	1
2.7742e+69	1
3.99036e+69	1
1.1044e+70	1
1.01258e+69	1
8.53064e+68	1
2.51898e+69	1
2.13309e+70	1
1.1245e+70	1
6.65774e+69	1
7.65724e+69	1
2.20137e+69	1
7.1117e+68	1
1.56776e+69	1
1.48905e+69	1
7.76504e+68	1
1.93298e+68	1
2.74049e+68	1
2.33329e+68	1
5.91805e+67	1
8.6122e+67	1
2.94903e+67	1
2.51141e+68	1
1.47204e+68	1
1.08262e+68	1
3.18802e+67	1
2.75736e+68	1
3.26464e+68	1
6.31429e+69	1
1.30494e+70	1
1.2523e+70	1
1.15125e+69	1
4.50914e+69	1
3.28507e+69	1
3.0679e+69	1
1.42371e+69	1
4.05928e+68	1
1.69894e+69	1
1.94248e+69	1
1.60634e+69	1
4.66127e+68	1
4.41831e+69	1
4.57435e+69	1
4.107e+69	1
6.7603e+68	1
-6.83728e+68	-1
-2.07212e+69	-1
-1.34414e+70	-1
-5.78499e+69	-1
-6.3963e+69	-1
-2.72026e+69	-1
-4.42755e+69	-1
-4.31982e+70	-1
-5.03389e+69	-1
-2.30545e+69	-1
-1.94688e+69	-1
-1.3531e+69	-1
-8.80235e+68	-1
-8.28067e+69	-1
-4.9763e+69	-1
-1.18332e+69	-1
-2.39322e+69	-1
-2.90305e+69	-1
-3.08291e+69	-1
-1.14717e+70	-1
-4.53892e+70	-1
-1.92009e+70	-1
-1.4986e+71	-1
-1.9414e+72	-1
-2.46579e+71	-1
-1.70382e+71	-1
-3.07482e+70	-1
-4.91134e+70	-1
-1.45992e+71	-1
-3.34587e+70	-1
-1.06773e+71	-1
-1.03725e+71	-1
-1.18074e+70	-1
-3.65436e+70	-1
-7.75225e+69	-1
-7.8329e+69	-1
-5.44722e+69	-1
-3.09418e+69	-1
-1.86105e+70	-1
-3.95096e+70	-1
-6.91359e+70	-1
-2.57226e+70	-1
-5.59768e+70	-1
-2.81e+72	-1
-1.14779e+72	-1
-7.87352e+71	-1
-6.76277e+71	-1
-1.51729e+71	-1
-1.31806e+71	-1
-6.23387e+71	-1
-2.82672e+72	-1
-9.85976e+71	-1
-6.82778e+71	-1
-6.45843e+71	-1
-7.98307e+71	-1
-7.94559e+72	-1
-1.78219e+72	-1
-1.36119e+72	-1
-1.22756e+72	-1
-1.64142e+72	-1
-1.01963e+72	-1
-5.10183e+71	-1
-4.24559e+71	-1
-1.00558e+71	-1
-3.05535e+70	-1
-2.89622e+70	-1
-1.40771e+70	-1
-8.45394e+70	-1
-3.16008e+70	-1
-1.00422e+70	-1
-4.76305e+69	-1
-3.89293e+68	-1
-1.54197e+69	-1
-8.9129e+69	-1
-2.69348e+70	-1
-2.8162e+70	-1
-2.17641e+70	-1
-1.71091e+71	-1
-1.17037e+71	-1
-2.09605e+71	-1
-8.53201e+71	-1
-1.00387e+72	-1
-8.94878e+71	-1
-9.81522e+71	-1
-4.08616e+71	-1
-9.36527e+70	-1
-7.77905e+69	-1
-1.00739e+70	-1
-2.98781e+69	-1
-3.47425e+69	-1
-5.03246e+69	-1
-1.31107e+70	-1
-5.52065e+69	-1
-8.22278e+70	-1
-1.13207e+70	-1
-6.07985e+70	-1
-2.04055e+71	-1
-5.44154e+71	-1
-1.67093e+71	-1
-7.5524e+71	-1
-1.31131e+71	-1
-1.01574e+71	-1
-1.34383e+70	-1
-1.67708e+70	-1
-6.48487e+68	-1
-4.83548e+68	-1
2.45879e+68	1
7.58928e+68	1
9.17122e+68	1
4.98612e+68	1
6.19548e+68	1
6.37807e+68	1
1.18569e+69	1
2.83846e+68	1
6.76886e+67	1
6.03771e+67	1
2.31753e+68	1
1.63854e+67	1
6.60431e+66	1
1.0391e+67	1
7.29972e+66	1
2.0662e+67	1
7.16539e+66	1
7.29432e+67	1
1.68083e+68	1
3.74398e+67	1
5.08221e+66	1
4.64884e+66	1
1.38871e+67	1
3.03156e+66	1
2.48605e+66	1
1.37838e+66	1
6.92091e+66	1
3.93188e+67	1
9.07834e+67	1
1.08478e+69	1
4.37762e+69	1
3.07079e+68	1
3.72597e+69	1
3.2843e+69	1
4.53644e+68	1
9.30576e+67	1
2.7172e+67	1
1.33745e+67	1
3.23781e+66	1
6.69989e+65	1
8.18214e+65	1
1.65086e+65	1
4.38239e+65	1
4.99988e+66	1
2.59424e+68	1
3.88874e+68	1
2.25668e+68	1
1.02677e+69	1
9.62177e+68	1
9.55794e+68	1
4.03224e+69	1
1.20601e+69	1
1.3073e+70	1
1.37984e+69	1
8.10355e+68	1
2.69143e+69	1
1.5923e+69	1
8.77043e+68	1
5.35626e+68	1
4.11085e+68	1
8.43449e+69	1
4.01957e+70	1
1.49303e+71	1
1.10316e+70	1
1.96473e+70	1
3.7739e+70	1
4.10111e+70	1
1.04557e+70	1
3.48254e+69	1
3.14374e+69	1
1.99462e+69	1
2.1933e+69	1
2.57836e+69	1
5.97193e+69	1
2.52224e+70	1
5.67665e+70	1
2.90153e+70	1
1.1075e+69	1
1.91833e+69	1
1.51071e+69	1
1.37504e+69	1
1.23803e+69	1
1.08606e+69	1
4.56508e+70	1
1.14489e+70	1
4.43339e+70	1
1.95957e+70	1
1.25322e+71	1
2.90912e+70	1
6.668e+69	1
1.53552e+69	1
1.47847e+69	1
1.53512e+69	1
4.81124e+68	1
1.0866e+68	1
4.73977e+68	1
1.70661e+68	1
2.72373e+68	1
2.74618e+69	1
3.53417e+69	1
3.7495e+69	1
1.62336e+69	1
6.01699e+69	1
3.04965e+70	1
1.44792e+70	1
2.25231e+70	1
1.17002e+70	1
7.30079e+69	1
1.85371e+69	1
1.96263e+69	1
2.00664e+69	1
6.65107e+67	1
6.91707e+66	1
-7.26861e+66	-1
-3.45463e+67	-1
-2.55778e+68	-1
-1.55146e+69	-1
-4.69303e+68	-1
-1.07552e+68	-1
-3.3011e+68	-1
-4.03074e+68	-1
-5.73723e+68	-1
-6.04646e+69	-1
-1.56337e+69	-1
-2.48112e+68	-1
-6.7327e+68	-1
-8.80316e+67	-1
-2.47032e+68	-1
-1.17958e+68	-1
-1.17958e+68	-1
-8.16487e+67	-1
-2.51305e+68	-1
-2.3922e+68	-1
-7.62443e+67	-1
-3.88527e+68	-1
-1.33849e+69	-1
-4.73018e+69	-1
-4.67978e+69	-1
-4.14155e+69	-1
-8.58053e+68	-1
-2.3042e+69	-1
-3.69696e+69	-1
-1.2487e+70	-1
-5.71916e+69	-1
-1.87566e+69	-1
-1.64528e+69	-1
-3.82678e+67	-1
-1.34956e+67	-1
-1.47426e+67	-1
-5.51623e+66	-1
-1.59846e+67	-1
-1.41464e+67	-1
-1.81017e+67	-1
-7.9039e+67	-1
-8.99496e+67	-1
-3.75519e+67	-1
-2.59919e+66	-1
-1.48465e+66	-1
-2.42426e+66	-1
-1.80282e+66	-1
-1.93463e+66	-1
-1.18653e+66	-1
-1.90339e+66	-1
-3.18479e+66	-1
-1.68922e+66	-1
-6.26037e+65	-1
-1.14097e+65	-1
-2.69667e+65	-1
-1.29121e+65	-1
-3.31858e+65	-1
-1.63172e+65	-1
-1.15313e+65	-1
-5.67804e+64	-1
-3.36608e+65	-1
-9.86984e+65	-1
-3.67529e+66	-1
-1.07335e+66	-1
-4.98653e+65	-1
-2.08147e+64	-1
-4.9419e+63	-1
-4.00362e+63	-1
-1.62883e+64	-1
-2.50043e+65	-1
-2.8842e+65	-1
-1.04025e+65	-1
-5.98883e+64	-1
-1.61074e+65	-1
-5.41764e+65	-1
-7.22857e+66	-1
-2.29543e+66	-1
-2.4452e+67	-1
-6.25493e+66	-1
-2.61211e+66	-1
-7.01609e+65	-1
-2.13755e+65	-1
-2.0167e+65	-1
-1.62453e+65	-1
-2.3127e+65	-1
-2.68553e+64	-1
-3.82689e+64	-1
-3.7587e+64	-1
-3.20413e+65	-1
-2.21158e+66	-1
-2.21158e+66	-1
-8.37889e+66	-1
-1.33769e+67	-1
-4.03045e+66	-1
-9.63671e+65	-1
-5.24386e+66	-1
-8.2155e+66	-1
-1.24308e+68	-1
-4.76944e+68	-1
-1.6149e+68	-1
-7.14199e+68	-1
-1.57053e+68	-1
-1.13033e+68	-1
-4.97332e+67	-1
-1.12767e+67	-1
-6.97089e+66	-1
-5.21992e+66	-1
-3.66286e+67	-1
-1.04316e+68	-1
-2.36627e+67	-1
-1.7212e+67	-1
-1.14898e+67	-1
-1.16005e+67	-1
-6.86315e+66	-1
-2.3845e+67	-1
-1.00985e+67	-1
-1.8944e+67	-1
-2.67025e+67	-1
-1.80242e+67	-1
-1.36169e+66	-1
-5.70031e+66	-1
-4.71058e+66	-1
-6.34923e+65	-1
-4.31738e+65	-1
-1.08261e+64	-1
5.1656e+63	1
1.88695e+64	1
1.44838e+64	1
4.06021e+64	1
6.41802e+63	1
8.37958e+63	1
1.6946e+64	1
1.98626e+64	1
1.38821e+64	1
5.39011e+64	1
1.24252e+65	1
1.68605e+64	1
1.1078e+64	1
1.00073e+64	1
1.18791e+64	1
3.58545e+64	1
5.24028e+64	1
2.00555e+65	1
1.3528e+65	1
2.60776e+65	1
1.35839e+65	1
4.57835e+65	1
3.39999e+65	1
1.63554e+66	1
1.74328e+65	1
2.24626e+65	1
5.8538e+64	1
4.71586e+64	1
7.65882e+64	1
2.88934e+64	1
1.17866e+64	1
6.04895e+64	1
2.03599e+65	1
1.29767e+65	1
6.57892e+64	1
3.68448e+65	1
1.13884e+65	1
3.9025e+64	1
4.51221e+64	1
8.04606e+63	1
4.60727e+63	1
1.63855e+64	1
6.3665e+63	1
6.36693e+63	1
1.20032e+64	1
1.28815e+64	1
2.59212e+63	1
4.5701e+63	1
4.57027e+63	1
1.23833e+64	1
4.61118e+64	1
1.27266e+64	1
3.69908e+63	1
9.84675e+63	1
6.76433e+63	1
2.91466e+64	1
1.02815e+65	1
5.07383e+64	1
5.0968e+64	1
4.13489e+64	1
6.58248e+64	1
7.61527e+64	1
8.21336e+64	1
1.00766e+65	1
3.53309e+64	1
2.37948e+64	1
2.3784e+64	1
9.53927e+64	1
1.01496e+65	1
2.41384e+64	1
3.09696e+63	1
4.63743e+63	1
3.45476e+63	1
4.33564e+63	1
6.83964e+63	1
5.85314e+63	1
4.58798e+63	1
3.79252e+63	1
3.18708e+63	1
8.77203e+63	1
1.02162e+64	1
2.07445e+64	1
3.80906e+64	1
4.00504e+64	1
1.23509e+64	1
2.84794e+63	1
8.0016e+63	1
1.10197e+64	1
4.35029e+64	1
4.07925e+64	1
1.05168e+65	1
1.15068e+64	1
5.66012e+63	1
1.53447e+63	1
2.07115e+63	1
4.79409e+63	1
1.35599e+63	1
2.07152e+63	1
2.841e+63	1
9.52703e+62	1
8.88412e+62	1
9.91378e+62	1
-1.23293e+63	-1
1.00458e+63	1
4.58584e+62	1
6.08422e+62	1
2.23142e+63	1
5.29081e+63	1
5.71635e+63	1
1.35584e+64	1
1.43448e+64	1
3.42123e+64	1
1.69602e+65	1
1.76928e+65	1
3.44566e+65	1
4.78236e+65	1
1.01981e+65	1
1.28762e+65	1
2.55474e+65	1
1.3769e+65	1
1.51418e+65	1
1.45117e+65	1
4.18106e+65	1
4.93012e+65	1
7.59762e+65	1
1.33729e+66	1
7.70911e+65	1
1.43709e+66	1
3.71629e+66	1
3.86058e+66	1
1.57161e+67	1
2.53794e+67	1
1.90742e+67	1
3.67627e+67	1
6.47657e+66	1
5.28371e+67	1
1.22961e+68	1
8.90411e+67	1
6.87967e+67	1
1.91314e+68	1
4.72788e+67	1
1.07471e+67	1
1.04709e+67	1
3.52843e+66	1
1.53168e+66	1
4.63956e+66	1
7.04007e+67	1
3.62441e+68	1
9.2726e+68	1
7.72142e+69	1
9.28595e+69	1
8.94043e+69	1
1.56345e+70	1
7.29182e+70	1
4.20134e+71	1
6.45879e+71	1
2.99982e+72	1
1.96435e+73	1
2.89723e+73	1
9.38264e+73	1
4.41805e+73	1
1.63751e+73	1
3.06174e+73	1
4.52412e+73	1
5.97017e+74	1
4.23024e+75	1
2.18486e+76	1
8.70186e+76	1
3.11773e+76	1
5.74533e+75	1
1.59865e+75	1
1.39696e+75	1
1.72975e+74	1
6.95448e+74	1
1.84705e+75	1
1.70139e+75	1
9.31359e+75	1
5.7841e+74	1
5.4704e+73	1
1.57781e+74	1
2.44705e+73	1
1.41048e+73	1
2.31673e+74	1
7.21445e+74	1
7.61091e+74	1
5.56107e+74	1
5.54205e+75	1
1.74845e+76	1
1.99998e+76	1
2.68621e+76	1
2.12615e+76	1
7.84534e+76	1
3.40668e+76	1
2.9843e+76	1
2.7497e+76	1
7.01749e+76	1
7.84536e+76	1
1.82946e+76	1
8.18249e+76	1
1.5971e+76	1
2.23563e+76	1
1.27144e+75	1
8.89064e+74	1
1.3188e+74	1
3.02303e+73	1
1.18793e+73	1
2.94349e+72	1
1.0553e+72	1
1.32082e+72	1
5.32678e+71	1
1.90232e+71	1
3.39673e+71	1
5.04463e+70	1
5.6354e+70	1
4.34762e+70	1
7.15741e+69	1
1.35972e+69	1
4.14185e+68	1
3.88703e+68	1
2.97751e+68	1
2.97751e+68	1
2.97751e+68	1
1.48158e+68	1
8.88215e+68	1
7.73145e+67	1
8.72196e+67	1
1.0843e+68	1
9.88564e+67	1
2.60385e+68	1
5.87041e+66	1
1.05486e+66	1
1.62448e+66	1
1.07034e+66	1
1.43197e+66	1
2.0084e+66	1
9.26971e+65	1
2.34494e+66	1
4.36247e+66	1
1.2606e+66	1
9.96383e+65	1
2.01636e+65	1
1.06184e+66	1
7.13464e+66	1
3.85064e+66	1
4.06706e+66	1
6.0639e+66	1
1.24194e+66	1
1.9648e+65	1
6.9934e+65	1
6.3884e+65	1
2.21372e+65	1
5.17906e+65	1
2.50011e+65	1
3.53982e+65	1
3.72916e+65	1
1.64898e+65	1
8.54018e+64	1
7.91363e+64	1
1.15513e+65	1
1.08099e+65	1
9.52796e+64	1
1.44774e+65	1
4.59619e+64	1
3.83493e+64	1
6.74433e+63	1
6.68579e+63	1
1.06948e+64	1
4.29866e+63	1
4.31667e+63	1
4.29866e+63	1
4.88637e+63	1
3.08747e+63	1
4.60424e+62	1
1.65911e+62	1
1.61037e+62	1
6.01752e+62	1
9.08757e+62	1
3.5486e+62	1
1.65305e+63	1
1.22891e+63	1
1.671e+63	1
8.00019e+62	1
1.04034e+63	1
7.92345e+62	1
6.86249e+62	1
8.57968e+62	1
1.94587e+62	1
8.10214e+62	1
7.40822e+62	1
8.55712e+61	1
1.41038e+62	1
4.22422e+61	1
2.28389e+62	1
1.67293e+62	1
7.14007e+61	1
2.29294e+62	1
4.72189e+62	1
2.50594e+62	1
8.41386e+61	1
1.01016e+62	1
1.22012e+62	1
3.56293e+62	1
9.73043e+62	1
3.6962e+63	1
5.07809e+63	1
1.09029e+63	1
9.99227e+62	1
3.93478e+62	1
3.23726e+62	1
1.25803e+62	1
8.35964e+61	1
3.08565e+62	1
4.72179e+61	1
3.75837e+61	1
2.5897e+61	1
1.79579e+62	1
1.79482e+62	1
6.93061e+61	1
1.44532e+62	1
2.46982e+62	1
6.52311e+61	1
3.7286e+61	1
1.15355e+61	1
5.65986e+60	1
5.42809e+60	1
1.70559e+61	1
2.90243e+61	1
1.31142e+62	1
1.61082e+62	1
1.61063e+62	1
7.27539e+61	1
1.60438e+62	1
4.08854e+62	1
1.35828e+63	1
9.6561e+62	1
1.67157e+63	1
1.49198e+63	1
7.99735e+62	1
1.89246e+62	1
1.25325e+62	1
2.3336e+62	1
1.40931e+62	1
9.14782e+62	1
1.09081e+63	1
1.55143e+63	1
2.86041e+63	1
1.80737e+63	1
6.80425e+62	1
4.02335e+62	1
5.10361e+62	1
2.41857e+62	1
2.89901e+62	1
1.46051e+63	1
4.4564e+62	1
4.28789e+62	1
3.22465e+62	1
9.1062e+62	1
2.532e+62	1
1.60713e+62	1
1.6364e+62	1
1.21753e+62	1
1.41777e+62	1
1.39022e+62	1
6.30037e+61	1
7.29931e+61	1
1.54705e+62	1
1.59151e+62	1
1.49529e+62	1
1.91303e+62	1
2.14078e+62	1
4.34481e+62	1
1.81872e+62	1
7.39765e+62	1
2.25565e+63	1
1.04074e+63	1
2.47266e+63	1
7.11269e+63	1
6.55477e+63	1
2.41024e+64	1
2.72582e+64	1
2.88984e+64	1
2.31339e+64	1
3.16011e+64	1
1.18582e+64	1
1.1858e+64	1
6.94631e+63	1
6.55744e+63	1
2.2331e+64	1
1.20515e+64	1
3.89113e+63	1
3.68035e+63	1
3.48543e+63	1
4.15764e+63	1
1.80362e+64	1
8.65427e+63	1
3.01887e+63	1
3.005e+63	1
7.44275e+63	1
6.01105e+63	1
1.01349e+64	1
2.91686e+63	1
1.34842e+64	1
9.80843e+63	1
5.98492e+63	1
9.01292e+63	1
2.78063e+63	1
3.31968e+62	1
3.57178e+62	1
5.91008e+62	1
2.38705e+63	1
1.96033e+63	1
4.42271e+63	1
9.86131e+63	1
4.22279e+64	1
2.15791e+64	1
1.7212e+64	1
7.4977e+63	1
2.56955e+63	1
2.44414e+63	1
1.8127e+63	1
1.52648e+64	1
1.88812e+64	1
2.98514e+64	1
1.45913e+64	1
6.8047e+64	1
7.76944e+64	1
3.85029e+64	1
3.33932e+64	1
1.78124e+64	1
1.24238e+64	1
1.44575e+63	1
2.24053e+63	1
7.92148e+63	1
3.09955e+63	1
2.6591e+63	1
9.70154e+62	1
1.05609e+63	1
1.29082e+63	1
1.62827e+63	1
3.03147e+63	1
1.30966e+63	1
4.65972e+63	1
4.94546e+63	1
8.72304e+62	1
2.87937e+63	1
2.20591e+63	1
2.13328e+63	1
1.3456e+63	1
3.5689e+63	1
2.82035e+63	1
1.95165e+63	1
2.07568e+63	1
3.46901e+63	1
3.62965e+63	1
1.22711e+64	1
2.28726e+64	1
4.60464e+63	1
8.61846e+63	1
6.24085e+63	1
5.17447e+63	1
5.98448e+63	1
1.25236e+63	1
2.5297e+63	1
2.35196e+64	1
4.10036e+64	1
1.39595e+64	1
2.09316e+64	1
1.69715e+64	1
7.02891e+64	1
7.31949e+64	1
7.02183e+64	1
2.77983e+64	1
7.21666e+63	1
3.05083e+63	1
8.53129e+62	1
1.05307e+63	1
2.86063e+62	1
4.48519e+62	1
4.55598e+62	1
2.30681e+62	1
4.79854e+62	1
4.81667e+62	1
1.27759e+62	1
2.46269e+61	1
1.83041e+61	1
1.48567e+61	1
3.26613e+61	1
2.39275e+61	1
2.66956e+61	1
9.54455e+61	1
1.21835e+62	1
3.37147e+62	1
4.50453e+62	1
8.37079e+62	1
1.26044e+62	1
5.03045e+61	1
1.57522e+62	1
4.29628e+62	1
7.79554e+62	1
2.51782e+62	1
6.44117e+62	1
7.34201e+61	1
1.06873e+62	1
5.63413e+61	1
5.50847e+61	1
7.98898e+61	1
6.67932e+62	1
1.84153e+62	1
2.03542e+62	1
1.3734e+62	1
1.27682e+62	1
9.50484e+61	1
1.91155e+61	1
1.92522e+61	1
1.01163e+61	1
2.10079e+61	1
1.02318e+62	1
1.74025e+61	1
4.75218e+61	1
4.16265e+62	1
6.1901e+61	1
8.07216e+61	1
3.29455e+61	1
2.44194e+61	1
8.40687e+61	1
1.3159e+62	1
2.87306e+61	1
2.69161e+61	1
8.71743e+61	1
1.95246e+62	1
6.36194e+61	1
4.83205e+61	1
1.33283e+61	1
2.36146e+61	1
2.62603e+61	1
2.20269e+61	1
5.57381e+61	1
6.32731e+61	1
8.17964e+61	1
4.4512e+62	1
2.66317e+62	1
1.30599e+62	1
2.10832e+62	1
1.11637e+63	1
4.97869e+62	1
1.12963e+63	1
4.88778e+62	1
1.62308e+62	1
7.16221e+61	1
3.03516e+61	1
6.916e+61	1
1.4976e+62	1
1.46194e+62	1
3.2707e+62	1
9.51016e+62	1
1.14393e+63	1
3.82391e+62	1
2.29241e+63	1
1.29237e+63	1
1.95912e+63	1
1.32341e+63	1
5.57073e+62	1
1.79154e+62	1
7.88228e+61	1
1.56413e+62	1
2.49428e+62	1
1.30583e+62	1
9.01913e+61	1
4.1541e+61	1
2.7753e+61	1
3.92816e+61	1
3.72248e+61	1
1.53203e+62	1
3.59585e+62	1
2.72037e+62	1
1.56554e+63	1
4.64926e+62	1
8.21673e+62	1
5.50651e+62	1
1.82035e+63	1
3.55991e+63	1
9.03536e+62	1
3.17869e+62	1
6.82509e+62	1
5.93951e+62	1
8.26788e+61	1
2.64688e+61	1
4.63513e+61	1
3.71774e+61	1
1.77094e+62	1
1.6312e+62	1
6.91541e+61	1
1.67064e+62	1
5.79743e+62	1
5.82312e+62	1
3.92482e+63	1
2.47199e+63	1
1.41729e+63	1
8.39502e+63	1
8.8293e+63	1
2.10624e+63	1
5.01206e+63	1
3.62613e+63	1
1.80625e+63	1
7.73805e+62	1
7.74806e+62	1
9.2964e+62	1
2.72062e+63	1
5.00072e+62	1
6.15602e+62	1
1.20042e+63	1
3.22565e+63	1
1.97744e+63	1
1.84582e+63	1
6.77888e+62	1
2.67279e+62	1
3.5229e+62	1
2.79222e+62	1
7.69515e+62	1
1.62749e+63	1
4.2484e+62	1
4.23983e+62	1
1.78619e+62	1
2.72696e+62	1
7.18604e+62	1
1.93364e+63	1
7.86935e+62	1
1.54448e+63	1
4.7943e+62	1
2.89093e+63	1
1.38543e+63	1
1.76519e+63	1
2.03466e+63	1
1.03154e+63	1
2.18946e+63	1
7.01464e+63	1
2.4066e+64	1
4.06265e+64	1
7.78705e+63	1
4.30967e+64	1
5.62468e+64	1
5.32119e+64	1
7.89979e+64	1
1.63285e+65	1
4.07266e+64	1
4.06991e+64	1
3.10118e+64	1
4.17144e+64	1
7.46227e+64	1
5.95732e+64	1
1.12776e+64	1
1.68416e+64	1
1.40389e+64	1
1.39957e+64	1
1.33155e+64	1
1.29915e+64	1
6.86244e+63	1
5.87646e+63	1
5.87541e+63	1
9.20435e+63	1
3.36501e+63	1
8.16111e+62	1
4.9736e+62	1
6.03416e+62	1
9.4405e+62	1
5.3757e+63	1
1.8848e+64	1
8.92321e+63	1
5.86142e+63	1
5.86173e+63	1
3.87233e+63	1
3.85578e+64	1
5.28129e+64	1
1.07733e+65	1
1.54539e+64	1
4.03973e+63	1
1.80806e+64	1
9.70048e+63	1
1.38631e+64	1
2.11117e+64	1
1.03934e+64	1
2.98038e+63	1
5.23864e+63	1
4.89134e+63	1
1.19307e+64	1
1.71891e+64	1
3.18338e+64	1
1.15055e+64	1
6.09776e+63	1
9.48834e+63	1
1.84021e+64	1
1.64569e+64	1
1.53223e+64	1
4.07266e+63	1
4.23643e+63	1
1.40126e+63	1
1.35185e+63	1
3.72686e+62	1
3.3178e+62	1
7.17327e+62	1
1.76942e+63	1
3.77529e+63	1
5.0096e+63	1
2.05531e+63	1
6.87053e+62	1
1.06297e+63	1
1.91914e+63	1
4.23237e+63	1
2.46531e+63	1
4.06802e+63	1
1.34309e+64	1
8.87737e+63	1
1.14475e+64	1
7.7139e+64	1
3.38327e+64	1
3.54576e+64	1
2.36632e+65	1
6.37945e+64	1
1.01483e+65	1
1.55685e+65	1
1.52369e+65	1
3.80915e+65	1
1.25233e+66	1
6.06709e+65	1
1.84242e+66	1
2.11522e+66	1
5.4707e+65	1
7.42727e+65	1
2.41756e+65	1
7.31525e+64	1
7.21542e+64	1
6.6938e+64	1
5.28777e+64	1
1.12931e+65	1
3.49013e+64	1
3.06079e+64	1
4.94003e+64	1
9.49467e+64	1
4.20823e+64	1
5.76683e+64	1
2.77884e+64	1
1.01278e+65	1
5.57738e+64	1
7.6108e+64	1
5.75285e+64	1
1.75971e+64	1
2.11831e+64	1
4.59117e+64	1
3.9497e+64	1
1.04769e+65	1
1.09144e+65	1
2.57751e+64	1
3.17454e+64	1
2.47687e+64	1
7.37667e+64	1
1.91103e+65	1
3.69073e+65	1
1.2565e+65	1
1.31385e+65	1
1.5681e+65	1
2.30113e+65	1
2.40524e+65	1
9.52786e+64	1
1.39663e+65	1
2.41316e+65	1
1.3861e+65	1
3.66521e+65	1
3.4654e+66	1
7.49904e+65	1
1.62189e+65	1
9.84776e+64	1
2.22403e+65	1
5.68765e+64	1
6.03063e+64	1
2.66256e+64	1
1.28249e+65	1
1.00729e+65	1
3.08566e+64	1
1.91805e+64	1
1.75225e+64	1
2.09088e+64	1
8.39249e+64	1
2.64866e+65	1
2.99808e+65	1
2.6071e+65	1
2.72371e+65	1
5.6093e+65	1
2.54889e+65	1
1.57955e+65	1
4.42841e+65	1
4.42979e+65	1
2.28415e+66	1
2.04335e+66	1
8.09528e+65	1
1.93243e+66	1
1.58443e+66	1
2.12479e+66	1
2.06396e+66	1
7.61836e+65	1
1.10298e+66	1
7.3414e+65	1
1.01481e+66	1
1.40392e+65	1
2.8154e+65	1
1.89418e+65	1
6.0662e+65	1
1.07245e+66	1
4.0361e+65	1
4.161e+65	1
1.95783e+65	1
4.34225e+64	1
7.15615e+64	1
4.02362e+64	1
1.01892e+64	1
3.6699e+64	1
2.33201e+64	1
1.25633e+65	1
3.86639e+64	1
7.05787e+63	1
2.28525e+64	1
1.47317e+64	1
1.48685e+64	1
7.59718e+63	1
2.56475e+63	1
8.48367e+62	1
7.1224e+62	1
4.12181e+62	1
2.68906e+62	1
8.63575e+61	1
7.36333e+61	1
5.03339e+62	1
1.45452e+63	1
5.60633e+63	1
1.49265e+63	1
1.98388e+63	1
1.6884e+63	1
1.68848e+63	1
7.63556e+62	1
2.79525e+62	1
1.96921e+62	1
5.50065e+61	1
3.29735e+62	1
2.15321e+62	1
1.99942e+62	1
8.34493e+61	1
8.16106e+61	1
2.31928e+61	1
6.22869e+60	1
9.34362e+60	1
1.10497e+61	1
3.7219e+61	1
2.69089e+60	1
2.4256e+60	1
1.02382e+60	1
1.0238e+60	1
2.26038e+60	1
1.82537e+60	1
1.4593e+60	1
7.79611e+60	1
2.84927e+60	1
5.25535e+60	1
6.02564e+60	1
2.3004e+61	1
1.20077e+61	1
3.05688e+61	1
3.37932e+61	1
2.32542e+61	1
9.89498e+60	1
5.47206e+60	1
2.03253e+61	1
6.03754e+60	1
1.49334e+61	1
1.3981e+61	1
2.05704e+61	1
3.12026e+61	1
1.79573e+61	1
6.20922e+61	1
2.15708e+61	1
2.46776e+61	1
1.68339e+61	1
5.26693e+60	1
8.02829e+60	1
3.96669e+61	1
1.13988e+62	1
8.30641e+61	1
8.30466e+61	1
2.40589e+62	1
2.41103e+62	1
2.41218e+62	1
6.78134e+62	1
1.26338e+62	1
1.99052e+62	1
1.93956e+62	1
1.04279e+62	1
1.87598e+61	1
1.45549e+61	1
6.57085e+60	1
2.89196e+60	1
5.10834e+60	1
5.86334e+60	1
1.53497e+61	1
6.46345e+61	1
2.83794e+61	1
4.82416e+61	1
4.94069e+61	1
7.87254e+61	1
2.19376e+61	1
1.20641e+61	1
2.12444e+61	1
2.34321e+61	1
